~o
<STREAMINFO> 1 39
<VECSIZE> 39<NULLD><MFCC_D_A_0><DIAGC>
~s "silst"
<NUMMIXES> 8
<MIXTURE> 1 7.005308e-03
<MEAN> 39
 -9.156908e+00 6.596385e-01 3.269442e+00 1.323996e+00 6.963366e+00 1.689311e+00 2.582929e+00 1.752002e+00 1.886243e+00 1.448842e+00 3.422860e+00 3.179567e+00 6.306794e+01 -4.470560e-01 9.860809e-01 8.559212e-01 1.098381e+00 9.135721e-01 1.629761e+00 1.582058e+00 1.520771e+00 1.391264e+00 1.396162e+00 1.118749e+00 8.439045e-01 -3.241842e-01 3.867520e-01 2.640783e-01 2.451721e-01 2.472380e-01 2.891304e-01 2.007515e-01 2.471757e-01 3.019529e-01 3.105921e-01 2.858888e-01 2.833137e-01 2.659531e-01 5.809322e-01
<VARIANCE> 39
 3.285404e+01 3.575304e+01 3.347824e+01 4.135445e+01 4.770411e+01 3.802109e+01 4.427357e+01 5.537110e+01 4.333241e+01 3.617712e+01 3.315971e+01 3.104309e+01 7.254879e+01 2.339006e+00 3.645212e+00 3.204654e+00 3.459724e+00 3.535871e+00 3.464580e+00 3.301805e+00 4.009079e+00 3.468660e+00 3.277977e+00 3.097906e+00 2.592982e+00 2.905045e+00 4.108719e-01 4.100294e-01 4.212169e-01 4.170960e-01 4.267296e-01 5.274725e-01 5.429812e-01 5.957458e-01 5.120350e-01 4.513106e-01 4.181218e-01 3.728121e-01 4.346614e-01
<GCONST> 1.247866e+02
<MIXTURE> 2 1.887493e-01
<MEAN> 39
 -1.247083e+01 -2.863742e+00 1.015357e+00 -4.497018e-01 5.689502e+00 3.079411e-01 1.530146e+00 7.254498e-01 1.092707e+00 9.581560e-01 2.767004e+00 1.350871e+00 6.067802e+01 3.748107e-01 1.734328e-01 -2.230586e-03 1.886313e-01 1.822469e-01 7.453585e-02 7.826488e-02 1.409198e-01 9.753241e-02 1.874444e-01 2.743328e-01 2.712030e-01 3.474020e-01 1.274002e-01 9.075968e-02 1.589092e-01 1.049132e-01 1.224932e-01 9.194437e-02 1.286778e-01 1.141515e-01 9.320863e-02 7.739687e-02 8.702084e-02 9.605829e-02 1.784893e-01
<VARIANCE> 39
 4.501643e+01 4.544038e+01 3.281754e+01 3.649242e+01 3.248009e+01 3.291352e+01 3.612444e+01 4.010104e+01 3.148137e+01 2.705305e+01 2.154820e+01 2.171418e+01 6.727249e+01 2.138377e+00 3.274711e+00 2.473382e+00 2.325722e+00 2.233745e+00 2.208159e+00 2.232325e+00 2.338985e+00 2.147515e+00 1.903747e+00 1.745621e+00 1.648928e+00 2.295210e+00 3.565554e-01 4.534012e-01 3.629268e-01 3.597497e-01 3.547694e-01 3.953358e-01 4.208366e-01 4.296817e-01 4.008187e-01 3.493321e-01 2.971191e-01 2.772558e-01 3.199916e-01
<GCONST> 1.148519e+02
<MIXTURE> 3 1.324750e-01
<MEAN> 39
 -1.398458e+01 -4.380053e+00 -8.684312e-01 -1.561836e+00 4.935369e+00 -1.932573e+00 -2.651571e+00 -3.483614e+00 -2.622985e+00 -1.976312e+00 5.003311e-01 -5.976259e-01 5.765811e+01 6.773474e-01 -4.759296e-01 -6.952394e-01 -3.557552e-01 -1.188275e-01 -9.379442e-01 -1.204485e+00 -9.557595e-01 -8.303472e-01 -6.910541e-01 -3.729808e-01 -2.162766e-01 4.891234e-01 -7.792569e-02 -1.891317e-01 -8.961425e-02 -1.499018e-01 -1.220540e-01 -1.634152e-01 -5.728439e-03 2.419565e-02 3.466107e-03 -2.622783e-02 6.155606e-03 -3.634218e-02 2.557692e-03
<VARIANCE> 39
 2.398956e+01 3.083413e+01 3.035195e+01 3.411645e+01 4.007182e+01 4.020697e+01 5.928335e+01 6.136660e+01 5.031337e+01 3.619460e+01 2.763773e+01 2.386722e+01 3.522550e+01 2.606808e+00 3.949861e+00 3.248572e+00 3.705221e+00 4.024596e+00 3.826542e+00 4.385436e+00 4.622820e+00 4.225864e+00 3.443467e+00 3.137742e+00 2.973528e+00 3.306540e+00 2.732317e-01 3.271868e-01 3.496992e-01 3.403646e-01 3.946104e-01 4.623225e-01 6.553484e-01 6.395828e-01 5.721048e-01 4.616047e-01 3.769213e-01 3.145816e-01 2.456583e-01
<GCONST> 1.230595e+02
<MIXTURE> 4 1.548256e-01
<MEAN> 39
 -1.340650e+01 -3.697522e+00 2.527794e+00 -7.374095e-01 5.796068e+00 2.536708e-01 2.225531e+00 9.051498e-01 1.397243e+00 8.899193e-01 2.744736e+00 1.464085e+00 6.183091e+01 -2.927706e-01 2.344966e-01 2.669655e-01 2.943979e-01 2.945600e-01 5.235860e-01 5.670498e-01 5.264501e-01 5.019554e-01 5.168638e-01 4.063438e-01 3.030413e-01 -1.028133e-01 3.253704e-01 2.368046e-01 -1.622906e-02 1.288898e-01 7.049622e-02 3.591713e-03 -8.473976e-02 -2.023105e-02 -3.652084e-02 2.519500e-03 3.574171e-02 8.668341e-02 1.385677e-01
<VARIANCE> 39
 5.568506e+01 5.760102e+01 6.037849e+01 6.106227e+01 5.569329e+01 5.548089e+01 5.221986e+01 5.648478e+01 4.439703e+01 3.990301e+01 3.652484e+01 3.460082e+01 7.514977e+01 2.709729e+00 3.685361e+00 3.272623e+00 2.992489e+00 2.765615e+00 2.723788e+00 2.718897e+00 2.837273e+00 2.608451e+00 2.266517e+00 2.088007e+00 1.975121e+00 3.425174e+00 7.003476e-01 9.441007e-01 8.343259e-01 8.661575e-01 7.747611e-01 8.761152e-01 8.093364e-01 8.233257e-01 7.138957e-01 6.660330e-01 5.886632e-01 5.303740e-01 8.765711e-01
<GCONST> 1.324284e+02
<MIXTURE> 5 2.385354e-01
<MEAN> 39
 -1.416300e+01 -5.375654e+00 -1.349046e+00 -2.896829e+00 3.563500e+00 -2.356828e+00 -1.230771e+00 -1.937998e+00 -1.398080e+00 -1.318506e+00 1.077591e+00 -1.717547e-01 5.863802e+01 5.160251e-02 -5.321664e-01 -6.424019e-01 -4.904494e-01 -4.523187e-01 -6.676882e-01 -6.597773e-01 -5.853897e-01 -5.887765e-01 -4.585671e-01 -3.051561e-01 -2.599854e-01 -4.410236e-02 -1.038547e-01 -1.025431e-01 -2.659877e-02 -8.011579e-02 -7.159636e-02 -1.093574e-01 -1.091680e-01 -1.333346e-01 -1.413082e-01 -1.351715e-01 -1.202904e-01 -1.174207e-01 -7.477818e-02
<VARIANCE> 39
 4.660013e+01 4.594242e+01 3.870983e+01 3.781049e+01 3.525281e+01 4.008315e+01 4.540792e+01 4.889032e+01 3.986076e+01 3.184301e+01 2.512882e+01 2.246388e+01 5.810099e+01 2.050914e+00 2.841138e+00 2.321515e+00 2.154559e+00 2.064124e+00 2.150546e+00 2.230128e+00 2.355059e+00 2.162369e+00 1.904171e+00 1.725366e+00 1.607422e+00 1.919295e+00 3.609701e-01 4.146454e-01 3.735051e-01 3.582140e-01 3.601859e-01 4.191223e-01 4.667708e-01 4.591917e-01 4.357445e-01 3.759553e-01 3.149547e-01 2.883759e-01 2.763942e-01
<GCONST> 1.159112e+02
<MIXTURE> 6 1.333022e-01
<MEAN> 39
 -1.522389e+01 -6.315771e+00 -5.534568e-01 -3.314209e+00 3.394838e+00 -2.953005e+00 -1.102897e+00 -2.062152e+00 -1.211944e+00 -1.615576e+00 5.344626e-01 -6.913606e-01 5.926725e+01 -5.557063e-01 -5.802363e-01 -4.227777e-01 -4.820013e-01 -3.728534e-01 -3.484746e-01 -2.513224e-01 -3.531947e-01 -2.859041e-01 -2.455289e-01 -2.526802e-01 -2.836424e-01 -3.245918e-01 -3.233234e-02 -7.149302e-02 -2.242091e-01 -1.289002e-01 -1.761232e-01 -1.954586e-01 -2.773876e-01 -2.630681e-01 -2.687508e-01 -2.073177e-01 -1.922627e-01 -1.605879e-01 -2.520908e-01
<VARIANCE> 39
 6.198602e+01 5.738963e+01 6.088186e+01 6.672383e+01 6.046297e+01 7.168713e+01 7.482630e+01 7.056158e+01 5.658848e+01 4.811003e+01 4.596650e+01 4.130836e+01 6.913669e+01 3.009932e+00 3.911275e+00 3.434602e+00 3.394573e+00 3.106861e+00 3.380726e+00 3.256851e+00 3.296357e+00 2.986243e+00 2.567286e+00 2.420852e+00 2.363453e+00 4.555173e+00 8.328450e-01 9.850029e-01 8.833205e-01 9.770282e-01 8.822973e-01 1.054021e+00 1.068282e+00 9.918696e-01 8.692231e-01 7.918889e-01 7.143639e-01 6.531554e-01 1.060108e+00
<GCONST> 1.383109e+02
<MIXTURE> 7 1.357773e-02
<MEAN> 39
 -1.724389e+01 -6.354574e+00 -2.282351e+00 -4.033910e+00 2.411339e+00 -3.686389e+00 -4.264007e+00 -5.726572e+00 -4.819789e+00 -3.735264e+00 -8.724226e-01 -1.920776e+00 5.459220e+01 3.984331e-01 -8.194833e-01 -1.267406e+00 -1.026906e+00 -9.551207e-01 -1.716979e+00 -2.218625e+00 -1.942786e+00 -1.719762e+00 -1.564313e+00 -1.176190e+00 -7.557434e-01 -1.839738e-01 -1.586093e-01 -4.049516e-01 -4.122658e-01 -3.467747e-01 -3.377717e-01 -4.662998e-01 -4.056482e-01 -2.970902e-01 -2.807253e-01 -2.920051e-01 -2.475250e-01 -2.343595e-01 -1.847832e-01
<VARIANCE> 39
 1.892546e+01 2.653954e+01 2.522203e+01 2.986019e+01 3.537345e+01 3.387808e+01 4.701809e+01 5.020137e+01 4.250888e+01 3.251849e+01 2.899414e+01 2.011048e+01 3.137113e+01 1.784597e+00 3.111140e+00 2.569768e+00 3.084044e+00 3.816975e+00 3.171164e+00 3.416092e+00 4.035933e+00 3.882565e+00 3.018752e+00 2.921983e+00 2.705790e+00 1.976859e+00 2.600640e-01 3.033915e-01 3.197119e-01 3.150382e-01 3.900196e-01 4.349521e-01 6.028354e-01 6.183138e-01 5.659856e-01 4.671665e-01 4.100824e-01 3.116454e-01 1.948420e-01
<GCONST> 1.179146e+02
<MIXTURE> 8 1.314670e-01
<MEAN> 39
 -1.099348e+01 -1.403943e+00 8.360811e-01 -5.728251e-01 4.635500e+00 -1.431994e+00 -1.719608e+00 -2.517129e+00 -1.871600e+00 -1.409924e+00 1.003869e+00 8.944182e-01 5.974643e+01 -1.017564e+00 3.360237e-01 3.176324e-01 3.033259e-01 5.694821e-02 7.865407e-01 8.636474e-01 6.904616e-01 6.282201e-01 6.078768e-01 4.257176e-01 3.050891e-01 -8.764625e-01 7.117222e-02 -8.919715e-02 4.533216e-02 -4.021899e-03 1.041665e-01 8.375955e-03 1.333996e-01 1.846719e-01 1.831758e-01 1.258202e-01 1.053160e-01 4.746069e-02 3.097799e-01
<VARIANCE> 39
 3.144388e+01 3.472426e+01 3.454753e+01 4.722264e+01 5.965759e+01 5.046330e+01 5.915319e+01 7.025414e+01 5.676795e+01 4.298440e+01 4.262350e+01 4.285014e+01 5.060394e+01 2.453252e+00 3.839097e+00 3.837649e+00 3.883978e+00 4.231454e+00 4.029203e+00 4.279147e+00 4.950559e+00 4.260705e+00 3.630457e+00 3.407429e+00 3.224434e+00 3.268727e+00 4.165885e-01 4.101804e-01 4.444117e-01 4.538795e-01 4.986231e-01 5.562812e-01 6.202655e-01 6.832857e-01 6.153378e-01 5.178933e-01 4.965316e-01 4.865591e-01 4.111506e-01
<GCONST> 1.298383e+02
~h "<"
<BEGINHMM>
<NUMSTATES> 5
<STATE> 2
<NUMMIXES> 8
<MIXTURE> 1 9.920660e-03
<MEAN> 39
 -1.221875e+01 1.175632e+00 1.018242e+00 4.479249e-01 4.828896e+00 1.719257e+00 2.397203e+00 1.969579e+00 1.969479e+00 2.463393e+00 3.569978e+00 1.672101e+00 5.910550e+01 9.510807e-02 4.804114e-01 7.065254e-01 7.134734e-01 7.428482e-01 8.936690e-01 9.241830e-01 9.475964e-01 8.967350e-01 7.902119e-01 6.148639e-01 4.667449e-01 1.403176e-01 1.503078e-01 9.864133e-02 1.441429e-01 2.295447e-01 1.913459e-01 1.213695e-01 1.032036e-01 9.919780e-02 8.607676e-02 9.667383e-02 1.095647e-01 1.400426e-01 1.320001e-01
<VARIANCE> 39
 1.875180e+01 1.658220e+01 2.010980e+01 2.417432e+01 2.097374e+01 1.743197e+01 2.063283e+01 1.975296e+01 1.784133e+01 1.544752e+01 1.482461e+01 1.464924e+01 2.229342e+01 6.169420e-01 7.185574e-01 1.172708e+00 1.130209e+00 1.139602e+00 1.101818e+00 1.242116e+00 1.182438e+00 1.243467e+00 1.169413e+00 1.137767e+00 1.127650e+00 3.413728e-01 2.449947e-01 2.602371e-01 3.451154e-01 3.216527e-01 3.084846e-01 3.159877e-01 3.499677e-01 3.378463e-01 3.304122e-01 3.062052e-01 2.946889e-01 2.721479e-01 1.584194e-01
<GCONST> 9.317740e+01
<MIXTURE> 2 1.503536e-01
<MEAN> 39
 -9.559257e+00 -3.146569e+00 1.253913e+00 -4.108898e-01 5.773583e+00 -3.222209e+00 -8.451824e-01 -2.412046e+00 -2.687038e+00 -6.415484e-01 1.795379e+00 -4.511525e-01 6.519813e+01 -7.035590e-02 2.317081e-01 3.089178e-01 2.607100e-01 2.241522e-01 4.600168e-01 3.736873e-01 3.284563e-01 3.578885e-01 2.642418e-01 2.053823e-01 1.753641e-01 -5.743929e-02 -6.420797e-03 5.046234e-02 8.536620e-02 7.514211e-02 6.896761e-02 1.280980e-01 1.266922e-01 1.238857e-01 1.275841e-01 1.034566e-01 9.243159e-02 7.971828e-02 8.515469e-03
<VARIANCE> 39
 5.810427e+01 5.147285e+01 6.195873e+01 4.706709e+01 4.623422e+01 6.195387e+01 6.049876e+01 5.289452e+01 4.976532e+01 4.109546e+01 3.844855e+01 3.695297e+01 8.211260e+01 8.069296e-01 9.749734e-01 1.280890e+00 1.172578e+00 1.203022e+00 1.731284e+00 1.559491e+00 1.475168e+00 1.490367e+00 1.337616e+00 1.308266e+00 1.162913e+00 7.858207e-01 8.176044e-02 1.031970e-01 1.462281e-01 1.458489e-01 1.623154e-01 2.211784e-01 2.163291e-01 2.124149e-01 2.156382e-01 1.985379e-01 1.917362e-01 1.712714e-01 5.676750e-02
<GCONST> 1.011162e+02
<MIXTURE> 3 1.909678e-01
<MEAN> 39
 -1.406035e+01 -5.328982e-01 1.972102e-02 3.500395e-01 4.179265e+00 8.801573e-01 1.626897e+00 1.056660e+00 7.618061e-01 1.494560e+00 2.366370e+00 4.170510e-01 5.618744e+01 3.905310e-02 7.336523e-02 1.371236e-01 1.099627e-01 1.231624e-01 1.119030e-01 8.949557e-02 1.127583e-01 1.110914e-01 1.158278e-01 1.074432e-01 9.415683e-02 9.783762e-02 5.440225e-02 1.278369e-02 6.043708e-02 4.210090e-02 5.819088e-02 1.021709e-02 1.365542e-02 1.752724e-02 1.703316e-02 2.558442e-02 4.418788e-02 5.024848e-02 9.372061e-02
<VARIANCE> 39
 1.003590e+01 1.634240e+01 1.367525e+01 1.612023e+01 1.564869e+01 1.337489e+01 1.633761e+01 1.737032e+01 1.634234e+01 1.421026e+01 1.296135e+01 1.267526e+01 1.826494e+01 3.274899e-01 7.699444e-01 7.619671e-01 8.721175e-01 9.805455e-01 1.020047e+00 1.140450e+00 1.191552e+00 1.214911e+00 1.169464e+00 1.132723e+00 1.077609e+00 3.050151e-01 4.694241e-02 1.149628e-01 1.127815e-01 1.380022e-01 1.605602e-01 1.860136e-01 2.124044e-01 2.273337e-01 2.308618e-01 2.204801e-01 2.068359e-01 1.910077e-01 4.436438e-02
<GCONST> 7.925193e+01
<MIXTURE> 4 2.022424e-01
<MEAN> 39
 -9.559834e+00 -6.061995e+00 -2.852359e+00 -3.111018e+00 3.423702e+00 -7.882772e+00 -3.548237e+00 -4.122109e+00 -5.369498e+00 -2.292184e+00 8.835843e-01 -2.116783e+00 6.361411e+01 -7.822674e-02 -8.063940e-02 -6.457708e-02 -5.959935e-02 -5.495696e-02 -1.117106e-01 -1.163505e-01 -1.076684e-01 -1.045359e-01 -8.661514e-02 -8.638288e-02 -1.005451e-01 -9.306915e-02 -2.983863e-02 -2.208457e-02 -1.065532e-02 -2.155451e-02 -1.233077e-02 -3.127567e-02 -3.414688e-02 -4.187777e-02 -4.203358e-02 -4.842331e-02 -4.531690e-02 -4.484436e-02 -2.922113e-02
<VARIANCE> 39
 4.523862e+01 4.718179e+01 4.504628e+01 4.709357e+01 5.074696e+01 7.836951e+01 6.572659e+01 5.751718e+01 5.828474e+01 5.276781e+01 4.360569e+01 4.446230e+01 1.021021e+02 8.489522e-02 1.956161e-01 3.249755e-01 4.336369e-01 5.159492e-01 6.285111e-01 7.156791e-01 7.315807e-01 7.444980e-01 7.422487e-01 6.947623e-01 6.424844e-01 7.087629e-02 1.069870e-02 2.564831e-02 4.155492e-02 5.736310e-02 7.212242e-02 9.242110e-02 1.032224e-01 1.091963e-01 1.139508e-01 1.144269e-01 1.087719e-01 9.982011e-02 7.209004e-03
<GCONST> 7.434727e+01
<MIXTURE> 5 1.611094e-01
<MEAN> 39
 -1.500962e+01 -2.851353e+00 -1.519460e+00 -1.249943e+00 3.011494e+00 -7.149678e-01 -1.493220e-01 -8.715053e-01 -1.150697e+00 -7.768512e-02 1.020532e+00 -9.640935e-01 5.510191e+01 -9.915853e-02 -2.589917e-01 -1.906744e-01 -2.554978e-01 -2.427741e-01 -3.695095e-01 -4.332421e-01 -4.153672e-01 -4.208247e-01 -3.852312e-01 -3.488540e-01 -3.156917e-01 -3.166114e-02 -1.846591e-02 -9.522963e-02 -5.658895e-02 -9.566250e-02 -8.191379e-02 -1.485462e-01 -1.365166e-01 -1.360433e-01 -1.410483e-01 -1.265222e-01 -1.073072e-01 -1.051730e-01 2.308531e-02
<VARIANCE> 39
 1.277414e+01 2.402022e+01 1.827447e+01 1.938831e+01 1.823941e+01 1.752930e+01 2.233055e+01 2.315745e+01 2.263413e+01 1.853206e+01 1.655637e+01 1.558903e+01 2.141437e+01 4.741424e-01 9.777089e-01 9.012741e-01 1.027279e+00 1.119069e+00 1.233074e+00 1.431918e+00 1.431375e+00 1.430853e+00 1.311980e+00 1.262132e+00 1.188098e+00 4.525611e-01 6.675245e-02 1.463481e-01 1.438732e-01 1.731854e-01 1.956975e-01 2.281274e-01 2.668169e-01 2.752117e-01 2.786572e-01 2.568876e-01 2.403382e-01 2.167856e-01 6.662609e-02
<GCONST> 8.804049e+01
<MIXTURE> 6 1.558234e-01
<MEAN> 39
 -1.104594e+01 -5.546696e+00 -1.646577e+00 -2.619156e+00 3.749036e+00 -7.223526e+00 -4.032449e+00 -4.935525e+00 -5.490648e+00 -3.140812e+00 -4.658161e-01 -3.098142e+00 6.295555e+01 -1.287273e-01 -8.374928e-02 -9.201850e-02 -1.232019e-01 -1.385861e-01 -1.252958e-01 -1.494388e-01 -1.660000e-01 -1.445616e-01 -1.681215e-01 -1.684970e-01 -1.609111e-01 -1.221217e-01 -5.262168e-02 -3.856289e-02 -2.275799e-02 -5.268748e-02 -4.903173e-02 -3.380198e-02 -2.954330e-02 -4.528696e-02 -4.112421e-02 -5.457732e-02 -5.485900e-02 -5.080935e-02 -2.891410e-02
<VARIANCE> 39
 5.437461e+01 4.739764e+01 6.340607e+01 5.013974e+01 5.008311e+01 7.157721e+01 6.483369e+01 5.578470e+01 5.476132e+01 4.613165e+01 4.273569e+01 4.212399e+01 8.413148e+01 4.803936e-01 6.579362e-01 9.848362e-01 9.669340e-01 1.000911e+00 1.425197e+00 1.304344e+00 1.225936e+00 1.247321e+00 1.139540e+00 1.138747e+00 1.025966e+00 3.834434e-01 5.099086e-02 7.543083e-02 1.138039e-01 1.170806e-01 1.293137e-01 1.852866e-01 1.737619e-01 1.688984e-01 1.719946e-01 1.595122e-01 1.560947e-01 1.409288e-01 3.734162e-02
<GCONST> 9.506981e+01
<MIXTURE> 7 1.208574e-01
<MEAN> 39
 -1.416677e+01 4.998181e-01 -2.762477e-01 1.496341e-01 3.022190e+00 6.282372e-01 1.076101e+00 7.087348e-01 5.508724e-01 1.094212e+00 2.193387e+00 5.805228e-01 5.552164e+01 -9.548508e-03 8.509896e-02 1.283341e-01 1.375883e-01 1.553945e-01 2.641430e-01 2.856451e-01 3.226827e-01 3.200309e-01 2.756870e-01 1.971332e-01 1.249837e-01 2.907667e-02 3.260807e-02 -3.954145e-07 3.451451e-02 4.135829e-02 5.581685e-02 3.842314e-02 2.267285e-02 2.418839e-02 2.092914e-02 2.141199e-02 2.050482e-02 2.199159e-02 5.334547e-02
<VARIANCE> 39
 8.171054e+00 7.946144e+00 9.804040e+00 1.264236e+01 1.112868e+01 9.439042e+00 1.122821e+01 1.169674e+01 1.117570e+01 9.840106e+00 9.137267e+00 9.117064e+00 1.350769e+01 1.395901e-01 2.425856e-01 3.949001e-01 5.087608e-01 5.975307e-01 6.687034e-01 7.542082e-01 8.049861e-01 8.309945e-01 8.308562e-01 8.143615e-01 8.072211e-01 6.830812e-02 3.449928e-02 6.350426e-02 9.310896e-02 1.222629e-01 1.436086e-01 1.601089e-01 1.807813e-01 1.898189e-01 1.926785e-01 1.912228e-01 1.838157e-01 1.747949e-01 2.029625e-02
<GCONST> 6.366799e+01
<MIXTURE> 8 8.637778e-03
<MEAN> 39
 -1.424643e+01 -9.703454e+00 -5.650342e+00 -5.613990e+00 1.451427e+00 -8.114006e+00 -4.525314e+00 -5.475492e+00 -6.008698e+00 -3.246670e+00 6.196240e-01 -2.288605e+00 5.765520e+01 -2.631144e-01 -3.280839e-01 -3.968190e-01 -4.262945e-01 -4.511917e-01 -5.881147e-01 -6.126775e-01 -6.008078e-01 -5.961869e-01 -5.613065e-01 -5.127525e-01 -4.699571e-01 -2.558069e-01 -9.532549e-02 -1.048636e-01 -1.221068e-01 -1.542113e-01 -1.694472e-01 -2.201942e-01 -2.212038e-01 -2.340251e-01 -2.488926e-01 -2.580177e-01 -2.632924e-01 -2.483569e-01 -8.357408e-02
<VARIANCE> 39
 2.408806e+01 4.290880e+01 3.192280e+01 4.128641e+01 4.493056e+01 6.605635e+01 6.739863e+01 5.419546e+01 5.219083e+01 5.329749e+01 3.923443e+01 3.701664e+01 9.520322e+01 1.173689e-01 2.563185e-01 4.167241e-01 5.557759e-01 6.865784e-01 8.082470e-01 9.626623e-01 9.914337e-01 9.893811e-01 9.541972e-01 9.390588e-01 8.765256e-01 9.349146e-02 1.597703e-02 3.525531e-02 5.905968e-02 8.576670e-02 1.139690e-01 1.420649e-01 1.654391e-01 1.745540e-01 1.784496e-01 1.825682e-01 1.736622e-01 1.612728e-01 8.244090e-03
<GCONST> 8.131158e+01
<STATE> 3
<NUMMIXES> 8
<MIXTURE> 1 5.149050e-03
<MEAN> 39
 -9.811257e+00 -4.669625e-01 4.761997e+00 1.145818e+00 7.186514e+00 9.444228e-01 3.258604e+00 9.327844e-01 1.761412e+00 2.107519e+00 3.694115e+00 1.643040e+00 6.747167e+01 4.444921e-01 1.229717e+00 1.106801e+00 1.056173e+00 1.000363e+00 1.429152e+00 1.357925e+00 1.366351e+00 1.228781e+00 1.099115e+00 8.684797e-01 7.274731e-01 2.760124e-01 4.164856e-01 3.142600e-01 3.514638e-01 3.101661e-01 2.833557e-01 1.871162e-01 2.362912e-01 2.936892e-01 2.248807e-01 2.242977e-01 2.124828e-01 1.831747e-01 5.551254e-01
<VARIANCE> 39
 3.877809e+01 3.993898e+01 4.859809e+01 3.442573e+01 3.439622e+01 2.962766e+01 3.529348e+01 3.949740e+01 2.888322e+01 2.613068e+01 2.219234e+01 2.090463e+01 9.921834e+01 2.996820e+00 3.575737e+00 3.419797e+00 3.018037e+00 2.756477e+00 2.619297e+00 2.608928e+00 2.492583e+00 2.270118e+00 2.206798e+00 2.017808e+00 1.793906e+00 3.150962e+00 3.199430e-01 4.673444e-01 4.842380e-01 4.234532e-01 3.979355e-01 4.167634e-01 4.238388e-01 4.530054e-01 3.774412e-01 3.531142e-01 3.187104e-01 2.841484e-01 4.286843e-01
<GCONST> 1.183795e+02
<MIXTURE> 2 1.202329e-01
<MEAN> 39
 -1.257148e+01 -4.027124e+00 2.768581e+00 -3.316497e-01 6.604161e+00 -1.706146e+00 1.340901e+00 -1.054328e+00 -2.998918e-01 4.052706e-02 1.830965e+00 -5.378452e-01 6.589002e+01 6.054204e-01 4.018151e-01 5.365292e-01 3.557341e-01 4.016969e-01 2.135270e-01 2.766767e-01 1.864738e-01 2.111269e-01 1.840715e-01 2.523070e-01 2.641664e-01 9.695536e-01 2.495782e-01 3.277770e-01 1.793608e-01 1.919714e-01 9.810768e-02 1.531217e-01 1.363104e-01 1.711325e-01 1.303162e-01 1.464145e-01 1.371560e-01 1.122147e-01 1.307902e-01
<VARIANCE> 39
 6.596960e+01 6.198656e+01 5.759934e+01 5.912699e+01 5.802335e+01 6.585007e+01 6.780965e+01 6.040316e+01 5.587246e+01 4.546799e+01 4.086924e+01 3.825778e+01 7.211182e+01 4.032896e+00 6.211713e+00 5.005272e+00 4.440469e+00 4.314323e+00 5.308259e+00 4.642795e+00 4.314672e+00 3.900924e+00 3.393542e+00 3.064576e+00 2.721226e+00 6.923725e+00 8.376055e-01 1.231807e+00 9.228700e-01 9.371338e-01 9.322916e-01 1.049163e+00 1.016782e+00 9.196869e-01 8.555586e-01 7.302052e-01 6.499144e-01 5.700470e-01 1.098981e+00
<GCONST> 1.416832e+02
<MIXTURE> 3 2.589174e-01
<MEAN> 39
 -1.290115e+01 -3.251483e+00 3.301855e+00 -3.667457e-01 5.852856e+00 -7.839149e-01 1.711860e+00 -5.902132e-01 6.033042e-02 4.791068e-01 2.029988e+00 -5.117323e-01 6.475453e+01 1.587912e-01 1.295098e-01 3.575295e-01 2.159967e-01 2.616779e-01 2.661331e-01 2.893827e-01 2.592402e-01 2.782454e-01 2.183794e-01 1.978242e-01 1.646108e-01 3.869462e-01 2.085028e-01 8.045428e-02 8.790140e-02 7.857526e-02 8.770003e-02 -1.411598e-02 2.206158e-02 2.598247e-02 1.001542e-02 2.564825e-02 4.685874e-02 5.300043e-02 2.449574e-01
<VARIANCE> 39
 5.733096e+01 5.053665e+01 5.099904e+01 4.043464e+01 3.595917e+01 4.239863e+01 4.262506e+01 4.391278e+01 3.813263e+01 3.158168e+01 2.809987e+01 2.704693e+01 1.000637e+02 1.452533e+00 1.556325e+00 1.816115e+00 1.603855e+00 1.598066e+00 1.763667e+00 1.722576e+00 1.663415e+00 1.657346e+00 1.541698e+00 1.467766e+00 1.362459e+00 9.619520e-01 2.692716e-01 3.370582e-01 3.188426e-01 3.140042e-01 3.161076e-01 3.693373e-01 3.744884e-01 3.666952e-01 3.605281e-01 3.255781e-01 3.012824e-01 2.742198e-01 2.197139e-01
<GCONST> 1.110578e+02
<MIXTURE> 4 1.372522e-01
<MEAN> 39
 -1.551553e+01 -3.701048e+00 1.384663e+00 -8.057373e-01 5.427801e+00 -2.143073e+00 -4.123045e-01 -1.552602e+00 -1.616253e+00 -1.124360e+00 -7.409748e-02 -2.734057e+00 5.874065e+01 9.885962e-01 -1.351731e-01 2.505077e-02 -2.131033e-02 2.239667e-02 -1.222416e+00 -1.187775e+00 -1.002048e+00 -1.077191e+00 -8.694159e-01 -6.762666e-01 -6.695003e-01 9.199297e-01 1.649030e-01 -2.253913e-01 -2.132896e-01 -1.823503e-01 -1.604758e-01 -3.986534e-01 -2.658211e-01 -2.368971e-01 -2.361188e-01 -1.453359e-01 -4.750492e-02 -7.696792e-02 2.042495e-01
<VARIANCE> 39
 2.085536e+01 3.215756e+01 2.870929e+01 2.809239e+01 3.148165e+01 3.332691e+01 3.457970e+01 3.850352e+01 3.135832e+01 2.664172e+01 2.446212e+01 2.406266e+01 6.062530e+01 2.572881e+00 4.757224e+00 3.269250e+00 3.233247e+00 3.254026e+00 3.669530e+00 3.314020e+00 3.200121e+00 3.061745e+00 2.809791e+00 2.618121e+00 2.516383e+00 2.964299e+00 3.138556e-01 4.246815e-01 3.813064e-01 3.437989e-01 3.816958e-01 4.494846e-01 4.879193e-01 4.822329e-01 4.559574e-01 4.109030e-01 3.760442e-01 3.412950e-01 3.190701e-01
<GCONST> 1.189395e+02
<MIXTURE> 5 2.396064e-01
<MEAN> 39
 -1.397369e+01 -6.663060e+00 2.521019e-01 -3.089597e+00 3.946202e+00 -5.957924e+00 -1.986249e+00 -4.295227e+00 -4.062815e+00 -2.610389e+00 -1.927106e-01 -3.126127e+00 6.431678e+01 -2.527361e-01 -2.756695e-01 -1.849458e-01 -2.402129e-01 -2.101573e-01 -2.887504e-01 -2.852266e-01 -3.031312e-01 -2.775899e-01 -3.036030e-01 -2.912907e-01 -2.718487e-01 -5.854682e-02 -3.391799e-02 -1.132031e-01 -1.380894e-01 -1.184290e-01 -1.191692e-01 -1.906336e-01 -1.736363e-01 -1.601835e-01 -1.657808e-01 -1.537876e-01 -1.406555e-01 -1.240852e-01 -5.483654e-02
<VARIANCE> 39
 8.686692e+01 4.745344e+01 6.433083e+01 4.696442e+01 4.462431e+01 8.235802e+01 6.781883e+01 6.029675e+01 6.284295e+01 4.812217e+01 4.032360e+01 3.930151e+01 1.055402e+02 1.112047e+00 1.141840e+00 1.540277e+00 1.394408e+00 1.391960e+00 1.710967e+00 1.631198e+00 1.575065e+00 1.584002e+00 1.486713e+00 1.416536e+00 1.295585e+00 7.178151e-01 2.166718e-01 2.254738e-01 2.601886e-01 2.456686e-01 2.522886e-01 3.423743e-01 3.294545e-01 3.158088e-01 3.224087e-01 2.891074e-01 2.711517e-01 2.427503e-01 1.485242e-01
<GCONST> 1.110470e+02
<MIXTURE> 6 1.248955e-01
<MEAN> 39
 -1.564857e+01 -6.634908e+00 6.353652e-02 -2.472920e+00 3.928165e+00 -3.754541e+00 -6.556632e-01 -2.548455e+00 -1.888578e+00 -1.394743e+00 3.411458e-01 -2.291866e+00 6.151431e+01 1.818560e-01 -1.069192e+00 -3.876220e-01 -5.711821e-01 -2.967750e-01 -1.197047e+00 -7.817713e-01 -8.067508e-01 -7.280724e-01 -6.342936e-01 -4.249280e-01 -4.356980e-01 9.951051e-01 -1.049138e-04 -1.827036e-02 -6.702843e-02 -1.053605e-01 -1.033847e-01 -2.531365e-01 -2.490934e-01 -2.301385e-01 -2.416678e-01 -2.034239e-01 -1.789637e-01 -1.680028e-01 -9.734088e-02
<VARIANCE> 39
 4.516880e+01 5.630904e+01 5.190036e+01 5.397085e+01 4.848289e+01 5.889002e+01 6.040004e+01 5.237814e+01 4.571369e+01 3.876923e+01 3.384399e+01 3.063636e+01 7.365632e+01 4.311321e+00 6.875624e+00 5.270419e+00 5.120638e+00 4.729668e+00 5.892598e+00 5.332158e+00 4.592504e+00 4.244742e+00 3.591272e+00 3.325198e+00 2.986701e+00 7.337227e+00 7.208922e-01 1.234930e+00 8.529058e-01 8.804778e-01 8.146529e-01 1.043349e+00 1.007209e+00 8.648412e-01 8.090887e-01 6.859468e-01 6.061690e-01 5.231170e-01 1.188608e+00
<GCONST> 1.401514e+02
<MIXTURE> 7 8.626460e-03
<MEAN> 39
 -1.803099e+01 -8.087376e+00 9.762610e-01 -4.016896e+00 3.745672e+00 -6.585377e+00 -3.305265e+00 -6.030234e+00 -5.017742e+00 -4.518704e+00 -2.251238e+00 -4.996453e+00 6.102479e+01 1.023687e+00 -2.468758e-01 -5.852820e-01 -6.304001e-01 -8.453020e-01 -2.400787e+00 -2.307453e+00 -2.010663e+00 -2.173256e+00 -1.840561e+00 -1.599165e+00 -1.424018e+00 -2.041347e-01 -1.165785e-02 -4.091707e-01 -6.710510e-01 -4.350493e-01 -4.405188e-01 -7.238103e-01 -5.346890e-01 -3.650332e-01 -4.379617e-01 -2.954044e-01 -2.369001e-01 -2.809261e-01 -2.241291e-01
<VARIANCE> 39
 2.563429e+01 3.379803e+01 3.473473e+01 3.079069e+01 3.303853e+01 3.544302e+01 4.831766e+01 5.780289e+01 3.664533e+01 3.386303e+01 3.027648e+01 2.450472e+01 1.064270e+02 2.220407e+00 2.744784e+00 2.960834e+00 2.974674e+00 2.950603e+00 3.551542e+00 3.174437e+00 2.954555e+00 2.775375e+00 2.749036e+00 2.533008e+00 2.387295e+00 2.506249e+00 2.829834e-01 3.764952e-01 4.040609e-01 3.278143e-01 3.477147e-01 4.676842e-01 5.206204e-01 5.595102e-01 5.002897e-01 4.654040e-01 4.338678e-01 3.518309e-01 2.590739e-01
<GCONST> 1.201404e+02
<MIXTURE> 8 1.051647e-01
<MEAN> 39
 -1.297247e+01 -3.049987e+00 5.032279e+00 -2.190470e-03 5.702317e+00 -1.063673e+00 1.465007e+00 -2.135072e+00 -1.216123e+00 -8.228014e-01 1.206496e+00 -1.070331e+00 6.565605e+01 -5.818325e-01 7.903065e-02 6.028476e-01 1.898046e-01 2.733637e-01 7.752004e-01 8.317691e-01 7.005790e-01 7.096646e-01 4.817108e-01 3.474075e-01 1.916584e-01 2.071609e-01 2.065558e-01 1.458550e-02 -1.317503e-01 -4.704284e-02 4.104845e-02 -1.356562e-01 -4.280575e-02 5.044079e-02 3.576469e-02 7.872315e-02 8.513194e-02 6.257373e-02 3.070230e-01
<VARIANCE> 39
 5.190532e+01 4.900425e+01 6.429313e+01 3.735202e+01 3.264195e+01 3.063619e+01 3.447815e+01 4.374978e+01 3.387174e+01 2.941626e+01 2.343995e+01 2.186280e+01 1.096555e+02 4.009200e+00 3.885656e+00 4.892278e+00 3.299253e+00 2.847292e+00 3.093580e+00 2.895519e+00 2.851795e+00 2.563727e+00 2.362415e+00 2.151229e+00 1.982745e+00 3.235563e+00 4.441419e-01 5.026319e-01 6.179582e-01 4.643991e-01 4.212797e-01 4.235747e-01 4.442075e-01 4.678260e-01 4.003121e-01 3.662878e-01 3.219968e-01 2.921370e-01 4.195127e-01
<GCONST> 1.224149e+02
<STATE> 4
<NUMMIXES> 8
<MIXTURE> 1 6.282829e-03
<MEAN> 39
 -5.083447e+00 -1.874012e+00 5.562388e+00 5.741998e-01 7.943806e+00 -3.355519e+00 2.010798e-02 -3.603395e+00 -3.031276e+00 -9.525211e-01 2.348006e+00 1.190355e-01 7.458482e+01 2.036606e-01 1.307954e+00 1.273036e+00 1.161795e+00 9.841142e-01 1.872475e+00 1.406944e+00 1.400768e+00 1.247020e+00 8.650843e-01 6.492851e-01 6.088718e-01 -5.852642e-02 1.818555e-01 2.835325e-01 2.449297e-01 3.087631e-01 2.574499e-01 3.456616e-01 3.425211e-01 4.495386e-01 4.204311e-01 3.520157e-01 2.680266e-01 2.321446e-01 2.285565e-01
<VARIANCE> 39
 5.837511e+01 4.338960e+01 5.607185e+01 4.424903e+01 4.810350e+01 6.478500e+01 5.886412e+01 5.408236e+01 5.396052e+01 4.021891e+01 3.308591e+01 3.321078e+01 7.855546e+01 3.237216e+00 3.228823e+00 3.249722e+00 2.755105e+00 3.204277e+00 3.600221e+00 3.239183e+00 3.126534e+00 3.109016e+00 3.063675e+00 2.659897e+00 2.266559e+00 4.918854e+00 3.265738e-01 4.230772e-01 5.424762e-01 4.567900e-01 4.875894e-01 6.577710e-01 5.236809e-01 5.201498e-01 5.064730e-01 4.121693e-01 3.833560e-01 3.569813e-01 4.659005e-01
<GCONST> 1.273011e+02
<MIXTURE> 2 2.049378e-01
<MEAN> 39
 -6.179782e+00 -4.790087e+00 9.113901e-01 -1.006752e+00 6.543897e+00 -8.726647e+00 -3.586601e+00 -4.364345e+00 -5.241946e+00 -2.108011e+00 9.940417e-01 -2.355031e+00 7.244861e+01 3.239702e-01 1.742137e-01 1.494406e-01 1.867645e-01 2.359847e-01 1.305219e-01 1.847856e-01 2.135620e-01 1.578031e-01 1.833295e-01 2.401826e-01 2.213621e-01 2.664701e-01 -5.786028e-03 7.204393e-02 1.258918e-01 9.157948e-02 8.316769e-02 2.239088e-01 1.821191e-01 1.282231e-01 1.607516e-01 1.032741e-01 9.936220e-02 1.228597e-01 -9.122144e-03
<VARIANCE> 39
 5.271075e+01 4.714434e+01 6.162473e+01 5.683496e+01 5.277633e+01 8.709682e+01 7.110722e+01 5.905767e+01 6.568518e+01 5.077819e+01 4.825756e+01 5.063456e+01 7.556207e+01 4.409782e-01 7.344114e-01 1.091095e+00 1.123499e+00 1.189692e+00 1.718589e+00 1.543844e+00 1.479426e+00 1.551478e+00 1.451478e+00 1.380768e+00 1.228359e+00 4.610362e-01 7.869578e-02 1.171520e-01 1.719796e-01 1.797080e-01 2.028365e-01 3.143173e-01 2.734005e-01 2.649961e-01 2.845061e-01 2.587292e-01 2.522884e-01 2.253997e-01 6.515599e-02
<GCONST> 1.041060e+02
<MIXTURE> 3 6.960813e-02
<MEAN> 39
 -6.675347e+00 -7.971220e+00 -2.527954e+00 -3.923166e+00 4.145182e+00 -1.408859e+01 -7.718659e+00 -8.349448e+00 -9.412808e+00 -5.607349e+00 -1.330991e+00 -4.601670e+00 7.296848e+01 2.505640e-01 -4.000345e-01 -8.259158e-01 -3.630223e-01 -1.850483e-01 -9.662605e-01 -3.772482e-01 -9.735967e-02 -4.912143e-01 -3.762692e-02 1.555956e-01 2.609424e-03 1.533938e-01 -2.565116e-01 -3.207452e-02 4.614567e-02 -1.504261e-02 -3.789078e-02 1.877501e-01 1.616676e-01 7.984497e-02 1.133446e-01 5.569806e-03 -5.298369e-02 -6.389607e-02 -2.166910e-01
<VARIANCE> 39
 2.085069e+01 3.149385e+01 4.881665e+01 5.293889e+01 5.034669e+01 5.909056e+01 6.119559e+01 5.599117e+01 4.916668e+01 6.349086e+01 4.945324e+01 5.325319e+01 6.188224e+01 1.027975e+00 1.383203e+00 2.605768e+00 2.135931e+00 2.383483e+00 4.189646e+00 3.449173e+00 2.949954e+00 3.085271e+00 3.088392e+00 2.736677e+00 2.457367e+00 9.203680e-01 1.275665e-01 1.641283e-01 2.686285e-01 2.515977e-01 2.828562e-01 4.460765e-01 4.169930e-01 3.923832e-01 3.987559e-01 4.148971e-01 3.881810e-01 3.524365e-01 9.053200e-02
<GCONST> 1.163420e+02
<MIXTURE> 4 1.860637e-01
<MEAN> 39
 -8.542720e+00 -2.799918e+00 3.613663e+00 2.189456e-01 6.745237e+00 -4.828931e+00 -2.266526e+00 -3.910276e+00 -3.698195e+00 -2.622613e+00 -3.723472e-01 -3.099978e+00 6.904224e+01 5.314484e-01 -3.941576e-02 1.471210e-01 7.124092e-02 1.497776e-01 -3.719483e-02 2.260822e-01 1.865140e-01 1.925258e-01 1.942274e-01 3.122033e-01 2.573001e-01 8.855449e-01 1.203117e-01 -2.725342e-02 -1.578347e-02 -6.562150e-03 4.719843e-02 2.745518e-02 1.423071e-01 1.302128e-01 1.108168e-01 1.557275e-01 1.978547e-01 1.880367e-01 2.521280e-01
<VARIANCE> 39
 5.548835e+01 5.000937e+01 5.670488e+01 5.229335e+01 4.593040e+01 6.772160e+01 6.257454e+01 5.348151e+01 5.234837e+01 4.147258e+01 3.987267e+01 4.179404e+01 7.505807e+01 3.782587e+00 3.166835e+00 3.626239e+00 3.145542e+00 2.962394e+00 4.373112e+00 3.932385e+00 3.345373e+00 3.425959e+00 2.724586e+00 2.628492e+00 2.583366e+00 3.255917e+00 5.499214e-01 6.175780e-01 5.959762e-01 5.815755e-01 5.591106e-01 8.466260e-01 7.539949e-01 6.624886e-01 6.567710e-01 5.231457e-01 4.929426e-01 4.608595e-01 6.669109e-01
<GCONST> 1.320266e+02
<MIXTURE> 5 2.746460e-01
<MEAN> 39
 -7.230954e+00 -8.215458e+00 -2.962245e+00 -4.237959e+00 3.415425e+00 -1.338502e+01 -6.872955e+00 -7.426787e+00 -8.546762e+00 -4.918864e+00 -1.212801e+00 -4.704974e+00 7.137954e+01 4.509754e-02 -1.800446e-01 -3.005524e-01 -2.217350e-01 -1.885515e-01 -4.351721e-01 -2.911293e-01 -2.530762e-01 -3.238071e-01 -2.504089e-01 -1.833779e-01 -1.888174e-01 4.042204e-03 -1.232297e-01 -3.191313e-02 -3.000242e-02 -5.219521e-02 -5.150004e-02 2.643660e-02 -8.585337e-03 -5.286471e-02 -2.721540e-02 -7.648867e-02 -7.943595e-02 -5.857919e-02 -1.273634e-01
<VARIANCE> 39
 3.676976e+01 4.304906e+01 6.121485e+01 5.985835e+01 5.775184e+01 8.040328e+01 7.231017e+01 6.338434e+01 6.469684e+01 6.139802e+01 5.378175e+01 5.607682e+01 8.005308e+01 3.236339e-01 6.312822e-01 1.000153e+00 1.052570e+00 1.152390e+00 1.573624e+00 1.511522e+00 1.445328e+00 1.496835e+00 1.437638e+00 1.360181e+00 1.196669e+00 3.622041e-01 5.422544e-02 9.627619e-02 1.501670e-01 1.578712e-01 1.795368e-01 2.760621e-01 2.477084e-01 2.399794e-01 2.568290e-01 2.444018e-01 2.324657e-01 2.052687e-01 5.118800e-02
<GCONST> 1.012760e+02
<MIXTURE> 6 1.536683e-01
<MEAN> 39
 -1.057359e+01 -5.674849e+00 5.969933e-01 -2.855814e+00 4.230029e+00 -9.137256e+00 -5.730703e+00 -7.299142e+00 -7.133984e+00 -5.471755e+00 -2.601004e+00 -5.224996e+00 6.728308e+01 4.977379e-01 -4.246716e-01 -7.044867e-01 -5.085024e-01 -4.611580e-01 -1.323361e+00 -8.854082e-01 -6.761891e-01 -7.991741e-01 -5.384578e-01 -3.708515e-01 -3.846627e-01 4.352002e-01 -1.915373e-01 -2.685639e-01 -3.085750e-01 -1.956757e-01 -1.449774e-01 -1.814728e-01 -4.626738e-02 5.047053e-03 -5.477361e-02 1.722899e-02 2.839721e-02 -2.462588e-02 -1.600037e-01
<VARIANCE> 39
 4.426521e+01 3.844263e+01 5.370182e+01 5.038274e+01 4.736209e+01 6.430257e+01 6.316087e+01 5.665540e+01 5.185425e+01 4.523050e+01 3.996513e+01 4.156607e+01 7.184275e+01 3.760419e+00 3.231477e+00 3.863466e+00 3.403176e+00 3.297802e+00 5.047964e+00 4.563739e+00 3.743041e+00 3.994324e+00 3.252799e+00 3.189767e+00 3.069983e+00 2.989476e+00 5.064799e-01 5.062163e-01 5.589740e-01 5.227312e-01 5.285376e-01 8.256068e-01 7.618314e-01 6.595324e-01 6.693177e-01 5.411343e-01 5.020960e-01 4.578694e-01 4.707964e-01
<GCONST> 1.319909e+02
<MIXTURE> 7 1.031053e-01
<MEAN> 39
 -5.888668e+00 -4.922293e+00 5.215711e-01 -1.935855e+00 5.391782e+00 -8.957763e+00 -3.934267e+00 -6.275616e+00 -7.075874e+00 -3.719527e+00 3.625335e-01 -2.236174e+00 7.237728e+01 -3.134387e-01 4.668758e-01 9.222017e-01 4.634646e-01 2.787305e-01 1.147192e+00 5.650324e-01 3.039830e-01 4.691618e-01 -5.296604e-02 -1.860565e-01 -8.970415e-02 -3.367908e-01 -1.236244e-01 5.093043e-02 1.705111e-01 8.539562e-02 5.465814e-02 2.081001e-01 1.470153e-01 1.667131e-01 2.197886e-01 1.182347e-01 1.443930e-02 -1.559591e-02 3.746986e-03
<VARIANCE> 39
 4.423723e+01 3.944403e+01 6.687469e+01 4.645702e+01 5.346484e+01 6.725785e+01 6.098077e+01 5.655152e+01 5.515224e+01 4.918436e+01 4.064916e+01 4.135876e+01 6.127069e+01 2.397062e+00 2.738227e+00 3.493826e+00 2.819755e+00 3.095455e+00 3.949736e+00 3.562417e+00 3.437045e+00 3.262318e+00 3.020542e+00 2.838051e+00 2.619902e+00 2.806096e+00 2.652014e-01 3.529008e-01 5.626236e-01 4.015993e-01 4.652465e-01 7.406345e-01 5.399456e-01 5.089047e-01 5.265773e-01 4.332446e-01 4.239441e-01 3.832865e-01 3.308658e-01
<GCONST> 1.268538e+02
<MIXTURE> 8 1.567141e-03
<MEAN> 39
 -9.294929e+00 -1.038741e+01 -4.637989e+00 -6.885652e+00 1.291743e+00 -1.608080e+01 -1.002720e+01 -1.109839e+01 -1.128312e+01 -8.531260e+00 -4.014279e+00 -6.959605e+00 7.041660e+01 -3.227419e-02 -7.142136e-01 -1.134445e+00 -7.476918e-01 -6.746674e-01 -1.549556e+00 -1.038419e+00 -7.461414e-01 -1.047838e+00 -6.463073e-01 -5.230201e-01 -5.787851e-01 -1.275158e-01 -3.300362e-01 -1.743341e-01 -1.932669e-01 -1.561561e-01 -1.644567e-01 -9.627488e-02 -4.725323e-02 -8.797063e-02 -1.111232e-01 -1.417669e-01 -1.788656e-01 -2.336505e-01 -2.860982e-01
<VARIANCE> 39
 2.051431e+01 3.012263e+01 4.652677e+01 4.991025e+01 4.949767e+01 6.068454e+01 5.750032e+01 5.892036e+01 4.669465e+01 6.301768e+01 5.097477e+01 5.569484e+01 7.544606e+01 1.136161e+00 1.450230e+00 2.435667e+00 2.162123e+00 2.309909e+00 3.608763e+00 3.662414e+00 3.155572e+00 2.912013e+00 3.381326e+00 3.006677e+00 2.763630e+00 9.306304e-01 1.211410e-01 1.729258e-01 2.562757e-01 2.403491e-01 2.720686e-01 4.030292e-01 4.165696e-01 3.789093e-01 3.832167e-01 4.164064e-01 3.891090e-01 3.736789e-01 8.153403e-02
<GCONST> 1.163326e+02
<TRANSP> 5
 0.000000e+00 1.000000e+00 0.000000e+00 0.000000e+00 0.000000e+00
 0.000000e+00 8.118418e-01 1.881582e-01 0.000000e+00 0.000000e+00
 0.000000e+00 0.000000e+00 7.588072e-01 2.411928e-01 0.000000e+00
 0.000000e+00 0.000000e+00 0.000000e+00 7.820364e-01 2.179636e-01
 0.000000e+00 0.000000e+00 0.000000e+00 0.000000e+00 0.000000e+00
<ENDHMM>
~h ">"
<BEGINHMM>
<NUMSTATES> 5
<STATE> 2
<NUMMIXES> 8
<MIXTURE> 1 8.832780e-03
<MEAN> 39
 -6.006919e+00 3.154425e-01 3.689907e+00 1.012875e+00 6.724202e+00 -2.599053e+00 5.407333e-01 1.017304e-01 -9.778124e-01 3.067096e-01 2.545254e+00 9.574711e-01 6.821516e+01 -5.788283e-01 7.502834e-01 7.072265e-01 1.039505e+00 9.824197e-01 2.120790e+00 1.873453e+00 1.647112e+00 1.667411e+00 1.513823e+00 1.184357e+00 9.640489e-01 -5.394771e-01 3.310092e-01 1.552542e-01 1.720051e-01 1.840766e-01 2.399417e-01 1.866303e-01 2.912244e-01 3.331299e-01 2.956608e-01 2.802334e-01 2.664142e-01 2.032553e-01 4.710796e-01
<VARIANCE> 39
 2.803891e+01 3.173422e+01 3.315717e+01 4.527923e+01 5.973382e+01 4.644036e+01 5.318400e+01 5.661269e+01 4.685215e+01 4.240935e+01 3.978361e+01 3.932226e+01 6.761309e+01 1.820516e+00 3.269253e+00 2.997674e+00 3.358905e+00 3.444060e+00 3.306732e+00 3.316962e+00 3.627371e+00 3.461607e+00 3.453503e+00 3.123709e+00 2.863380e+00 1.953543e+00 2.938434e-01 3.515149e-01 3.718632e-01 3.960024e-01 4.623439e-01 5.225379e-01 5.266094e-01 5.169073e-01 5.084019e-01 4.906031e-01 4.390413e-01 4.076531e-01 2.472098e-01
<GCONST> 1.238248e+02
<MIXTURE> 2 1.261230e-01
<MEAN> 39
 -5.818388e+00 -6.367773e+00 1.351346e-01 -3.015696e+00 4.672845e+00 -8.532473e+00 -2.386542e+00 -3.442588e+00 -4.196157e+00 -1.468886e+00 2.394708e+00 -4.684922e-01 7.271887e+01 1.391967e-01 4.758043e-01 2.391444e-01 3.429552e-01 2.707105e-01 5.581340e-01 3.357826e-01 3.512148e-01 3.586334e-01 3.907070e-01 3.845228e-01 4.368543e-01 -7.486779e-02 -6.654695e-03 2.849306e-01 2.716384e-01 2.399928e-01 2.016155e-01 3.903322e-01 2.450747e-01 1.964483e-01 2.390558e-01 1.394134e-01 6.118858e-02 9.246250e-02 -1.058385e-01
<VARIANCE> 39
 7.655602e+01 4.207484e+01 6.789897e+01 6.220135e+01 5.803292e+01 7.494552e+01 8.067369e+01 6.680789e+01 6.442675e+01 5.544793e+01 4.622754e+01 4.386962e+01 5.924379e+01 1.655314e+00 1.988522e+00 2.176937e+00 1.855133e+00 1.865671e+00 2.882151e+00 2.083051e+00 2.032558e+00 2.037443e+00 2.021908e+00 1.892633e+00 1.704444e+00 2.377253e+00 3.924083e-01 3.699334e-01 3.823093e-01 3.718671e-01 3.978880e-01 4.918141e-01 4.922098e-01 4.508430e-01 4.694133e-01 4.260604e-01 3.899442e-01 3.519409e-01 2.944695e-01
<GCONST> 1.222805e+02
<MIXTURE> 3 2.197689e-01
<MEAN> 39
 -7.959263e+00 -2.241226e+00 3.010186e+00 -2.848142e-01 6.638268e+00 -3.641287e+00 -7.336139e-01 -1.399513e+00 -2.207840e+00 -1.293936e+00 5.287402e-01 -1.834880e+00 6.727701e+01 -3.880499e-01 1.127362e-01 3.184293e-01 3.578504e-01 2.919677e-01 8.443069e-01 7.218889e-01 5.651557e-01 5.647132e-01 4.639771e-01 3.055258e-01 2.319175e-01 -2.465437e-01 1.414223e-01 -1.819088e-02 -2.178357e-02 1.732522e-02 2.523870e-02 -1.285359e-02 5.894900e-02 7.220703e-02 5.586262e-02 9.395909e-02 1.458037e-01 1.396893e-01 1.877395e-01
<VARIANCE> 39
 4.534178e+01 3.987383e+01 4.860692e+01 5.240268e+01 4.743531e+01 5.431142e+01 5.640640e+01 5.925258e+01 5.064458e+01 4.089519e+01 3.620167e+01 3.737143e+01 6.592614e+01 1.596709e+00 1.902197e+00 2.454077e+00 2.192820e+00 2.153747e+00 2.435297e+00 2.315156e+00 2.247064e+00 2.104378e+00 1.919166e+00 1.787674e+00 1.618290e+00 1.065650e+00 2.452702e-01 2.906996e-01 3.529513e-01 3.445717e-01 3.610137e-01 4.052338e-01 4.158348e-01 4.072282e-01 3.846080e-01 3.474492e-01 3.148097e-01 2.823464e-01 1.688956e-01
<GCONST> 1.159876e+02
<MIXTURE> 4 1.316268e-01
<MEAN> 39
 -1.197118e+01 -7.075628e+00 2.586178e-01 -3.317842e+00 4.172724e+00 -7.414605e+00 -2.457118e+00 -4.340344e+00 -4.151369e+00 -2.639703e+00 3.547754e-02 -2.802430e+00 6.663078e+01 2.680328e-01 -2.869539e-01 -4.234085e-01 -3.046690e-01 -1.927158e-01 -7.164903e-01 -4.513413e-01 -3.313963e-01 -3.997955e-01 -1.992063e-01 -9.922752e-02 -1.155586e-01 2.854347e-01 1.192113e-01 -3.869335e-03 -1.479264e-01 -5.965827e-02 -6.537946e-02 -1.738521e-01 -1.612135e-01 -7.611866e-02 -1.349909e-01 -7.896716e-02 -5.010614e-02 -5.383962e-02 -6.113108e-02
<VARIANCE> 39
 4.781981e+01 4.743606e+01 5.746994e+01 5.384820e+01 4.883615e+01 6.175360e+01 6.848942e+01 6.423815e+01 5.262160e+01 4.478932e+01 3.878748e+01 3.566758e+01 8.462663e+01 4.958644e+00 5.908275e+00 4.599492e+00 4.542601e+00 4.350056e+00 5.158155e+00 5.090117e+00 4.801769e+00 4.609358e+00 3.806484e+00 3.706068e+00 3.298017e+00 6.068943e+00 6.976820e-01 9.944469e-01 8.044322e-01 7.768446e-01 7.461692e-01 9.277977e-01 9.422696e-01 9.109962e-01 8.333564e-01 7.014093e-01 6.433098e-01 5.478913e-01 1.031572e+00
<GCONST> 1.402685e+02
<MIXTURE> 5 1.310279e-01
<MEAN> 39
 -9.871592e+00 -4.361811e+00 -3.421055e-03 -2.943248e+00 4.022716e+00 -7.005783e+00 -4.064452e+00 -4.550656e+00 -5.226382e+00 -3.991086e+00 -1.843299e+00 -4.239326e+00 6.424138e+01 -6.986382e-01 -3.361807e-01 -1.645050e-01 -2.102399e-01 -2.776279e-01 1.298111e-01 -1.497210e-02 -1.448612e-01 -8.341476e-02 -1.750134e-01 -3.120974e-01 -3.255685e-01 -6.292704e-01 -5.608276e-02 -2.557614e-01 -2.051537e-01 -1.968868e-01 -1.774208e-01 -2.583302e-01 -1.558399e-01 -1.460690e-01 -1.611864e-01 -1.075221e-01 -4.296710e-02 -5.425042e-02 2.664923e-02
<VARIANCE> 39
 4.253816e+01 4.027293e+01 4.930285e+01 5.433111e+01 4.792574e+01 6.059876e+01 6.480946e+01 6.365235e+01 5.778697e+01 4.721545e+01 4.309539e+01 4.494579e+01 6.040965e+01 1.674760e+00 1.974537e+00 2.668986e+00 2.379387e+00 2.350377e+00 2.640079e+00 2.467491e+00 2.355266e+00 2.226084e+00 2.018687e+00 1.985367e+00 1.872955e+00 1.233422e+00 2.756266e-01 2.965342e-01 3.597770e-01 3.656836e-01 3.804194e-01 4.411113e-01 4.570368e-01 4.405024e-01 4.100136e-01 3.729900e-01 3.554156e-01 3.289159e-01 2.060575e-01
<GCONST> 1.190282e+02
<MIXTURE> 6 2.333591e-01
<MEAN> 39
 -7.506134e+00 -8.477342e+00 -2.786064e+00 -5.085045e+00 2.771213e+00 -1.355694e+01 -6.025414e+00 -6.431560e+00 -7.761471e+00 -4.221705e+00 -6.602757e-01 -4.038691e+00 7.150185e+01 -1.870219e-01 -2.448124e-01 -3.543780e-01 -2.557023e-01 -2.079963e-01 -2.722611e-01 -2.119924e-01 -1.706368e-01 -2.341658e-01 -1.520469e-01 -1.300635e-01 -1.546216e-01 -3.616073e-01 -1.257979e-01 -4.475420e-02 -3.809134e-02 -4.880795e-02 -6.180985e-02 1.424643e-02 -6.034433e-02 -7.001912e-02 -4.610473e-02 -9.381837e-02 -9.825159e-02 -6.917178e-02 -1.654435e-01
<VARIANCE> 39
 4.730769e+01 4.134238e+01 6.546125e+01 6.688296e+01 6.240890e+01 7.532819e+01 7.931270e+01 6.794413e+01 6.428669e+01 6.244448e+01 5.308162e+01 5.046167e+01 5.856635e+01 7.384847e-01 1.088301e+00 1.434210e+00 1.332584e+00 1.395265e+00 2.086149e+00 1.720960e+00 1.624936e+00 1.663666e+00 1.651983e+00 1.538204e+00 1.358759e+00 8.322114e-01 1.428892e-01 1.599729e-01 1.939039e-01 1.906498e-01 2.116998e-01 2.965809e-01 2.831643e-01 2.683582e-01 2.849722e-01 2.668223e-01 2.489668e-01 2.237030e-01 9.255616e-02
<GCONST> 1.087734e+02
<MIXTURE> 7 1.386056e-01
<MEAN> 39
 -7.690319e+00 -1.854468e+00 1.985339e+00 -6.485946e-01 4.971459e+00 -5.128143e+00 -2.604337e+00 -3.240689e+00 -4.130271e+00 -2.408953e+00 3.473524e-02 -1.690360e+00 6.593428e+01 -1.060822e+00 2.247350e-01 4.050151e-01 4.170272e-01 2.593025e-01 1.487512e+00 1.191743e+00 8.101203e-01 9.165608e-01 6.583930e-01 3.763152e-01 2.903253e-01 -9.123748e-01 7.769048e-02 -1.087535e-01 -3.969112e-02 -5.626669e-02 2.989123e-02 -3.196052e-02 1.107739e-01 1.542626e-01 1.471724e-01 1.346108e-01 1.321512e-01 5.920544e-02 2.911909e-01
<VARIANCE> 39
 2.819396e+01 3.416993e+01 3.952059e+01 4.806264e+01 5.528008e+01 5.144367e+01 5.649678e+01 6.044174e+01 4.937535e+01 4.381677e+01 4.030555e+01 4.106115e+01 6.204485e+01 2.125724e+00 3.841364e+00 4.212435e+00 3.799396e+00 3.981851e+00 3.918518e+00 3.922555e+00 4.152753e+00 3.713215e+00 3.618897e+00 3.379159e+00 3.019046e+00 2.458107e+00 2.683635e-01 3.334246e-01 3.958973e-01 3.964542e-01 4.663770e-01 5.233033e-01 5.463653e-01 5.347234e-01 5.013123e-01 4.688318e-01 4.344849e-01 4.043792e-01 2.381239e-01
<GCONST> 1.261071e+02
<MIXTURE> 8 1.056598e-02
<MEAN> 39
 -1.475625e+01 -9.111188e+00 -7.060366e-01 -5.752420e+00 2.592099e+00 -1.168219e+01 -6.213835e+00 -8.597688e+00 -7.759447e+00 -6.006536e+00 -3.110043e+00 -5.868923e+00 6.551833e+01 9.688594e-01 4.438267e-02 -8.644187e-01 -5.147646e-01 -7.757630e-01 -2.224429e+00 -2.053606e+00 -1.574469e+00 -1.903006e+00 -1.432469e+00 -1.329494e+00 -1.153988e+00 -6.478221e-01 -1.958584e-01 -4.235877e-01 -5.829908e-01 -3.943874e-01 -3.950112e-01 -5.005174e-01 -3.351322e-01 -2.009864e-01 -2.657648e-01 -1.687181e-01 -1.201593e-01 -1.776598e-01 -2.010649e-01
<VARIANCE> 39
 3.846806e+01 2.935704e+01 4.054453e+01 3.953842e+01 4.127819e+01 4.927878e+01 6.179623e+01 5.956345e+01 4.360562e+01 3.947259e+01 3.710399e+01 3.131205e+01 8.495264e+01 3.079797e+00 3.465706e+00 3.504225e+00 3.536289e+00 3.599132e+00 3.888331e+00 3.752257e+00 3.558396e+00 3.391152e+00 3.362661e+00 3.118381e+00 2.866768e+00 2.470280e+00 4.534155e-01 4.435038e-01 4.191374e-01 3.744850e-01 4.187680e-01 5.803850e-01 6.591097e-01 6.064239e-01 5.752755e-01 5.205189e-01 4.914066e-01 3.852198e-01 3.510355e-01
<GCONST> 1.268051e+02
<STATE> 3
<NUMMIXES> 8
<MIXTURE> 1 1.011542e-02
<MEAN> 39
 -7.494189e+00 3.819053e-01 2.712681e+00 1.120316e+00 7.117116e+00 7.992596e-01 3.252299e+00 2.467945e+00 1.247674e+00 1.802204e+00 3.222657e+00 1.275316e+00 6.631095e+01 -2.158530e-01 3.776879e-01 3.511446e-01 6.492102e-01 6.312063e-01 1.207984e+00 1.200258e+00 1.156866e+00 1.177236e+00 1.092170e+00 8.608654e-01 6.708471e-01 -2.728150e-01 1.745868e-01 8.670672e-02 1.123141e-01 1.020888e-01 1.101848e-01 5.075313e-02 9.185868e-02 1.398313e-01 1.439610e-01 1.578498e-01 1.907424e-01 2.031031e-01 1.872189e-01
<VARIANCE> 39
 3.540087e+01 3.074071e+01 2.841158e+01 3.520033e+01 4.093357e+01 2.681446e+01 3.090051e+01 3.490809e+01 2.713444e+01 2.394392e+01 2.155572e+01 2.259883e+01 6.826276e+01 8.515702e-01 1.407997e+00 1.545305e+00 1.528311e+00 1.582627e+00 1.603639e+00 1.697506e+00 1.733852e+00 1.749924e+00 1.736997e+00 1.616698e+00 1.541399e+00 5.840498e-01 1.303185e-01 1.676671e-01 2.039512e-01 2.293937e-01 2.596829e-01 2.811437e-01 2.809177e-01 2.809096e-01 2.812730e-01 2.586695e-01 2.321744e-01 2.123116e-01 8.522544e-02
<GCONST> 1.008536e+02
<MIXTURE> 2 1.383503e-01
<MEAN> 39
 -7.447370e+00 -5.320643e+00 -1.410544e-01 -2.048349e+00 5.556920e+00 -7.195821e+00 -2.676598e+00 -3.279540e+00 -4.289926e+00 -1.500104e+00 1.890931e+00 -3.633165e-01 6.939774e+01 7.315108e-02 2.206314e-01 2.286056e-01 2.602283e-01 2.282978e-01 4.904679e-01 3.920420e-01 3.534891e-01 3.493794e-01 3.053533e-01 2.567702e-01 2.467955e-01 -4.830552e-02 3.998316e-02 7.733197e-02 1.088690e-01 1.001245e-01 9.764939e-02 1.708997e-01 1.596695e-01 1.430324e-01 1.554414e-01 1.131017e-01 9.731269e-02 9.334851e-02 3.080767e-02
<VARIANCE> 39
 4.103741e+01 4.729796e+01 6.436537e+01 5.781054e+01 5.804326e+01 6.728833e+01 7.002341e+01 6.252368e+01 6.195134e+01 5.549241e+01 4.851618e+01 4.829773e+01 7.285020e+01 3.934398e-01 6.740287e-01 9.898992e-01 1.029161e+00 1.098131e+00 1.643329e+00 1.511761e+00 1.447750e+00 1.470842e+00 1.416539e+00 1.332607e+00 1.181720e+00 3.720581e-01 4.426969e-02 7.782063e-02 1.184705e-01 1.351104e-01 1.635644e-01 2.074571e-01 2.162399e-01 2.191995e-01 2.269080e-01 2.154184e-01 2.051153e-01 1.831075e-01 2.655087e-02
<GCONST> 9.841207e+01
<MIXTURE> 3 2.095577e-01
<MEAN> 39
 -9.798045e+00 -2.969699e+00 3.476598e-01 -1.132557e+00 5.360776e+00 -9.329587e-01 2.114571e+00 1.363059e+00 2.394091e-01 9.683608e-01 2.565548e+00 3.038859e-01 6.415553e+01 -1.172893e-01 1.108467e-01 1.289660e-02 1.164039e-01 1.938690e-02 3.151939e-01 2.933738e-01 2.614921e-01 2.888721e-01 3.161276e-01 2.559432e-01 2.346214e-01 -2.032411e-01 8.198428e-02 5.613108e-02 7.443777e-02 5.469945e-02 4.442954e-02 -1.822428e-02 -2.794564e-02 -1.746009e-02 -1.001553e-02 -2.825763e-03 2.688063e-02 5.334528e-02 7.778183e-02
<VARIANCE> 39
 3.835559e+01 3.798717e+01 3.421135e+01 3.653132e+01 3.979216e+01 3.031365e+01 3.499605e+01 3.851980e+01 3.235783e+01 2.798605e+01 2.400356e+01 2.462892e+01 6.747892e+01 4.369329e-01 7.794062e-01 9.249461e-01 1.061975e+00 1.224166e+00 1.295629e+00 1.311651e+00 1.380720e+00 1.390288e+00 1.337037e+00 1.255447e+00 1.199641e+00 3.080331e-01 6.351345e-02 1.091003e-01 1.416465e-01 1.773293e-01 2.107998e-01 2.352479e-01 2.528560e-01 2.700015e-01 2.741660e-01 2.630963e-01 2.462135e-01 2.260089e-01 3.324516e-02
<GCONST> 9.434203e+01
<MIXTURE> 4 1.210481e-01
<MEAN> 39
 -1.028341e+01 -6.993570e+00 -1.794012e+00 -3.882539e+00 3.814077e+00 -8.451573e+00 -3.878071e+00 -5.158392e+00 -5.703026e+00 -3.157232e+00 5.164119e-01 -1.657074e+00 6.532465e+01 3.034190e-02 -9.633382e-02 -1.321133e-01 -1.262398e-01 -1.309404e-01 -2.000136e-01 -1.781391e-01 -1.408054e-01 -1.782805e-01 -1.299161e-01 -7.753050e-02 -6.493381e-02 -4.236584e-02 -3.657541e-02 -1.549059e-02 -2.071239e-02 -1.781912e-02 -1.442506e-02 -3.595797e-03 2.420160e-02 3.346571e-02 3.113311e-02 1.057725e-02 -7.046391e-03 -3.201868e-02 -2.062734e-02
<VARIANCE> 39
 4.141568e+01 3.756289e+01 6.085790e+01 4.917516e+01 4.727830e+01 6.029229e+01 6.396320e+01 6.290094e+01 5.668211e+01 4.757827e+01 3.951829e+01 3.934909e+01 7.578205e+01 3.079780e+00 2.709078e+00 3.834404e+00 2.753681e+00 2.696835e+00 4.359435e+00 3.799962e+00 3.290544e+00 3.265772e+00 2.682596e+00 2.591918e+00 2.301296e+00 1.887629e+00 2.740818e-01 3.136733e-01 3.817227e-01 3.390074e-01 3.490553e-01 4.492707e-01 4.605644e-01 4.305607e-01 4.252755e-01 3.650684e-01 3.529979e-01 3.102425e-01 2.019573e-01
<GCONST> 1.232800e+02
<MIXTURE> 5 1.642330e-01
<MEAN> 39
 -1.184531e+01 -5.674347e+00 -2.162928e+00 -3.182112e+00 3.237536e+00 -2.925500e+00 1.570782e-01 -6.137948e-01 -1.671296e+00 -7.106620e-01 1.207385e+00 -1.102457e+00 6.111436e+01 -3.394298e-01 -2.756532e-01 -4.149028e-01 -3.628231e-01 -5.012085e-01 -3.185089e-01 -3.351839e-01 -3.808609e-01 -3.497786e-01 -2.682367e-01 -2.439990e-01 -1.918138e-01 -3.699995e-01 4.639516e-03 -3.720121e-02 -3.457664e-02 -8.519311e-02 -1.006519e-01 -1.995814e-01 -2.227644e-01 -2.219747e-01 -2.109487e-01 -1.957422e-01 -1.559407e-01 -1.224148e-01 1.996995e-02
<VARIANCE> 39
 2.916542e+01 3.974459e+01 3.397459e+01 3.639168e+01 3.437182e+01 3.231581e+01 3.791553e+01 4.252742e+01 3.658314e+01 3.084157e+01 2.591073e+01 2.529854e+01 5.432821e+01 5.698428e-01 9.249056e-01 1.090772e+00 1.185007e+00 1.411957e+00 1.399863e+00 1.457010e+00 1.536560e+00 1.520185e+00 1.449366e+00 1.379589e+00 1.315376e+00 4.086620e-01 7.297218e-02 1.221658e-01 1.576457e-01 1.895056e-01 2.228390e-01 2.482855e-01 2.697399e-01 2.888524e-01 2.845929e-01 2.718540e-01 2.584127e-01 2.380420e-01 4.009607e-02
<GCONST> 9.711269e+01
<MIXTURE> 6 2.370953e-01
<MEAN> 39
 -8.422539e+00 -8.005325e+00 -3.776498e+00 -4.786867e+00 2.985818e+00 -1.154251e+01 -5.869710e+00 -5.990575e+00 -7.266823e+00 -3.877603e+00 -9.404260e-03 -2.639152e+00 6.745986e+01 -1.949621e-01 -1.343103e-01 -2.197876e-01 -1.766526e-01 -1.881431e-01 -1.347119e-01 -1.378200e-01 -1.365796e-01 -1.553092e-01 -1.455104e-01 -1.453416e-01 -1.359825e-01 -2.523575e-01 -5.383433e-02 -2.143793e-02 -1.350104e-02 -3.780714e-02 -4.483507e-02 -4.838028e-03 -3.544014e-02 -5.667851e-02 -3.641953e-02 -7.514291e-02 -8.349720e-02 -6.983686e-02 -4.600547e-02
<VARIANCE> 39
 3.114972e+01 4.219539e+01 5.996326e+01 6.199408e+01 6.149590e+01 6.881585e+01 7.131128e+01 6.598048e+01 6.465065e+01 6.370300e+01 5.468466e+01 5.628316e+01 7.706261e+01 2.466521e-01 5.159563e-01 7.880823e-01 8.841835e-01 9.923314e-01 1.329867e+00 1.300358e+00 1.292957e+00 1.303939e+00 1.258242e+00 1.200335e+00 1.057247e+00 2.540017e-01 3.223645e-02 6.149041e-02 9.614313e-02 1.133775e-01 1.316224e-01 1.777669e-01 1.805998e-01 1.852684e-01 1.884810e-01 1.848935e-01 1.795036e-01 1.598107e-01 2.275945e-02
<GCONST> 9.373708e+01
<MIXTURE> 7 1.069652e-01
<MEAN> 39
 -9.713407e+00 -1.691558e+00 1.636896e+00 -2.166542e-01 5.903198e+00 -8.954328e-01 9.789543e-01 -1.175043e-01 -1.241428e+00 -5.558532e-01 8.850566e-01 -1.283924e+00 6.385321e+01 -4.647654e-01 -9.653065e-02 -4.358136e-02 1.626429e-01 1.332020e-01 7.127237e-01 7.359053e-01 6.534116e-01 6.741342e-01 5.825199e-01 3.784551e-01 2.401993e-01 -3.910357e-01 1.069152e-01 -4.299110e-02 -6.982030e-02 -8.766939e-02 -8.911428e-02 -1.527789e-01 -9.140534e-02 -3.453606e-02 -1.045287e-02 3.231444e-02 8.569840e-02 1.000371e-01 1.228380e-01
<VARIANCE> 39
 3.839437e+01 3.318611e+01 3.423964e+01 3.532333e+01 3.924475e+01 3.015491e+01 3.415814e+01 3.895757e+01 3.204325e+01 2.710070e+01 2.441645e+01 2.591654e+01 6.592625e+01 7.391098e-01 1.266809e+00 1.467649e+00 1.447278e+00 1.524391e+00 1.631905e+00 1.669982e+00 1.751121e+00 1.742124e+00 1.653366e+00 1.596978e+00 1.504671e+00 4.911088e-01 1.208576e-01 1.581288e-01 1.870111e-01 2.124050e-01 2.459191e-01 2.667427e-01 2.753037e-01 2.802536e-01 2.773559e-01 2.516869e-01 2.324976e-01 2.157339e-01 7.385450e-02
<GCONST> 1.007658e+02
<MIXTURE> 8 1.250820e-02
<MEAN> 39
 -1.369604e+01 -8.340896e+00 -3.226513e+00 -5.719157e+00 2.688867e+00 -9.686015e+00 -5.398413e+00 -7.253744e+00 -7.455426e+00 -5.020006e+00 -1.896023e+00 -4.515630e+00 6.086417e+01 4.110576e-01 -1.745982e-01 -6.893135e-01 -5.450657e-01 -6.220205e-01 -1.393579e+00 -1.531612e+00 -1.329354e+00 -1.358471e+00 -1.094752e+00 -8.348375e-01 -6.060551e-01 -7.032076e-02 1.039699e-02 -1.723305e-01 -2.757942e-01 -2.427434e-01 -2.679774e-01 -3.620789e-01 -3.004369e-01 -2.162325e-01 -2.202188e-01 -1.989350e-01 -1.413275e-01 -1.222528e-01 1.877924e-02
<VARIANCE> 39
 3.236180e+01 3.140877e+01 4.221529e+01 4.045250e+01 4.255838e+01 5.568980e+01 5.750374e+01 5.566682e+01 5.116884e+01 4.476560e+01 3.825259e+01 3.708213e+01 8.796915e+01 2.259027e+00 2.666901e+00 2.345751e+00 2.472158e+00 2.777370e+00 3.070459e+00 3.270219e+00 3.246300e+00 3.057675e+00 2.748766e+00 2.632213e+00 2.591238e+00 1.345102e+00 2.273432e-01 2.466309e-01 2.772266e-01 2.748312e-01 3.047491e-01 4.092002e-01 4.774872e-01 4.569118e-01 4.327233e-01 3.816594e-01 3.688216e-01 3.167906e-01 1.429747e-01
<GCONST> 1.188086e+02
<STATE> 4
<NUMMIXES> 8
<MIXTURE> 1 2.938385e-02
<MEAN> 39
 -8.262281e+00 4.941555e-01 7.125062e-01 2.983796e-01 4.786147e+00 -8.396268e-01 1.591621e+00 1.708480e+00 6.051821e-01 1.892700e+00 3.014994e+00 1.077007e+00 6.453764e+01 8.098426e-02 2.884373e-01 3.374164e-01 4.163058e-01 4.447421e-01 6.283901e-01 6.214880e-01 6.348960e-01 6.589246e-01 6.295463e-01 5.413129e-01 4.568105e-01 4.424176e-02 8.931564e-02 9.980927e-02 1.304723e-01 1.525734e-01 1.730196e-01 1.767574e-01 1.721970e-01 1.767588e-01 1.706022e-01 1.669191e-01 1.633104e-01 1.558002e-01 7.050569e-02
<VARIANCE> 39
 1.815032e+01 2.365628e+01 1.769222e+01 1.962487e+01 2.222748e+01 1.485899e+01 1.724466e+01 1.867259e+01 1.650053e+01 1.481855e+01 1.321271e+01 1.228148e+01 4.764748e+01 1.323732e-01 2.409338e-01 3.634735e-01 4.724904e-01 5.601255e-01 6.537529e-01 7.512177e-01 8.168248e-01 8.632335e-01 8.728780e-01 8.340050e-01 8.255346e-01 6.649424e-02 1.886707e-02 3.830668e-02 6.034057e-02 8.728572e-02 1.093421e-01 1.375464e-01 1.575861e-01 1.687357e-01 1.739479e-01 1.715646e-01 1.644898e-01 1.535878e-01 7.590835e-03
<GCONST> 6.717518e+01
<MIXTURE> 2 1.694390e-01
<MEAN> 39
 -3.777692e+00 -3.469155e+00 7.272812e-01 -1.740396e+00 5.990896e+00 -1.033675e+01 -3.432814e+00 -1.948789e+00 -4.443127e+00 -1.000283e+00 1.347462e+00 -2.504411e+00 7.188531e+01 6.102216e-03 1.110354e-01 1.068303e-01 1.279645e-01 1.232244e-01 2.042165e-01 1.467564e-01 1.454601e-01 1.475430e-01 1.228708e-01 1.129841e-01 1.231297e-01 -7.092106e-02 1.141713e-02 2.177114e-02 3.112937e-02 3.702492e-02 4.101494e-02 4.847954e-02 4.737712e-02 3.924008e-02 4.426313e-02 4.355386e-02 4.587776e-02 5.057470e-02 1.149749e-02
<VARIANCE> 39
 2.378731e+01 4.274266e+01 5.184607e+01 6.148629e+01 6.194789e+01 9.794568e+01 7.566445e+01 6.578366e+01 5.668476e+01 4.978519e+01 4.124727e+01 3.793845e+01 5.470359e+01 4.399633e-02 1.213661e-01 1.825964e-01 2.509535e-01 3.047410e-01 3.832952e-01 4.230856e-01 4.351182e-01 4.511146e-01 4.418310e-01 4.157723e-01 3.720306e-01 3.894794e-02 5.322424e-03 1.547082e-02 2.412147e-02 3.424771e-02 4.298038e-02 5.364110e-02 6.112439e-02 6.302217e-02 6.560755e-02 6.456800e-02 6.230498e-02 5.594603e-02 3.496679e-03
<GCONST> 5.940073e+01
<MIXTURE> 3 8.187061e-02
<MEAN> 39
 -6.581633e+00 -7.927832e+00 -4.212232e+00 -5.731865e+00 2.542363e+00 -1.235651e+01 -5.530811e+00 -5.519673e+00 -7.129067e+00 -3.370292e+00 9.628238e-01 -2.048008e+00 6.873710e+01 -8.669287e-02 -4.592301e-02 -7.681325e-02 -7.556235e-02 -8.519617e-02 -1.100485e-02 -3.570664e-02 -4.658858e-02 -5.788269e-02 -5.800215e-02 -6.565047e-02 -5.883270e-02 -1.437407e-01 -2.679813e-02 4.960886e-03 1.333641e-02 5.082536e-03 6.355217e-04 3.788916e-03 -1.593609e-02 -1.870382e-02 -7.927683e-03 -2.361311e-02 -4.007083e-02 -3.716731e-02 -2.846443e-02
<VARIANCE> 39
 2.823296e+01 4.268745e+01 4.548508e+01 5.375877e+01 5.371170e+01 7.190956e+01 7.561942e+01 6.232345e+01 6.099508e+01 6.577354e+01 5.212768e+01 5.317417e+01 9.271495e+01 9.428078e-02 2.397963e-01 3.741193e-01 4.926153e-01 6.158311e-01 7.431223e-01 8.226414e-01 8.447506e-01 8.304775e-01 8.218569e-01 7.777257e-01 7.017801e-01 9.085469e-02 1.141995e-02 2.650887e-02 4.326958e-02 5.884944e-02 7.469560e-02 9.683680e-02 1.045428e-01 1.083710e-01 1.128329e-01 1.155527e-01 1.079813e-01 9.906124e-02 7.494818e-03
<GCONST> 7.677576e+01
<MIXTURE> 4 1.603664e-01
<MEAN> 39
 -8.089346e+00 -3.614461e+00 1.701121e+00 -1.111742e+00 5.858448e+00 -5.007062e+00 -1.188870e+00 -1.741680e+00 -2.980032e+00 -1.002468e+00 9.614280e-01 -1.780943e+00 6.794249e+01 -1.108941e-01 9.498899e-02 1.676161e-01 1.984607e-01 1.501654e-01 4.076683e-01 2.936593e-01 2.350901e-01 2.654821e-01 2.034537e-01 1.521437e-01 1.541970e-01 -1.378233e-01 5.339399e-02 2.667036e-02 8.636891e-03 2.388939e-02 2.867076e-02 1.711148e-02 3.312713e-02 4.975123e-02 4.642470e-02 5.434666e-02 6.260671e-02 6.287131e-02 3.514792e-02
<VARIANCE> 39
 5.249711e+01 4.963671e+01 5.840662e+01 4.731610e+01 4.457002e+01 6.614090e+01 6.124671e+01 5.521432e+01 4.947199e+01 3.973030e+01 3.475196e+01 3.458556e+01 7.902010e+01 5.760107e-01 7.258121e-01 9.857255e-01 9.301198e-01 9.903537e-01 1.348645e+00 1.247701e+00 1.222298e+00 1.231067e+00 1.132193e+00 1.060896e+00 9.776399e-01 4.047020e-01 5.742055e-02 7.315164e-02 1.033551e-01 1.074638e-01 1.222332e-01 1.629056e-01 1.586792e-01 1.602120e-01 1.619598e-01 1.503205e-01 1.402659e-01 1.283588e-01 3.656496e-02
<GCONST> 9.324083e+01
<MIXTURE> 5 1.895634e-01
<MEAN> 39
 -5.256190e+00 -7.240816e+00 -1.828487e+00 -4.515731e+00 2.967569e+00 -1.506030e+01 -7.115777e+00 -5.659365e+00 -7.306502e+00 -3.366958e+00 -1.039656e+00 -4.863664e+00 7.107455e+01 -6.384373e-02 -2.507363e-02 -4.867802e-02 -5.573210e-02 -7.128096e-02 -3.054820e-02 -7.460698e-02 -7.485466e-02 -8.108614e-02 -8.767640e-02 -9.854694e-02 -9.009253e-02 -1.309684e-01 -1.451961e-02 -1.710170e-02 -2.254889e-02 -2.656228e-02 -2.498665e-02 -2.702215e-02 -3.594599e-02 -4.197812e-02 -3.875142e-02 -3.921321e-02 -3.187542e-02 -3.102557e-02 -1.267566e-02
<VARIANCE> 39
 2.521433e+01 4.218949e+01 5.478812e+01 6.370676e+01 6.404222e+01 8.755798e+01 7.693513e+01 6.393891e+01 5.764579e+01 5.731958e+01 4.670768e+01 4.406911e+01 6.971955e+01 4.127919e-02 1.124514e-01 1.731418e-01 2.261830e-01 2.841526e-01 3.386670e-01 3.829566e-01 3.976695e-01 4.077885e-01 3.922083e-01 3.759691e-01 3.340752e-01 3.493762e-02 5.015514e-03 1.381637e-02 2.116589e-02 2.911990e-02 3.698926e-02 4.498718e-02 5.142457e-02 5.360619e-02 5.561414e-02 5.438985e-02 5.220555e-02 4.668354e-02 3.192075e-03
<GCONST> 5.699101e+01
<MIXTURE> 6 1.111481e-01
<MEAN> 39
 -9.287801e+00 -6.121825e+00 -1.972753e+00 -3.854287e+00 3.301632e+00 -8.667652e+00 -4.371105e+00 -4.709229e+00 -5.870832e+00 -3.280739e+00 -5.223957e-01 -3.051400e+00 6.465981e+01 -1.128383e-01 -1.071973e-01 -1.950600e-01 -1.581282e-01 -2.198295e-01 -2.077159e-01 -2.679243e-01 -2.707375e-01 -2.760907e-01 -2.504170e-01 -2.375454e-01 -1.844169e-01 -2.024229e-01 -4.802875e-02 -5.443913e-02 -4.958364e-02 -6.197149e-02 -6.210558e-02 -6.728522e-02 -5.554020e-02 -5.442375e-02 -5.767845e-02 -6.174845e-02 -6.201370e-02 -6.805862e-02 -2.066349e-02
<VARIANCE> 39
 4.030097e+01 4.630379e+01 4.841716e+01 4.337150e+01 4.182694e+01 6.517023e+01 5.996109e+01 5.507614e+01 5.060105e+01 4.185088e+01 3.625525e+01 3.680347e+01 8.296510e+01 6.435016e-01 7.237041e-01 9.699134e-01 9.629734e-01 1.028231e+00 1.499981e+00 1.332812e+00 1.285579e+00 1.301700e+00 1.190419e+00 1.143641e+00 1.031845e+00 4.182414e-01 5.924276e-02 7.130974e-02 9.867585e-02 1.115147e-01 1.250297e-01 1.712500e-01 1.705375e-01 1.728664e-01 1.749771e-01 1.621442e-01 1.552557e-01 1.414119e-01 3.373754e-02
<GCONST> 9.390077e+01
<MIXTURE> 7 2.497243e-01
<MEAN> 39
 -9.386394e+00 -2.397924e+00 -9.567031e-01 -1.221082e+00 3.738203e+00 -2.210244e+00 2.614625e-01 1.567832e-01 -1.132217e+00 3.727658e-01 1.832673e+00 -3.247929e-01 6.266885e+01 -6.912267e-02 6.018823e-02 3.179378e-02 5.472947e-02 1.758655e-02 1.342545e-01 9.057903e-02 7.211290e-02 9.122504e-02 8.322755e-02 5.754787e-02 6.162957e-02 -9.088350e-02 2.301717e-02 1.117879e-02 1.749382e-02 1.437215e-02 1.605050e-02 2.641675e-03 -1.294576e-03 2.876490e-03 2.247060e-03 6.522698e-03 1.226507e-02 1.721114e-02 2.567394e-02
<VARIANCE> 39
 2.444779e+01 3.169843e+01 2.003288e+01 2.112667e+01 2.333146e+01 1.860218e+01 1.995659e+01 2.196662e+01 2.146390e+01 1.776013e+01 1.515533e+01 1.523074e+01 5.363047e+01 1.172539e-01 2.258805e-01 3.392651e-01 4.646156e-01 5.789835e-01 6.881993e-01 7.710879e-01 8.486567e-01 8.907596e-01 8.885422e-01 8.432113e-01 8.056419e-01 6.788774e-02 1.679119e-02 3.517997e-02 5.685673e-02 8.240825e-02 1.069136e-01 1.316876e-01 1.500465e-01 1.660655e-01 1.759364e-01 1.749770e-01 1.662975e-01 1.569810e-01 7.104452e-03
<GCONST> 6.894182e+01
<MIXTURE> 8 8.423012e-03
<MEAN> 39
 -9.022444e+00 -1.058764e+01 -6.837760e+00 -8.595783e+00 -1.555957e-01 -1.409010e+01 -7.630985e+00 -7.437397e+00 -8.402389e+00 -5.257512e+00 -6.440594e-01 -3.590877e+00 6.393097e+01 -2.157083e-01 -2.301725e-01 -3.038095e-01 -3.569443e-01 -4.186906e-01 -3.927576e-01 -4.393189e-01 -4.590037e-01 -4.616966e-01 -4.453180e-01 -4.430134e-01 -3.939209e-01 -2.426136e-01 -6.564570e-02 -7.435601e-02 -9.207051e-02 -1.074730e-01 -1.220974e-01 -1.534961e-01 -1.655066e-01 -1.683681e-01 -1.713275e-01 -1.686542e-01 -1.700634e-01 -1.662195e-01 -4.929022e-02
<VARIANCE> 39
 1.902573e+01 3.667643e+01 3.495723e+01 5.369913e+01 5.190453e+01 8.171584e+01 7.060410e+01 6.180594e+01 5.915753e+01 6.526482e+01 5.029946e+01 5.298111e+01 1.216927e+02 7.049850e-02 1.859254e-01 2.834642e-01 3.895251e-01 5.040460e-01 5.742687e-01 6.719930e-01 7.135545e-01 7.343354e-01 7.125406e-01 6.687348e-01 6.177268e-01 5.922965e-02 8.514510e-03 2.126506e-02 3.455232e-02 4.886229e-02 6.267109e-02 7.632251e-02 8.757801e-02 9.114853e-02 9.880690e-02 9.836940e-02 9.481539e-02 8.629172e-02 4.857833e-03
<GCONST> 7.063308e+01
<TRANSP> 5
 0.000000e+00 1.000000e+00 0.000000e+00 0.000000e+00 0.000000e+00
 0.000000e+00 6.380864e-01 3.619136e-01 0.000000e+00 0.000000e+00
 0.000000e+00 0.000000e+00 7.682666e-01 2.317334e-01 0.000000e+00
 0.000000e+00 0.000000e+00 0.000000e+00 7.889283e-01 2.110717e-01
 0.000000e+00 0.000000e+00 0.000000e+00 0.000000e+00 0.000000e+00
<ENDHMM>
~h "J"
<BEGINHMM>
<NUMSTATES> 5
<STATE> 2
<NUMMIXES> 8
<MIXTURE> 1 1.163812e-03
<MEAN> 39
 -2.374291e+00 -1.576712e+00 7.851673e+00 5.883535e+00 1.477934e+01 -6.389939e+00 -2.443857e+00 -5.266699e-02 -1.775884e+00 -3.006345e+00 6.458545e+00 2.971558e+00 8.109483e+01 4.367556e-02 1.587326e+00 1.791577e+00 1.007444e+00 8.325033e-01 2.031885e+00 1.634247e+00 1.000290e+00 1.054099e+00 6.392272e-01 8.828343e-02 -2.612986e-01 -6.065335e-01 2.982895e-01 2.312193e-01 9.006685e-02 7.850921e-02 6.629887e-02 5.488619e-01 3.599157e-01 2.516279e-01 4.155679e-01 3.516619e-01 1.809092e-01 2.674776e-01 2.639509e-01
<VARIANCE> 39
 1.264371e+01 1.863633e+01 2.113398e+01 2.981414e+01 3.161456e+01 3.716602e+01 3.094829e+01 5.852107e+01 3.718725e+01 2.793515e+01 2.672158e+01 3.096313e+01 7.652846e+01 9.036205e-01 8.579908e-01 1.573336e+00 2.731513e+00 1.958915e+00 2.828427e+00 2.365740e+00 2.773993e+00 3.150315e+00 2.303202e+00 2.437119e+00 2.532706e+00 7.513950e-01 7.230321e-02 2.046366e-01 1.555759e-01 2.882545e-01 3.118950e-01 4.898953e-01 4.146513e-01 5.377079e-01 4.750688e-01 3.613445e-01 3.997442e-01 3.265783e-01 1.535057e-01
<GCONST> 1.081014e+02
<MIXTURE> 2 2.284762e-01
<MEAN> 39
 -4.629358e-01 -4.048027e+00 1.247384e+00 1.379597e-01 8.740822e+00 -7.050520e+00 -3.746678e+00 -4.172570e+00 -5.066255e+00 -3.585220e+00 6.025025e+00 2.967162e+00 7.902728e+01 -3.790908e-01 5.133929e-01 1.351672e+00 1.167038e+00 8.753684e-01 3.878168e-01 -3.965999e-02 1.441410e-01 1.545483e-01 1.516261e-01 3.537454e-01 -2.787441e-01 -3.668652e-01 2.928350e-02 1.950630e-01 1.503403e-01 1.003946e-01 -9.103983e-03 1.696477e-01 2.330493e-01 3.092835e-01 3.008510e-01 1.058796e-01 -8.757885e-02 -1.058460e-01 -8.353988e-02
<VARIANCE> 39
 1.236677e+01 2.455999e+01 2.998078e+01 3.416901e+01 3.115308e+01 5.171327e+01 4.531260e+01 6.524449e+01 4.112626e+01 4.423495e+01 3.551815e+01 3.981293e+01 5.440241e+01 1.861582e-01 5.367321e-01 7.619777e-01 8.878022e-01 1.273625e+00 1.439926e+00 1.798273e+00 1.938675e+00 1.966029e+00 1.678559e+00 1.970068e+00 1.700505e+00 3.333309e-01 3.079729e-02 7.619318e-02 1.213365e-01 1.561341e-01 1.872499e-01 2.627062e-01 3.019325e-01 2.841170e-01 3.016461e-01 2.959900e-01 2.929876e-01 2.876860e-01 3.682616e-02
<GCONST> 9.524376e+01
<MIXTURE> 3 1.856841e-01
<MEAN> 39
 -1.320353e+00 -3.902742e+00 3.269257e+00 3.500801e+00 1.166792e+01 -8.973797e+00 -5.466339e+00 -1.776245e+00 -6.206546e+00 -5.748607e+00 5.981233e+00 1.611526e+00 7.658202e+01 -3.438302e-01 1.009685e+00 1.482538e+00 8.879148e-01 3.400672e-01 1.050583e+00 5.466118e-01 3.849504e-01 5.370333e-01 3.956860e-01 -1.692054e-01 -7.886707e-01 -7.718289e-01 1.035594e-01 1.582901e-01 -4.443971e-03 -6.993412e-02 -8.468376e-02 2.893183e-01 2.202654e-01 1.187506e-01 3.512717e-01 2.032233e-01 -9.841613e-02 -5.229200e-02 3.077237e-02
<VARIANCE> 39
 1.111148e+01 1.691518e+01 3.546359e+01 2.957471e+01 3.936161e+01 3.955545e+01 4.758701e+01 5.018679e+01 4.373503e+01 3.436587e+01 3.101893e+01 4.436485e+01 4.528972e+01 3.403957e-01 7.702238e-01 1.377516e+00 1.583621e+00 1.705989e+00 2.135491e+00 2.045926e+00 2.137640e+00 2.390489e+00 1.842160e+00 1.954196e+00 2.458082e+00 4.926828e-01 4.363466e-02 1.370742e-01 1.912945e-01 1.870055e-01 2.520185e-01 4.069890e-01 3.396843e-01 3.249454e-01 3.871520e-01 3.045840e-01 3.079832e-01 4.050381e-01 9.254906e-02
<GCONST> 1.023765e+02
<MIXTURE> 4 6.430469e-02
<MEAN> 39
 -4.209956e+00 -8.870904e+00 1.096384e+00 -1.397176e+00 5.805612e+00 -1.206898e+01 -7.302165e+00 -1.104295e+01 -8.986287e+00 -5.910901e+00 1.500483e+00 -2.532650e+00 8.119406e+01 -4.318529e-01 4.639706e-01 9.973484e-01 8.433090e-01 4.373926e-01 -9.007452e-02 -4.517215e-02 1.997472e-01 -4.035972e-01 -6.027715e-01 -4.450499e-01 -9.352068e-01 -1.087034e+00 1.609956e-02 8.171459e-02 -1.317042e-01 -9.605049e-02 -1.471877e-01 5.552872e-02 1.316088e-01 2.130914e-01 1.687531e-01 -1.232565e-01 -1.316191e-01 -1.644077e-01 -2.874932e-01
<VARIANCE> 39
 1.470096e+01 2.496371e+01 4.273378e+01 5.449085e+01 3.438615e+01 7.403418e+01 4.160889e+01 4.319119e+01 4.971077e+01 4.259487e+01 3.040346e+01 4.080080e+01 7.411422e+01 4.561400e-01 9.999814e-01 1.205616e+00 1.611596e+00 1.422746e+00 2.652499e+00 2.688716e+00 2.611238e+00 2.572432e+00 2.524064e+00 2.072800e+00 2.044748e+00 9.319276e-01 5.918137e-02 1.968323e-01 2.088943e-01 3.454500e-01 2.957997e-01 4.837061e-01 4.787867e-01 4.296103e-01 4.671214e-01 4.491571e-01 3.469681e-01 4.286336e-01 1.223946e-01
<GCONST> 1.099843e+02
<MIXTURE> 5 1.563478e-01
<MEAN> 39
 -2.519440e+00 -5.157524e+00 1.638991e+00 1.386475e+00 8.489848e+00 -1.041930e+01 -6.613307e+00 -5.019404e+00 -8.668812e+00 -7.001497e+00 3.183198e+00 -2.060384e+00 7.361909e+01 -5.431859e-01 7.148052e-01 1.013058e+00 3.449696e-01 -1.907794e-01 5.699989e-01 -1.591637e-01 -5.333115e-02 2.342110e-01 -1.917726e-01 -9.108412e-01 -1.497175e+00 -1.159213e+00 2.698755e-02 -3.471697e-02 -2.440704e-01 -2.532419e-01 -2.645071e-01 -6.497540e-02 -9.315591e-02 -9.123328e-02 1.211439e-01 -6.628626e-02 -2.584391e-01 -1.628764e-01 -4.426347e-02
<VARIANCE> 39
 9.665608e+00 1.853595e+01 3.671964e+01 3.292438e+01 3.532977e+01 4.383193e+01 4.355393e+01 4.799771e+01 4.257761e+01 3.679620e+01 3.557332e+01 4.349773e+01 3.436621e+01 3.942097e-01 7.601222e-01 1.563851e+00 1.750777e+00 1.785734e+00 2.162879e+00 2.495045e+00 2.392167e+00 3.182887e+00 2.157132e+00 2.567244e+00 2.651792e+00 4.691914e-01 4.560245e-02 1.404779e-01 1.917763e-01 1.790032e-01 2.339969e-01 4.462150e-01 3.296992e-01 3.258034e-01 3.785055e-01 3.067056e-01 3.188005e-01 4.209739e-01 9.405176e-02
<GCONST> 1.037807e+02
<MIXTURE> 6 2.434834e-01
<MEAN> 39
 -1.725828e+00 -6.270587e+00 -6.200974e-01 -2.833056e+00 6.211956e+00 -8.938305e+00 -6.273450e+00 -9.569677e+00 -7.096816e+00 -4.404863e+00 2.638215e+00 -5.751188e-01 7.661207e+01 -5.543393e-01 2.281898e-01 1.005712e+00 6.964748e-01 3.916611e-01 -1.138904e-01 -6.053476e-01 -3.254408e-01 -3.745253e-01 -4.931096e-01 -4.147776e-01 -8.548522e-01 -7.114358e-01 -4.871227e-02 5.013939e-02 -3.040380e-02 -7.999130e-02 -1.629143e-01 -6.461557e-02 7.281563e-03 1.645570e-01 4.827201e-02 -1.987811e-01 -2.973973e-01 -2.678931e-01 -2.023194e-01
<VARIANCE> 39
 1.211265e+01 3.740353e+01 3.778720e+01 4.137651e+01 3.254001e+01 7.408210e+01 4.239856e+01 6.352581e+01 4.332109e+01 4.594843e+01 3.663353e+01 3.487300e+01 5.080673e+01 1.809168e-01 5.558431e-01 7.896651e-01 9.482667e-01 1.256615e+00 1.508476e+00 2.012052e+00 2.076679e+00 2.288343e+00 1.730517e+00 2.189540e+00 1.715279e+00 3.635546e-01 3.080387e-02 7.888676e-02 1.168451e-01 1.565154e-01 1.771661e-01 2.599816e-01 3.005913e-01 2.989147e-01 3.388808e-01 3.319553e-01 3.007495e-01 2.830745e-01 3.985170e-02
<GCONST> 9.730212e+01
<MIXTURE> 7 1.435819e-02
<MEAN> 39
 -5.497985e+00 -8.649372e+00 7.785649e-01 -8.389113e-01 4.993614e+00 -1.774694e+01 -7.779161e+00 -1.096046e+01 -1.405325e+01 -1.140747e+01 -1.880629e+00 -9.139436e+00 7.143900e+01 -4.797904e-01 3.098098e-01 2.666573e-01 6.380504e-02 -1.489119e-01 -3.755138e-01 -6.865748e-01 -3.834165e-02 -4.412352e-01 -1.298683e+00 -9.979079e-01 -1.749284e+00 -1.426220e+00 -5.933750e-02 -3.452506e-01 -4.016711e-01 -6.162530e-01 -4.286077e-01 -2.766443e-01 -3.972248e-01 -3.744034e-01 -9.059679e-02 -1.899510e-01 -1.336442e-01 -7.333725e-02 -6.078085e-02
<VARIANCE> 39
 5.360721e+00 2.021039e+01 1.978102e+01 5.132517e+01 2.513005e+01 3.055384e+01 2.875466e+01 2.494666e+01 2.353898e+01 4.056471e+01 2.130942e+01 4.275554e+01 4.274747e+01 3.908707e-01 1.840862e+00 1.120516e+00 2.361064e+00 2.326895e+00 2.367312e+00 1.485801e+00 3.662783e+00 2.119886e+00 4.015014e+00 2.865530e+00 3.094730e+00 7.507626e-01 4.771286e-02 1.991517e-01 1.124101e-01 3.136491e-01 2.712533e-01 2.513584e-01 2.116114e-01 4.864461e-01 2.855382e-01 3.535775e-01 4.024009e-01 4.738062e-01 1.233183e-01
<GCONST> 1.030136e+02
<MIXTURE> 8 1.061794e-01
<MEAN> 39
 -3.240347e+00 -3.086290e+00 5.331474e+00 3.059273e+00 1.192823e+01 -7.621696e+00 -4.877175e+00 -3.392005e+00 -4.636152e+00 -4.799092e+00 3.560576e+00 -8.666089e-02 7.702647e+01 -2.138684e-01 1.238364e+00 1.217397e+00 5.804735e-01 7.971256e-02 1.420857e+00 8.931441e-01 3.557763e-01 7.042882e-01 1.134051e-01 -4.137671e-01 -8.780035e-01 -9.749541e-01 1.759426e-01 4.457375e-02 -1.467058e-01 -8.145297e-02 -1.259048e-01 1.788267e-01 7.857189e-02 4.438433e-02 1.637369e-01 7.938490e-02 3.667410e-02 7.830110e-02 1.630991e-01
<VARIANCE> 39
 1.410272e+01 2.029117e+01 2.672517e+01 3.693938e+01 4.006390e+01 4.977251e+01 3.998278e+01 5.871599e+01 3.741386e+01 3.271843e+01 2.638969e+01 3.350618e+01 5.572180e+01 1.039550e+00 1.077153e+00 2.243796e+00 3.028913e+00 2.518442e+00 3.229146e+00 3.064001e+00 4.173599e+00 3.168247e+00 2.691869e+00 2.597895e+00 2.876420e+00 8.359871e-01 1.064091e-01 2.100013e-01 2.199493e-01 3.686079e-01 4.140701e-01 6.076483e-01 5.427527e-01 6.672673e-01 4.857890e-01 4.026299e-01 3.723723e-01 4.088778e-01 1.856952e-01
<GCONST> 1.142456e+02
<STATE> 3
<NUMMIXES> 8
<MIXTURE> 1 1.873198e-03
<MEAN> 39
 -6.869971e+00 2.755853e+00 1.184970e+01 7.503286e+00 1.272463e+01 -4.598608e-01 3.219188e-01 -3.961896e-01 3.417135e+00 6.134170e-01 2.807957e+00 -1.602895e+00 7.567163e+01 4.869685e-01 4.085061e-01 4.585909e-01 5.392628e-01 7.996842e-01 1.137344e+00 6.308375e-01 4.544599e-01 7.731226e-01 8.601525e-01 8.830537e-01 9.704103e-01 5.361518e-01 4.191884e-01 -2.482387e-02 1.402630e-01 9.296636e-02 1.996414e-01 9.292869e-02 4.501824e-01 3.165045e-01 1.081256e-01 2.484751e-01 3.790889e-01 3.838516e-01 3.893350e-01
<VARIANCE> 39
 3.341076e+01 1.222886e+01 2.014103e+01 2.307944e+01 1.991664e+01 4.504676e+01 5.280029e+01 5.533866e+01 7.490978e+01 4.682576e+01 2.079210e+01 2.116500e+01 6.196749e+01 1.217905e+00 1.598627e+00 1.493162e+00 1.454671e+00 2.296078e+00 3.861356e+00 2.073066e+00 3.904309e+00 1.833809e+00 2.278171e+00 1.740274e+00 1.943899e+00 9.088051e-01 1.760718e-01 1.732542e-01 3.136784e-01 3.762753e-01 3.561134e-01 3.915380e-01 6.079199e-01 4.517025e-01 3.817867e-01 3.017599e-01 2.725613e-01 3.113476e-01 1.302389e-01
<GCONST> 1.096998e+02
<MIXTURE> 2 1.538237e-01
<MEAN> 39
 -3.698756e+00 -2.329032e+00 8.836037e+00 6.292899e+00 1.010308e+01 -8.487065e+00 -3.806131e+00 -1.003233e+00 -3.170590e+00 -4.654104e+00 4.161369e+00 -2.837944e+00 7.545289e+01 2.367127e-01 -4.825985e-01 -1.708831e-01 4.399944e-01 5.543912e-01 -5.989869e-01 -6.502955e-01 3.916734e-01 3.352209e-01 2.959342e-01 7.629108e-01 6.734424e-01 6.579294e-01 1.629909e-01 7.618411e-02 -1.519224e-01 -8.558133e-02 1.689054e-01 3.373067e-01 7.380974e-02 -8.080195e-02 1.432603e-01 1.602435e-01 1.024622e-01 2.300262e-01 7.325680e-02
<VARIANCE> 39
 1.499164e+01 1.714827e+01 2.478078e+01 3.282032e+01 3.470479e+01 4.085543e+01 5.180751e+01 4.424858e+01 4.532759e+01 3.099678e+01 3.776960e+01 3.325111e+01 5.429841e+01 4.726598e-01 7.838928e-01 1.095397e+00 1.329383e+00 1.367672e+00 2.445471e+00 2.317529e+00 2.019724e+00 2.269813e+00 1.743357e+00 1.767041e+00 1.539402e+00 4.508623e-01 6.853008e-02 1.267388e-01 1.490819e-01 2.132912e-01 2.416543e-01 3.482593e-01 4.410099e-01 3.406655e-01 3.782679e-01 2.903202e-01 3.142667e-01 2.250872e-01 5.649803e-02
<GCONST> 1.007169e+02
<MIXTURE> 3 2.914825e-01
<MEAN> 39
 -2.693221e+00 4.560658e-01 8.086351e+00 3.892763e+00 9.301348e+00 -3.048627e+00 -3.685954e+00 -3.871128e+00 -2.487113e+00 -4.305520e+00 1.246600e+00 -4.308375e+00 7.193079e+01 5.458456e-02 1.472001e-01 2.749534e-01 3.517256e-01 1.195980e-01 1.104184e-01 1.929310e-01 4.559194e-01 2.702012e-01 1.140502e-01 3.017852e-01 2.249049e-01 1.977713e-01 5.531224e-02 -1.576224e-01 -2.589629e-02 8.810909e-02 1.059526e-01 -1.958010e-01 1.047217e-01 1.580030e-01 -2.669906e-02 1.390722e-01 2.770940e-01 2.765332e-01 2.721766e-01
<VARIANCE> 39
 1.184285e+01 1.846050e+01 3.076627e+01 3.626284e+01 3.220405e+01 4.734894e+01 3.981108e+01 5.358691e+01 4.516473e+01 3.907990e+01 5.826111e+01 3.118930e+01 3.185679e+01 3.181165e-01 8.827059e-01 8.644277e-01 1.312496e+00 1.075952e+00 2.559340e+00 1.756226e+00 2.043687e+00 2.080352e+00 1.756284e+00 2.148727e+00 1.462439e+00 4.820843e-01 6.052469e-02 1.165688e-01 1.850665e-01 2.481572e-01 2.248535e-01 3.472273e-01 3.673802e-01 3.840159e-01 3.872044e-01 3.239486e-01 3.695540e-01 3.075375e-01 5.615875e-02
<GCONST> 1.007038e+02
<MIXTURE> 4 6.760442e-02
<MEAN> 39
 -5.562202e+00 -7.045516e+00 6.314896e+00 1.592066e+00 5.893276e+00 -1.403413e+01 -7.152079e+00 -8.178237e+00 -7.983355e+00 -6.805886e+00 3.593053e-01 -6.347795e+00 7.684319e+01 -9.376139e-02 -6.523948e-01 -3.469651e-01 -2.388332e-01 -1.731704e-01 -5.037128e-01 -7.719375e-01 -3.820305e-01 5.178761e-02 9.895280e-02 2.104655e-01 2.936969e-01 3.026598e-01 -1.066427e-02 -1.362494e-01 -2.806988e-01 -1.726387e-01 -7.507487e-02 -5.358326e-02 -1.073609e-01 -1.399442e-01 -9.471378e-02 -5.114757e-02 -4.538806e-02 9.067091e-02 2.084394e-03
<VARIANCE> 39
 1.431056e+01 3.031896e+01 2.736880e+01 4.323677e+01 4.815728e+01 7.099188e+01 6.628497e+01 3.548975e+01 5.654199e+01 4.827414e+01 3.081816e+01 4.906851e+01 6.431062e+01 3.933902e-01 6.543756e-01 1.390734e+00 1.172502e+00 1.470975e+00 1.211765e+00 1.724744e+00 1.435230e+00 1.325338e+00 1.369871e+00 1.113741e+00 9.442258e-01 3.797799e-01 5.304970e-02 1.176251e-01 1.580769e-01 1.990820e-01 2.772700e-01 2.567445e-01 3.401264e-01 2.059855e-01 2.351633e-01 2.204184e-01 1.951111e-01 1.975556e-01 5.433758e-02
<GCONST> 9.745371e+01
<MIXTURE> 5 2.022123e-01
<MEAN> 39
 -3.725398e+00 -1.616541e+00 5.742623e+00 1.574017e+00 7.093969e+00 -6.395817e+00 -5.576156e+00 -5.706618e+00 -4.862930e+00 -6.375406e+00 -1.285716e+00 -6.674160e+00 7.064610e+01 -2.596272e-01 -2.426657e-01 -4.386003e-02 -1.271784e-01 -3.737217e-01 -5.779617e-01 -3.228592e-01 -1.047963e-01 -2.045017e-01 -3.950523e-01 -3.297411e-01 -3.172006e-01 -2.142393e-01 -8.343603e-02 -3.139608e-01 -2.494240e-01 -1.319010e-01 -6.100351e-02 -4.167145e-01 -1.815600e-01 -1.747029e-01 -3.017447e-01 -1.175806e-01 8.441222e-02 1.647719e-01 1.736430e-01
<VARIANCE> 39
 1.151800e+01 2.294536e+01 2.834227e+01 4.023904e+01 3.006246e+01 4.849324e+01 4.413850e+01 4.774055e+01 4.762139e+01 4.079448e+01 4.946620e+01 3.208985e+01 2.899831e+01 4.089825e-01 9.788461e-01 1.005601e+00 1.603741e+00 1.400532e+00 2.540429e+00 1.902230e+00 2.093260e+00 2.545771e+00 2.109544e+00 2.319882e+00 1.767926e+00 6.224412e-01 7.870653e-02 1.451961e-01 2.230693e-01 2.962913e-01 2.599781e-01 3.307872e-01 3.914802e-01 3.971737e-01 4.430942e-01 3.837507e-01 3.452508e-01 3.772297e-01 7.318434e-02
<GCONST> 1.044437e+02
<MIXTURE> 6 1.668204e-01
<MEAN> 39
 -4.555310e+00 -4.550247e+00 6.621447e+00 3.714542e+00 7.508647e+00 -1.100921e+01 -6.289825e+00 -3.803518e+00 -5.846277e+00 -6.554881e+00 1.740783e+00 -5.119506e+00 7.373348e+01 1.448090e-03 -8.798410e-01 -5.983495e-01 -4.184606e-02 1.535518e-01 -1.143327e+00 -1.236572e+00 -2.435599e-01 -2.521858e-01 -1.275161e-01 3.450458e-01 2.889470e-01 3.954989e-01 4.569158e-02 -4.024136e-02 -3.040223e-01 -2.850198e-01 -1.581388e-02 1.151118e-01 -1.849683e-01 -3.151267e-01 -7.709066e-02 -4.356295e-02 -1.046351e-01 5.604156e-02 -4.895844e-02
<VARIANCE> 39
 1.340197e+01 2.044025e+01 2.876743e+01 3.910036e+01 3.729301e+01 4.292310e+01 5.359201e+01 4.932819e+01 4.201219e+01 3.029512e+01 4.010431e+01 3.527808e+01 4.059415e+01 4.586481e-01 8.004643e-01 1.079496e+00 1.527326e+00 1.382588e+00 2.256931e+00 2.161136e+00 2.157392e+00 2.283178e+00 1.759582e+00 1.560648e+00 1.600733e+00 3.930855e-01 6.930675e-02 1.359316e-01 1.471092e-01 2.468460e-01 2.729443e-01 3.532966e-01 4.892133e-01 3.666587e-01 3.835336e-01 2.766302e-01 2.698976e-01 2.336822e-01 5.032680e-02
<GCONST> 1.011951e+02
<MIXTURE> 7 1.231430e-02
<MEAN> 39
 -7.233732e+00 -8.014612e+00 4.256598e+00 -8.964610e-01 3.048029e+00 -1.698112e+01 -1.022449e+01 -9.557351e+00 -1.065426e+01 -1.154419e+01 -2.990792e+00 -9.933515e+00 7.237347e+01 -4.832063e-01 -1.252473e+00 -4.288038e-01 -3.949521e-01 -7.100201e-01 -1.246467e+00 -1.539888e+00 -6.710349e-01 -1.720504e-02 -1.096157e-01 -1.450906e-01 -6.549565e-02 2.002106e-01 -2.749767e-02 -3.722996e-01 -3.686402e-01 -2.729550e-01 -1.022170e-01 -3.497976e-01 -3.837733e-01 -4.010392e-01 -2.322750e-01 -1.236268e-01 -1.070016e-01 -8.185097e-02 -1.191675e-01
<VARIANCE> 39
 6.112062e+00 2.062856e+01 1.885160e+01 3.404020e+01 2.372482e+01 5.690774e+01 3.794746e+01 2.668036e+01 2.447201e+01 2.729410e+01 2.893143e+01 3.452806e+01 3.002427e+01 4.868344e-01 7.462108e-01 1.455707e+00 1.955625e+00 2.235112e+00 1.987297e+00 2.465077e+00 1.402507e+00 1.519310e+00 1.612450e+00 1.172405e+00 1.111571e+00 2.557999e-01 7.352792e-02 1.248629e-01 1.914120e-01 2.775548e-01 3.483630e-01 3.943201e-01 3.290439e-01 2.077690e-01 1.952266e-01 2.602366e-01 1.601887e-01 2.892733e-01 4.927262e-02
<GCONST> 9.512630e+01
<MIXTURE> 8 1.038657e-01
<MEAN> 39
 -4.639616e+00 -9.190933e-02 8.579102e+00 3.657210e+00 9.286925e+00 -3.799668e+00 -1.940840e+00 -4.466594e+00 -3.656739e+00 -4.674695e+00 9.173783e-01 -3.920861e+00 7.294588e+01 -6.624808e-02 -2.867781e-01 3.599845e-01 4.102990e-01 -4.372548e-02 -6.836383e-01 1.412725e-01 5.130969e-01 -8.105918e-03 1.617232e-01 4.085670e-01 1.452905e-01 4.972437e-01 2.059205e-01 -7.759086e-02 -1.841458e-01 1.179909e-02 1.707810e-01 -1.246814e-02 -2.549027e-01 1.025868e-01 1.490458e-01 7.872780e-02 1.775258e-01 2.184067e-01 1.883589e-01
<VARIANCE> 39
 1.891669e+01 2.200484e+01 3.298185e+01 3.093594e+01 3.389565e+01 5.842959e+01 3.606486e+01 5.417614e+01 4.171497e+01 3.542173e+01 3.801294e+01 2.385316e+01 4.474250e+01 2.105218e+00 2.608719e+00 2.343983e+00 2.813883e+00 2.009448e+00 6.611061e+00 4.876770e+00 5.172391e+00 3.387934e+00 3.054059e+00 3.239395e+00 2.269229e+00 1.866091e+00 3.305125e-01 3.625241e-01 4.204207e-01 4.779602e-01 4.213340e-01 8.427489e-01 7.406217e-01 7.111381e-01 5.456297e-01 4.922720e-01 4.618934e-01 3.541026e-01 2.687469e-01
<GCONST> 1.222313e+02
<STATE> 4
<NUMMIXES> 8
<MIXTURE> 1 2.886615e-03
<MEAN> 39
 -1.207281e+00 -9.285532e-01 4.852076e+00 4.446462e+00 1.319159e+01 -3.068583e+00 -3.018625e+00 4.179101e-01 -7.614982e-01 -1.144205e+00 7.347354e+00 4.321704e+00 7.507130e+01 3.504837e-01 3.026223e-01 -2.216250e-02 2.110815e-01 3.042373e-01 1.074859e+00 1.084306e+00 7.820113e-01 6.420585e-01 4.494547e-01 3.739105e-01 7.111779e-01 1.241279e-01 1.262632e-01 6.798958e-02 8.786266e-02 2.056714e-01 1.267897e-01 2.102055e-01 2.656021e-01 2.289649e-01 1.629519e-01 2.116667e-01 1.548758e-01 1.601168e-01 6.807184e-02
<VARIANCE> 39
 1.049050e+01 1.739616e+01 1.294573e+01 2.133530e+01 2.164951e+01 4.160706e+01 3.932802e+01 7.316114e+01 4.264554e+01 3.656610e+01 3.744070e+01 3.111425e+01 3.551960e+01 3.759673e-01 6.096880e-01 6.498339e-01 1.396161e+00 1.099824e+00 1.519410e+00 1.992009e+00 1.794121e+00 1.119398e+00 1.314412e+00 1.062667e+00 1.561600e+00 5.991543e-01 3.533505e-02 8.246419e-02 6.861690e-02 1.975221e-01 1.731934e-01 2.042315e-01 2.166995e-01 1.892319e-01 2.118916e-01 3.092877e-01 1.911398e-01 2.360434e-01 4.147950e-02
<GCONST> 9.017119e+01
<MIXTURE> 2 1.718770e-01
<MEAN> 39
 -5.117271e-01 -5.742262e+00 1.008153e+00 1.304314e+00 1.027664e+01 -8.026534e+00 -6.456453e+00 -2.694667e+00 -3.695046e+00 -4.222108e+00 7.013048e+00 3.887684e+00 7.881499e+01 2.373208e-01 1.476047e-01 -3.684129e-01 -3.719259e-01 -1.172247e-01 4.773554e-01 6.318959e-01 2.769299e-01 2.392641e-01 9.689105e-02 1.005538e-01 5.345557e-01 9.040138e-02 2.601830e-03 9.016795e-02 1.065544e-01 7.098723e-02 2.703471e-02 5.514229e-02 1.390669e-01 1.427099e-01 7.149099e-02 6.232717e-02 -2.171805e-02 -1.058253e-02 -3.591676e-02
<VARIANCE> 39
 1.554325e+01 1.994613e+01 2.826825e+01 3.181422e+01 3.562954e+01 4.581144e+01 4.411088e+01 5.057097e+01 4.306418e+01 4.178166e+01 4.154831e+01 3.130963e+01 6.745214e+01 8.924723e-02 2.122435e-01 4.562980e-01 5.864286e-01 5.421873e-01 7.128994e-01 8.296047e-01 8.495621e-01 8.359039e-01 7.703078e-01 8.572209e-01 7.811785e-01 9.322211e-02 1.159946e-02 2.879672e-02 5.176505e-02 6.555980e-02 8.580544e-02 1.099868e-01 1.185534e-01 1.253706e-01 1.352437e-01 1.211495e-01 1.282827e-01 1.071111e-01 7.268812e-03
<GCONST> 7.251656e+01
<MIXTURE> 3 1.180925e-01
<MEAN> 39
 -3.511600e+00 -9.677300e+00 2.642536e-01 -1.009706e+00 7.704666e+00 -1.173613e+01 -9.624933e+00 -8.849035e+00 -5.073332e+00 -5.158277e+00 3.818109e+00 6.315540e-01 8.189698e+01 2.259116e-01 -1.518811e-01 -9.916833e-01 -8.378728e-01 -3.908842e-01 4.117780e-01 3.886285e-01 -2.008072e-01 1.072280e-02 2.703860e-02 7.575320e-02 4.965150e-01 1.522460e-01 -2.157623e-02 6.743926e-02 2.368011e-02 -4.929357e-02 -1.182472e-01 -3.086457e-02 1.160829e-01 1.178839e-01 -7.542904e-02 -1.027455e-01 -1.260422e-01 -9.268119e-02 -1.112627e-01
<VARIANCE> 39
 2.173633e+01 2.362302e+01 3.287260e+01 3.963576e+01 4.082553e+01 5.098312e+01 4.688824e+01 3.855693e+01 3.025713e+01 3.242970e+01 3.190042e+01 4.644454e+01 7.209545e+01 1.733110e-01 3.507696e-01 7.106575e-01 9.241774e-01 9.635947e-01 1.208177e+00 1.392819e+00 1.486931e+00 1.442043e+00 1.349653e+00 1.344278e+00 1.127394e+00 1.804391e-01 2.092597e-02 4.262272e-02 8.478568e-02 1.031980e-01 1.341281e-01 1.662138e-01 1.918479e-01 2.045514e-01 1.906332e-01 2.044291e-01 2.064940e-01 2.056916e-01 1.180321e-02
<GCONST> 8.608237e+01
<MIXTURE> 4 2.214335e-01
<MEAN> 39
 -1.318302e+00 -4.692892e+00 3.312179e+00 4.821683e+00 1.089436e+01 -9.938421e+00 -7.713185e+00 -9.110811e-01 -4.710422e+00 -4.293421e+00 6.660534e+00 7.214344e-01 7.528807e+01 2.809050e-01 -1.380870e-01 -5.087170e-01 -2.679741e-01 2.660597e-01 2.688266e-01 8.109353e-02 -3.957602e-02 1.844566e-01 2.400161e-01 3.024904e-01 6.960152e-01 3.209208e-01 1.954971e-02 1.150508e-01 3.543036e-02 -4.151218e-02 -2.612672e-02 1.901517e-01 2.666565e-01 4.092579e-02 9.255147e-02 7.234953e-02 -1.918538e-02 5.841739e-02 -1.758226e-02
<VARIANCE> 39
 8.238434e+00 1.708437e+01 2.382223e+01 3.916684e+01 3.248265e+01 4.042419e+01 5.250415e+01 5.612867e+01 4.166728e+01 3.377625e+01 3.415301e+01 3.071892e+01 3.937327e+01 1.271999e-01 3.537039e-01 5.782515e-01 8.692635e-01 7.624609e-01 1.143599e+00 1.264887e+00 1.092779e+00 1.171152e+00 9.779642e-01 9.461846e-01 8.347676e-01 1.565123e-01 1.832460e-02 5.217410e-02 7.538415e-02 1.014802e-01 1.186626e-01 1.572622e-01 1.965544e-01 1.628711e-01 1.935800e-01 1.592033e-01 1.600121e-01 1.323596e-01 1.696766e-02
<GCONST> 8.029282e+01
<MIXTURE> 5 1.703395e-01
<MEAN> 39
 -2.270156e+00 -6.932783e+00 1.688899e+00 2.250719e+00 8.423161e+00 -1.258140e+01 -9.653085e+00 -4.516500e+00 -6.987145e+00 -6.153866e+00 4.206256e+00 -1.236818e+00 7.412918e+01 1.597047e-01 -4.341364e-01 -8.901167e-01 -6.329677e-01 -7.182503e-02 -1.335958e-01 -3.669228e-01 -4.704650e-01 -1.625789e-01 -1.015846e-01 -5.560953e-03 4.053217e-01 1.892744e-01 -3.998391e-02 4.740125e-02 -8.347052e-02 -1.768418e-01 -1.564074e-01 5.708038e-02 1.021078e-01 -1.173958e-01 -5.601946e-02 -8.605390e-02 -1.558540e-01 -7.395192e-02 -8.220720e-02
<VARIANCE> 39
 7.724601e+00 2.162714e+01 2.629372e+01 4.411761e+01 3.134534e+01 4.538255e+01 5.089143e+01 5.419315e+01 4.349362e+01 3.929656e+01 3.495743e+01 3.343283e+01 3.691129e+01 1.314828e-01 3.767873e-01 6.040184e-01 8.713598e-01 7.624803e-01 1.099120e+00 1.298836e+00 1.202002e+00 1.395996e+00 1.046972e+00 9.611049e-01 8.244086e-01 1.657104e-01 1.783972e-02 5.504476e-02 7.255176e-02 1.113043e-01 1.241595e-01 1.527767e-01 1.987391e-01 1.663543e-01 2.075817e-01 1.652935e-01 1.571305e-01 1.312291e-01 1.753125e-02
<GCONST> 8.170460e+01
<MIXTURE> 6 2.132050e-01
<MEAN> 39
 -1.638771e+00 -8.055302e+00 -1.203655e+00 -1.448871e+00 7.475613e+00 -1.054758e+01 -8.326926e+00 -6.183570e+00 -5.923745e+00 -6.742373e+00 4.394924e+00 1.962563e+00 7.674835e+01 1.228141e-01 -5.538478e-02 -6.413736e-01 -6.964099e-01 -4.162331e-01 1.150897e-01 2.549725e-01 -4.066344e-02 -9.540743e-02 -2.064401e-01 -2.802255e-01 2.035165e-01 -3.021755e-02 -4.223989e-02 2.419164e-02 1.145518e-02 -2.530346e-02 -6.481524e-02 -7.909014e-02 -2.733698e-02 1.117512e-02 -7.415131e-02 -7.170331e-02 -1.376221e-01 -1.408839e-01 -7.263363e-02
<VARIANCE> 39
 1.084456e+01 2.399557e+01 3.191668e+01 3.593697e+01 3.308224e+01 4.006252e+01 3.517535e+01 6.926620e+01 4.005012e+01 4.567517e+01 4.207724e+01 3.127878e+01 5.498815e+01 8.576582e-02 2.063881e-01 4.343956e-01 5.668351e-01 5.383008e-01 6.475383e-01 8.417188e-01 7.941974e-01 8.127961e-01 8.143982e-01 8.409644e-01 7.741281e-01 8.135024e-02 1.086815e-02 2.344928e-02 4.485414e-02 6.271179e-02 7.433455e-02 9.547227e-02 1.108933e-01 1.164731e-01 1.241911e-01 1.200423e-01 1.163245e-01 1.079637e-01 6.694964e-03
<GCONST> 7.069421e+01
<MIXTURE> 7 1.318347e-02
<MEAN> 39
 -4.794949e+00 -1.305435e+01 -2.505450e+00 -4.691485e+00 3.641777e+00 -1.601507e+01 -1.286257e+01 -1.331927e+01 -8.646070e+00 -8.643645e+00 4.166765e-01 -3.296759e+00 7.882130e+01 1.034855e-01 -2.955478e-01 -1.315533e+00 -1.400457e+00 -6.189318e-01 5.825344e-02 2.709760e-01 -4.638087e-01 -4.419204e-01 -3.416827e-01 -3.037609e-01 1.272152e-01 3.176035e-02 -6.994766e-02 3.626687e-02 -3.981457e-02 -1.247996e-01 -1.937378e-01 -1.723378e-01 1.799498e-02 2.419459e-02 -1.763059e-01 -1.994516e-01 -2.356139e-01 -2.339779e-01 -1.470520e-01
<VARIANCE> 39
 1.606918e+01 2.260047e+01 3.040635e+01 3.692215e+01 3.671271e+01 4.899585e+01 4.404034e+01 2.430452e+01 1.357122e+01 2.433490e+01 2.437779e+01 3.188611e+01 5.974079e+01 1.819599e-01 3.544447e-01 9.513546e-01 1.029766e+00 9.175175e-01 1.496709e+00 1.797602e+00 1.389474e+00 1.373118e+00 1.340028e+00 1.402767e+00 1.196862e+00 2.542411e-01 2.108372e-02 4.713178e-02 8.411539e-02 1.246167e-01 1.554292e-01 1.235435e-01 2.405504e-01 1.655616e-01 1.647742e-01 2.202750e-01 2.118844e-01 1.693319e-01 1.269899e-02
<GCONST> 8.418322e+01
<MIXTURE> 8 8.898007e-02
<MEAN> 39
 -1.924058e+00 -2.927758e+00 3.073182e+00 2.835060e+00 1.092565e+01 -6.538630e+00 -6.854874e+00 -2.450193e+00 -3.635040e+00 -3.593463e+00 4.707477e+00 1.164990e+00 7.334470e+01 2.091762e-01 -1.378708e-02 -3.403717e-01 -3.229461e-01 9.523860e-02 3.351463e-01 2.081135e-01 1.138656e-01 1.101457e-01 9.396671e-02 9.227619e-02 5.425104e-01 1.152378e-01 1.454808e-02 1.196380e-02 2.349964e-02 2.070135e-02 -3.339431e-02 2.348206e-02 1.612790e-01 9.285529e-02 4.430814e-02 2.017528e-02 -1.948836e-02 2.598578e-02 1.364846e-02
<VARIANCE> 39
 1.203300e+01 1.522246e+01 2.217583e+01 3.416883e+01 3.116962e+01 4.115356e+01 4.790871e+01 7.775167e+01 4.670452e+01 4.396967e+01 4.499659e+01 3.265307e+01 3.505275e+01 4.456030e-01 6.899168e-01 1.067216e+00 1.364089e+00 1.055429e+00 2.272974e+00 2.010406e+00 1.569021e+00 1.558048e+00 1.478360e+00 1.434095e+00 1.357463e+00 4.259507e-01 4.728036e-02 9.967564e-02 1.238786e-01 1.598630e-01 1.729559e-01 2.528820e-01 2.785212e-01 2.643848e-01 2.493794e-01 2.675752e-01 2.407551e-01 2.196796e-01 4.841899e-02
<GCONST> 9.554910e+01
<TRANSP> 5
 0.000000e+00 1.000000e+00 0.000000e+00 0.000000e+00 0.000000e+00
 0.000000e+00 7.853206e-01 2.146794e-01 0.000000e+00 0.000000e+00
 0.000000e+00 0.000000e+00 8.696569e-01 1.303431e-01 0.000000e+00
 0.000000e+00 0.000000e+00 0.000000e+00 8.754595e-01 1.245405e-01
 0.000000e+00 0.000000e+00 0.000000e+00 0.000000e+00 0.000000e+00
<ENDHMM>
~h "S"
<BEGINHMM>
<NUMSTATES> 5
<STATE> 2
<NUMMIXES> 8
<MIXTURE> 1 1.473497e-02
<MEAN> 39
 -2.055233e+01 -1.146104e+01 1.078738e+01 -1.341157e+00 4.444334e+00 -3.578686e+00 4.996345e+00 -2.627808e-01 1.176998e+00 2.335399e+00 6.519601e+00 2.412052e+00 8.298230e+01 1.704340e+00 6.551836e-01 9.055526e-01 1.651307e+00 1.831160e+00 1.158227e+00 1.176880e+00 9.256064e-01 8.056903e-01 6.850584e-01 7.472632e-01 9.523482e-01 5.005732e-01 9.030601e-01 3.721509e-01 -1.068467e-01 3.217106e-01 3.549089e-01 2.685557e-01 7.561119e-02 2.247950e-01 1.124082e-01 1.056250e-01 4.019640e-02 1.458404e-01 -2.533638e-01
<VARIANCE> 39
 1.680724e+01 1.251293e+01 1.373891e+01 1.460938e+01 1.631690e+01 1.459806e+01 2.020518e+01 1.863167e+01 1.935413e+01 1.589373e+01 1.519136e+01 1.650675e+01 3.111138e+01 9.157276e-01 5.789064e-01 1.286902e+00 1.256979e+00 1.167417e+00 1.076849e+00 1.085646e+00 1.144935e+00 1.463822e+00 1.243038e+00 1.171984e+00 9.537465e-01 8.338403e-01 1.639253e-01 1.478911e-01 2.782452e-01 2.231918e-01 2.880176e-01 3.157007e-01 3.790129e-01 3.054157e-01 2.968108e-01 2.169729e-01 2.625352e-01 2.367253e-01 9.157372e-02
<GCONST> 9.027930e+01
<MIXTURE> 2 1.903121e-01
<MEAN> 39
 -2.330750e+01 -1.319769e+01 9.138089e+00 -4.419198e+00 1.841899e+00 -5.344000e+00 3.354644e+00 -1.114492e+00 -1.021845e+00 -4.405702e-01 4.681166e+00 -2.520985e-01 8.023827e+01 2.483323e-01 1.864234e-01 8.910797e-01 4.901916e-01 4.130208e-01 1.906855e-01 3.679176e-01 -6.168761e-02 3.757758e-01 2.883610e-01 5.009900e-01 5.595468e-01 1.132493e+00 7.985839e-01 2.943610e-01 -2.165542e-01 5.486611e-01 3.706695e-01 2.654233e-01 6.012395e-02 1.376622e-01 8.198715e-02 8.079439e-02 4.926493e-02 1.930655e-01 -5.141440e-01
<VARIANCE> 39
 1.272924e+01 2.004023e+01 1.420244e+01 2.276426e+01 2.020406e+01 2.533238e+01 2.253361e+01 2.374032e+01 2.105771e+01 2.388015e+01 1.876967e+01 1.250124e+01 3.861711e+01 2.088411e+00 1.023263e+00 1.725373e+00 1.695094e+00 1.366296e+00 1.308020e+00 1.544769e+00 1.582573e+00 1.464409e+00 1.369788e+00 1.162733e+00 1.100872e+00 1.119714e+00 2.649391e-01 2.337686e-01 3.044542e-01 3.176745e-01 3.406038e-01 3.221142e-01 3.170670e-01 3.402681e-01 3.297965e-01 3.213179e-01 2.566204e-01 2.174805e-01 1.810564e-01
<GCONST> 9.881933e+01
<MIXTURE> 3 1.136008e-01
<MEAN> 39
 -2.379162e+01 -1.458021e+01 8.956467e+00 -2.711576e+00 3.496735e+00 -5.197980e+00 2.907220e+00 -2.087599e+00 -1.043651e+00 -1.545994e+00 3.325456e+00 -5.872538e-01 7.822308e+01 5.363171e-01 -1.559777e-01 -9.239481e-02 1.911784e-01 5.366648e-02 -3.720353e-01 -3.621991e-01 -6.173003e-01 -3.438839e-01 -3.704548e-01 -1.715723e-01 6.759724e-02 2.118619e-01 5.681562e-01 2.029753e-01 -3.636915e-01 -1.214466e-02 -1.262487e-02 -9.322800e-02 -2.393597e-01 -1.671120e-01 -2.270015e-01 -1.570274e-01 -1.786146e-01 -4.011974e-02 -3.595787e-01
<VARIANCE> 39
 3.078899e+01 3.258167e+01 2.130368e+01 2.914538e+01 2.158710e+01 2.478824e+01 2.751120e+01 4.379758e+01 2.599914e+01 2.904646e+01 2.254605e+01 1.704185e+01 7.195860e+01 1.506440e+00 9.578032e-01 1.151115e+00 1.391732e+00 1.214272e+00 1.268504e+00 1.432382e+00 1.807393e+00 1.605281e+00 1.368871e+00 1.198125e+00 1.057147e+00 1.040139e+00 2.952156e-01 1.771877e-01 2.515537e-01 2.210882e-01 2.088899e-01 2.415275e-01 3.059253e-01 3.636838e-01 3.075525e-01 2.785849e-01 2.489415e-01 2.164526e-01 9.721646e-02
<GCONST> 9.980296e+01
<MIXTURE> 4 1.683282e-01
<MEAN> 39
 -2.165882e+01 -1.560383e+01 9.251093e+00 -2.651618e+00 2.081037e+00 -7.690309e+00 2.378545e+00 -1.293365e+00 -1.605259e+00 -2.351187e+00 5.678541e+00 2.227397e+00 7.915205e+01 1.307371e+00 5.201620e-01 3.322307e-01 8.662187e-01 1.091357e+00 7.512962e-01 3.772888e-01 -1.667398e-01 5.785338e-02 4.069018e-02 9.459238e-02 7.454176e-01 9.095235e-02 9.250585e-01 4.815933e-01 -2.659228e-01 2.503730e-01 3.508488e-01 3.484875e-01 7.666995e-02 1.796276e-01 1.951393e-02 5.288430e-02 -2.070021e-01 -3.956271e-02 -4.591660e-01
<VARIANCE> 39
 9.885626e+00 1.597889e+01 1.108487e+01 1.529711e+01 1.831104e+01 1.846548e+01 2.262993e+01 2.570807e+01 2.525169e+01 2.413617e+01 2.155730e+01 1.807256e+01 2.949215e+01 1.746395e+00 1.097397e+00 1.632571e+00 1.369143e+00 1.359092e+00 1.464196e+00 1.437698e+00 1.490801e+00 1.684980e+00 1.645871e+00 1.361969e+00 1.189468e+00 8.354564e-01 3.192800e-01 2.236028e-01 3.465706e-01 2.648080e-01 2.884215e-01 2.995647e-01 3.053764e-01 3.674466e-01 3.814449e-01 3.307107e-01 3.123108e-01 2.623020e-01 1.443687e-01
<GCONST> 9.788028e+01
<MIXTURE> 5 2.294586e-01
<MEAN> 39
 -2.490350e+01 -1.504567e+01 8.652859e+00 -5.494194e+00 5.896609e-01 -6.821938e+00 2.023474e+00 -2.957327e+00 -2.658144e+00 -2.074034e+00 3.544948e+00 -1.475384e+00 7.760685e+01 -1.222272e-01 -2.935301e-01 3.302001e-01 8.502484e-02 -1.125841e-01 -3.418609e-01 -1.668484e-01 -5.753014e-01 -1.739404e-01 -2.822554e-01 3.365485e-03 1.267922e-01 7.085333e-01 6.277192e-01 1.437036e-01 -4.620197e-01 2.766917e-01 1.770168e-01 4.845059e-02 -1.481394e-01 -7.031097e-02 -1.212072e-01 -1.232599e-01 -1.678827e-01 6.601708e-03 -5.554323e-01
<VARIANCE> 39
 1.247812e+01 1.896895e+01 1.319071e+01 2.140563e+01 2.084207e+01 2.900519e+01 2.689229e+01 3.047949e+01 2.465687e+01 2.581409e+01 1.987081e+01 1.363830e+01 3.397060e+01 1.868331e+00 1.043739e+00 1.773516e+00 1.621523e+00 1.391043e+00 1.347644e+00 1.548490e+00 1.679311e+00 1.662430e+00 1.522217e+00 1.179266e+00 1.139368e+00 1.047967e+00 2.432813e-01 2.335327e-01 2.929314e-01 2.841637e-01 3.252889e-01 3.243123e-01 3.508748e-01 3.574255e-01 3.561406e-01 3.229876e-01 2.437909e-01 2.189548e-01 1.621629e-01
<GCONST> 9.947175e+01
<MIXTURE> 6 1.614004e-01
<MEAN> 39
 -2.309529e+01 -1.712950e+01 8.112107e+00 -3.588994e+00 1.150267e+00 -8.848019e+00 1.281447e+00 -2.803039e+00 -3.108228e+00 -3.722431e+00 4.282342e+00 3.808493e-01 7.711578e+01 8.247253e-01 4.893092e-02 -3.272277e-01 3.016396e-01 5.100989e-01 1.401376e-01 -2.957539e-01 -7.088308e-01 -3.782330e-01 -4.457415e-01 -3.199905e-01 3.415370e-01 -2.471762e-01 6.257437e-01 2.968344e-01 -3.950000e-01 2.121754e-02 1.129936e-01 1.262778e-01 -1.121980e-01 -5.649392e-02 -1.861217e-01 -1.284116e-01 -3.488270e-01 -1.692871e-01 -5.460225e-01
<VARIANCE> 39
 8.978658e+00 1.349363e+01 1.228166e+01 1.378517e+01 1.731390e+01 1.691048e+01 2.540596e+01 2.777068e+01 2.380996e+01 2.426578e+01 2.095958e+01 1.767634e+01 2.742262e+01 1.372833e+00 1.005463e+00 1.286431e+00 1.278596e+00 1.215132e+00 1.223645e+00 1.351045e+00 1.494781e+00 1.515128e+00 1.525409e+00 1.285949e+00 1.183500e+00 7.821916e-01 3.203730e-01 1.959878e-01 3.046899e-01 2.324615e-01 2.587037e-01 2.488078e-01 3.070557e-01 3.600661e-01 3.330713e-01 2.958143e-01 2.701953e-01 2.315630e-01 1.050053e-01
<GCONST> 9.465786e+01
<MIXTURE> 7 1.400618e-02
<MEAN> 39
 -2.579985e+01 -1.558299e+01 7.760527e+00 -5.541427e+00 1.533613e+00 -6.651384e+00 1.166458e+00 -4.860291e+00 -3.077298e+00 -3.153923e+00 1.375436e+00 -2.172005e+00 7.548695e+01 3.571844e-01 -3.306850e-01 -4.272831e-01 -2.385842e-01 -6.004063e-01 -1.005462e+00 -1.005284e+00 -1.334388e+00 -1.130239e+00 -1.115089e+00 -7.554373e-01 -3.261077e-01 3.794670e-02 5.523109e-01 3.939435e-02 -6.173777e-01 -8.250909e-02 -1.445660e-01 -3.118241e-01 -4.742449e-01 -3.917504e-01 -4.544669e-01 -4.186940e-01 -3.639787e-01 -2.224997e-01 -4.947683e-01
<VARIANCE> 39
 2.744960e+01 3.025610e+01 2.161252e+01 2.690653e+01 1.801608e+01 2.412752e+01 2.180049e+01 4.532208e+01 2.782995e+01 3.282381e+01 3.356035e+01 2.468904e+01 6.952570e+01 2.421511e+00 1.094499e+00 1.379530e+00 1.673191e+00 1.393369e+00 1.525886e+00 1.750739e+00 1.847179e+00 2.005683e+00 1.583835e+00 1.379868e+00 1.164965e+00 8.829808e-01 3.015257e-01 1.824624e-01 3.313262e-01 2.314004e-01 2.225116e-01 2.944131e-01 4.008538e-01 4.207425e-01 3.650926e-01 2.988836e-01 2.709817e-01 2.481704e-01 1.146475e-01
<GCONST> 1.037048e+02
<MIXTURE> 8 1.081535e-01
<MEAN> 39
 -2.206458e+01 -1.359517e+01 8.141669e+00 -3.390796e+00 2.894815e+00 -5.173091e+00 2.762940e+00 -3.194375e+00 -6.006504e-01 6.142820e-01 4.608254e+00 3.404061e-01 8.074136e+01 1.362586e+00 2.251374e-01 1.405420e-01 1.009035e+00 1.107636e+00 4.626495e-01 4.970666e-01 2.785600e-01 2.348494e-01 1.579068e-01 2.501248e-01 5.197743e-01 -2.554134e-02 6.852133e-01 3.157153e-01 -1.081273e-01 1.777128e-01 1.943814e-01 1.350830e-01 -2.520449e-02 1.116218e-01 -7.020997e-02 -6.999546e-02 -8.602306e-02 3.925446e-02 -3.350598e-01
<VARIANCE> 39
 1.240683e+01 1.165308e+01 1.104096e+01 1.594705e+01 1.595226e+01 1.420098e+01 1.505215e+01 1.640936e+01 2.006408e+01 1.827732e+01 1.621474e+01 1.270975e+01 3.534319e+01 9.406301e-01 6.742179e-01 8.972379e-01 1.256586e+00 1.121757e+00 1.141180e+00 1.047839e+00 1.329366e+00 1.307496e+00 1.272063e+00 1.335962e+00 1.193013e+00 5.286838e-01 2.330338e-01 1.541156e-01 2.041939e-01 1.897537e-01 2.301165e-01 2.363604e-01 2.419175e-01 2.911435e-01 3.003449e-01 2.688917e-01 2.741168e-01 2.281110e-01 7.990774e-02
<GCONST> 8.817537e+01
<STATE> 3
<NUMMIXES> 8
<MIXTURE> 1 1.264625e-02
<MEAN> 39
 -1.097238e+01 -1.014113e+01 7.754812e+00 9.089066e-01 8.059255e+00 -2.205901e+00 5.141586e+00 1.922211e-02 -3.770812e-01 1.323733e+00 5.299459e+00 4.139187e+00 7.735658e+01 3.383623e+00 2.015279e+00 -5.046383e-01 1.125680e+00 1.349103e+00 1.305048e+00 4.740464e-01 1.057000e+00 4.669221e-01 6.254755e-01 1.981321e-01 5.705019e-01 -7.481863e-01 3.348161e-01 4.698737e-01 1.267863e-01 1.354384e-01 8.459798e-02 6.435315e-03 -1.666427e-02 2.920017e-01 2.456280e-01 1.816567e-01 1.553947e-01 6.113059e-02 2.994319e-01
<VARIANCE> 39
