~o
<STREAMINFO> 1 39
<VECSIZE> 39<NULLD><MFCC_D_A_0><DIAGC>
~s "silst"
<MEAN> 39
 -1.108609e+01 -3.763840e+00 1.610038e-01 -1.648649e+00 4.210334e+00 -4.279167e+00 -8.945349e-01 -2.321034e+00 -2.837840e+00 -1.149216e+00 8.755658e-01 -1.856058e+00 6.351392e+01 -2.757088e-02 -1.594703e-02 -3.444748e-03 1.181321e-02 -9.591535e-04 -2.743536e-02 -2.837228e-02 -6.517977e-03 3.028973e-04 -2.912214e-03 -1.243287e-02 -1.797489e-02 6.465076e-03 1.599382e-02 -3.746595e-02 -1.220317e-02 -1.864175e-02 -7.266263e-04 -5.163761e-02 -2.697459e-02 -1.823583e-02 -2.329943e-02 -1.346855e-02 -3.011278e-03 -6.897514e-03 5.699689e-02
<VARIANCE> 39
 3.952370e+01 3.682753e+01 5.109104e+01 4.204287e+01 3.927674e+01 5.010213e+01 5.823777e+01 5.280527e+01 4.911200e+01 3.893604e+01 3.164422e+01 2.827357e+01 5.155008e+01 2.299999e+00 2.616729e+00 3.117678e+00 2.614117e+00 2.507760e+00 3.488964e+00 3.710166e+00 3.261322e+00 3.165588e+00 2.516187e+00 2.275968e+00 1.978472e+00 1.783907e+00 3.016455e-01 4.299338e-01 4.438492e-01 4.366695e-01 4.371423e-01 5.411571e-01 5.868333e-01 5.564690e-01 5.348731e-01 4.478932e-01 4.064521e-01 3.525903e-01 2.626093e-01
<GCONST> 1.223043e+02
~h "J"
<BEGINHMM>
<NUMSTATES> 5
<STATE> 2
<MEAN> 39
 -3.565223e+00 -4.188242e+00 1.725674e+00 3.867755e-02 6.890518e+00 -7.324382e+00 -4.362973e+00 -4.833992e+00 -4.991653e+00 -3.911426e+00 2.069308e+00 -1.041774e+00 7.320453e+01 -2.028835e-01 3.376939e-01 5.678270e-01 3.743793e-01 1.684961e-01 3.375732e-01 2.989845e-02 7.001309e-02 1.586985e-01 -6.604245e-02 -2.320776e-01 -4.345943e-01 -4.367987e-01 2.123283e-02 2.977589e-03 -4.483407e-02 -4.727418e-02 -7.025620e-02 -3.242751e-04 2.448369e-02 6.505540e-02 8.584131e-02 -1.852585e-02 -4.873389e-02 -2.812796e-02 -1.155134e-03
<VARIANCE> 39
 1.736121e+01 3.247772e+01 4.905296e+01 4.554499e+01 4.144928e+01 6.873904e+01 4.635058e+01 6.835075e+01 5.086234e+01 4.472567e+01 4.520368e+01 5.052320e+01 6.057207e+01 3.710916e-01 1.065698e+00 1.455075e+00 1.556755e+00 1.877299e+00 2.763910e+00 2.583296e+00 2.640979e+00 2.873438e+00 2.399862e+00 2.650644e+00 2.777842e+00 8.082184e-01 5.866528e-02 1.568358e-01 2.280561e-01 2.437977e-01 2.588154e-01 4.483649e-01 4.127739e-01 4.109095e-01 4.358991e-01 3.903560e-01 3.972399e-01 4.400572e-01 1.209832e-01
<GCONST> 1.113443e+02
<STATE> 3
<MEAN> 39
 -4.046768e+00 -3.064368e+00 3.782364e+00 1.641226e+00 6.433069e+00 -7.492409e+00 -3.809240e+00 -3.470201e+00 -3.984013e+00 -4.091595e+00 1.484967e+00 -3.203980e+00 7.182718e+01 -3.047716e-02 -1.942619e-01 -8.430241e-03 1.259142e-01 1.131483e-01 -2.503350e-01 -3.252036e-01 -2.465946e-02 7.335705e-04 -1.029216e-02 2.250577e-01 1.056401e-01 1.418177e-01 2.132392e-02 -7.268554e-02 -9.879804e-02 -5.724875e-02 2.077531e-02 -3.279519e-02 -3.338467e-02 -3.737298e-02 -3.113930e-02 2.949245e-02 6.099212e-02 1.023734e-01 6.990633e-02
<VARIANCE> 39
 1.254763e+01 2.956391e+01 3.497705e+01 4.114176e+01 3.608900e+01 7.334335e+01 5.611351e+01 6.013684e+01 5.052796e+01 3.419374e+01 5.119403e+01 4.027759e+01 4.356987e+01 2.944957e-01 9.969398e-01 1.138399e+00 1.391241e+00 1.181273e+00 2.627575e+00 2.254888e+00 1.992933e+00 1.928239e+00 1.551159e+00 1.686323e+00 1.490871e+00 5.716993e-01 4.478548e-02 1.356695e-01 1.491923e-01 2.101369e-01 2.011283e-01 4.071203e-01 3.593470e-01 3.280482e-01 3.355609e-01 2.635107e-01 2.950679e-01 2.418655e-01 6.541001e-02
<GCONST> 1.020595e+02
<STATE> 4
<MEAN> 39
 -6.628839e+00 -4.748380e+00 5.826367e-01 3.744440e-01 7.078144e+00 -6.918536e+00 -5.471516e+00 -4.149052e+00 -3.860970e+00 -3.187999e+00 2.871158e+00 -3.097824e-01 6.894453e+01 6.151375e-02 -4.414935e-02 -2.039884e-01 -1.949404e-01 -5.167123e-02 6.928416e-02 6.211599e-02 -3.164795e-03 1.968376e-02 -2.099709e-02 2.754544e-02 1.810046e-01 6.169093e-02 -1.083150e-03 1.680999e-02 -3.262182e-03 -1.205026e-02 -3.678452e-02 1.272117e-03 5.045939e-02 4.006191e-02 2.248427e-03 -5.519838e-03 -2.446273e-02 -1.148410e-02 -1.062972e-02
<VARIANCE> 39
 2.126437e+01 3.860643e+01 5.134259e+01 5.223306e+01 3.809952e+01 5.821907e+01 5.171727e+01 6.071563e+01 4.554917e+01 4.690495e+01 4.952182e+01 4.176253e+01 8.274863e+01 1.719614e-01 3.898918e-01 7.006258e-01 8.682220e-01 8.524335e-01 1.049164e+00 1.235072e+00 1.169399e+00 1.104889e+00 1.034644e+00 1.123530e+00 9.839113e-01 2.091085e-01 2.295658e-02 5.385888e-02 8.027473e-02 1.074846e-01 1.222547e-01 1.613926e-01 1.743179e-01 1.822259e-01 1.803807e-01 1.698048e-01 1.765307e-01 1.491267e-01 2.152940e-02
<GCONST> 8.769657e+01
<TRANSP> 5
 0.000000e+00 1.000000e+00 0.000000e+00 0.000000e+00 0.000000e+00
 0.000000e+00 7.789774e-01 2.210226e-01 0.000000e+00 0.000000e+00
 0.000000e+00 0.000000e+00 8.308063e-01 1.691937e-01 0.000000e+00
 0.000000e+00 0.000000e+00 0.000000e+00 8.379018e-01 1.620982e-01
 0.000000e+00 0.000000e+00 0.000000e+00 0.000000e+00 0.000000e+00
<ENDHMM>
~h "S"
<BEGINHMM>
<NUMSTATES> 5
<STATE> 2
<MEAN> 39
 -1.276736e+01 -8.088944e+00 3.440933e+00 -5.215558e-01 4.169922e+00 -4.766662e+00 4.839536e-01 -1.097437e+00 -2.367782e+00 -2.381218e+00 1.732632e+00 -5.348768e-01 6.947408e+01 -3.207812e-01 -8.161370e-01 -9.051531e-02 -5.070759e-01 -4.265332e-01 -4.496130e-01 -1.832463e-02 1.901339e-02 6.830100e-02 3.457272e-02 1.194979e-01 5.366638e-02 8.662351e-01 6.539027e-02 5.231678e-02 7.419171e-02 -8.803687e-02 2.451690e-02 -4.530253e-02 -4.569595e-02 -1.207164e-01 -5.624639e-02 -6.374893e-02 -3.686303e-02 8.290333e-03 2.140113e-01
<VARIANCE> 39
 3.894953e+01 8.216040e+01 3.890567e+01 5.345946e+01 4.534780e+01 4.763862e+01 3.801115e+01 4.216598e+01 3.507639e+01 3.319411e+01 2.682154e+01 2.087891e+01 9.483761e+01 2.340285e+00 8.205575e+00 4.804793e+00 5.590294e+00 3.925701e+00 5.389746e+00 3.792895e+00 4.336324e+00 3.860089e+00 3.216250e+00 2.716442e+00 2.367121e+00 1.156633e+01 3.959174e-01 1.863230e+00 9.806877e-01 1.036168e+00 7.931497e-01 9.763784e-01 6.888868e-01 7.286358e-01 7.039770e-01 5.775006e-01 5.069693e-01 4.464033e-01 1.511951e+00
<GCONST> 1.361061e+02
<STATE> 3
<MEAN> 39
 -1.588165e+01 -1.034924e+01 4.591851e+00 -2.642571e+00 3.115420e+00 -6.044819e+00 5.364331e-01 -2.086269e+00 -2.055748e+00 -2.063657e+00 2.355319e+00 -6.185106e-01 7.388913e+01 -3.394690e-01 -3.501911e-01 4.385542e-01 6.532480e-02 8.039896e-02 -2.153461e-02 1.547407e-01 -1.649230e-01 3.842504e-02 -1.159546e-02 1.660268e-01 2.065647e-01 5.231969e-01 3.828320e-01 2.064898e-01 -5.790504e-02 1.540462e-01 1.288702e-01 9.676193e-02 -4.331591e-02 -4.133872e-02 -7.093278e-02 -6.484669e-02 -9.577415e-02 1.365494e-02 -2.198491e-01
<VARIANCE> 39
 3.038321e+01 2.446326e+01 1.627985e+01 2.361393e+01 2.231092e+01 2.443435e+01 2.271128e+01 2.641196e+01 2.432575e+01 2.709335e+01 2.126367e+01 1.860387e+01 3.948322e+01 5.217645e+00 1.916664e+00 2.390876e+00 1.911322e+00 2.007153e+00 1.893935e+00 1.905261e+00 2.013143e+00 2.049183e+00 1.813284e+00 1.788046e+00 1.371872e+00 1.940207e+00 3.363625e-01 3.101141e-01 4.212364e-01 4.554398e-01 3.937111e-01 4.172297e-01 3.788178e-01 3.920852e-01 3.922290e-01 3.527395e-01 3.157392e-01 2.855377e-01 2.505825e-01
<GCONST> 1.090665e+02
<STATE> 4
<MEAN> 39
 -8.850506e+00 -6.357528e+00 1.691931e+00 -8.560500e-01 4.767062e+00 -5.062230e+00 -1.272149e+00 -3.365959e+00 -3.372833e+00 -2.995554e+00 6.968409e-01 6.424558e-01 6.844897e+01 1.188645e+00 5.598590e-01 -7.044344e-01 -2.207242e-01 -1.060853e-01 -2.412331e-01 -3.562921e-01 -7.668192e-02 -1.906122e-01 -8.859487e-02 -3.163003e-01 -6.090546e-02 -8.915439e-02 -1.243774e-01 -5.280912e-02 -1.322418e-01 -9.296105e-02 -9.088516e-02 -1.214214e-01 -3.515527e-02 5.930477e-02 4.924204e-02 5.267442e-02 4.076340e-02 -5.398021e-02 8.428489e-02
<VARIANCE> 39
 6.348241e+01 3.257862e+01 2.758402e+01 2.257774e+01 2.392754e+01 2.223134e+01 2.950470e+01 3.837677e+01 2.861640e+01 3.228753e+01 2.487918e+01 1.927468e+01 6.161922e+01 2.834265e+00 2.529794e+00 3.160576e+00 1.956352e+00 2.220440e+00 2.589255e+00 2.572866e+00 2.745516e+00 2.622395e+00 2.092044e+00 2.166811e+00 2.056090e+00 8.577710e-01 4.360195e-01 3.615369e-01 3.457669e-01 2.764169e-01 2.800901e-01 3.492823e-01 3.798531e-01 3.857827e-01 3.786618e-01 3.296689e-01 3.099430e-01 2.703479e-01 1.287432e-01
<GCONST> 1.116651e+02
<TRANSP> 5
 0.000000e+00 1.000000e+00 0.000000e+00 0.000000e+00 0.000000e+00
 0.000000e+00 8.125752e-01 1.874248e-01 0.000000e+00 0.000000e+00
 0.000000e+00 0.000000e+00 8.393212e-01 1.606788e-01 0.000000e+00
 0.000000e+00 0.000000e+00 0.000000e+00 7.115717e-01 2.884282e-01
 0.000000e+00 0.000000e+00 0.000000e+00 0.000000e+00 0.000000e+00
<ENDHMM>
~h "T"
<BEGINHMM>
<NUMSTATES> 5
<STATE> 2
<MEAN> 39
 -7.562788e+00 -3.716101e+00 1.929873e+00 -1.734141e+00 7.410494e+00 -4.595893e+00 -2.736306e+00 -4.403774e+00 -3.011908e+00 -2.546175e+00 3.263707e-01 -6.445270e-01 7.308569e+01 -7.043668e-01 2.028370e-01 3.801476e-01 2.289788e-01 2.130965e-01 4.480923e-01 4.541170e-01 2.144046e-01 2.609238e-01 1.661657e-01 1.057095e-01 1.146164e-03 -2.432865e-01 -8.560453e-02 -8.893166e-02 -5.407437e-02 -5.424433e-03 -8.614400e-03 -4.293075e-02 2.124832e-02 5.722583e-02 2.720269e-02 1.273597e-02 5.019511e-02 1.854961e-02 2.968340e-02
<VARIANCE> 39
 5.635495e+01 2.418743e+01 3.612414e+01 4.398232e+01 5.158658e+01 3.683138e+01 4.592991e+01 5.293417e+01 3.883900e+01 3.179868e+01 2.702592e+01 2.500960e+01 5.401294e+01 2.314807e+00 2.146534e+00 2.133139e+00 2.447703e+00 2.716729e+00 2.402644e+00 2.711833e+00 2.960280e+00 2.443043e+00 2.204112e+00 1.896829e+00 1.759536e+00 7.299550e-01 3.485677e-01 2.796809e-01 3.469960e-01 3.721297e-01 3.655924e-01 3.888533e-01 4.388948e-01 4.252102e-01 3.711453e-01 3.363977e-01 2.969914e-01 2.726060e-01 1.001353e-01
<GCONST> 1.141242e+02
<STATE> 3
<MEAN> 39
 -1.411979e+01 -5.077599e+00 1.795400e+00 -1.940561e+00 7.499629e+00 -3.714154e+00 -2.861635e-01 -2.417786e+00 -8.547133e-01 -1.064804e+00 1.911490e+00 -1.342467e-02 7.337158e+01 -2.971753e-01 -8.021171e-02 4.187579e-02 -6.654283e-02 -3.919384e-02 -5.259540e-03 1.636112e-02 -6.396837e-02 1.408570e-02 3.976325e-02 3.895357e-02 1.722437e-02 2.891893e-02 2.684778e-01 7.855412e-02 4.563788e-02 1.377662e-02 1.035139e-02 -3.484258e-02 -1.129187e-01 -1.157820e-01 -9.188604e-02 -5.466942e-02 -6.906292e-02 -2.399420e-02 -1.325947e-02
<VARIANCE> 39
 4.112776e+01 2.511884e+01 2.491794e+01 2.228412e+01 2.443567e+01 2.137434e+01 2.327308e+01 2.331756e+01 1.926207e+01 1.723655e+01 1.412039e+01 1.236648e+01 4.289508e+01 5.262517e+00 1.468023e+00 1.785585e+00 1.874765e+00 1.957548e+00 1.721368e+00 2.257421e+00 2.245646e+00 1.927038e+00 1.602845e+00 1.505165e+00 1.304289e+00 7.754927e-01 2.553426e-01 2.571129e-01 3.512217e-01 3.360086e-01 3.607451e-01 3.642274e-01 4.282340e-01 4.107311e-01 3.644937e-01 3.180180e-01 2.913960e-01 2.613432e-01 1.331953e-01
<GCONST> 1.044835e+02
<STATE> 4
<MEAN> 39
 -1.041711e+01 -3.842073e+00 1.380559e+00 -1.502020e+00 6.292388e+00 -4.330145e+00 -3.246678e+00 -4.931566e+00 -3.325197e+00 -2.121350e+00 6.760334e-01 -3.589655e-01 6.891760e+01 8.224221e-01 -2.983557e-02 -2.411844e-01 -4.934341e-02 2.895967e-02 -2.161797e-01 -4.971293e-01 -3.296252e-01 -2.953452e-01 -1.366650e-01 -1.024526e-01 4.315685e-02 8.346063e-02 -4.071461e-02 -1.079645e-01 -1.197393e-01 -3.178211e-03 9.159173e-03 -3.702310e-02 -8.654271e-03 9.153268e-02 3.097256e-02 3.142158e-03 4.931154e-02 2.594535e-02 2.625741e-02
<VARIANCE> 39
 6.741380e+01 2.901124e+01 2.768929e+01 3.008455e+01 3.377853e+01 2.488429e+01 3.324963e+01 3.516489e+01 2.631433e+01 2.404554e+01 2.018948e+01 1.735342e+01 5.972604e+01 3.297856e+00 1.813573e+00 1.910491e+00 1.813577e+00 2.035714e+00 1.975817e+00 2.698318e+00 2.318228e+00 2.175333e+00 1.937040e+00 1.624712e+00 1.510559e+00 6.736978e-01 4.270396e-01 2.347538e-01 2.494307e-01 2.361811e-01 2.610523e-01 2.614267e-01 3.272276e-01 3.327202e-01 2.968749e-01 2.693371e-01 2.472136e-01 2.191854e-01 8.591221e-02
<GCONST> 1.064454e+02
<TRANSP> 5
 0.000000e+00 1.000000e+00 0.000000e+00 0.000000e+00 0.000000e+00
 0.000000e+00 7.758250e-01 2.241750e-01 0.000000e+00 0.000000e+00
 0.000000e+00 0.000000e+00 8.648254e-01 1.351747e-01 0.000000e+00
 0.000000e+00 0.000000e+00 0.000000e+00 6.334764e-01 3.665236e-01
 0.000000e+00 0.000000e+00 0.000000e+00 0.000000e+00 0.000000e+00
<ENDHMM>
~h "a"
<BEGINHMM>
<NUMSTATES> 5
<STATE> 2
<MEAN> 39
 -5.871367e+00 -4.893373e+00 -1.615245e+00 -4.123917e+00 3.704663e+00 -7.495997e+00 -1.914662e+00 -3.264243e+00 -4.013503e+00 -3.131369e+00 4.764259e-01 -1.292067e+00 7.094510e+01 2.186532e-01 -1.400059e-02 -2.724450e-01 -1.688012e-01 -1.362296e-01 -1.923172e-01 -1.057592e-03 4.801223e-02 -1.906554e-03 6.913995e-02 8.988649e-02 1.170986e-01 1.160168e-01 -4.567474e-02 -4.226546e-02 -3.830346e-03 -1.163935e-02 3.430860e-03 1.651257e-02 3.084553e-02 2.585283e-02 1.946353e-02 1.577587e-02 1.644938e-02 -4.754476e-03 8.636218e-03
<VARIANCE> 39
 4.938504e+01 4.099937e+01 5.415626e+01 4.773510e+01 5.050568e+01 6.904649e+01 5.854176e+01 6.467397e+01 5.857647e+01 4.938681e+01 4.241235e+01 4.202084e+01 7.769141e+01 2.336319e+00 1.975504e+00 2.769123e+00 2.374291e+00 2.446431e+00 3.474814e+00 2.773931e+00 2.624264e+00 2.652745e+00 2.525302e+00 2.310295e+00 2.164662e+00 1.757622e+00 3.335072e-01 2.942228e-01 3.888018e-01 3.657572e-01 3.834136e-01 5.335137e-01 4.277264e-01 4.241818e-01 4.224663e-01 3.969477e-01 3.647936e-01 3.394081e-01 2.356867e-01
<GCONST> 1.220801e+02
<STATE> 3
<MEAN> 39
 -4.349449e+00 -6.500214e+00 -3.761353e+00 -5.235271e+00 2.196273e+00 -9.717972e+00 -1.933309e+00 -3.121646e+00 -3.846593e+00 -2.548822e+00 9.618648e-01 -1.068122e+00 7.343372e+01 1.017880e-01 -9.342544e-02 -2.024681e-01 -1.779872e-01 -9.786763e-02 7.339627e-03 1.114346e-01 7.856102e-02 6.523752e-02 4.133931e-02 3.631217e-02 3.875011e-02 1.180507e-01 -2.956259e-02 4.486541e-02 6.135992e-02 3.845219e-02 3.803783e-02 3.227044e-02 -2.235310e-02 -2.773611e-02 -1.575194e-02 -2.603362e-02 -2.304869e-02 -1.657973e-02 -4.263820e-02
<VARIANCE> 39
 1.921346e+01 3.848745e+01 3.892098e+01 4.041753e+01 5.007762e+01 5.390150e+01 5.668666e+01 7.017419e+01 6.642500e+01 5.976690e+01 4.749966e+01 4.451341e+01 4.773784e+01 3.233899e-01 6.660504e-01 9.109601e-01 9.596083e-01 1.148128e+00 1.399143e+00 1.461570e+00 1.446404e+00 1.495500e+00 1.402531e+00 1.256152e+00 1.084373e+00 3.609737e-01 4.970734e-02 8.803172e-02 1.205515e-01 1.362619e-01 1.591265e-01 2.139297e-01 2.061696e-01 2.113695e-01 2.151559e-01 2.132186e-01 1.966941e-01 1.721535e-01 3.802108e-02
<GCONST> 9.543481e+01
<STATE> 4
<MEAN> 39
 -8.680226e+00 -4.581432e+00 -3.004972e+00 -3.832843e+00 2.411651e+00 -6.259456e+00 -1.895281e+00 -2.342018e+00 -3.592922e+00 -1.697871e+00 1.448168e+00 -4.304628e-01 6.267058e+01 2.693539e-02 1.735687e-02 -1.197388e-02 -2.537561e-02 2.293964e-03 -1.084821e-02 -1.309840e-02 -1.615099e-02 -1.736968e-02 -8.634844e-03 6.619481e-03 1.108964e-02 2.178461e-02 -6.637139e-03 1.369695e-02 7.833781e-03 1.493579e-02 6.352727e-03 6.542758e-03 -7.924990e-03 -5.998650e-03 -3.354268e-03 2.480147e-03 -2.521046e-03 -6.628736e-04 -1.139640e-02
<VARIANCE> 39
 2.548212e+01 3.797833e+01 3.433540e+01 3.909999e+01 4.548391e+01 5.603203e+01 5.301590e+01 6.318240e+01 5.276389e+01 4.867440e+01 3.712848e+01 3.469614e+01 6.591098e+01 1.789276e-01 3.623011e-01 5.231396e-01 6.315719e-01 7.254047e-01 8.699573e-01 9.338179e-01 9.264439e-01 9.551417e-01 9.001499e-01 8.208119e-01 7.254010e-01 1.790719e-01 2.481825e-02 4.840613e-02 7.129782e-02 8.648439e-02 1.017795e-01 1.316981e-01 1.361624e-01 1.399191e-01 1.452962e-01 1.404041e-01 1.307949e-01 1.180971e-01 1.954397e-02
<GCONST> 8.199299e+01
<TRANSP> 5
 0.000000e+00 1.000000e+00 0.000000e+00 0.000000e+00 0.000000e+00
 0.000000e+00 7.338190e-01 2.661810e-01 0.000000e+00 0.000000e+00
 0.000000e+00 0.000000e+00 7.843863e-01 2.156136e-01 0.000000e+00
 0.000000e+00 0.000000e+00 0.000000e+00 8.411177e-01 1.588823e-01
 0.000000e+00 0.000000e+00 0.000000e+00 0.000000e+00 0.000000e+00
<ENDHMM>
~h "b"
<BEGINHMM>
<NUMSTATES> 5
<STATE> 2
<MEAN> 39
 -3.682327e+00 -4.380369e+00 -2.733322e+00 -3.215279e+00 2.827443e+00 -9.302861e+00 -2.779761e+00 -2.346233e+00 -4.249006e+00 -3.131026e+00 -1.195607e-01 -1.990113e+00 7.009043e+01 2.865081e-02 -2.238623e-02 -1.131089e-02 1.802952e-02 1.665483e-02 -4.075534e-02 -4.455529e-02 -3.329272e-02 -3.486590e-02 3.090029e-03 2.713627e-02 5.810786e-03 3.912770e-02 -6.518447e-03 -7.030016e-03 3.683472e-03 8.041161e-04 1.303989e-02 9.323372e-04 -7.807358e-03 -1.145135e-02 -9.973400e-03 -7.047866e-03 6.515950e-03 7.706298e-03 8.484917e-03
<VARIANCE> 39
 1.936128e+01 4.037923e+01 4.561366e+01 4.574727e+01 7.214650e+01 6.451280e+01 5.322206e+01 7.386012e+01 7.217359e+01 5.629079e+01 4.630484e+01 4.767074e+01 4.102069e+01 1.342946e-01 3.524768e-01 4.497742e-01 5.805750e-01 7.404963e-01 8.540922e-01 8.191257e-01 8.623037e-01 9.364898e-01 8.401433e-01 8.006021e-01 7.228890e-01 1.926479e-01 1.715648e-02 4.246626e-02 5.637538e-02 7.262804e-02 8.819788e-02 1.182926e-01 1.166713e-01 1.221705e-01 1.268836e-01 1.234223e-01 1.170758e-01 1.063157e-01 1.855775e-02
<GCONST> 8.072914e+01
<STATE> 3
<MEAN> 39
 -4.465384e+00 -3.737722e+00 -1.856285e+00 -1.868477e+00 5.344604e+00 -7.830335e+00 -3.072010e+00 -3.714000e+00 -5.359222e+00 -3.560145e+00 -2.188572e-01 -2.561813e+00 6.974081e+01 2.131448e-02 -1.042527e-02 2.502870e-02 7.415801e-02 1.261780e-01 -5.615187e-03 -1.124191e-01 -1.252920e-01 -1.008610e-01 -3.411910e-02 3.215685e-02 3.726646e-03 2.793037e-02 -1.490252e-02 -2.038254e-02 1.690937e-02 -1.605851e-04 7.881353e-03 -1.102539e-02 -2.271856e-02 -1.239693e-02 1.889456e-02 1.112867e-02 1.688582e-02 1.370593e-02 2.022132e-02
<VARIANCE> 39
 2.591302e+01 4.562820e+01 4.597047e+01 5.234123e+01 7.024946e+01 8.253092e+01 5.635263e+01 7.005975e+01 7.499043e+01 5.746976e+01 4.873652e+01 5.151612e+01 5.703679e+01 3.054578e-01 6.988332e-01 9.467971e-01 1.103359e+00 1.385195e+00 1.918302e+00 1.529388e+00 1.606746e+00 1.693100e+00 1.535537e+00 1.489410e+00 1.370864e+00 5.248813e-01 3.939911e-02 8.671567e-02 1.184377e-01 1.400656e-01 1.692917e-01 2.653090e-01 2.255607e-01 2.338574e-01 2.393540e-01 2.290588e-01 2.198354e-01 2.030211e-01 5.407042e-02
<GCONST> 1.003718e+02
<STATE> 4
<MEAN> 39
 -9.010444e+00 -3.286228e+00 -1.337548e+00 -1.490498e+00 4.648758e+00 -4.598602e+00 -2.278069e+00 -2.859413e+00 -3.714410e+00 -2.360590e+00 3.219219e-01 -1.652707e+00 6.381974e+01 -3.464308e-02 -2.213158e-02 3.416612e-02 4.222210e-02 8.142482e-02 -7.698704e-03 -6.746360e-02 -5.566955e-02 -1.543328e-02 5.120809e-04 3.789397e-02 2.390408e-02 1.717326e-02 -3.166526e-03 -1.599842e-02 1.060067e-03 -3.043625e-03 -7.889402e-03 -2.890081e-02 -5.637374e-03 9.679551e-03 1.210056e-02 4.521564e-03 9.404180e-04 4.951844e-03 1.787456e-02
<VARIANCE> 39
 4.428866e+01 5.740143e+01 4.513788e+01 4.871939e+01 5.633629e+01 7.577161e+01 5.724788e+01 6.090198e+01 6.237465e+01 4.742774e+01 4.240959e+01 4.519709e+01 7.631213e+01 3.827783e-01 6.861804e-01 8.564360e-01 1.028338e+00 1.220318e+00 1.529756e+00 1.454419e+00 1.431377e+00 1.485667e+00 1.334566e+00 1.273661e+00 1.214400e+00 4.249322e-01 5.449201e-02 9.891430e-02 1.261378e-01 1.534155e-01 1.813612e-01 2.509165e-01 2.352916e-01 2.396342e-01 2.478008e-01 2.285887e-01 2.151349e-01 2.073479e-01 5.552400e-02
<GCONST> 9.976804e+01
<TRANSP> 5
 0.000000e+00 1.000000e+00 0.000000e+00 0.000000e+00 0.000000e+00
 0.000000e+00 8.455980e-01 1.544020e-01 0.000000e+00 0.000000e+00
 0.000000e+00 0.000000e+00 5.816234e-01 4.183766e-01 0.000000e+00
 0.000000e+00 0.000000e+00 0.000000e+00 5.493171e-01 4.506829e-01
 0.000000e+00 0.000000e+00 0.000000e+00 0.000000e+00 0.000000e+00
<ENDHMM>
~h "d"
<BEGINHMM>
<NUMSTATES> 5
<STATE> 2
<MEAN> 39
 -5.323527e+00 -4.543802e+00 5.042513e-01 -2.365008e+00 5.022888e+00 -7.377243e+00 -3.836547e+00 -4.792937e+00 -5.400921e+00 -3.755881e+00 -4.322589e-01 -2.252919e+00 7.128269e+01 -2.692589e-03 -4.021276e-02 1.334183e-02 3.170946e-02 9.336212e-03 -2.912391e-02 -4.215212e-02 -1.461035e-02 -1.689101e-03 2.692869e-02 2.509670e-02 -3.171788e-04 2.348510e-02 3.030017e-03 -6.016342e-03 -6.363225e-03 -4.693972e-03 -3.698702e-03 -1.470104e-02 -2.703110e-03 1.416519e-03 6.308706e-04 1.244967e-03 1.010076e-02 5.198759e-03 1.014391e-02
<VARIANCE> 39
 2.783316e+01 4.163773e+01 5.200230e+01 6.426638e+01 7.112601e+01 8.407442e+01 7.064284e+01 7.411519e+01 6.435326e+01 5.997074e+01 5.204461e+01 5.102439e+01 5.580193e+01 2.768716e-01 4.678980e-01 6.895729e-01 8.699305e-01 9.949824e-01 1.200110e+00 1.206273e+00 1.167276e+00 1.168277e+00 1.100185e+00 1.075003e+00 9.557521e-01 3.018460e-01 3.510261e-02 6.310836e-02 8.513873e-02 1.127196e-01 1.298589e-01 1.716844e-01 1.726447e-01 1.718589e-01 1.751856e-01 1.691297e-01 1.617775e-01 1.431687e-01 3.487449e-02
<GCONST> 9.259575e+01
<STATE> 3
<MEAN> 39
 -5.441241e+00 -4.241973e+00 3.035294e-01 -2.173056e+00 5.112900e+00 -6.752639e+00 -2.724056e+00 -4.112485e+00 -4.898284e+00 -3.479305e+00 1.434745e-01 -1.698436e+00 7.115395e+01 7.412040e-02 -1.065426e-01 -5.398817e-02 -3.381903e-02 -4.470257e-02 -1.649044e-01 -7.759316e-02 -2.099491e-02 -5.090586e-02 1.755271e-02 6.127494e-02 3.442226e-02 1.163248e-01 5.309026e-03 -5.051657e-03 -2.707522e-03 -4.111620e-04 3.194349e-03 -2.271464e-02 -1.240487e-02 9.849008e-03 4.976287e-03 -1.082334e-03 -5.646028e-03 -7.499725e-03 3.373955e-03
<VARIANCE> 39
 2.980955e+01 4.141135e+01 4.489081e+01 5.599453e+01 6.210555e+01 7.662370e+01 6.637934e+01 6.580097e+01 5.998095e+01 5.296506e+01 4.460962e+01 4.580332e+01 6.787924e+01 7.842665e-01 9.707245e-01 1.272720e+00 1.628401e+00 1.681406e+00 2.271414e+00 2.140023e+00 1.893180e+00 1.930715e+00 1.746970e+00 1.705638e+00 1.589143e+00 9.197729e-01 9.343716e-02 1.305471e-01 1.628478e-01 2.141705e-01 2.299787e-01 3.033684e-01 2.997970e-01 2.836123e-01 2.928620e-01 2.663441e-01 2.626559e-01 2.381876e-01 9.633708e-02
<GCONST> 1.081507e+02
<STATE> 4
<MEAN> 39
 -7.775783e+00 -5.673556e+00 -7.691689e-01 -3.103774e+00 3.985993e+00 -9.104198e+00 -4.883526e+00 -4.473945e+00 -5.716606e+00 -2.947669e+00 4.998524e-01 -1.446954e+00 7.392837e+01 7.084318e-03 -8.204197e-03 2.773380e-03 1.685890e-02 -1.616778e-03 -4.814129e-02 -2.988137e-02 9.434898e-03 -3.085072e-04 1.219757e-02 8.638434e-03 -9.868175e-03 1.116232e-02 -2.880092e-03 8.949022e-03 -2.567060e-03 1.823865e-03 1.231341e-03 6.735257e-03 4.937078e-03 3.941985e-04 -2.861261e-05 -3.224212e-03 -7.987329e-04 1.339184e-03 -5.414722e-03
<VARIANCE> 39
 2.022286e+01 4.106190e+01 3.484076e+01 5.911456e+01 7.430138e+01 7.435824e+01 7.065164e+01 7.183564e+01 5.453823e+01 5.110031e+01 4.058559e+01 3.818090e+01 6.438375e+01 1.027029e-01 2.156317e-01 2.931994e-01 3.931452e-01 4.755901e-01 5.455115e-01 6.077256e-01 6.153079e-01 6.188488e-01 5.902306e-01 5.555712e-01 4.971541e-01 1.051932e-01 1.546606e-02 3.077549e-02 4.023279e-02 5.562283e-02 6.738320e-02 8.435959e-02 9.156737e-02 9.385115e-02 9.652960e-02 9.314936e-02 8.761153e-02 7.934898e-02 1.395775e-02
<GCONST> 7.214161e+01
<TRANSP> 5
 0.000000e+00 1.000000e+00 0.000000e+00 0.000000e+00 0.000000e+00
 0.000000e+00 6.262530e-01 3.737470e-01 0.000000e+00 0.000000e+00
 0.000000e+00 0.000000e+00 6.363478e-01 3.636523e-01 0.000000e+00
 0.000000e+00 0.000000e+00 0.000000e+00 8.130326e-01 1.869675e-01
 0.000000e+00 0.000000e+00 0.000000e+00 0.000000e+00 0.000000e+00
<ENDHMM>
~h "e"
<BEGINHMM>
<NUMSTATES> 5
<STATE> 2
<MEAN> 39
 -7.763506e+00 -4.970980e+00 5.243337e-01 -1.313024e+00 6.326887e+00 -6.645235e+00 -3.522774e+00 -4.938410e+00 -4.856153e+00 -3.104494e+00 6.989018e-01 -1.672924e+00 6.951749e+01 2.540195e-01 4.586212e-03 -1.481154e-01 -3.159775e-03 5.679029e-02 -2.208608e-01 -1.702842e-01 -8.025075e-02 -1.374090e-01 -9.298033e-04 4.417162e-02 4.099313e-02 1.117055e-01 -3.783789e-02 -4.707697e-02 -1.814597e-02 -1.880971e-02 -6.425549e-03 -3.619364e-02 -2.280848e-03 2.228704e-02 1.764346e-02 2.603177e-02 2.886906e-02 1.652789e-03 1.737449e-02
<VARIANCE> 39
 5.337482e+01 4.001797e+01 5.019895e+01 4.288493e+01 4.454713e+01 7.433440e+01 6.211601e+01 5.602320e+01 5.248900e+01 4.612870e+01 3.824617e+01 3.978509e+01 7.950322e+01 2.653579e+00 2.393431e+00 2.612850e+00 2.141823e+00 2.200499e+00 4.011593e+00 3.328099e+00 2.763322e+00 2.836424e+00 2.415845e+00 2.257174e+00 2.110845e+00 2.228409e+00 3.461372e-01 3.509097e-01 3.759410e-01 3.332497e-01 3.505849e-01 5.704026e-01 5.065071e-01 4.471005e-01 4.583592e-01 3.824037e-01 3.540231e-01 3.289887e-01 2.966542e-01
<GCONST> 1.226414e+02
<STATE> 3
<MEAN> 39
 -6.026373e+00 -5.712272e+00 -7.561227e-01 -1.630272e+00 6.063090e+00 -8.598997e+00 -4.450326e+00 -5.338193e+00 -5.947834e+00 -3.043912e+00 1.117665e+00 -1.673931e+00 7.129858e+01 6.753704e-02 -1.259964e-01 -8.193841e-02 -1.239384e-02 4.658970e-02 -2.366479e-01 -1.547673e-01 -5.217019e-02 -3.856607e-02 6.177697e-02 1.053315e-01 2.393317e-02 1.466983e-01 -5.585779e-02 4.445205e-02 6.508338e-02 9.488232e-03 -1.836225e-02 9.889621e-02 6.399943e-02 1.824183e-02 4.979085e-02 -1.030427e-02 -4.024815e-02 -1.351216e-02 -5.376311e-02
<VARIANCE> 39
 2.864394e+01 3.724486e+01 4.876022e+01 4.960263e+01 5.475011e+01 7.729118e+01 6.281408e+01 5.764194e+01 5.497581e+01 5.724835e+01 4.690389e+01 5.065329e+01 6.083275e+01 5.693408e-01 8.896936e-01 1.306911e+00 1.226924e+00 1.361148e+00 2.127095e+00 1.838370e+00 1.662595e+00 1.752777e+00 1.657722e+00 1.538455e+00 1.371324e+00 6.683373e-01 9.228717e-02 1.318624e-01 1.829958e-01 1.765557e-01 2.066978e-01 3.164566e-01 2.845411e-01 2.708647e-01 2.874630e-01 2.664925e-01 2.503759e-01 2.220124e-01 7.582109e-02
<GCONST> 1.051340e+02
<STATE> 4
<MEAN> 39
 -9.220063e+00 -4.834270e+00 -1.187713e+00 -8.140817e-01 5.118276e+00 -7.651766e+00 -4.956561e+00 -4.123217e+00 -4.940394e+00 -1.711922e+00 1.288948e+00 -1.345188e+00 5.633916e+01 1.434761e-02 2.968418e-03 5.430924e-03 2.506503e-03 1.713992e-02 -3.434540e-02 -4.397786e-02 -2.662206e-02 -1.368981e-02 2.927552e-03 9.252819e-03 -8.186648e-04 2.682648e-02 -5.505926e-05 1.910789e-02 -4.795254e-03 -7.572613e-04 -6.843171e-03 2.556947e-02 1.160872e-02 5.252538e-03 4.959672e-03 1.036632e-04 -7.199933e-03 4.469636e-03 -1.261546e-02
<VARIANCE> 39
 2.552260e+01 3.792258e+01 4.407548e+01 4.643418e+01 5.102409e+01 7.732987e+01 5.938696e+01 5.620315e+01 5.234324e+01 5.458268e+01 4.224656e+01 4.388054e+01 6.602565e+01 1.718615e-01 3.408464e-01 4.887043e-01 5.622444e-01 6.497878e-01 8.619428e-01 8.500799e-01 8.309536e-01 8.790154e-01 8.337382e-01 7.750490e-01 6.902047e-01 1.882760e-01 2.534654e-02 4.822244e-02 6.913041e-02 7.864270e-02 9.586816e-02 1.305994e-01 1.310609e-01 1.325004e-01 1.400724e-01 1.326648e-01 1.253833e-01 1.113200e-01 2.047549e-02
<GCONST> 8.207846e+01
<TRANSP> 5
 0.000000e+00 1.000000e+00 0.000000e+00 0.000000e+00 0.000000e+00
 0.000000e+00 6.981816e-01 3.018184e-01 0.000000e+00 0.000000e+00
 0.000000e+00 0.000000e+00 6.540473e-01 3.459527e-01 0.000000e+00
 0.000000e+00 0.000000e+00 0.000000e+00 8.717266e-01 1.282734e-01
 0.000000e+00 0.000000e+00 0.000000e+00 0.000000e+00 0.000000e+00
<ENDHMM>
~h "f"
<BEGINHMM>
<NUMSTATES> 5
<STATE> 2
<MEAN> 39
 -1.384127e+01 -6.020048e+00 -1.549301e-01 -2.888896e+00 5.849206e+00 -4.678273e+00 7.362646e-01 -2.474958e+00 -1.484034e+00 -1.861416e+00 1.088271e+00 -1.182895e+00 7.155921e+01 1.838360e-02 -8.123036e-02 -1.129481e-01 -1.140471e-01 -9.169579e-02 -1.152598e-01 -8.280218e-02 -4.403051e-02 -4.986482e-02 -8.617124e-03 -2.368328e-02 -9.112841e-03 1.935293e-03 5.441560e-02 2.175806e-02 9.921846e-03 2.541468e-03 -1.161600e-02 -1.812286e-02 -2.520118e-02 -7.707997e-03 -1.683961e-02 -1.602542e-02 -1.861597e-02 -1.415658e-02 -1.462503e-02
<VARIANCE> 39
 6.857794e+01 3.378470e+01 2.629538e+01 2.911550e+01 2.459076e+01 2.828499e+01 2.809860e+01 2.451871e+01 2.404567e+01 2.049206e+01 1.919464e+01 1.734707e+01 4.624947e+01 2.150087e+00 1.051089e+00 1.420198e+00 1.430139e+00 1.485051e+00 1.931914e+00 1.846829e+00 1.556292e+00 1.650330e+00 1.437383e+00 1.347950e+00 1.205171e+00 4.412975e-01 2.058623e-01 1.459053e-01 2.019359e-01 2.146566e-01 2.418882e-01 2.902044e-01 2.883657e-01 2.693913e-01 2.750984e-01 2.574021e-01 2.455470e-01 2.178867e-01 5.168800e-02
<GCONST> 9.875865e+01
<STATE> 3
<MEAN> 39
 -9.943464e+00 -4.569096e+00 -4.146743e-01 -2.867327e+00 5.181350e+00 -6.471378e+00 -1.243717e+00 -3.203517e+00 -2.759204e+00 -2.489064e+00 2.115847e-01 -2.066206e+00 7.079092e+01 -4.199367e-01 -4.738994e-02 2.842988e-03 -2.378181e-02 2.618257e-02 9.950933e-02 8.546729e-02 -8.010189e-03 3.933478e-02 1.527259e-02 3.671259e-02 8.281587e-03 1.977172e-02 4.824878e-03 6.921418e-03 2.051330e-02 3.977642e-03 3.940758e-03 1.575072e-02 1.518563e-02 3.554809e-03 9.914443e-03 1.509446e-04 2.304835e-03 -3.058504e-03 1.781501e-04
<VARIANCE> 39
 1.209172e+02 3.918636e+01 4.200134e+01 3.817029e+01 4.885468e+01 5.760904e+01 5.156388e+01 4.249968e+01 4.429819e+01 3.168604e+01 2.770120e+01 2.641525e+01 5.486668e+01 5.033418e+00 2.245253e+00 2.447583e+00 2.148610e+00 2.564092e+00 3.347602e+00 2.895882e+00 2.304754e+00 2.419710e+00 1.909520e+00 1.797003e+00 1.608878e+00 1.191478e+00 4.843311e-01 3.515734e-01 3.894679e-01 3.528837e-01 4.133062e-01 5.170587e-01 4.638743e-01 3.991924e-01 4.062513e-01 3.375994e-01 3.210311e-01 2.823370e-01 1.815089e-01
<GCONST> 1.188242e+02
<STATE> 4
<MEAN> 39
 -4.466254e+00 -1.529533e+00 -3.469589e-01 -6.211570e-01 1.512857e+00 -1.399067e+00 -5.684986e-01 -9.431870e-01 -8.553364e-01 -3.544599e-01 3.684367e-01 -2.498436e-01 2.092949e+01 4.026507e-02 2.105139e-03 -1.162858e-03 -4.728325e-03 -9.879876e-03 -1.831974e-02 -1.925867e-02 -1.170957e-03 -6.444878e-03 -5.844044e-03 -7.154687e-03 -7.492949e-03 7.534397e-03 6.341163e-03 1.564195e-03 -3.042700e-04 1.190144e-03 -1.051495e-03 -1.044720e-03 -1.974135e-03 6.221433e-04 -4.856747e-04 -1.618753e-04 -2.489989e-04 -3.619570e-04 6.023355e-05
<VARIANCE> 39
 7.085539e+00 1.258531e+00 4.928715e-01 8.505487e-01 1.190653e+00 1.155311e+00 7.311189e-01 6.107127e-01 5.148515e-01 4.411826e-01 3.905601e-01 3.463276e-01 9.970420e+01 9.695509e-03 9.253905e-03 1.145114e-02 1.214978e-02 1.430739e-02 1.621308e-02 1.816782e-02 1.819934e-02 1.864943e-02 1.734150e-02 1.664504e-02 1.550683e-02 7.617858e-03 2.131887e-03 1.468472e-03 1.700979e-03 2.062824e-03 2.360276e-03 2.805528e-03 3.024843e-03 3.051679e-03 3.010537e-03 2.922150e-03 2.726896e-03 2.502907e-03 1.045099e-03
<GCONST> -6.128261e+01
<TRANSP> 5
 0.000000e+00 1.000000e+00 0.000000e+00 0.000000e+00 0.000000e+00
 0.000000e+00 8.627918e-01 1.372083e-01 0.000000e+00 0.000000e+00
 0.000000e+00 0.000000e+00 8.181087e-01 1.818912e-01 0.000000e+00
 0.000000e+00 0.000000e+00 0.000000e+00 9.812676e-01 1.873239e-02
 0.000000e+00 0.000000e+00 0.000000e+00 0.000000e+00 0.000000e+00
<ENDHMM>
~h "g"
<BEGINHMM>
<NUMSTATES> 5
<STATE> 2
<MEAN> 39
 -3.721642e+00 -4.365957e+00 -1.689874e+00 -2.778496e+00 4.378524e+00 -9.924328e+00 -4.033765e+00 -3.488746e+00 -5.451380e+00 -4.411873e+00 -2.306908e-01 -2.443109e+00 7.164137e+01 7.521971e-02 1.635747e-01 -5.610844e-03 -1.318529e-01 -4.151272e-01 -1.045229e-01 2.139249e-01 2.966041e-01 2.216290e-01 -2.262458e-02 -1.794438e-01 -9.464525e-02 -9.097672e-02 -8.737627e-03 8.696951e-03 3.039065e-02 9.609798e-03 -2.523466e-02 -2.053759e-02 -1.724407e-02 5.040737e-04 4.966589e-02 3.878884e-02 2.175038e-03 -6.109019e-03 -4.594848e-03
<VARIANCE> 39
 2.019193e+01 4.343385e+01 4.925357e+01 4.522086e+01 6.242673e+01 6.604009e+01 6.688304e+01 7.469183e+01 7.637123e+01 6.057747e+01 5.117818e+01 5.048156e+01 4.636227e+01 2.835802e-01 5.927289e-01 9.529111e-01 1.052417e+00 1.602954e+00 1.661703e+00 1.748237e+00 1.770519e+00 1.806343e+00 1.733762e+00 1.631001e+00 1.473734e+00 3.521471e-01 3.912285e-02 6.801006e-02 1.192925e-01 1.349971e-01 1.724340e-01 2.188594e-01 2.379256e-01 2.467201e-01 2.472983e-01 2.492630e-01 2.393886e-01 2.168139e-01 3.299132e-02
<GCONST> 9.911330e+01
<STATE> 3
<MEAN> 39
 -2.735569e+00 -3.441700e+00 -5.846706e-01 -2.994652e+00 3.418909e-01 -1.268227e+01 -3.671264e+00 -1.201487e+00 -2.487988e+00 -3.500436e+00 -1.350380e+00 -2.808868e+00 7.115258e+01 3.958851e-02 7.572583e-02 4.443036e-02 -3.668239e-02 -1.577636e-01 -7.221923e-02 -1.571733e-02 2.901675e-02 9.770014e-02 3.842939e-02 -8.851085e-03 2.103262e-02 -3.753449e-02 -5.165245e-03 -1.756854e-02 -2.005165e-02 -1.568655e-02 4.506753e-02 3.624051e-02 -3.281909e-04 -2.622047e-02 -3.029314e-02 -1.994043e-02 1.341634e-02 2.007368e-02 1.934890e-02
<VARIANCE> 39
 1.697667e+01 4.465715e+01 4.654427e+01 4.652465e+01 7.311658e+01 7.041657e+01 5.888166e+01 6.310210e+01 7.443758e+01 5.785976e+01 4.529378e+01 4.145631e+01 3.959085e+01 2.744788e-01 6.356847e-01 9.575496e-01 8.536140e-01 1.214609e+00 1.400201e+00 1.449756e+00 1.382526e+00 1.433515e+00 1.345387e+00 1.196779e+00 1.113788e+00 3.743745e-01 3.635316e-02 6.560848e-02 9.780218e-02 1.137565e-01 1.502743e-01 1.766464e-01 1.973632e-01 2.069252e-01 1.984776e-01 1.965339e-01 1.834688e-01 1.698620e-01 2.942489e-02
<GCONST> 9.397762e+01
<STATE> 4
<MEAN> 39
 -7.755082e+00 -1.494738e+00 1.722282e-01 -1.851356e+00 2.421965e+00 -7.856472e+00 -3.973309e+00 -1.724606e+00 -2.632275e+00 -2.324979e+00 1.976507e-03 -2.189704e+00 6.387834e+01 1.881391e-02 3.164495e-03 -2.308061e-02 -5.278856e-02 -3.749002e-02 3.293233e-02 2.803045e-02 -1.192649e-02 4.964846e-03 -3.518488e-02 5.343828e-04 2.701358e-02 2.290270e-02 -4.548871e-03 -2.805946e-02 -2.054779e-02 -1.398811e-02 1.223889e-02 1.226126e-02 2.719842e-02 1.008996e-02 -7.548289e-03 -6.106788e-03 3.214622e-03 7.748815e-03 1.877089e-02
<VARIANCE> 39
 2.582320e+01 5.508644e+01 4.755458e+01 4.369605e+01 6.013666e+01 7.234380e+01 7.011937e+01 6.849323e+01 6.043600e+01 5.160569e+01 4.199755e+01 3.637943e+01 5.253775e+01 3.447674e-01 6.048486e-01 8.658022e-01 9.368288e-01 1.187783e+00 1.397585e+00 1.452959e+00 1.434867e+00 1.428712e+00 1.296636e+00 1.216427e+00 1.110889e+00 3.532460e-01 5.169845e-02 8.285709e-02 1.173735e-01 1.345703e-01 1.578188e-01 2.085595e-01 2.215495e-01 2.212098e-01 2.172275e-01 2.053163e-01 1.915031e-01 1.759403e-01 4.217563e-02
<GCONST> 9.641440e+01
<TRANSP> 5
 0.000000e+00 1.000000e+00 0.000000e+00 0.000000e+00 0.000000e+00
 0.000000e+00 6.636548e-01 3.363452e-01 0.000000e+00 0.000000e+00
 0.000000e+00 0.000000e+00 7.895993e-01 2.104007e-01 0.000000e+00
 0.000000e+00 0.000000e+00 0.000000e+00 6.252422e-01 3.747578e-01
 0.000000e+00 0.000000e+00 0.000000e+00 0.000000e+00 0.000000e+00
<ENDHMM>
~h "i"
<BEGINHMM>
<NUMSTATES> 5
<STATE> 2
<MEAN> 39
 -8.778341e+00 -5.338332e+00 2.664541e+00 1.224142e+00 8.096978e+00 -7.228550e+00 -5.146261e+00 -5.152755e+00 -4.603501e+00 -3.001738e+00 -8.858116e-02 -3.299737e+00 6.944886e+01 3.967130e-01 6.434074e-02 -6.966077e-02 1.507539e-01 1.559824e-01 -3.225423e-01 -3.444328e-01 -5.958078e-02 -2.077464e-01 -1.001361e-01 -6.061052e-02 -9.439356e-02 7.834926e-02 -4.754424e-02 -4.528607e-02 -2.996506e-02 -4.678795e-02 -3.783323e-02 -3.134969e-02 2.313115e-02 5.502182e-02 2.033608e-02 1.243605e-02 3.245240e-02 1.849301e-02 1.443988e-02
<VARIANCE> 39
 5.089192e+01 3.758358e+01 4.737446e+01 4.460855e+01 4.537843e+01 7.626049e+01 6.324749e+01 5.402808e+01 5.062029e+01 4.194036e+01 3.962864e+01 3.664321e+01 6.678686e+01 2.804007e+00 2.586674e+00 2.600761e+00 2.384454e+00 2.477863e+00 4.620814e+00 4.031576e+00 3.156725e+00 3.146044e+00 2.617918e+00 2.479737e+00 2.164128e+00 1.722241e+00 3.248104e-01 3.641080e-01 3.786779e-01 3.609157e-01 3.863590e-01 6.504352e-01 6.243978e-01 5.157241e-01 4.924837e-01 4.160911e-01 3.900666e-01 3.401540e-01 2.288002e-01
<GCONST> 1.237192e+02
<STATE> 3
<MEAN> 39
 -7.952446e+00 -6.461345e+00 3.576887e+00 2.469123e+00 8.587183e+00 -1.054506e+01 -7.273553e+00 -4.565621e+00 -5.467133e+00 -3.837705e+00 -5.834569e-01 -4.285992e+00 7.092598e+01 8.491118e-02 -3.404494e-02 3.738245e-02 7.244992e-02 6.662245e-02 -1.747420e-01 -1.874675e-01 -1.731217e-02 -4.444346e-02 -2.568659e-02 -1.250662e-02 -5.385325e-02 6.098538e-02 -4.219164e-03 3.728345e-02 -2.161469e-02 -3.646288e-02 -2.543062e-02 7.641643e-02 6.096033e-02 -2.983240e-02 1.330376e-02 1.781298e-02 8.409801e-03 2.919463e-02 -2.612343e-02
<VARIANCE> 39
 1.880550e+01 3.103801e+01 4.874561e+01 4.685715e+01 5.893314e+01 8.735477e+01 5.435289e+01 6.111433e+01 4.836560e+01 5.019952e+01 5.549103e+01 4.081499e+01 4.329111e+01 3.254069e-01 5.537276e-01 9.803910e-01 9.513371e-01 9.848486e-01 1.622087e+00 1.442194e+00 1.388329e+00 1.282369e+00 1.221553e+00 1.165838e+00 1.016706e+00 3.354810e-01 5.089964e-02 8.279724e-02 1.151398e-01 1.262726e-01 1.576087e-01 2.387778e-01 2.299325e-01 2.246230e-01 2.135052e-01 1.994457e-01 1.858789e-01 1.621410e-01 3.610247e-02
<GCONST> 9.470584e+01
<STATE> 4
<MEAN> 39
 -1.006772e+01 -4.375624e+00 7.049468e-01 8.750173e-01 6.274078e+00 -6.585441e+00 -5.532659e+00 -4.263964e+00 -4.862521e+00 -2.096468e+00 6.477689e-01 -1.758856e+00 5.883819e+01 4.825473e-02 3.425347e-02 -2.673526e-02 -2.619324e-02 -8.924491e-03 2.451395e-02 1.157676e-02 -3.624273e-02 -2.093950e-02 5.085647e-03 1.595674e-02 3.339937e-02 9.381765e-03 -9.760578e-03 1.458510e-02 -8.028838e-03 -1.307698e-02 -2.333697e-02 3.090506e-02 3.421517e-02 1.635879e-02 1.210449e-02 4.200636e-03 -1.869810e-03 1.040532e-02 -1.324550e-02
<VARIANCE> 39
 3.397059e+01 4.138010e+01 5.283046e+01 5.031625e+01 5.036633e+01 8.108744e+01 6.310703e+01 6.418856e+01 5.405040e+01 4.780473e+01 4.211880e+01 3.877493e+01 7.286101e+01 2.522803e-01 4.045625e-01 6.601586e-01 7.724691e-01 8.436115e-01 1.142228e+00 1.184152e+00 1.061723e+00 1.064873e+00 1.001900e+00 9.674641e-01 8.868268e-01 2.202813e-01 3.334581e-02 5.731705e-02 8.000867e-02 9.547673e-02 1.191813e-01 1.629936e-01 1.702880e-01 1.692827e-01 1.701425e-01 1.584750e-01 1.515853e-01 1.362293e-01 2.531650e-02
<GCONST> 8.881960e+01
<TRANSP> 5
 0.000000e+00 1.000000e+00 0.000000e+00 0.000000e+00 0.000000e+00
 0.000000e+00 7.763105e-01 2.236895e-01 0.000000e+00 0.000000e+00
 0.000000e+00 0.000000e+00 8.518150e-01 1.481850e-01 0.000000e+00
 0.000000e+00 0.000000e+00 0.000000e+00 7.804411e-01 2.195589e-01
 0.000000e+00 0.000000e+00 0.000000e+00 0.000000e+00 0.000000e+00
<ENDHMM>
~h "j"
<BEGINHMM>
<NUMSTATES> 5
<STATE> 2
<MEAN> 39
 -7.505540e+00 -5.654541e+00 1.366464e+00 3.126050e+00 7.826702e+00 -6.276823e+00 -5.041700e+00 -3.952668e+00 -5.953846e+00 -4.054425e+00 1.760132e+00 -1.185588e-01 6.677518e+01 8.311898e-02 -4.132366e-02 -4.446781e-02 -3.116059e-02 -3.855010e-02 -1.106033e-01 -5.908003e-02 -6.091442e-02 -5.758923e-02 -1.710504e-02 3.114923e-02 3.647180e-02 1.381915e-01 2.561560e-02 2.151170e-03 -4.070531e-02 -3.776448e-02 -2.376804e-02 -6.548426e-03 2.531300e-03 -5.732306e-03 6.199267e-03 7.358232e-03 5.357309e-03 1.522674e-02 1.224415e-02
<VARIANCE> 39
 3.216695e+01 3.221539e+01 5.414447e+01 6.999380e+01 6.376472e+01 4.903187e+01 6.057140e+01 6.439808e+01 5.542196e+01 4.424933e+01 3.537255e+01 3.943292e+01 7.899425e+01 2.209111e-01 3.071634e-01 6.556499e-01 8.249529e-01 8.054071e-01 8.061251e-01 9.590378e-01 9.556124e-01 9.552295e-01 8.512816e-01 8.289083e-01 7.849125e-01 2.178425e-01 2.615817e-02 4.106010e-02 7.096407e-02 9.114404e-02 1.071874e-01 1.234990e-01 1.443838e-01 1.495745e-01 1.464514e-01 1.330918e-01 1.340466e-01 1.206877e-01 1.935939e-02
<GCONST> 8.456363e+01
<STATE> 3
<MEAN> 39
 -7.288071e+00 -5.368310e+00 2.724005e+00 3.587121e+00 8.023459e+00 -6.283588e+00 -4.454920e+00 -4.235954e+00 -5.350697e+00 -4.155668e+00 1.690536e+00 -4.768323e-01 6.865092e+01 2.221060e-01 -3.991243e-02 -2.571776e-01 -2.280355e-01 -1.372866e-01 -1.615397e-01 -2.783662e-02 -1.110248e-01 -6.574738e-02 -1.070203e-02 4.683350e-02 1.310126e-01 2.289443e-01 2.302826e-02 1.575698e-02 -3.737527e-02 -5.386297e-02 -5.588143e-02 7.069545e-03 3.986896e-02 3.272212e-02 3.203584e-02 2.195672e-02 -1.176553e-02 -4.578400e-03 -3.224662e-03
<VARIANCE> 39
 3.794835e+01 3.109718e+01 6.054855e+01 6.521290e+01 5.339133e+01 5.232790e+01 5.519849e+01 5.756881e+01 5.127992e+01 4.579758e+01 3.954835e+01 3.912935e+01 7.874902e+01 8.360815e-01 7.690248e-01 1.726448e+00 1.754650e+00 1.784391e+00 1.821695e+00 2.307668e+00 2.188724e+00 2.011685e+00 1.696825e+00 1.549800e+00 1.479519e+00 6.065873e-01 9.757519e-02 1.011606e-01 1.882432e-01 2.009768e-01 2.307438e-01 2.582494e-01 3.234405e-01 3.236133e-01 3.021491e-01 2.683941e-01 2.519570e-01 2.329125e-01 5.533818e-02
<GCONST> 1.063137e+02
<STATE> 4
<MEAN> 39
 -1.068913e+01 -4.507215e+00 -1.950601e+00 -6.929395e-01 4.373375e+00 -5.410690e+00 -4.431622e+00 -4.220538e+00 -4.614554e+00 -3.573346e+00 1.000214e+00 6.203263e-01 6.084735e+01 4.864832e-02 7.991330e-02 -3.076048e-02 -9.339341e-02 -8.841599e-02 2.885631e-02 1.136949e-01 8.160809e-02 8.223265e-02 4.173482e-02 -3.903596e-02 -9.615062e-03 1.839450e-02 4.147241e-03 1.599806e-03 1.276655e-02 1.321539e-02 1.012600e-02 -7.485992e-03 8.209131e-04 1.566000e-02 2.309236e-03 -4.706197e-03 -8.104880e-03 -1.739079e-02 4.150208e-03
<VARIANCE> 39
 3.569867e+01 3.840611e+01 4.154068e+01 3.858367e+01 5.113927e+01 5.566129e+01 5.746084e+01 5.117834e+01 5.185317e+01 4.228656e+01 3.486050e+01 3.575601e+01 7.981984e+01 4.717523e-01 6.870884e-01 9.945148e-01 1.089992e+00 1.322441e+00 1.548159e+00 1.709705e+00 1.618387e+00 1.535914e+00 1.349783e+00 1.275715e+00 1.216358e+00 3.501616e-01 6.049101e-02 9.916677e-02 1.319693e-01 1.564442e-01 1.892567e-01 2.360846e-01 2.633098e-01 2.608026e-01 2.518694e-01 2.303363e-01 2.217120e-01 2.069268e-01 4.095069e-02
<GCONST> 9.832117e+01
<TRANSP> 5
 0.000000e+00 1.000000e+00 0.000000e+00 0.000000e+00 0.000000e+00
 0.000000e+00 8.781564e-01 1.218435e-01 0.000000e+00 0.000000e+00
 0.000000e+00 0.000000e+00 8.039255e-01 1.960745e-01 0.000000e+00
 0.000000e+00 0.000000e+00 0.000000e+00 8.156608e-01 1.843391e-01
 0.000000e+00 0.000000e+00 0.000000e+00 0.000000e+00 0.000000e+00
<ENDHMM>
~h "k"
<BEGINHMM>
<NUMSTATES> 5
<STATE> 2
<MEAN> 39
 -8.579473e+00 -3.525262e+00 -9.522200e-02 -1.065445e+00 5.423272e+00 -5.933977e+00 -2.138359e+00 -3.547531e+00 -4.145325e+00 -2.021393e+00 4.160847e-01 -2.937129e+00 6.645194e+01 -2.370657e-01 7.296717e-02 7.503968e-02 3.783448e-02 -6.288593e-02 1.555765e-01 1.237070e-01 1.479124e-01 1.693441e-01 8.190043e-02 2.480848e-02 3.021488e-02 -2.372909e-01 2.165624e-02 -6.815593e-02 -4.136795e-02 -4.646562e-02 -2.546421e-02 -5.493974e-02 -3.827055e-03 -6.446793e-03 -1.061336e-02 -1.732880e-03 1.504910e-02 1.313642e-02 6.808179e-02
<VARIANCE> 39
 5.852797e+01 5.230020e+01 4.848402e+01 4.639826e+01 5.163726e+01 7.103559e+01 6.316671e+01 6.128170e+01 5.627119e+01 4.260629e+01 3.848883e+01 3.928657e+01 1.023263e+02 1.721291e+00 2.793582e+00 2.732539e+00 2.524663e+00 2.519035e+00 3.920564e+00 3.157711e+00 2.860225e+00 2.719166e+00 2.378117e+00 2.203263e+00 1.980707e+00 2.786874e+00 2.470305e-01 4.465770e-01 4.175370e-01 4.109921e-01 4.050710e-01 6.149915e-01 5.048470e-01 4.836327e-01 4.627172e-01 3.965882e-01 3.653247e-01 3.256090e-01 4.305408e-01
<GCONST> 1.245461e+02
<STATE> 3
<MEAN> 39
 -1.007140e+01 -5.352371e+00 -1.198779e+00 -2.775910e+00 4.429028e+00 -5.859239e+00 -9.391258e-01 -2.974281e+00 -3.542066e+00 -1.778702e+00 1.044765e+00 -2.241818e+00 6.720863e+01 2.660756e-01 -2.178439e-01 -7.459290e-02 -2.089456e-01 -1.422338e-01 -5.697774e-01 -2.060253e-01 -1.853564e-01 -1.892140e-01 -9.823564e-02 -4.227357e-02 -9.798572e-02 6.752771e-01 1.325165e-01 5.503327e-02 3.274764e-02 6.674863e-02 2.848322e-02 -8.293977e-02 -1.060584e-01 -5.110237e-02 -4.484740e-02 -1.864571e-02 -2.053531e-02 -1.592309e-02 3.404341e-02
<VARIANCE> 39
 4.981700e+01 5.341120e+01 5.355603e+01 5.738145e+01 6.346417e+01 7.417651e+01 7.026411e+01 6.168029e+01 5.129926e+01 4.159516e+01 3.711018e+01 3.410196e+01 9.918132e+01 3.803516e+00 5.622240e+00 5.137817e+00 5.221231e+00 4.384526e+00 6.228191e+00 5.514881e+00 4.382954e+00 4.069680e+00 3.356954e+00 3.139525e+00 2.767494e+00 7.654632e+00 5.353229e-01 1.016062e+00 9.566458e-01 9.267623e-01 7.566514e-01 1.000603e+00 9.077531e-01 7.685602e-01 7.157347e-01 6.004936e-01 5.559213e-01 4.851414e-01 1.349480e+00
<GCONST> 1.402645e+02
<STATE> 4
<MEAN> 39
 -1.090362e+01 -4.442531e+00 -1.280761e+00 -2.050569e+00 3.594075e+00 -6.219540e+00 -2.767227e+00 -3.864285e+00 -4.328367e+00 -1.487374e+00 9.828265e-01 -1.446961e+00 6.177015e+01 3.462258e-01 3.093712e-02 -4.322312e-02 7.353669e-02 -5.782581e-03 -2.753549e-01 -2.178127e-01 -9.755568e-02 -1.329779e-01 -2.543312e-02 8.311779e-03 3.705129e-03 1.190710e-01 -1.828948e-02 -2.845405e-02 -3.178275e-02 -1.613632e-03 -6.594617e-04 6.677515e-02 3.985211e-02 4.649749e-02 5.098201e-02 2.022818e-02 1.684996e-02 3.163550e-02 -2.823553e-02
<VARIANCE> 39
 6.393574e+01 4.613643e+01 4.617273e+01 4.882549e+01 6.650863e+01 7.800046e+01 7.594737e+01 6.651616e+01 5.615141e+01 4.424570e+01 3.926214e+01 3.767181e+01 8.196474e+01 1.801981e+00 1.629082e+00 2.373654e+00 1.900360e+00 2.121517e+00 3.103558e+00 2.941727e+00 2.376036e+00 2.341691e+00 2.099454e+00 1.953417e+00 1.738996e+00 1.219040e+00 3.031448e-01 2.801652e-01 3.457717e-01 3.352249e-01 3.400780e-01 4.967694e-01 4.944195e-01 4.101326e-01 3.981214e-01 3.576612e-01 3.411181e-01 2.947483e-01 1.921371e-01
<GCONST> 1.195276e+02
<TRANSP> 5
 0.000000e+00 1.000000e+00 0.000000e+00 0.000000e+00 0.000000e+00
 0.000000e+00 7.668454e-01 2.331546e-01 0.000000e+00 0.000000e+00
 0.000000e+00 0.000000e+00 8.674846e-01 1.325154e-01 0.000000e+00
 0.000000e+00 0.000000e+00 0.000000e+00 5.167762e-01 4.832238e-01
 0.000000e+00 0.000000e+00 0.000000e+00 0.000000e+00 0.000000e+00
<ENDHMM>
~h "l"
<BEGINHMM>
<NUMSTATES> 5
<STATE> 2
<MEAN> 39
 -4.031647e+00 -5.605766e+00 -2.322533e+00 -2.538528e+00 5.026327e+00 -9.898457e+00 -3.491722e+00 -3.575304e+00 -6.579288e+00 -4.898968e+00 2.731084e-01 -1.523623e+00 7.182729e+01 2.721497e-02 3.695062e-02 2.391071e-02 8.844748e-02 8.545476e-02 -1.128765e-03 -1.843960e-02 -2.706388e-02 -8.843400e-02 -6.836654e-02 -2.541364e-02 -4.878471e-03 -2.675058e-02 -1.047878e-02 1.525704e-02 1.475752e-02 3.741185e-03 1.777328e-03 3.176819e-02 9.414761e-03 -2.717995e-03 1.354666e-02 -5.296147e-04 -1.345132e-02 -3.820028e-03 -1.749115e-02
<VARIANCE> 39
 2.246261e+01 3.178105e+01 4.951231e+01 5.313784e+01 6.036956e+01 6.118879e+01 5.270276e+01 6.846199e+01 6.472066e+01 6.472920e+01 5.898922e+01 4.597897e+01 4.264867e+01 2.255371e-01 4.095277e-01 8.010517e-01 8.721691e-01 1.053582e+00 1.275649e+00 1.200879e+00 1.271695e+00 1.334465e+00 1.311853e+00 1.244892e+00 1.017254e+00 2.848336e-01 3.305699e-02 5.609782e-02 1.075423e-01 1.145990e-01 1.336702e-01 1.928651e-01 1.785226e-01 1.883095e-01 1.986751e-01 1.979078e-01 1.936688e-01 1.603656e-01 3.124477e-02
<GCONST> 9.213488e+01
<STATE> 3
<MEAN> 39
 -4.495452e+00 -4.644934e+00 -9.194190e-01 -1.630000e+00 5.921148e+00 -7.749757e+00 -3.205235e+00 -3.835391e+00 -5.667618e+00 -4.909089e+00 -5.137383e-01 -1.428792e+00 7.064874e+01 -2.535466e-02 7.669644e-02 1.873956e-01 1.748975e-01 1.333222e-01 1.565438e-01 3.569688e-02 -4.269652e-02 -1.183660e-01 -1.744625e-01 -1.313775e-01 -5.829006e-02 -1.285688e-01 -1.599434e-02 -1.427763e-02 -1.347907e-02 -3.990414e-02 -4.281041e-02 -2.192793e-02 4.877069e-03 6.767861e-03 3.917368e-02 6.546448e-02 3.946391e-02 6.382470e-03 2.557442e-02
<VARIANCE> 39
 2.528071e+01 3.254434e+01 5.180512e+01 5.219651e+01 5.484828e+01 7.491092e+01 5.254531e+01 6.063694e+01 6.241613e+01 6.087930e+01 5.432457e+01 4.145062e+01 5.240420e+01 6.498231e-01 9.064730e-01 2.217037e+00 2.040700e+00 2.091646e+00 3.137826e+00 2.498931e+00 2.670702e+00 2.841725e+00 3.018954e+00 2.861632e+00 2.020253e+00 9.260897e-01 8.693501e-02 1.280195e-01 2.918262e-01 2.679133e-01 2.774772e-01 4.556693e-01 3.955707e-01 4.252804e-01 4.393834e-01 4.412324e-01 4.371868e-01 3.232610e-01 1.005305e-01
<GCONST> 1.143962e+02
<STATE> 4
<MEAN> 39
 -8.855674e+00 -3.353103e+00 -3.697912e-01 -5.718715e-01 5.672614e+00 -5.354740e+00 -2.918205e+00 -3.408317e+00 -5.367707e+00 -3.863910e+00 -6.544004e-02 -1.216032e+00 6.389986e+01 -1.016792e-02 9.508722e-03 4.279939e-03 1.271195e-03 -1.538989e-02 -9.795079e-03 -2.795687e-04 -5.271263e-03 2.102278e-02 2.133904e-02 1.092139e-02 7.719805e-03 1.097001e-02 -4.662415e-03 -1.117877e-02 -1.957694e-02 -2.084717e-02 -1.865437e-02 -1.092201e-02 3.241415e-03 1.110121e-02 2.772124e-02 2.870116e-02 1.755009e-02 1.113905e-02 1.499050e-02
<VARIANCE> 39
 3.513688e+01 4.140786e+01 5.138060e+01 5.139999e+01 5.222212e+01 6.958288e+01 5.833707e+01 6.034862e+01 5.882494e+01 5.561346e+01 4.700509e+01 3.630093e+01 6.306726e+01 3.220667e-01 4.813381e-01 8.360872e-01 9.084432e-01 9.703199e-01 1.306645e+00 1.241641e+00 1.253077e+00 1.331885e+00 1.311381e+00 1.200673e+00 1.000746e+00 3.214276e-01 4.113229e-02 6.835601e-02 1.138155e-01 1.280698e-01 1.408541e-01 1.940440e-01 1.966099e-01 2.026705e-01 2.101420e-01 2.071159e-01 1.916834e-01 1.638524e-01 3.655424e-02
<GCONST> 9.420010e+01
<TRANSP> 5
 0.000000e+00 1.000000e+00 0.000000e+00 0.000000e+00 0.000000e+00
 0.000000e+00 7.850729e-01 2.149271e-01 0.000000e+00 0.000000e+00
 0.000000e+00 0.000000e+00 7.776370e-01 2.223630e-01 0.000000e+00
 0.000000e+00 0.000000e+00 0.000000e+00 7.265893e-01 2.734107e-01
 0.000000e+00 0.000000e+00 0.000000e+00 0.000000e+00 0.000000e+00
<ENDHMM>
~h "m"
<BEGINHMM>
<NUMSTATES> 5
<STATE> 2
<MEAN> 39
 -4.591865e+00 -3.734998e+00 -3.754142e-01 -2.547173e+00 4.849372e+00 -5.684244e+00 -3.216529e+00 -3.384174e+00 -3.655556e+00 -3.785715e+00 -1.507171e+00 -4.941879e+00 6.923058e+01 -1.237621e-02 4.710973e-02 1.255442e-01 1.431408e-01 1.055067e-01 2.222607e-01 1.152472e-02 1.364012e-03 4.538104e-02 -3.930432e-02 -1.514940e-01 -2.030414e-01 -9.549237e-02 -6.369442e-03 -9.174784e-03 -3.837954e-03 -2.220900e-03 -6.281885e-03 -2.817018e-02 2.837516e-03 9.005372e-04 -9.606888e-03 6.199182e-04 1.858951e-02 2.114378e-02 1.462660e-02
<VARIANCE> 39
 1.705237e+01 3.593970e+01 4.342701e+01 4.992950e+01 4.969676e+01 8.560497e+01 5.438949e+01 5.883593e+01 8.813815e+01 4.856779e+01 6.155789e+01 6.043617e+01 3.710354e+01 2.852871e-01 5.589911e-01 9.003431e-01 1.160375e+00 1.328136e+00 1.890947e+00 1.295231e+00 1.246927e+00 1.374653e+00 1.227492e+00 1.423408e+00 1.508449e+00 3.612579e-01 3.430380e-02 7.096799e-02 1.121926e-01 1.469822e-01 1.747556e-01 2.426918e-01 1.874673e-01 1.828990e-01 1.954283e-01 1.808883e-01 2.005927e-01 2.132043e-01 3.387989e-02
<GCONST> 9.574237e+01
<STATE> 3
<MEAN> 39
 -4.581175e+00 -3.203914e+00 -2.834617e-01 -1.954978e+00 5.491570e+00 -4.815968e+00 -2.652439e+00 -3.238891e+00 -3.263729e+00 -3.551706e+00 -8.353661e-01 -4.247952e+00 6.883757e+01 6.285265e-02 -1.236937e-03 4.446732e-02 3.257865e-02 3.491160e-02 3.941476e-02 -1.082024e-02 -1.848800e-02 -3.138916e-02 -3.015611e-02 -1.072830e-02 -1.248064e-01 3.119879e-02 5.205320e-03 -2.383583e-02 -3.870878e-02 -4.419226e-02 -3.533448e-02 -1.091683e-01 -1.947148e-02 1.539702e-02 -1.271695e-02 8.256375e-03 4.797059e-02 7.528086e-02 4.508708e-02
<VARIANCE> 39
 1.689161e+01 3.352694e+01 4.031012e+01 5.286245e+01 5.028026e+01 9.368143e+01 5.316118e+01 5.816652e+01 8.035938e+01 4.841312e+01 5.509892e+01 6.030090e+01 4.048147e+01 4.278270e-01 7.777316e-01 1.413681e+00 2.014392e+00 2.260475e+00 3.997931e+00 1.856757e+00 2.016487e+00 1.991264e+00 1.800950e+00 2.210577e+00 3.010776e+00 6.775725e-01 5.903752e-02 1.154929e-01 1.862027e-01 2.732564e-01 3.377460e-01 5.275596e-01 2.990029e-01 3.252566e-01 3.185208e-01 2.921960e-01 3.316914e-01 4.203568e-01 7.482500e-02
<GCONST> 1.095424e+02
<STATE> 4
<MEAN> 39
 -7.320493e+00 -2.966597e+00 4.346199e-01 -4.268485e-01 5.525726e+00 -3.856467e+00 -3.458041e+00 -2.898480e+00 -4.247006e+00 -2.717501e+00 -6.354493e-01 -4.248795e+00 5.924826e+01 1.844279e-02 -3.336865e-03 -1.537988e-02 -2.324528e-02 -3.565568e-02 -7.619558e-02 -1.505873e-02 1.486491e-02 2.706682e-03 2.152471e-03 3.224006e-02 3.803484e-02 3.024473e-02 -3.309042e-03 2.387362e-03 -1.169591e-02 -2.000773e-02 -2.439528e-02 -2.630016e-02 3.331077e-04 -5.798348e-04 5.818482e-03 1.039695e-02 1.357923e-02 3.397008e-02 8.983635e-03
<VARIANCE> 39
 2.678039e+01 3.338196e+01 3.723910e+01 5.572399e+01 4.743588e+01 6.667633e+01 5.260022e+01 5.507230e+01 6.651653e+01 4.259354e+01 4.427468e+01 4.335381e+01 4.823595e+01 1.406022e-01 2.936620e-01 4.134752e-01 5.718673e-01 6.596177e-01 8.829808e-01 8.074374e-01 8.366049e-01 8.476815e-01 7.893690e-01 7.887356e-01 7.685129e-01 1.515718e-01 2.063354e-02 4.433037e-02 6.415807e-02 9.416745e-02 1.129890e-01 1.477897e-01 1.399927e-01 1.468072e-01 1.468407e-01 1.406745e-01 1.367157e-01 1.350673e-01 1.831638e-02
<GCONST> 8.122050e+01
<TRANSP> 5
 0.000000e+00 1.000000e+00 0.000000e+00 0.000000e+00 0.000000e+00
 0.000000e+00 7.509206e-01 2.490794e-01 0.000000e+00 0.000000e+00
 0.000000e+00 0.000000e+00 7.066302e-01 2.933698e-01 0.000000e+00
 0.000000e+00 0.000000e+00 0.000000e+00 8.396758e-01 1.603242e-01
 0.000000e+00 0.000000e+00 0.000000e+00 0.000000e+00 0.000000e+00
<ENDHMM>
~h "n"
<BEGINHMM>
<NUMSTATES> 5
<STATE> 2
<MEAN> 39
 -4.901553e+00 -4.467814e+00 -1.445670e+00 -3.096506e+00 5.302995e+00 -7.295167e+00 -3.507902e+00 -3.594845e+00 -4.970943e+00 -3.789476e+00 1.191231e+00 -1.811745e+00 7.069468e+01 -2.663453e-02 2.670979e-01 2.760851e-01 3.297729e-01 2.158039e-01 6.275011e-01 -2.376560e-02 -1.454272e-01 9.207341e-02 -2.576087e-02 -3.008688e-01 -3.296120e-01 -4.048252e-01 -2.512798e-02 1.573769e-02 9.479071e-02 1.020844e-01 2.942338e-02 8.814289e-02 -3.641343e-02 -2.194990e-02 6.807366e-02 2.563935e-02 -1.020717e-01 -1.259377e-01 -6.431285e-02
<VARIANCE> 39
 2.155947e+01 3.561428e+01 4.356078e+01 5.422628e+01 5.091251e+01 7.472514e+01 6.073790e+01 6.305081e+01 6.276881e+01 5.344147e+01 4.798842e+01 5.231762e+01 5.340258e+01 4.508018e-01 8.547971e-01 1.454338e+00 1.989741e+00 1.886568e+00 2.770681e+00 2.420594e+00 2.115267e+00 2.394073e+00 1.956009e+00 2.207582e+00 2.158885e+00 7.318821e-01 5.480293e-02 1.061390e-01 1.775882e-01 2.509760e-01 2.475819e-01 3.610328e-01 3.328289e-01 3.082130e-01 3.441489e-01 2.913544e-01 3.213525e-01 3.197089e-01 7.236978e-02
<GCONST> 1.085449e+02
<STATE> 3
<MEAN> 39
 -5.448909e+00 -2.743593e+00 1.204131e+00 -5.278898e-01 6.568823e+00 -4.131887e+00 -4.133159e+00 -4.313548e+00 -3.199688e+00 -3.084067e+00 -7.637419e-01 -3.826325e+00 6.795132e+01 -3.374390e-05 4.469651e-02 1.019382e-01 1.068289e-01 4.603778e-02 7.102828e-02 -6.365479e-02 -1.324918e-02 3.607672e-02 -5.975465e-03 -9.226584e-02 -1.456446e-01 -6.717060e-02 4.450412e-03 -3.440155e-02 -6.072612e-02 -7.350973e-02 -3.228055e-02 -1.127197e-01 1.907843e-02 3.684964e-02 -3.972553e-02 -1.541018e-02 7.012621e-02 8.695204e-02 6.116248e-02
<VARIANCE> 39
 1.781684e+01 3.184603e+01 3.986531e+01 5.189558e+01 4.305737e+01 7.444785e+01 5.792218e+01 5.435635e+01 7.160917e+01 4.884450e+01 5.347670e+01 5.028256e+01 4.451931e+01 4.981575e-01 8.581343e-01 1.421815e+00 2.052017e+00 1.634695e+00 2.520419e+00 2.146374e+00 1.953126e+00 2.111641e+00 1.740090e+00 2.024678e+00 2.252353e+00 7.605978e-01 6.555357e-02 1.275042e-01 1.976216e-01 2.699150e-01 2.480731e-01 3.759864e-01 3.371661e-01 3.082509e-01 3.340493e-01 2.853866e-01 3.109725e-01 3.302542e-01 8.775992e-02
<GCONST> 1.078369e+02
<STATE> 4
<MEAN> 39
 -8.441922e+00 -2.346481e+00 -6.276507e-01 -4.978322e-01 2.726963e+00 -2.598217e+00 -2.469483e+00 -2.219187e+00 -2.361439e+00 -8.259231e-01 4.176258e-01 -8.717445e-01 3.672440e+01 2.038306e-02 4.977725e-03 5.027829e-03 8.264542e-03 1.535331e-02 1.032847e-05 -1.999951e-02 -1.230557e-02 -1.334491e-02 -1.525074e-02 -1.211270e-02 -1.639702e-02 1.701403e-02 -6.865807e-04 1.445165e-03 -4.011622e-03 -3.509981e-03 -6.011991e-03 5.221307e-04 6.249592e-03 3.346648e-03 2.754263e-04 3.378490e-03 5.194512e-03 8.166946e-03 3.275977e-05
<VARIANCE> 39
 8.145832e+00 1.100847e+01 1.259855e+01 1.745948e+01 2.765420e+01 2.251023e+01 2.454203e+01 2.018130e+01 2.068482e+01 1.691787e+01 1.420912e+01 2.047369e+01 1.048376e+03 4.752276e-02 9.304013e-02 1.310143e-01 1.617724e-01 1.751365e-01 2.269823e-01 2.343318e-01 2.274930e-01 2.350235e-01 2.180776e-01 2.134967e-01 2.061951e-01 5.372633e-02 6.438356e-03 1.305687e-02 2.016967e-02 2.710357e-02 2.851895e-02 3.768273e-02 3.983630e-02 3.836193e-02 3.970931e-02 3.700981e-02 3.671736e-02 3.667583e-02 6.342699e-03
<GCONST> 3.983330e+01
<TRANSP> 5
 0.000000e+00 1.000000e+00 0.000000e+00 0.000000e+00 0.000000e+00
 0.000000e+00 6.530265e-01 3.469734e-01 0.000000e+00 0.000000e+00
 0.000000e+00 0.000000e+00 7.592236e-01 2.407764e-01 0.000000e+00
 0.000000e+00 0.000000e+00 0.000000e+00 8.910081e-01 1.089919e-01
 0.000000e+00 0.000000e+00 0.000000e+00 0.000000e+00 0.000000e+00
<ENDHMM>
~h "o"
<BEGINHMM>
<NUMSTATES> 5
<STATE> 2
<MEAN> 39
 -6.502757e+00 -3.899750e+00 -3.351499e-02 -2.624965e+00 3.847070e+00 -7.252645e+00 -2.491217e+00 -2.662408e+00 -3.852764e+00 -3.858040e+00 -5.882859e-01 -2.409145e+00 6.878023e+01 2.274868e-01 7.322629e-02 -1.450262e-01 -1.009739e-01 -9.460626e-02 -1.730559e-01 -7.292704e-02 3.129116e-02 -4.229648e-02 -2.349948e-02 -7.595540e-03 5.355579e-02 4.565899e-02 -1.490744e-02 -3.042548e-02 -2.408933e-02 -1.879919e-02 -1.047007e-02 -2.117559e-02 1.081338e-02 2.534821e-02 7.979210e-03 7.307179e-03 1.538496e-02 6.183797e-03 1.362007e-02
<VARIANCE> 39
 5.550703e+01 4.487585e+01 4.975839e+01 5.234914e+01 6.508834e+01 7.660912e+01 6.322971e+01 6.538729e+01 6.442973e+01 4.843458e+01 4.102710e+01 4.238726e+01 7.609909e+01 2.760626e+00 2.442361e+00 2.729975e+00 2.615191e+00 2.841536e+00 4.106770e+00 3.457580e+00 3.052751e+00 2.980733e+00 2.544623e+00 2.448668e+00 2.379691e+00 2.059024e+00 3.695735e-01 3.725935e-01 3.968739e-01 3.989982e-01 4.385181e-01 6.096786e-01 5.319296e-01 4.897697e-01 4.796404e-01 4.206776e-01 3.933176e-01 3.714976e-01 2.745141e-01
<GCONST> 1.259352e+02
<STATE> 3
<MEAN> 39
 -4.691984e+00 -4.409556e+00 -1.566407e+00 -3.598541e+00 3.216392e+00 -8.951521e+00 -3.130267e+00 -2.718966e+00 -4.354835e+00 -4.327026e+00 -6.203887e-01 -2.102892e+00 7.033212e+01 1.447357e-01 -7.969277e-03 -1.244746e-01 -1.564021e-01 -1.856136e-01 -1.792875e-01 2.278264e-02 1.340942e-01 4.712272e-02 -1.643287e-02 -2.569872e-02 1.590027e-02 7.234733e-02 -5.112464e-02 2.494095e-02 5.529629e-02 3.627560e-02 4.972987e-02 8.943936e-02 1.915011e-02 -2.342797e-02 5.599548e-03 1.583189e-03 -1.067994e-02 -1.930056e-02 -4.071045e-02
<VARIANCE> 39
 2.439953e+01 4.244338e+01 4.129667e+01 4.613261e+01 7.355608e+01 7.360979e+01 5.537885e+01 7.097845e+01 7.962411e+01 5.876885e+01 4.685238e+01 4.739767e+01 5.564878e+01 5.694331e-01 8.659986e-01 1.192031e+00 1.249475e+00 1.775920e+00 2.169251e+00 1.800757e+00 1.860258e+00 1.896558e+00 1.688325e+00 1.525125e+00 1.462841e+00 6.044664e-01 8.270533e-02 1.178799e-01 1.568297e-01 1.722159e-01 2.173386e-01 2.952156e-01 2.679708e-01 2.719866e-01 2.744766e-01 2.581286e-01 2.383693e-01 2.237909e-01 5.754642e-02
<GCONST> 1.048923e+02
<STATE> 4
<MEAN> 39
 -8.643228e+00 -3.544978e+00 -1.906435e+00 -2.846253e+00 1.243411e+00 -7.632399e+00 -3.044965e+00 -1.450777e+00 -3.569854e+00 -2.512498e+00 7.611823e-02 -1.551391e+00 5.767444e+01 3.821797e-02 2.569470e-02 4.688704e-03 -2.592167e-02 -3.816226e-02 -3.491041e-02 -1.230647e-03 1.596779e-02 -6.413252e-03 -2.443023e-02 -2.547726e-02 -2.141646e-02 2.073631e-02 -4.191364e-03 1.095016e-02 -3.175621e-03 8.613075e-03 1.205045e-02 2.076851e-02 -5.438070e-04 -9.090189e-03 -3.067967e-03 4.034097e-03 2.586596e-03 5.994468e-03 -1.068672e-02
<VARIANCE> 39
 2.601871e+01 4.709169e+01 3.732884e+01 4.132451e+01 6.243748e+01 7.447080e+01 5.355164e+01 6.880791e+01 6.865484e+01 5.080111e+01 4.029982e+01 3.970556e+01 6.617169e+01 1.949647e-01 3.525565e-01 4.899330e-01 5.951763e-01 8.259115e-01 9.362646e-01 8.779266e-01 9.244022e-01 9.532547e-01 8.674298e-01 7.792968e-01 7.408177e-01 1.918160e-01 2.581966e-02 4.696048e-02 6.623654e-02 7.964787e-02 9.776713e-02 1.267657e-01 1.263309e-01 1.311919e-01 1.327490e-01 1.274239e-01 1.182503e-01 1.097226e-01 1.938224e-02
<GCONST> 8.292857e+01
<TRANSP> 5
 0.000000e+00 1.000000e+00 0.000000e+00 0.000000e+00 0.000000e+00
 0.000000e+00 7.436281e-01 2.563720e-01 0.000000e+00 0.000000e+00
 0.000000e+00 0.000000e+00 6.973493e-01 3.026507e-01 0.000000e+00
 0.000000e+00 0.000000e+00 0.000000e+00 8.311542e-01 1.688457e-01
 0.000000e+00 0.000000e+00 0.000000e+00 0.000000e+00 0.000000e+00
<ENDHMM>
~h "p"
<BEGINHMM>
<NUMSTATES> 5
<STATE> 2
<MEAN> 39
 -8.809126e+00 -1.408700e+00 2.184670e-01 -3.435226e-01 4.967501e+00 -3.482362e+00 -8.343142e-01 -1.529514e+00 -2.328454e+00 -2.102688e+00 -4.892700e-01 -2.730587e+00 6.319321e+01 -1.678239e-01 -1.955298e-01 -3.949928e-02 -7.446945e-02 -4.766653e-02 -5.615868e-02 3.164887e-02 -1.171857e-02 2.721161e-02 5.580883e-02 9.220236e-02 1.120240e-01 6.769428e-02 3.444544e-02 -1.104992e-01 -5.595557e-02 -7.872937e-02 -2.772602e-02 -1.012748e-01 -4.268356e-02 -5.015741e-02 -3.493918e-02 -2.315291e-02 1.738114e-02 3.373593e-02 1.545330e-01
<VARIANCE> 39
 5.648448e+01 4.981327e+01 3.919664e+01 3.762420e+01 3.413731e+01 5.186753e+01 3.345107e+01 3.457238e+01 3.811150e+01 3.223962e+01 3.219342e+01 3.445904e+01 8.220135e+01 1.317994e+00 3.176675e+00 2.331110e+00 2.334603e+00 2.075909e+00 3.160743e+00 1.995623e+00 1.989585e+00 2.020376e+00 1.779477e+00 1.846239e+00 1.871465e+00 2.817363e+00 1.860740e-01 4.604804e-01 3.600121e-01 3.705722e-01 3.363183e-01 4.689310e-01 3.312199e-01 3.495379e-01 3.409990e-01 3.062603e-01 3.012726e-01 2.942587e-01 4.812227e-01
<GCONST> 1.160357e+02
<STATE> 3
<MEAN> 39
 -9.648015e+00 -3.489316e+00 -1.799360e-01 -1.535154e+00 4.714903e+00 -4.291537e+00 -8.433802e-01 -2.320238e+00 -2.424532e+00 -2.155491e+00 2.317360e-01 -1.649806e+00 6.569025e+01 4.134973e-01 -2.912424e-01 -2.131745e-01 -3.699418e-01 -1.724592e-01 -5.657967e-01 -2.418643e-01 -2.586770e-01 -2.031513e-01 -1.676183e-01 -1.977077e-02 8.832490e-02 8.636668e-01 1.958348e-01 1.032144e-01 -6.017550e-02 1.227430e-02 -2.656772e-02 -1.157103e-01 -7.987430e-02 1.954650e-02 -3.424920e-02 -1.578722e-02 -4.467508e-02 -4.319600e-02 -2.400575e-02
<VARIANCE> 39
 5.628695e+01 4.510244e+01 3.823430e+01 3.845045e+01 4.012163e+01 5.601273e+01 3.927404e+01 4.047612e+01 3.888646e+01 3.093865e+01 2.713609e+01 2.543740e+01 9.382583e+01 4.801150e+00 6.177027e+00 3.961228e+00 3.930372e+00 3.930703e+00 5.723187e+00 3.929218e+00 3.923099e+00 3.711402e+00 3.043636e+00 2.842312e+00 2.649040e+00 8.217869e+00 6.504710e-01 1.032167e+00 6.429126e-01 6.445178e-01 6.280777e-01 8.623020e-01 6.624091e-01 6.709142e-01 6.135716e-01 5.294034e-01 4.885139e-01 4.393200e-01 1.402461e+00
<GCONST> 1.335742e+02
<STATE> 4
<MEAN> 39
 -7.654435e+00 -3.202474e+00 -1.468719e+00 -2.021854e+00 3.065517e+00 -5.679479e+00 -2.572397e+00 -3.232256e+00 -3.646425e+00 -1.757378e+00 3.546111e-01 -7.554401e-01 5.062070e+01 6.323796e-01 -7.194560e-02 -4.371539e-01 -8.880918e-02 -8.259749e-02 -5.990530e-01 -3.038982e-01 8.711337e-04 -2.107573e-01 -5.447578e-02 -2.551816e-02 -8.370887e-03 2.008922e-01 -1.697467e-01 -8.368389e-02 4.100338e-02 5.913517e-02 6.874553e-02 1.276163e-01 5.597458e-02 2.413010e-02 4.037904e-02 2.149893e-02 3.887077e-02 2.023629e-02 -5.105657e-02
<VARIANCE> 39
 7.082211e+01 3.957800e+01 4.117724e+01 3.771249e+01 5.709129e+01 7.372247e+01 4.604308e+01 5.079590e+01 5.678080e+01 3.913020e+01 3.182824e+01 2.861384e+01 7.818836e+01 1.846851e+00 1.661567e+00 2.051621e+00 1.690831e+00 2.241505e+00 3.256299e+00 2.490008e+00 2.231216e+00 2.366391e+00 2.082774e+00 1.871545e+00 1.725327e+00 9.878408e-01 4.128908e-01 2.974144e-01 3.122799e-01 2.793905e-01 3.776215e-01 5.915759e-01 4.020807e-01 3.883697e-01 4.213461e-01 3.470490e-01 3.195999e-01 2.902285e-01 2.007014e-01
<GCONST> 1.169698e+02
<TRANSP> 5
 0.000000e+00 1.000000e+00 0.000000e+00 0.000000e+00 0.000000e+00
 0.000000e+00 8.062342e-01 1.937658e-01 0.000000e+00 0.000000e+00
 0.000000e+00 0.000000e+00 8.697423e-01 1.302578e-01 0.000000e+00
 0.000000e+00 0.000000e+00 0.000000e+00 4.324248e-01 5.675752e-01
 0.000000e+00 0.000000e+00 0.000000e+00 0.000000e+00 0.000000e+00
<ENDHMM>
~h "r"
<BEGINHMM>
<NUMSTATES> 5
<STATE> 2
<MEAN> 39
 -6.171104e+00 -4.323542e+00 -1.244735e+00 -2.279366e+00 5.442181e+00 -7.343298e+00 -3.233111e+00 -3.747732e+00 -4.288274e+00 -3.202394e+00 1.423461e-01 -1.385246e+00 6.958470e+01 -9.940550e-02 1.390411e-02 8.226196e-02 1.047014e-01 8.209328e-02 1.605109e-01 5.861789e-02 1.566623e-02 1.938910e-02 -4.654989e-02 -2.501739e-02 4.228236e-02 -1.061667e-01 -5.098654e-03 -1.597758e-02 -5.106129e-03 -9.672287e-03 -9.409990e-03 -3.429831e-02 -5.262083e-04 1.571225e-02 -2.727964e-03 6.169661e-03 4.076443e-03 -7.955609e-03 8.915973e-03
<VARIANCE> 39
 5.606293e+01 4.063195e+01 5.930062e+01 5.494493e+01 5.163274e+01 7.873026e+01 6.318703e+01 5.708083e+01 5.666802e+01 4.819832e+01 4.077760e+01 3.758318e+01 7.199068e+01 2.838498e+00 2.738365e+00 3.666667e+00 3.160978e+00 3.095657e+00 5.649687e+00 4.288017e+00 3.387162e+00 3.477597e+00 2.941077e+00 2.690003e+00 2.451394e+00 3.054669e+00 4.336818e-01 4.686382e-01 6.190863e-01 5.412619e-01 5.278859e-01 9.484727e-01 7.494131e-01 6.024780e-01 6.142350e-01 5.154321e-01 4.805417e-01 4.327836e-01 4.894434e-01
<GCONST> 1.312793e+02
<STATE> 3
<MEAN> 39
 -4.474443e+00 -4.422023e+00 -2.439330e+00 -2.499473e+00 6.089078e+00 -8.088889e+00 -4.166780e+00 -3.940277e+00 -5.204087e+00 -4.312525e+00 -1.916618e-01 -1.146849e+00 7.056307e+01 -1.785938e-02 -9.243416e-03 6.274372e-02 6.182250e-02 3.320261e-02 8.057074e-02 8.102172e-02 -9.830082e-03 -5.462708e-02 -2.362746e-02 -4.066809e-02 -1.790090e-02 -6.325367e-02 -3.121451e-02 -2.194674e-02 2.351613e-02 -2.265120e-02 -4.992181e-02 -4.532280e-02 3.108363e-02 1.859451e-02 1.162217e-02 5.953271e-02 5.022154e-02 -1.009278e-02 2.833945e-02
<VARIANCE> 39
 3.155851e+01 3.101612e+01 5.115068e+01 4.756470e+01 4.789837e+01 7.327783e+01 5.658826e+01 5.219091e+01 5.289949e+01 4.817217e+01 4.210230e+01 3.780788e+01 5.323394e+01 1.227491e+00 1.226485e+00 2.793638e+00 2.298812e+00 2.350692e+00 4.838614e+00 3.239130e+00 2.646916e+00 2.801703e+00 2.544871e+00 2.646537e+00 2.201269e+00 1.352389e+00 1.854686e-01 1.862509e-01 4.123696e-01 3.453393e-01 3.665601e-01 7.727856e-01 5.545952e-01 4.425197e-01 4.660100e-01 4.211545e-01 4.278675e-01 3.703812e-01 2.060395e-01
<GCONST> 1.195514e+02
<STATE> 4
<MEAN> 39
 -9.508183e+00 -3.688283e+00 -1.650056e+00 -1.580811e+00 4.389802e+00 -5.114317e+00 -3.093424e+00 -3.206123e+00 -4.150945e+00 -2.342981e+00 7.216896e-01 -6.080543e-01 5.321744e+01 -6.424404e-03 -2.763899e-02 -5.100026e-03 -2.547380e-02 -3.678879e-02 -4.632832e-02 3.247492e-02 1.614987e-02 -1.920434e-02 4.574491e-02 3.505827e-02 3.510545e-03 2.701637e-02 -1.592017e-02 2.707439e-03 1.167301e-02 -1.474787e-03 -1.964296e-02 2.007885e-02 1.162549e-02 4.818132e-03 2.205076e-02 2.515965e-02 2.637913e-03 -2.337658e-03 -3.400810e-03
<VARIANCE> 39
 4.958899e+01 4.230339e+01 5.433075e+01 4.900910e+01 5.220620e+01 7.319371e+01 6.069693e+01 5.646123e+01 5.748693e+01 4.923020e+01 4.141644e+01 3.690888e+01 7.489630e+01 5.994106e-01 7.294233e-01 1.267642e+00 1.249529e+00 1.421056e+00 2.001673e+00 1.749501e+00 1.574123e+00 1.629161e+00 1.497980e+00 1.437801e+00 1.269701e+00 5.771445e-01 8.420076e-02 1.026610e-01 1.684627e-01 1.666010e-01 1.900495e-01 2.952159e-01 2.582506e-01 2.411693e-01 2.478545e-01 2.274142e-01 2.199861e-01 1.925237e-01 7.878747e-02
<GCONST> 1.032732e+02
<TRANSP> 5
 0.000000e+00 1.000000e+00 0.000000e+00 0.000000e+00 0.000000e+00
 0.000000e+00 7.471688e-01 2.528312e-01 0.000000e+00 0.000000e+00
 0.000000e+00 0.000000e+00 6.452532e-01 3.547468e-01 0.000000e+00
 0.000000e+00 0.000000e+00 0.000000e+00 5.869353e-01 4.130647e-01
 0.000000e+00 0.000000e+00 0.000000e+00 0.000000e+00 0.000000e+00
<ENDHMM>
~h "s"
<BEGINHMM>
<NUMSTATES> 5
<STATE> 2
<MEAN> 39
 -7.841722e+00 -5.754875e+00 1.400707e+00 -1.893452e+00 4.823757e+00 -7.692817e+00 -2.142866e+00 -4.540787e+00 -4.988200e+00 -3.199659e+00 3.135855e-01 -1.248633e+00 7.090546e+01 -6.829718e-01 -1.726680e-01 7.762643e-01 2.514805e-01 7.538319e-03 5.846925e-01 4.608996e-01 1.030592e-01 2.312167e-01 4.313228e-02 4.600253e-02 2.857753e-02 -7.685341e-02 -1.586121e-01 -1.043530e-01 4.229894e-02 -2.181625e-03 -8.822032e-04 2.193764e-02 8.558539e-02 7.605408e-02 5.682375e-02 3.692210e-02 6.120551e-02 1.798971e-03 3.751795e-02
<VARIANCE> 39
 4.956055e+01 2.886504e+01 6.669206e+01 4.303249e+01 4.424703e+01 5.826289e+01 5.282211e+01 6.654940e+01 5.036646e+01 4.652000e+01 3.642312e+01 3.492714e+01 6.257166e+01 2.306419e+00 2.222524e+00 3.425464e+00 2.154786e+00 2.253075e+00 3.180203e+00 2.770911e+00 2.724123e+00 2.619511e+00 2.419782e+00 2.084967e+00 1.826925e+00 7.100261e-01 2.322274e-01 2.398219e-01 5.475428e-01 3.044409e-01 3.336558e-01 4.423565e-01 3.768756e-01 3.948737e-01 3.750322e-01 3.555728e-01 3.073917e-01 2.723656e-01 8.548043e-02
<GCONST> 1.169818e+02
<STATE> 3
<MEAN> 39
 -1.253941e+01 -7.780423e+00 4.199470e+00 -1.607233e+00 4.735796e+00 -5.577973e+00 6.220905e-01 -2.990460e+00 -3.202253e+00 -2.273632e+00 1.622874e+00 -8.494012e-01 7.116431e+01 -7.833687e-01 -2.683294e-01 4.309384e-02 -2.347238e-01 -6.826114e-02 7.191063e-02 1.992994e-01 1.356388e-01 2.009275e-01 1.531198e-01 1.671055e-01 8.552826e-02 5.958891e-02 2.132559e-01 1.082989e-01 -1.724689e-01 -5.302799e-02 -1.786059e-02 -9.399988e-02 -1.454448e-01 -8.935949e-02 -7.346576e-02 -3.427384e-02 -5.945987e-02 -1.815393e-03 -5.172676e-02
<VARIANCE> 39
 7.741837e+01 3.976254e+01 5.453325e+01 4.101321e+01 3.328506e+01 3.785076e+01 4.186895e+01 4.731478e+01 3.791155e+01 3.565010e+01 2.927352e+01 2.572054e+01 5.068011e+01 6.238046e+00 2.401277e+00 3.418378e+00 2.245895e+00 2.058634e+00 2.588054e+00 2.753004e+00 2.692879e+00 2.596469e+00 2.186714e+00 1.994753e+00 1.626739e+00 1.093839e+00 3.777404e-01 2.924492e-01 4.618838e-01 3.710131e-01 3.480564e-01 4.059009e-01 4.197280e-01 4.309927e-01 4.095631e-01 3.754026e-01 3.349691e-01 2.903074e-01 1.253189e-01
<GCONST> 1.174215e+02
<STATE> 4
<MEAN> 39
 -1.630790e+01 -6.548062e+00 2.691711e+00 -1.873781e+00 3.183910e+00 -3.559145e+00 -4.972235e-01 -2.808055e+00 -2.503824e+00 -1.016986e+00 2.024999e+00 -2.722607e-01 5.872886e+01 3.654289e-02 -4.041025e-02 -2.526778e-02 -2.786255e-02 -2.988036e-02 -1.523736e-02 -4.076441e-02 -6.297169e-02 -2.029314e-02 -4.992553e-03 -4.963652e-04 2.646555e-02 -1.570448e-02 1.340933e-01 6.434949e-02 -3.951516e-02 4.430703e-02 2.333876e-02 -8.247572e-05 -2.584854e-02 -1.296746e-02 -2.356108e-02 -8.028036e-03 -2.753903e-02 -8.738925e-03 -3.538451e-02
<VARIANCE> 39
 7.979666e+01 4.030736e+01 4.455718e+01 3.837945e+01 3.112010e+01 3.614686e+01 3.994323e+01 4.342423e+01 3.642641e+01 3.323733e+01 2.650908e+01 2.268993e+01 5.708834e+01 1.488963e+00 7.454908e-01 1.064552e+00 9.930993e-01 1.027717e+00 1.185696e+00 1.264210e+00 1.321343e+00 1.309736e+00 1.229516e+00 1.161931e+00 1.033947e+00 3.815641e-01 1.272899e-01 1.146201e-01 1.429200e-01 1.494911e-01 1.691968e-01 2.021267e-01 2.169401e-01 2.308868e-01 2.356176e-01 2.233583e-01 2.118841e-01 1.899247e-01 4.093992e-02
<GCONST> 9.599567e+01
<TRANSP> 5
 0.000000e+00 1.000000e+00 0.000000e+00 0.000000e+00 0.000000e+00
 0.000000e+00 7.229655e-01 2.770346e-01 0.000000e+00 0.000000e+00
 0.000000e+00 0.000000e+00 7.625628e-01 2.374372e-01 0.000000e+00
 0.000000e+00 0.000000e+00 0.000000e+00 8.001661e-01 1.998339e-01
 0.000000e+00 0.000000e+00 0.000000e+00 0.000000e+00 0.000000e+00
<ENDHMM>
~h "t"
<BEGINHMM>
<NUMSTATES> 5
<STATE> 2
<MEAN> 39
 -9.153084e+00 -2.711633e+00 2.396234e+00 -4.711225e-01 6.060279e+00 -4.803272e+00 -2.058325e+00 -3.764799e+00 -3.768795e+00 -2.974283e+00 -4.064230e-01 -2.531824e+00 6.710941e+01 -2.556533e-01 3.112413e-02 -2.527468e-02 6.227810e-02 -4.502650e-02 1.802104e-01 1.977876e-01 1.969468e-01 1.732013e-01 1.356855e-01 9.228819e-02 5.641678e-02 -2.695341e-01 -1.021841e-02 -1.047371e-01 -5.673979e-02 -7.397977e-02 -4.377507e-02 -7.330678e-02 -7.871279e-03 -1.454697e-02 2.210353e-03 1.269948e-02 2.921728e-02 2.762894e-02 9.924854e-02
<VARIANCE> 39
 6.623985e+01 4.619977e+01 4.293854e+01 4.888147e+01 4.195580e+01 5.956440e+01 5.547984e+01 5.128413e+01 4.886831e+01 3.969428e+01 3.352598e+01 3.240268e+01 9.848154e+01 1.881849e+00 2.951859e+00 2.939211e+00 2.873219e+00 2.530500e+00 3.477306e+00 3.001941e+00 2.712551e+00 2.603089e+00 2.237869e+00 2.078853e+00 1.895811e+00 3.043713e+00 2.591618e-01 5.011523e-01 4.390114e-01 5.004860e-01 4.064656e-01 5.708197e-01 5.033320e-01 4.878793e-01 4.465349e-01 3.780429e-01 3.511951e-01 3.243271e-01 5.829211e-01
<GCONST> 1.237346e+02
<STATE> 3
<MEAN> 39
 -1.214482e+01 -4.937808e+00 1.712539e+00 -1.981388e+00 4.872146e+00 -4.567648e+00 -6.940043e-01 -3.106965e+00 -2.233469e+00 -1.753214e+00 8.691258e-01 -1.407607e+00 6.765279e+01 8.236869e-02 -4.460433e-01 -1.035481e-01 -4.149393e-01 -1.905719e-01 -4.617713e-01 -2.423795e-01 -3.816363e-01 -1.518863e-01 -1.098178e-01 4.447898e-02 1.120395e-01 9.599581e-01 2.336076e-01 1.131108e-01 3.113819e-02 3.727144e-02 4.641476e-02 -8.625671e-02 -1.280400e-01 -8.545712e-02 -1.376419e-01 -9.486286e-02 -6.557680e-02 -2.307328e-02 5.205300e-02
<VARIANCE> 39
 4.751048e+01 4.537243e+01 3.799537e+01 4.250334e+01 3.756374e+01 4.504197e+01 4.240215e+01 4.401877e+01 3.845440e+01 3.092456e+01 2.561402e+01 2.275554e+01 1.000249e+02 4.841327e+00 6.053319e+00 4.066027e+00 4.441869e+00 3.815732e+00 4.563518e+00 4.138072e+00 4.066193e+00 3.954410e+00 3.129309e+00 2.824407e+00 2.455556e+00 8.454723e+00 6.043183e-01 1.068062e+00 7.562041e-01 7.916760e-01 6.724862e-01 8.195392e-01 7.249331e-01 7.467241e-01 6.740634e-01 5.565659e-01 4.998153e-01 4.283199e-01 1.540936e+00
<GCONST> 1.340489e+02
<STATE> 4
<MEAN> 39
 -1.392930e+01 -4.172011e+00 3.587577e-01 -2.580426e+00 4.056901e+00 -4.783665e+00 -2.031635e+00 -4.298777e+00 -3.296598e+00 -1.654143e+00 1.170923e+00 -4.656632e-01 6.507027e+01 7.567547e-01 1.118486e-01 -1.270048e-01 -4.055303e-02 -4.771845e-03 -3.526500e-01 -3.251584e-01 -2.298508e-01 -3.629850e-01 -1.828511e-01 -1.243128e-01 3.232134e-02 1.328095e-01 8.226483e-02 -5.735277e-02 -8.791310e-02 4.202495e-02 1.237580e-02 -5.926891e-02 -1.821065e-03 9.261506e-02 1.154866e-02 3.271553e-02 6.742855e-03 -2.193425e-02 -6.177041e-02
<VARIANCE> 39
 9.286396e+01 2.787856e+01 3.374473e+01 3.614716e+01 3.887577e+01 4.649061e+01 4.544616e+01 4.547757e+01 4.729555e+01 3.800448e+01 2.787925e+01 2.370966e+01 6.270465e+01 3.759313e+00 2.038350e+00 2.776892e+00 2.295740e+00 2.534433e+00 3.371681e+00 2.976504e+00 2.877139e+00 2.982365e+00 2.517372e+00 2.244617e+00 1.948241e+00 1.531415e+00 4.822246e-01 3.368085e-01 3.549095e-01 3.288546e-01 3.576403e-01 4.515257e-01 4.412126e-01 4.617908e-01 4.810263e-01 3.932642e-01 3.485021e-01 2.945803e-01 2.795938e-01
<GCONST> 1.194059e+02
<TRANSP> 5
 0.000000e+00 1.000000e+00 0.000000e+00 0.000000e+00 0.000000e+00
 0.000000e+00 8.149581e-01 1.850419e-01 0.000000e+00 0.000000e+00
 0.000000e+00 0.000000e+00 8.466743e-01 1.533257e-01 0.000000e+00
 0.000000e+00 0.000000e+00 0.000000e+00 5.725170e-01 4.274829e-01
 0.000000e+00 0.000000e+00 0.000000e+00 0.000000e+00 0.000000e+00
<ENDHMM>
~h "u"
<BEGINHMM>
<NUMSTATES> 5
<STATE> 2
<MEAN> 39
 -8.096444e+00 -3.310438e+00 7.974321e-01 -2.492967e+00 3.772386e+00 -6.695478e+00 -2.059576e+00 -2.333425e+00 -3.086189e+00 -3.416906e+00 -4.281420e-01 -2.538274e+00 6.777010e+01 4.870876e-01 2.309868e-01 -9.955851e-03 1.296397e-02 -9.797810e-02 -2.751836e-01 -2.368912e-01 -1.077594e-02 -7.810538e-02 -1.092508e-01 -1.869320e-01 -1.478299e-01 4.226033e-02 7.263873e-03 -5.462082e-02 -6.028977e-02 -2.546844e-02 -1.825291e-02 -5.434905e-02 -1.160391e-02 4.213804e-02 9.081651e-03 -4.206590e-03 3.917048e-03 -4.299575e-03 2.559381e-02
<VARIANCE> 39
 6.429487e+01 5.412902e+01 4.278660e+01 4.143513e+01 5.582916e+01 7.639892e+01 5.661929e+01 5.124459e+01 5.367945e+01 4.493245e+01 4.034723e+01 3.604918e+01 7.036802e+01 3.528811e+00 3.193198e+00 2.840511e+00 2.553889e+00 2.966844e+00 4.730503e+00 3.745895e+00 3.064379e+00 3.158889e+00 2.697687e+00 2.707356e+00 2.369952e+00 2.350536e+00 4.350411e-01 4.866890e-01 4.231564e-01 3.973567e-01 4.741868e-01 7.067547e-01 5.867267e-01 4.984309e-01 4.917946e-01 4.332251e-01 4.297196e-01 3.759840e-01 3.024454e-01
<GCONST> 1.270867e+02
<STATE> 3
<MEAN> 39
 -5.085414e+00 -2.686123e+00 -1.853236e-02 -3.308469e+00 2.586940e+00 -9.707330e+00 -3.528858e+00 -1.694725e+00 -3.804550e+00 -4.209880e+00 -1.307922e+00 -3.554691e+00 6.890816e+01 1.864654e-01 -1.237133e-01 -1.890178e-01 -1.249283e-01 -5.532007e-02 -1.807519e-01 -3.235224e-02 1.285141e-01 -4.429280e-02 -1.654060e-01 -1.011463e-01 -5.636087e-02 1.645466e-01 -8.039300e-02 -2.428038e-02 3.079016e-02 3.548034e-02 6.474485e-02 1.291766e-01 5.491850e-02 -5.407284e-02 -1.358998e-02 1.972886e-02 4.513953e-02 4.342094e-02 -1.497209e-02
<VARIANCE> 39
 2.072827e+01 4.242707e+01 4.469633e+01 4.464841e+01 6.810213e+01 8.783800e+01 6.133537e+01 6.214655e+01 7.965163e+01 6.126604e+01 5.182508e+01 4.511260e+01 4.448675e+01 7.568905e-01 1.282398e+00 1.714181e+00 1.634371e+00 2.251687e+00 3.380852e+00 2.564997e+00 2.588556e+00 2.760284e+00 2.391474e+00 2.287326e+00 2.153930e+00 7.651777e-01 1.396880e-01 1.686546e-01 2.286578e-01 2.521611e-01 3.142471e-01 4.836162e-01 4.252110e-01 4.132610e-01 4.167552e-01 3.833313e-01 3.654329e-01 3.361888e-01 8.233234e-02
<GCONST> 1.145280e+02
<STATE> 4
<MEAN> 39
 -7.757774e+00 -2.433471e+00 -2.326309e-01 -2.056039e+00 1.972155e+00 -7.398645e+00 -3.975077e+00 -1.784635e+00 -3.128857e+00 -2.988791e+00 -9.275279e-01 -2.445111e+00 5.468917e+01 2.644553e-02 -3.144403e-02 -3.583172e-02 -5.912416e-03 4.269855e-02 3.609692e-02 8.174212e-03 -2.080841e-02 -4.964374e-02 -6.393412e-02 -2.193585e-02 1.463341e-02 4.846489e-02 -2.112289e-02 1.653462e-03 1.374986e-03 1.577027e-02 2.142116e-02 4.949812e-02 1.025302e-02 -1.962142e-02 -2.550173e-03 2.167517e-02 1.974404e-02 2.196699e-02 -1.259602e-02
<VARIANCE> 39
 2.599751e+01 4.941670e+01 4.669270e+01 4.286924e+01 5.618449e+01 7.665353e+01 5.793497e+01 5.741249e+01 6.908593e+01 5.428003e+01 4.928661e+01 3.916074e+01 5.829053e+01 2.686516e-01 5.601665e-01 7.279585e-01 8.379247e-01 1.134603e+00 1.390942e+00 1.271987e+00 1.336414e+00 1.379067e+00 1.250257e+00 1.204975e+00 1.108264e+00 2.886037e-01 4.482654e-02 7.191574e-02 1.017089e-01 1.202028e-01 1.398735e-01 1.969844e-01 1.959420e-01 1.944578e-01 2.055600e-01 1.961195e-01 1.819557e-01 1.653510e-01 3.250968e-02
<GCONST> 9.382348e+01
<TRANSP> 5
 0.000000e+00 1.000000e+00 0.000000e+00 0.000000e+00 0.000000e+00
 0.000000e+00 7.408096e-01 2.591905e-01 0.000000e+00 0.000000e+00
 0.000000e+00 0.000000e+00 7.187632e-01 2.812367e-01 0.000000e+00
 0.000000e+00 0.000000e+00 0.000000e+00 7.693011e-01 2.306989e-01
 0.000000e+00 0.000000e+00 0.000000e+00 0.000000e+00 0.000000e+00
<ENDHMM>
~h "v"
<BEGINHMM>
<NUMSTATES> 5
<STATE> 2
<MEAN> 39
 -5.821367e+00 -3.488767e-01 -2.510316e+00 -4.629142e+00 5.839591e+00 -5.377923e+00 -4.015580e+00 2.140249e-01 -4.546933e+00 -6.365449e+00 -3.282115e-01 2.174499e+00 6.569624e+01 -1.002281e-01 -8.571377e-01 2.236478e-01 -1.464278e-01 -8.209738e-02 8.915632e-02 1.355970e-01 -1.887477e-01 1.772973e-01 -6.463371e-01 1.267107e-01 2.027830e-01 9.206141e-01 2.743174e-01 1.516296e-01 1.159277e-01 1.946758e-01 1.984399e-01 -5.564281e-02 -2.332293e-01 1.405371e-02 -2.714010e-01 -1.526175e-01 -3.587231e-01 -1.061237e-02 3.391983e-02
<VARIANCE> 39
 5.214711e+01 4.608989e+01 2.176978e+01 1.160045e+01 1.053196e+01 3.512809e+01 1.231585e+01 2.021229e+01 3.115962e+01 2.098071e+01 6.585974e+01 5.426303e+00 7.528730e+01 7.237061e+00 7.049332e+00 4.047747e+00 2.609724e+00 2.312061e+00 2.574522e+00 2.914449e+00 4.663578e+00 4.217978e+00 1.223816e+00 1.008469e+01 6.946301e-01 5.738175e+00 7.772059e-01 6.801879e-01 1.054519e+00 3.957129e-01 1.694052e-01 5.492305e-01 3.498203e-01 8.613135e-01 7.052895e-01 2.277186e-01 1.533881e+00 1.211722e-01 1.068058e+00
<GCONST> 1.205934e+02
<STATE> 3
<MEAN> 39
 -2.320193e+00 -6.771217e-01 -3.682415e+00 -3.858056e+00 1.013288e+01 -8.335466e+00 -6.753958e+00 1.834328e+00 -7.718204e+00 -9.454408e+00 -4.285814e+00 2.886888e+00 6.844252e+01 2.541859e-01 6.657507e-02 -6.267159e-02 3.770664e-01 5.488485e-01 1.547129e-01 -3.255777e-01 -1.004791e-01 -1.645464e-01 -3.847644e-01 -3.082649e-01 -2.394746e-01 2.473909e-03 4.676501e-02 -2.470027e-02 4.535273e-03 1.334290e-01 -9.619243e-02 -1.137688e-01 1.160024e-02 -4.959172e-02 4.351400e-02 5.258865e-02 1.104320e-02 -1.540430e-02 -4.367940e-02
<VARIANCE> 39
 8.425105e+00 1.076923e+01 4.473361e+00 1.618151e+01 4.676618e+00 8.066229e+01 2.865784e+01 6.528190e+01 3.652657e+01 3.159358e+01 1.371451e+01 6.872166e+00 8.814081e+00 5.362130e-01 1.254634e-01 9.984404e-01 8.634169e-01 1.007277e+00 4.057541e+00 6.943800e-01 1.111632e+00 6.062309e-01 6.131115e-01 3.776407e-01 1.204057e+00 4.526195e-02 2.733279e-01 5.993429e-02 2.574792e-01 1.575715e-01 1.004993e-01 6.976395e-01 1.695530e-01 3.328943e-01 2.484801e-01 1.038270e-01 3.853718e-01 7.357861e-02 3.804780e-02
<GCONST> 7.779806e+01
<STATE> 4
<MEAN> 39
 -1.480520e+00 -2.515178e-01 -3.452888e+00 -1.715463e+00 1.153827e+01 -8.461269e+00 -7.707304e+00 3.602876e-01 -7.952111e+00 -9.598567e+00 -4.552699e+00 2.786605e+00 6.843314e+01 2.676677e-01 -7.577325e-02 4.641521e-02 5.900430e-01 5.381039e-01 -6.098657e-03 -6.013125e-01 -2.273109e-01 -1.520074e-01 -7.234576e-02 -1.597749e-02 -5.400619e-02 -3.355612e-02 -2.148985e-02 -4.009030e-02 2.838439e-02 1.736754e-02 -3.613482e-03 2.676311e-02 -5.246133e-02 -2.212190e-02 -3.687919e-02 4.496542e-02 7.048641e-02 -2.623289e-03 -3.582486e-03
<VARIANCE> 39
 2.977113e+00 4.393435e+01 1.034303e+01 2.667462e+01 9.227169e+00 1.320581e+01 3.191304e+01 3.321092e+01 2.061481e+01 3.257732e+01 7.926936e+00 8.718867e+00 8.814081e+00 1.349608e-01 4.593926e-01 3.192629e-01 2.852956e-01 5.236187e-01 5.784526e-01 7.611564e-01 5.672464e-01 5.860724e-01 4.943104e-01 5.472900e-01 6.881475e-01 1.742205e-01 1.416860e-02 3.967424e-02 4.874446e-02 6.778597e-02 1.093484e-01 8.878910e-02 1.229938e-01 6.224696e-02 8.205966e-02 4.678340e-02 8.343602e-02 1.001706e-01 2.158296e-02
<GCONST> 5.880136e+01
<TRANSP> 5
 0.000000e+00 1.000000e+00 0.000000e+00 0.000000e+00 0.000000e+00
 0.000000e+00 8.635360e-01 1.364640e-01 0.000000e+00 0.000000e+00
 0.000000e+00 0.000000e+00 6.568834e-01 3.431167e-01 0.000000e+00
 0.000000e+00 0.000000e+00 0.000000e+00 9.498764e-01 5.012368e-02
 0.000000e+00 0.000000e+00 0.000000e+00 0.000000e+00 0.000000e+00
<ENDHMM>
~h "x"
<BEGINHMM>
<NUMSTATES> 5
<STATE> 2
<MEAN> 39
 -8.876557e+00 -3.684429e+00 2.867417e+00 2.753103e-01 5.026194e+00 -7.712453e+00 -2.409248e+00 -3.268528e+00 -4.341441e+00 -2.412321e+00 -7.640847e-01 -3.764256e+00 6.751277e+01 -1.403485e-01 -1.765109e-02 1.535888e-01 1.194412e-01 2.999993e-02 4.113536e-02 6.283052e-02 7.306640e-02 1.068936e-02 -5.347393e-02 -4.717280e-02 -3.172393e-02 -1.575163e-02 8.985580e-03 -2.811281e-02 -5.033447e-02 -4.229767e-02 -1.810752e-02 -2.215474e-02 -8.169747e-03 3.393911e-03 6.223782e-03 1.041900e-02 2.465420e-02 2.220146e-02 2.761793e-02
<VARIANCE> 39
 3.034678e+01 4.011058e+01 6.216088e+01 6.180141e+01 4.539949e+01 8.848965e+01 8.542469e+01 6.941935e+01 6.457790e+01 4.349731e+01 4.374529e+01 4.741971e+01 5.502160e+01 9.276115e-01 9.271016e-01 1.479564e+00 1.358405e+00 1.306581e+00 2.230232e+00 2.312186e+00 1.798489e+00 1.702834e+00 1.530172e+00 1.439343e+00 1.304757e+00 5.535002e-01 8.902021e-02 1.167303e-01 1.644209e-01 1.711147e-01 1.901736e-01 2.872728e-01 2.961110e-01 2.637848e-01 2.600750e-01 2.419700e-01 2.222880e-01 1.961981e-01 5.224225e-02
<GCONST> 1.052010e+02
<STATE> 3
<MEAN> 39
 -1.002353e+01 -6.360970e+00 3.875073e-02 -2.885293e+00 3.766701e+00 -7.226090e+00 -9.605071e-01 -2.066697e+00 -3.209221e+00 -2.007697e+00 1.198043e+00 -1.472244e+00 7.028745e+01 5.358468e-02 -1.751786e-02 -1.593408e-01 -1.699391e-01 -7.454644e-02 -8.494439e-03 7.330846e-03 -3.272554e-02 4.828529e-02 1.062789e-01 1.363955e-01 1.202430e-01 5.173454e-02 2.186212e-02 1.860360e-02 1.476077e-02 9.132724e-03 1.830094e-03 1.863735e-02 1.148290e-02 -7.317217e-04 4.833142e-03 -9.026888e-03 -1.837029e-02 -7.237643e-03 -2.451762e-02
<VARIANCE> 39
 3.851862e+01 4.507287e+01 4.987860e+01 6.066345e+01 5.323239e+01 1.048212e+02 1.297874e+02 9.707140e+01 7.476598e+01 4.855799e+01 4.390060e+01 4.830568e+01 6.877815e+01 4.311311e-01 6.116317e-01 1.211684e+00 1.137584e+00 1.109676e+00 1.645586e+00 1.741590e+00 1.552567e+00 1.499630e+00 1.512155e+00 1.407158e+00 1.247912e+00 3.714101e-01 6.293431e-02 9.148333e-02 1.292732e-01 1.586030e-01 1.788953e-01 2.509473e-01 2.808039e-01 2.625510e-01 2.540847e-01 2.540913e-01 2.341991e-01 2.063211e-01 3.533063e-02
<GCONST> 1.024151e+02
<STATE> 4
<MEAN> 39
 -1.297464e+01 -2.724545e+00 -7.997708e-01 -1.194872e+00 3.549170e+00 -2.820390e+00 -6.208974e-01 -1.141798e+00 -1.853422e+00 2.314406e-01 1.723849e+00 -5.010437e-01 5.439722e+01 1.161679e-02 8.302061e-03 -1.034181e-02 -1.043234e-02 -4.142500e-03 4.374556e-03 -1.698937e-03 -3.780240e-03 7.459681e-03 1.482458e-03 -3.317017e-03 2.166917e-03 -3.689367e-03 8.744259e-03 1.085851e-03 2.964047e-03 1.586389e-03 -5.013820e-04 -7.484166e-03 -6.590420e-03 -4.852517e-03 -7.898189e-03 -9.217873e-03 -9.425674e-03 -8.407520e-03 3.842855e-03
<VARIANCE> 39
 1.760650e+01 2.451325e+01 2.058066e+01 2.233254e+01 2.008533e+01 3.965137e+01 3.109458e+01 2.892084e+01 2.603130e+01 1.969774e+01 1.799328e+01 1.670093e+01 5.681183e+01 2.210765e-01 4.283902e-01 6.016422e-01 7.263951e-01 8.274643e-01 1.048960e+00 1.139674e+00 1.172618e+00 1.171012e+00 1.143305e+00 1.097732e+00 9.950409e-01 1.490090e-01 3.761766e-02 7.268870e-02 9.815187e-02 1.309278e-01 1.593014e-01 1.987636e-01 2.190885e-01 2.344256e-01 2.363020e-01 2.314396e-01 2.218372e-01 2.004925e-01 2.017272e-02
<GCONST> 8.218182e+01
<TRANSP> 5
 0.000000e+00 1.000000e+00 0.000000e+00 0.000000e+00 0.000000e+00
 0.000000e+00 7.623748e-01 2.376252e-01 0.000000e+00 0.000000e+00
 0.000000e+00 0.000000e+00 7.657246e-01 2.342754e-01 0.000000e+00
 0.000000e+00 0.000000e+00 0.000000e+00 9.087021e-01 9.129797e-02
 0.000000e+00 0.000000e+00 0.000000e+00 0.000000e+00 0.000000e+00
<ENDHMM>
~h "jj"
<BEGINHMM>
<NUMSTATES> 5
<STATE> 2
<MEAN> 39
 -4.341070e+00 -6.977560e+00 3.561856e+00 4.215518e+00 1.005237e+01 -9.541743e+00 -6.974807e+00 -5.311576e+00 -7.654670e+00 -5.835239e+00 2.129404e+00 -8.715503e-01 7.385741e+01 -2.057050e-02 -2.162932e-02 8.774187e-02 9.126207e-02 4.101915e-03 1.786606e-02 6.553865e-03 4.290458e-02 -5.561255e-02 -5.955071e-02 1.469865e-02 -4.820190e-02 -1.220818e-02 3.256159e-02 -3.763918e-03 -8.260062e-02 -5.856769e-02 -4.094242e-02 -2.326101e-02 -3.880118e-03 -1.506938e-02 1.065089e-02 1.832172e-02 1.802467e-02 3.424991e-02 2.608447e-02
<VARIANCE> 39
 1.736728e+01 2.400666e+01 4.748128e+01 5.361591e+01 5.268370e+01 4.279766e+01 4.994818e+01 5.167511e+01 4.521409e+01 3.929741e+01 3.380983e+01 3.490804e+01 4.793129e+01 2.190987e-01 2.939316e-01 8.226454e-01 8.752612e-01 8.600653e-01 8.793012e-01 1.027116e+00 1.055120e+00 1.015358e+00 9.412013e-01 8.881474e-01 8.226947e-01 2.451703e-01 2.392128e-02 4.188480e-02 7.456277e-02 9.218992e-02 1.112078e-01 1.336818e-01 1.549048e-01 1.630939e-01 1.584745e-01 1.482470e-01 1.428470e-01 1.247733e-01 2.402049e-02
<GCONST> 8.323988e+01
<STATE> 3
<MEAN> 39
 -4.375582e+00 -6.737950e+00 3.114527e+00 3.414128e+00 9.309062e+00 -9.540350e+00 -7.004553e+00 -6.044034e+00 -7.564550e+00 -5.234598e+00 2.234489e+00 -1.064462e+00 7.436543e+01 1.919442e-01 -8.160413e-02 -4.156837e-01 -2.773806e-01 -1.281034e-01 -1.979384e-01 -1.307336e-01 -2.363719e-01 -6.325608e-02 6.763817e-02 1.790253e-01 2.867161e-01 2.219217e-01 2.789515e-02 8.804050e-03 -7.710703e-02 -9.109211e-02 -4.589747e-02 -1.053831e-03 4.748522e-02 2.117949e-02 4.223312e-02 4.357136e-02 9.529760e-03 5.756719e-02 6.681629e-03
<VARIANCE> 39
 1.974399e+01 2.190942e+01 4.463862e+01 4.558422e+01 3.998893e+01 4.142807e+01 4.936954e+01 4.673571e+01 4.624092e+01 3.992127e+01 3.406929e+01 3.381220e+01 5.021251e+01 4.502926e-01 4.990818e-01 1.169169e+00 1.360674e+00 1.269586e+00 1.556032e+00 1.958655e+00 1.720000e+00 1.671357e+00 1.529553e+00 1.323557e+00 1.258080e+00 3.812419e-01 5.769945e-02 7.079376e-02 1.397189e-01 1.556668e-01 1.746421e-01 2.368885e-01 2.838411e-01 2.859542e-01 2.589811e-01 2.447526e-01 2.297906e-01 1.899058e-01 4.077559e-02
<GCONST> 9.624375e+01
<STATE> 4
<MEAN> 39
 -5.347453e+00 -7.059902e+00 1.701074e-01 9.100363e-01 7.137369e+00 -9.049627e+00 -6.095453e+00 -6.042244e+00 -6.500103e+00 -4.233933e+00 2.935342e+00 1.786710e+00 7.224273e+01 1.305613e-01 3.781314e-02 -3.000963e-01 -3.353156e-01 -2.691674e-01 4.472515e-02 2.173598e-01 1.938013e-01 1.828769e-01 6.967490e-02 -2.103991e-02 8.951379e-02 5.161335e-02 2.051363e-03 2.842647e-02 1.362992e-02 1.508353e-02 -3.782800e-03 1.317865e-02 9.828704e-03 4.623405e-02 1.344900e-02 -1.609642e-02 -4.583214e-02 -6.430133e-02 -2.925353e-02
<VARIANCE> 39
 2.221795e+01 3.037912e+01 3.875798e+01 4.328138e+01 6.087513e+01 4.223034e+01 4.769987e+01 6.575517e+01 4.950593e+01 5.276900e+01 3.952339e+01 3.480754e+01 6.764091e+01 2.244858e-01 4.058637e-01 7.157410e-01 1.003516e+00 1.108016e+00 1.076310e+00 1.297392e+00 1.419723e+00 1.422493e+00 1.265385e+00 1.216787e+00 1.103041e+00 2.301047e-01 2.942720e-02 5.223987e-02 8.076457e-02 1.089270e-01 1.360534e-01 1.618095e-01 1.843350e-01 1.989815e-01 2.017899e-01 1.826585e-01 1.866796e-01 1.611305e-01 2.241543e-02
<GCONST> 8.936668e+01
<TRANSP> 5
 0.000000e+00 1.000000e+00 0.000000e+00 0.000000e+00 0.000000e+00
 0.000000e+00 8.591478e-01 1.408522e-01 0.000000e+00 0.000000e+00
 0.000000e+00 0.000000e+00 7.871429e-01 2.128571e-01 0.000000e+00
 0.000000e+00 0.000000e+00 0.000000e+00 7.717534e-01 2.282465e-01
 0.000000e+00 0.000000e+00 0.000000e+00 0.000000e+00 0.000000e+00
<ENDHMM>
~h "rr"
<BEGINHMM>
<NUMSTATES> 5
<STATE> 2
<MEAN> 39
 -4.564932e+00 -4.642936e+00 -2.089585e+00 -4.324813e+00 5.303356e+00 -7.766860e+00 -2.942647e+00 -3.696236e+00 -4.045612e+00 -3.988580e+00 -7.245025e-01 -1.100277e+00 7.243281e+01 -1.441622e-02 6.849916e-02 4.363046e-02 3.189016e-02 5.123295e-02 1.152195e-01 1.198279e-02 -7.829714e-03 1.800138e-02 -3.793931e-02 -3.230014e-02 -7.677685e-03 -9.250613e-02 6.983135e-03 5.374972e-03 -5.675653e-03 1.007319e-02 1.442609e-02 6.775845e-03 3.664188e-03 9.089776e-04 -4.807426e-03 1.015676e-02 1.833663e-02 2.214629e-02 -1.331054e-02
<VARIANCE> 39
 4.343098e+01 2.937881e+01 4.472895e+01 4.141323e+01 3.890025e+01 5.356147e+01 4.598996e+01 4.496532e+01 4.520863e+01 4.038034e+01 3.665731e+01 3.206630e+01 5.589348e+01 1.572314e+00 1.097479e+00 1.957809e+00 1.753382e+00 1.712526e+00 2.446800e+00 2.270193e+00 1.921648e+00 1.894809e+00 1.681432e+00 1.575643e+00 1.538014e+00 1.041218e+00 2.622358e-01 1.771985e-01 3.410826e-01 3.001078e-01 2.642077e-01 3.989333e-01 3.936644e-01 3.110555e-01 3.089639e-01 2.783418e-01 2.654389e-01 2.512605e-01 1.832768e-01
<GCONST> 1.104445e+02
<STATE> 3
<MEAN> 39
 -4.639222e+00 -4.326336e+00 -2.024352e+00 -3.772209e+00 5.630713e+00 -7.089971e+00 -2.781497e+00 -3.585639e+00 -3.781219e+00 -3.646595e+00 -3.101633e-01 -6.469741e-01 7.156027e+01 1.314303e-01 1.259015e-02 -1.030395e-01 -5.436257e-02 4.820216e-02 -5.769466e-02 -4.178575e-02 -7.274590e-02 -1.185718e-01 -3.766076e-02 2.308932e-02 4.655466e-02 7.198858e-02 8.048665e-02 -1.908890e-04 -7.917827e-02 -5.113579e-02 6.983302e-04 -9.400965e-02 -6.248984e-02 -2.970584e-03 -2.220458e-02 6.013510e-04 8.801603e-03 1.028480e-03 4.427703e-02
<VARIANCE> 39
 3.822893e+01 2.882465e+01 4.614520e+01 4.824929e+01 4.009260e+01 5.659285e+01 4.786235e+01 4.669927e+01 4.771637e+01 4.252385e+01 3.637217e+01 3.246577e+01 4.657972e+01 3.332738e+00 2.567713e+00 4.005636e+00 3.668192e+00 3.052857e+00 5.079765e+00 4.061486e+00 3.239083e+00 3.394071e+00 3.023192e+00 2.876688e+00 2.554766e+00 2.592355e+00 6.009407e-01 4.737931e-01 7.150105e-01 6.634992e-01 5.554979e-01 8.997453e-01 7.625596e-01 5.971513e-01 6.230187e-01 5.668030e-01 5.279474e-01 4.671936e-01 4.806101e-01
<GCONST> 1.291322e+02
<STATE> 4
<MEAN> 39
 -6.326499e+00 -3.650414e+00 -3.371300e+00 -3.873883e+00 4.910727e+00 -6.997947e+00 -3.874135e+00 -3.358819e+00 -4.252070e+00 -3.954381e+00 -6.180378e-01 -6.763874e-01 6.787226e+01 1.364661e-01 8.644020e-03 -2.113917e-01 -3.247943e-02 1.186770e-01 -1.282827e-01 -1.227860e-01 2.079782e-02 -5.719360e-02 -1.290083e-02 3.427475e-02 3.457278e-02 2.978807e-02 -5.643174e-02 -2.585415e-02 3.968272e-02 4.810454e-02 -1.096784e-02 2.950934e-03 3.631141e-02 1.451656e-02 5.433575e-03 3.951457e-02 3.599332e-02 -5.367826e-03 -8.741658e-03
<VARIANCE> 39
 3.203726e+01 2.633323e+01 4.857840e+01 4.497649e+01 4.017144e+01 5.337492e+01 4.796226e+01 5.263537e+01 5.174097e+01 4.524836e+01 3.397389e+01 3.002248e+01 4.298288e+01 6.882722e-01 7.592556e-01 1.583285e+00 1.261447e+00 1.444056e+00 1.995528e+00 1.790318e+00 1.659435e+00 1.715867e+00 1.551703e+00 1.463114e+00 1.319999e+00 5.317789e-01 1.258300e-01 1.272102e-01 2.536346e-01 2.089354e-01 2.350604e-01 3.535589e-01 3.176476e-01 2.852379e-01 2.931772e-01 2.701652e-01 2.566022e-01 2.339862e-01 9.761158e-02
<GCONST> 1.036149e+02
<TRANSP> 5
 0.000000e+00 1.000000e+00 0.000000e+00 0.000000e+00 0.000000e+00
 0.000000e+00 6.798574e-01 3.201426e-01 0.000000e+00 0.000000e+00
 0.000000e+00 0.000000e+00 8.443339e-01 1.556661e-01 0.000000e+00
 0.000000e+00 0.000000e+00 0.000000e+00 6.997471e-01 3.002529e-01
 0.000000e+00 0.000000e+00 0.000000e+00 0.000000e+00 0.000000e+00
<ENDHMM>
~h "sp"
<BEGINHMM>
<NUMSTATES> 3
<STATE> 2
~s "silst"
<TRANSP> 3
 0.000000e+00 7.000000e-01 3.000000e-01
 0.000000e+00 9.000000e-01 9.999999e-02
 0.000000e+00 0.000000e+00 0.000000e+00
<ENDHMM>
~h "nib"
<BEGINHMM>
<NUMSTATES> 5
<STATE> 2
<MEAN> 39
 -1.515585e+01 -2.578614e+00 -2.077463e+00 -9.795396e-01 2.516242e+00 -3.410807e-01 -6.737445e-01 -3.136222e-01 -7.559983e-01 -2.544429e-01 1.089427e+00 -7.852580e-01 5.478136e+01 5.807654e-02 6.691589e-02 -4.261988e-02 -8.930990e-02 2.797937e-03 -2.649637e-02 3.097865e-02 -1.282125e-02 -5.707819e-02 -3.502322e-02 4.467079e-02 -3.231432e-03 1.832039e-02 1.141767e-03 4.749916e-03 1.104821e-03 5.391214e-03 -9.472781e-03 -1.917757e-02 1.263340e-02 -1.086636e-02 6.664834e-03 5.442953e-03 3.003838e-03 2.811774e-02 8.842035e-04
<VARIANCE> 39
 2.242249e+01 3.861127e+01 2.767057e+01 2.305160e+01 1.929583e+01 1.977250e+01 1.720327e+01 2.163917e+01 2.457520e+01 1.576548e+01 2.148773e+01 1.419888e+01 5.363000e+01 7.086756e-01 1.831275e+00 1.478514e+00 1.534814e+00 1.513307e+00 1.773503e+00 1.493567e+00 1.695430e+00 2.045888e+00 1.553256e+00 1.742639e+00 1.241234e+00 9.773281e-01 1.384454e-01 3.549475e-01 2.911089e-01 2.937831e-01 3.153118e-01 3.514195e-01 3.050539e-01 3.421429e-01 4.134455e-01 3.434811e-01 3.477974e-01 2.576714e-01 1.854168e-01
<GCONST> 1.013452e+02
<STATE> 3
<MEAN> 39
 -1.627475e+01 -5.109967e+00 -1.279307e+00 -2.863900e+00 2.853979e+00 -2.190747e+00 -1.956742e-01 -1.560216e+00 -1.513027e+00 -8.724937e-01 1.931158e+00 -1.378441e-01 6.063286e+01 1.022961e-01 1.726373e-03 -4.571152e-04 -5.280704e-02 -2.746858e-02 -7.733512e-02 2.627602e-03 1.891619e-02 -3.193795e-03 -6.155856e-02 1.000804e-02 5.511456e-04 6.968407e-02 1.029739e-02 2.352959e-03 5.773662e-03 1.664648e-02 -3.620465e-03 2.045847e-02 -7.485416e-03 -1.078867e-03 1.022046e-02 2.766248e-03 -4.951478e-03 1.013846e-03 -2.993112e-02
<VARIANCE> 39
 5.731939e+01 5.611338e+01 3.458920e+01 4.030323e+01 3.441078e+01 3.886664e+01 4.538187e+01 4.789868e+01 2.871885e+01 2.569113e+01 2.573320e+01 2.451731e+01 1.181221e+02 3.798559e+00 4.537858e+00 2.790131e+00 3.469069e+00 3.072559e+00 3.500124e+00 4.136405e+00 3.862733e+00 2.810570e+00 2.710715e+00 2.205178e+00 2.184750e+00 9.256027e+00 6.502157e-01 8.081470e-01 5.283235e-01 6.532416e-01 6.156120e-01 6.882523e-01 8.082898e-01 7.668191e-01 5.464505e-01 5.344339e-01 4.379959e-01 4.450553e-01 1.370159e+00
<GCONST> 1.301948e+02
<STATE> 4
<MEAN> 39
 -1.341612e+01 -5.368193e+00 -3.210590e+00 -2.075377e+00 3.221948e+00 -2.908574e+00 -1.545398e+00 -1.490865e+00 -4.111191e+00 -9.374111e-01 2.434355e+00 -1.012274e-02 5.757798e+01 -1.629166e-02 2.952760e-02 8.468868e-03 1.616239e-02 1.875059e-02 7.302405e-03 -5.415468e-02 -1.752695e-02 1.884672e-02 2.373417e-02 1.431400e-03 -7.346042e-03 -3.827632e-02 2.690796e-03 -2.495054e-03 4.010420e-03 4.281494e-03 9.865484e-03 -1.085576e-02 8.496176e-03 4.270611e-03 -1.823246e-03 -3.358265e-03 -3.189944e-03 -3.856768e-03 1.206236e-02
<VARIANCE> 39
 1.886067e+01 4.696214e+01 2.961485e+01 2.630542e+01 2.913956e+01 2.830264e+01 4.147519e+01 4.778991e+01 5.056416e+01 2.615162e+01 2.141954e+01 1.816442e+01 4.482523e+01 5.236390e-01 6.224541e-01 9.815332e-01 9.409786e-01 1.085967e+00 1.079147e+00 1.358197e+00 1.447168e+00 1.554443e+00 1.305626e+00 1.323161e+00 9.701578e-01 3.534509e-01 7.419125e-02 1.001559e-01 1.488280e-01 1.571229e-01 1.955474e-01 2.055160e-01 2.281341e-01 2.699002e-01 2.973509e-01 2.447588e-01 2.562799e-01 1.921196e-01 4.420746e-02
<GCONST> 9.252392e+01
<TRANSP> 5
 0.000000e+00 1.000000e+00 0.000000e+00 0.000000e+00 0.000000e+00
 0.000000e+00 9.165738e-01 8.342620e-02 0.000000e+00 0.000000e+00
 0.000000e+00 0.000000e+00 9.524346e-01 4.756537e-02 0.000000e+00
 0.000000e+00 0.000000e+00 0.000000e+00 9.562356e-01 4.376440e-02
 0.000000e+00 0.000000e+00 0.000000e+00 0.000000e+00 0.000000e+00
<ENDHMM>
~h "sil"
<BEGINHMM>
<NUMSTATES> 5
<STATE> 2
<MEAN> 39
 -9.798120e+00 -4.622058e+00 -1.681467e+00 -2.140819e+00 4.141751e+00 -5.893310e+00 -3.121428e+00 -3.933031e+00 -4.277911e+00 -1.611262e+00 1.239528e+00 -1.135470e+00 6.409248e+01 -4.300343e-02 4.734380e-02 -2.467543e-02 1.993485e-02 -1.751772e-02 3.496329e-02 1.194081e-02 2.959971e-02 3.827224e-02 3.085226e-02 1.885756e-02 2.024766e-02 -9.648313e-02 -8.425213e-03 3.545056e-03 6.400276e-03 5.498736e-03 -2.245235e-03 7.413648e-03 1.887677e-02 1.921097e-02 1.008281e-02 -8.992940e-04 -1.047174e-02 -1.366760e-02 -6.241804e-03
<VARIANCE> 39
 2.937615e+01 4.062319e+01 5.605784e+01 5.749624e+01 5.664704e+01 7.026282e+01 7.553622e+01 6.242726e+01 6.225662e+01 5.870490e+01 4.791011e+01 4.389251e+01 5.766788e+01 3.839463e-01 7.111610e-01 9.979842e-01 1.121693e+00 1.153227e+00 1.646139e+00 1.587728e+00 1.492840e+00 1.513448e+00 1.418236e+00 1.381575e+00 1.227294e+00 3.456949e-01 4.789447e-02 9.541310e-02 1.321478e-01 1.569347e-01 1.751460e-01 2.384357e-01 2.403779e-01 2.402230e-01 2.433305e-01 2.307961e-01 2.241025e-01 2.006203e-01 3.741092e-02
<GCONST> 9.948651e+01
<STATE> 3
~s "silst"
<STATE> 4
<MEAN> 39
 -1.278533e+01 -2.728054e+00 -1.280509e+00 -1.146528e+00 3.180968e+00 -2.649567e+00 -1.362898e+00 -1.905881e+00 -2.427599e+00 -2.980035e-01 1.319152e+00 -3.933557e-01 5.185892e+01 -1.559517e-04 -8.014417e-03 -2.695767e-03 -2.198593e-03 -2.384552e-03 -1.455826e-02 -5.066566e-03 2.323040e-03 2.664325e-03 1.578289e-03 1.960372e-03 -8.437370e-04 1.189390e-02 1.065129e-03 -4.290139e-03 -3.841597e-03 -2.352934e-03 -3.796957e-04 -6.415275e-03 -6.221968e-03 -5.054182e-03 -5.349170e-03 -4.297458e-04 3.203593e-03 3.703607e-03 2.412917e-03
<VARIANCE> 39
 4.679221e+01 2.470714e+01 1.926214e+01 2.060839e+01 2.040936e+01 2.712904e+01 2.863099e+01 2.619384e+01 2.493608e+01 1.841483e+01 1.659849e+01 1.417882e+01 3.704547e+02 1.264960e-01 2.491629e-01 3.637549e-01 4.867938e-01 5.867572e-01 7.267234e-01 8.167470e-01 8.615473e-01 8.769562e-01 8.431498e-01 8.104979e-01 7.435429e-01 7.816175e-02 2.225593e-02 4.523934e-02 6.800032e-02 9.352626e-02 1.160131e-01 1.439372e-01 1.625835e-01 1.739584e-01 1.784326e-01 1.730697e-01 1.659857e-01 1.527215e-01 1.184451e-02
<GCONST> 7.420113e+01
<TRANSP> 5
 0.000000e+00 1.000000e+00 0.000000e+00 0.000000e+00 0.000000e+00
 0.000000e+00 8.557689e-01 8.469422e-02 5.953689e-02 0.000000e+00
 0.000000e+00 0.000000e+00 9.075774e-01 9.242263e-02 0.000000e+00
 0.000000e+00 4.529057e-02 0.000000e+00 9.455399e-01 9.169458e-03
 0.000000e+00 0.000000e+00 0.000000e+00 0.000000e+00 0.000000e+00
<ENDHMM>
