~o
<STREAMINFO> 1 39
<VECSIZE> 39<NULLD><MFCC_E_D_A>
~h "Y"
<BEGINHMM>
<NUMSTATES> 5
<STATE> 2
<NUMMIXES> 5
<MIXTURE> 1 3.643558e-01
<MEAN> 39
 -1.693824e+00 3.395759e-01 -1.067687e+00 -1.644502e+00 -7.227955e+00 -4.142251e+00 -1.283521e+01 -7.473462e+00 -7.560163e+00 1.174743e+00 3.075400e+00 -2.116315e+00 4.860627e-01 2.358192e+00 -1.319463e+00 1.133527e-01 -1.110623e+00 -1.425970e+00 1.676795e-01 -2.223807e+00 -2.523474e-01 -2.116973e-01 2.838402e-01 7.390820e-01 1.871537e-01 4.869353e-02 -7.896255e-01 -1.786983e-01 1.617491e-01 2.318001e-01 2.752653e-02 -9.235553e-02 2.362189e-01 4.092222e-01 3.070804e-01 -2.302024e-02 -2.788871e-01 -1.964764e-01 3.959318e-03
<VARIANCE> 39
 1.884521e+01 2.477241e+01 3.132207e+01 3.260862e+01 3.359137e+01 4.312357e+01 4.052778e+01 4.163355e+01 3.019988e+01 2.594591e+01 2.234711e+01 3.428024e+01 1.458520e-02 4.818174e+00 2.922729e+00 2.739034e+00 3.316732e+00 3.658098e+00 4.213823e+00 4.053227e+00 4.304554e+00 8.074898e+00 4.364668e+00 3.878253e+00 2.864450e+00 1.324030e-03 6.332572e-01 4.156646e-01 3.852976e-01 4.688336e-01 3.871440e-01 5.651707e-01 7.078109e-01 5.870945e-01 5.636284e-01 4.909371e-01 4.055085e-01 4.253283e-01 1.630260e-04
<GCONST> 1.011200e+02
<MIXTURE> 2 1.741990e-01
<MEAN> 39
 -1.511892e+01 1.840336e-01 -2.564244e+00 -5.114619e-01 -3.087883e+00 -3.838366e+00 -7.378774e+00 -3.071548e+00 -2.303455e+00 4.783647e-02 -3.430102e+00 -3.068608e+00 4.031060e-01 5.213931e+00 3.110465e-02 3.391307e-01 -1.393198e+00 -1.785878e+00 -1.394861e-01 -3.259096e+00 -2.303154e+00 -2.650532e+00 -6.425052e-01 1.179368e+00 -1.333817e+00 4.538710e-03 9.353163e-02 -3.474014e-01 -4.363050e-02 -2.867762e-01 -6.957312e-01 8.344839e-02 -3.260308e-01 -5.125962e-02 -3.116117e-01 -2.747792e-01 4.598292e-01 -1.700456e-01 2.395247e-02
<VARIANCE> 39
 3.663259e+01 1.796326e+01 1.178251e+01 2.008618e+01 1.781842e+01 2.081163e+01 1.907041e+01 2.345417e+01 2.347048e+01 3.350577e+01 2.425566e+01 1.802741e+01 1.848786e-02 1.311163e+00 1.898257e+00 3.705734e+00 4.309829e+00 2.738760e+00 6.701212e+00 5.139978e+00 3.873974e+00 4.076402e+00 3.533480e+00 6.635454e+00 4.054522e+00 1.486596e-03 4.595951e-01 2.450608e-01 3.189024e-01 3.847868e-01 4.433495e-01 5.291650e-01 5.056332e-01 5.131286e-01 6.349293e-01 5.339758e-01 6.522546e-01 3.795862e-01 2.434806e-04
<GCONST> 9.556293e+01
<MIXTURE> 3 1.160260e-01
<MEAN> 39
 -3.311368e+00 -4.535007e+00 -4.975088e+00 -1.639985e+01 -5.140825e+00 -1.616703e+01 -1.920491e+01 -8.198764e+00 -7.521259e+00 5.036265e+00 -1.635447e+01 -5.583019e+00 5.223398e-01 2.197523e+00 -1.664778e+00 -6.676901e-01 -3.604641e+00 2.583730e-01 -1.657696e+00 -1.543227e+00 1.444175e+00 -2.582304e-01 2.356271e+00 -2.971682e+00 7.838201e-01 5.805844e-02 -1.153925e+00 3.368400e-01 3.860916e-01 1.082342e+00 -1.862430e-01 3.977217e-01 1.017982e+00 3.203316e-01 -1.568955e-01 -6.992500e-01 5.828492e-01 2.616608e-01 -3.072340e-03
<VARIANCE> 39
 1.105542e+01 1.628665e+01 2.067959e+01 3.548960e+01 1.422602e+01 2.060134e+01 3.270799e+01 3.477790e+01 4.056234e+01 6.237177e+01 2.949270e+01 3.851513e+01 8.483621e-03 3.860480e+00 2.094391e+00 1.746412e+00 3.225004e+00 3.244693e+00 3.020781e+00 7.518485e+00 5.980726e+00 7.523509e+00 6.020787e+00 3.866895e+00 4.647847e+00 6.194675e-04 4.334936e-01 2.518021e-01 2.940386e-01 5.148008e-01 4.186090e-01 5.880344e-01 9.058914e-01 1.004679e+00 7.576889e-01 1.051069e+00 1.007782e+00 5.753801e-01 1.244747e-04
<GCONST> 1.001469e+02
<MIXTURE> 4 1.420292e-01
<MEAN> 39
 -1.035619e+01 -1.664628e+00 2.140987e-01 -5.677302e+00 -8.529753e+00 -1.375571e+01 -1.111762e+01 -2.791108e+00 -5.617785e+00 -2.461911e+00 -4.930894e+00 -1.450646e+00 4.789700e-01 2.866540e+00 -8.471994e-01 3.039806e-01 -1.688120e+00 -2.282697e+00 -3.062535e+00 -2.528302e+00 -1.387742e-01 -7.372678e-01 -5.278902e-01 -4.534215e-01 -1.202226e+00 4.677011e-02 -5.602053e-02 1.833495e-01 8.553249e-02 2.221190e-01 9.088391e-02 6.099345e-01 4.018585e-01 -6.300894e-02 -1.659238e-01 -1.777879e-02 2.590362e-01 -3.136088e-01 -2.171568e-02
<VARIANCE> 39
 7.630515e+01 2.679334e+01 4.440139e+01 5.265461e+01 6.976074e+01 8.538284e+01 7.013261e+01 3.929039e+01 5.001418e+01 5.870843e+01 4.822151e+01 4.257204e+01 3.161957e-02 5.202427e+00 4.782152e+00 4.619188e+00 5.179105e+00 1.063477e+01 6.215441e+00 9.778847e+00 6.581645e+00 5.451997e+00 6.406051e+00 5.487354e+00 6.408927e+00 6.832417e-03 1.389496e+00 7.413359e-01 6.703089e-01 9.067460e-01 1.692668e+00 1.371641e+00 1.867864e+00 9.768965e-01 9.659925e-01 1.374220e+00 6.165997e-01 9.045966e-01 8.884753e-04
<GCONST> 1.263494e+02
<MIXTURE> 5 2.033900e-01
<MEAN> 39
 -5.779352e+00 -2.132721e+00 -4.920335e+00 -7.015705e+00 -1.283339e+01 -1.308891e+01 -1.840826e+01 -1.014735e+01 -1.091640e+01 -5.239703e+00 -9.605925e+00 -9.811517e+00 4.730274e-01 2.410457e+00 -1.630677e+00 -1.271010e+00 -2.649657e+00 -1.458155e+00 -7.162299e-01 -2.970447e+00 -2.933352e-01 -9.196908e-01 -7.848188e-02 -6.001446e-01 -9.377673e-01 4.895357e-02 -9.333050e-01 -1.544289e-01 3.002241e-01 1.433706e-01 2.910784e-01 3.484567e-01 9.891562e-01 5.696580e-01 3.031277e-01 1.263805e-01 3.294127e-01 5.823967e-01 7.879907e-03
<VARIANCE> 39
 1.828455e+01 2.017563e+01 1.967183e+01 3.578938e+01 2.060763e+01 3.937006e+01 4.379690e+01 4.160234e+01 5.354328e+01 3.798375e+01 3.613179e+01 4.500546e+01 2.070110e-02 6.276241e+00 1.842730e+00 2.111593e+00 3.405746e+00 4.431552e+00 6.190364e+00 5.771905e+00 8.992014e+00 7.890247e+00 6.618278e+00 5.986534e+00 9.231767e+00 9.301864e-04 4.605709e-01 3.353614e-01 2.487538e-01 5.006657e-01 3.674926e-01 5.692948e-01 8.039845e-01 9.273770e-01 8.574446e-01 5.993364e-01 5.295643e-01 5.467491e-01 1.875702e-04
<GCONST> 1.058590e+02
<STATE> 3
<NUMMIXES> 5
<MIXTURE> 1 2.556271e-01
<MEAN> 39
 4.145948e-01 -6.469141e+00 1.632832e+00 -2.389944e+00 -1.376756e+01 1.262776e+00 -2.045247e+01 -4.049120e+00 -4.321891e+00 1.990225e+00 3.420113e+00 -2.685000e+00 5.801930e-01 1.111707e+00 -1.272011e+00 1.079664e+00 -4.914240e-01 -1.525387e+00 5.975663e-01 -1.931645e+00 7.451664e-01 -6.046350e-02 1.830989e-01 6.777317e-01 -5.694562e-01 3.781710e-02 -1.206070e+00 7.249084e-01 1.844430e-02 4.637342e-01 8.535781e-01 -6.801899e-01 1.280772e+00 3.687080e-02 -8.054312e-02 -1.591653e-01 -4.757081e-01 -1.194729e-01 -1.206521e-02
<VARIANCE> 39
 1.003523e+01 2.473047e+01 2.481498e+01 3.901550e+01 3.385909e+01 2.507125e+01 3.103999e+01 3.711475e+01 3.411889e+01 3.075430e+01 2.060042e+01 3.237309e+01 1.312774e-02 4.187636e+00 3.921407e+00 2.381888e+00 2.384535e+00 4.298254e+00 3.909272e+00 5.469831e+00 4.100101e+00 5.083310e+00 2.587651e+00 3.953120e+00 2.454240e+00 1.239875e-03 4.100804e-01 4.385545e-01 4.516341e-01 6.726121e-01 5.657547e-01 5.038087e-01 6.275913e-01 6.106098e-01 8.701012e-01 6.905849e-01 4.909857e-01 5.209365e-01 2.999691e-04
<GCONST> 1.005029e+02
<MIXTURE> 2 2.539712e-01
<MEAN> 39
 -2.372423e+00 1.571957e+00 -4.264018e+00 -3.532070e+00 -4.855448e+00 -8.159448e+00 -1.107364e+01 -8.724133e+00 -9.776465e+00 2.700034e-01 4.035395e+00 -3.489406e+00 5.496251e-01 1.608570e+00 -6.609076e-01 -1.102978e-01 -4.984892e-01 -9.617075e-01 -1.056823e+00 -1.048657e+00 -7.895044e-01 -6.407769e-01 -7.009390e-02 9.137740e-01 -7.493859e-01 4.257740e-02 -1.022287e+00 -1.995479e-01 3.717555e-01 4.149860e-01 1.753595e-02 1.732520e-01 3.213480e-01 4.075569e-01 6.848423e-01 -3.481969e-02 -5.237278e-01 -1.482692e-01 -7.165924e-03
<VARIANCE> 39
 2.543999e+01 2.034728e+01 2.975347e+01 2.297795e+01 2.616448e+01 5.122363e+01 4.051804e+01 5.017897e+01 3.529970e+01 5.249948e+01 3.933813e+01 2.721872e+01 1.403926e-02 3.299287e+00 1.678127e+00 1.976656e+00 3.353724e+00 1.749191e+00 2.793879e+00 4.718394e+00 3.678567e+00 5.722133e+00 3.885816e+00 5.339308e+00 2.072655e+00 1.279557e-03 5.485201e-01 2.908299e-01 3.252407e-01 3.512056e-01 4.232563e-01 5.617458e-01 8.095119e-01 5.516415e-01 6.558394e-01 7.039508e-01 4.493793e-01 4.588481e-01 2.953754e-04
<GCONST> 9.966769e+01
<MIXTURE> 3 2.131095e-01
<MEAN> 39
 -7.412963e+00 -5.873793e+00 -6.258050e+00 -9.198911e+00 -1.687963e+01 -8.122869e+00 -2.233429e+01 -6.713122e+00 -9.211505e+00 -7.533342e+00 -4.526618e+00 -1.088466e+01 6.150230e-01 -2.120407e-01 -9.796828e-01 -1.886920e-01 -8.539197e-01 -1.029995e+00 2.953554e-01 -4.952229e-01 2.916090e-01 1.480752e-01 -1.150925e+00 6.900236e-02 1.865929e-02 3.556877e-02 -6.410486e-01 8.003429e-01 5.220695e-01 7.855439e-01 7.702245e-01 -2.836660e-01 1.362545e+00 -3.635181e-01 -4.292741e-02 2.774726e-01 -1.570441e-01 7.915896e-01 -2.095198e-02
<VARIANCE> 39
 1.852651e+01 1.029568e+01 2.901192e+01 3.455512e+01 2.793458e+01 4.543229e+01 2.863278e+01 5.308729e+01 5.766266e+01 4.948933e+01 6.221311e+01 5.462516e+01 1.393074e-02 1.784788e+00 1.635848e+00 1.662144e+00 2.358863e+00 3.919119e+00 2.888069e+00 3.640904e+00 4.607891e+00 4.506971e+00 5.027707e+00 4.517344e+00 6.446426e+00 1.351029e-03 5.124986e-01 3.153315e-01 2.846536e-01 4.173904e-01 6.405861e-01 6.325722e-01 7.870545e-01 1.355306e+00 8.774500e-01 8.752142e-01 6.795399e-01 8.638437e-01 2.773221e-04
<GCONST> 1.039155e+02
<MIXTURE> 4 1.729830e-01
<MEAN> 39
 -5.298991e+00 -7.552471e+00 -1.572693e+00 -1.641848e+01 -9.020459e+00 -1.997563e+01 -1.259283e+01 -4.834289e+00 -6.991899e+00 -3.187206e+00 -1.333775e+01 -2.848907e+00 5.600629e-01 5.867196e-02 -4.542674e-01 5.300434e-02 -1.133437e+00 7.248635e-02 -5.576820e-01 8.096073e-01 -3.279754e-01 -7.983691e-01 7.669935e-02 -3.734515e-01 2.305692e-01 1.823591e-02 -1.020205e+00 8.290436e-01 1.239573e-01 1.524474e+00 1.783502e-01 1.087711e+00 8.089084e-01 -3.474805e-01 -3.087132e-01 -6.248580e-02 7.608213e-01 -1.061699e-01 -1.252001e-02
<VARIANCE> 39
 1.904931e+01 3.250208e+01 3.468600e+01 5.265950e+01 2.548467e+01 5.428146e+01 9.743047e+01 3.177983e+01 4.342906e+01 5.825171e+01 2.748567e+01 5.262183e+01 1.302353e-02 3.631846e+00 3.874270e+00 1.551195e+00 4.365687e+00 3.020442e+00 4.301093e+00 4.708755e+00 4.591661e+00 6.533965e+00 4.503417e+00 3.876506e+00 6.853344e+00 1.334615e-03 4.031394e-01 6.757713e-01 4.522932e-01 7.517372e-01 7.706158e-01 9.692230e-01 1.525786e+00 1.006220e+00 1.049460e+00 9.056395e-01 5.346532e-01 9.109324e-01 2.984228e-04
<GCONST> 1.107654e+02
<MIXTURE> 5 1.043093e-01
<MEAN> 39
 -2.336350e+00 -5.797210e+00 -5.518119e+00 -1.625293e+01 -6.375206e+00 -1.714668e+01 -2.034799e+01 -3.665034e+00 -1.107854e+01 1.048082e+01 -2.156732e+01 -4.745581e+00 6.344056e-01 2.426463e-01 -1.094010e+00 2.688425e-01 -7.347092e-01 -1.031225e+00 -7.753391e-01 -4.003114e-01 2.752476e+00 -2.995154e-02 5.601243e-01 -1.547133e+00 6.991169e-01 3.993529e-02 -7.640634e-01 3.723598e-01 3.648817e-01 9.282426e-01 -3.792772e-01 4.265838e-01 6.787797e-01 -3.235827e-01 2.674286e-01 -1.601253e+00 1.033896e+00 1.486783e-01 -1.728842e-02
<VARIANCE> 39
 6.828171e+00 1.279143e+01 3.158541e+01 5.178691e+01 3.327030e+01 3.683388e+01 2.985356e+01 2.817059e+01 2.392844e+01 2.872729e+01 4.936391e+01 4.036236e+01 7.336661e-03 6.550689e-01 8.328784e-01 1.142963e+00 1.581062e+00 1.644187e+00 1.831868e+00 2.871073e+00 2.609534e+00 1.424283e+00 3.257146e+00 2.728987e+00 2.413337e+00 4.762956e-04 2.263231e-01 2.558034e-01 2.347053e-01 4.274103e-01 7.370393e-01 3.975705e-01 8.882557e-01 6.291944e-01 5.467829e-01 4.179107e-01 6.824319e-01 4.640462e-01 9.451357e-05
<GCONST> 8.662925e+01
<STATE> 4
<NUMMIXES> 5
<MIXTURE> 1 2.764210e-01
<MEAN> 39
 -1.001186e+00 -4.192306e+00 -1.461380e-01 -3.231403e+00 -1.072605e+01 -3.711471e+00 -1.732274e+01 -4.511712e+00 -7.363263e+00 -1.123036e+00 4.850649e+00 -5.694300e+00 5.902300e-01 7.591699e-02 3.572554e-02 9.163701e-01 8.317841e-01 -2.958581e-01 -8.205287e-01 6.839708e-02 -3.947289e-02 -4.363005e-01 -2.788780e-01 -2.018825e-01 -9.115252e-01 -4.346502e-03 -9.400240e-01 6.978626e-01 2.103837e-01 5.465334e-01 6.588580e-01 -2.177422e-01 1.120549e+00 -1.699657e-01 2.415250e-01 8.591279e-02 -7.933730e-01 1.731036e-01 -2.273518e-02
<VARIANCE> 39
 2.057994e+01 3.298090e+01 3.716743e+01 4.555828e+01 3.989546e+01 5.911185e+01 5.894661e+01 5.600468e+01 4.089990e+01 6.040179e+01 5.223166e+01 3.610006e+01 1.689579e-02 1.664436e+00 3.731780e+00 2.434179e+00 3.429595e+00 3.439714e+00 2.946233e+00 5.725648e+00 3.459556e+00 5.166553e+00 3.224041e+00 3.877502e+00 2.593062e+00 2.702100e-03 4.599153e-01 5.395623e-01 4.797953e-01 6.734441e-01 5.953316e-01 7.426587e-01 8.919180e-01 8.977409e-01 9.093809e-01 9.326229e-01 8.187129e-01 7.160357e-01 3.211864e-04
<GCONST> 1.089265e+02
<MIXTURE> 2 1.820045e-01
<MEAN> 39
 -4.728404e+00 3.690552e+00 3.559082e+00 1.367648e+00 -4.373144e+00 -7.707249e+00 -1.071625e+01 -3.862312e+00 -7.821697e+00 5.744838e-02 -1.955613e+00 -4.369245e+00 3.940398e-01 -3.203166e+00 1.883691e+00 4.824335e-01 9.981719e-01 2.075624e+00 1.863095e-01 1.996229e+00 4.481254e-02 3.145007e-01 -2.236077e-01 -3.327063e-01 7.285556e-01 -2.056606e-02 -8.670588e-01 -4.266461e-01 -3.883035e-01 -2.350852e-01 -5.672813e-02 4.730949e-01 2.965123e-01 2.362275e-01 2.380222e-01 -3.337599e-02 1.580244e-01 2.690476e-01 1.064763e-02
<VARIANCE> 39
 4.261133e+01 2.694139e+01 2.837447e+01 4.414848e+01 4.703763e+01 6.628255e+01 5.092830e+01 4.320479e+01 7.363835e+01 5.380359e+01 4.730244e+01 2.781415e+01 3.602277e-02 7.241049e+00 3.849680e+00 3.070312e+00 4.265725e+00 5.340769e+00 5.709513e+00 5.323633e+00 5.754028e+00 6.615218e+00 3.864958e+00 3.325613e+00 3.206631e+00 6.119465e-03 7.523009e-01 7.033113e-01 4.600240e-01 5.733654e-01 9.740489e-01 7.519317e-01 1.146637e+00 7.195973e-01 1.070288e+00 7.821422e-01 6.963928e-01 4.270122e-01 3.030894e-04
<GCONST> 1.150269e+02
<MIXTURE> 3 7.768419e-02
<MEAN> 39
 -1.017563e+01 1.273199e+00 -3.795541e+00 -8.460494e+00 -1.182623e+01 -1.965346e+01 -1.605235e+01 -9.087646e+00 -8.004452e+00 -7.303827e+00 -1.265656e+01 -4.313187e+00 5.836813e-01 -3.655605e+00 3.932031e+00 -7.262678e-02 2.630363e+00 1.749723e+00 1.229860e+00 2.472889e+00 -1.258046e+00 2.656653e-01 -1.642711e+00 1.226731e+00 6.726395e-01 9.471279e-03 -8.981338e-01 8.557357e-02 2.756457e-02 8.309561e-01 5.831906e-01 1.244146e+00 9.079999e-01 5.829294e-01 5.523353e-04 6.490621e-01 9.930422e-01 -2.704676e-01 6.744854e-03
<VARIANCE> 39
 2.676026e+01 4.286975e+01 1.714146e+01 3.054681e+01 3.033476e+01 4.914793e+01 8.106919e+01 2.862786e+01 4.975700e+01 5.823870e+01 4.517332e+01 7.533151e+01 1.606183e-02 4.222797e+00 1.879561e+00 2.652209e+00 5.164530e+00 3.937040e+00 1.013103e+01 7.577584e+00 4.726667e+00 5.010435e+00 6.192778e+00 7.264760e+00 3.958319e+00 4.853482e-03 3.863908e-01 1.094998e+00 2.426094e-01 6.532556e-01 6.744332e-01 1.087079e+00 9.816018e-01 1.019608e+00 1.078122e+00 9.821929e-01 7.233564e-01 1.454116e+00 4.623854e-04
<GCONST> 1.148485e+02
<MIXTURE> 4 2.875932e-01
<MEAN> 39
 -5.718707e+00 -6.234898e+00 -2.526248e+00 -1.172655e+01 -1.116622e+01 -1.526290e+01 -1.350609e+01 -7.156758e+00 -1.233694e+01 -3.087504e+00 -1.070900e+01 -6.964769e+00 5.779582e-01 -1.582478e-01 6.985823e-01 9.157901e-01 1.056116e+00 -5.178230e-01 -2.988088e-01 1.010136e+00 -1.603144e+00 -1.204064e+00 6.623324e-03 -2.501882e-01 5.991420e-01 -1.514219e-02 -1.674202e-01 6.048787e-01 2.504386e-01 5.980419e-01 1.051454e-01 1.609761e-01 1.237294e-01 -4.782260e-01 2.318679e-01 -8.076681e-02 8.148526e-02 3.150207e-01 -1.581192e-02
<VARIANCE> 39
 2.234060e+01 2.844445e+01 4.299191e+01 7.107455e+01 4.810298e+01 5.978788e+01 1.084008e+02 7.103800e+01 7.459091e+01 8.603471e+01 6.931647e+01 7.305693e+01 2.003220e-02 8.104679e-01 2.239630e+00 2.010478e+00 2.827952e+00 2.595405e+00 3.019982e+00 3.936410e+00 7.629548e+00 5.551253e+00 4.082604e+00 3.866271e+00 3.977752e+00 1.148940e-03 3.419712e-01 3.192240e-01 4.431323e-01 4.778613e-01 4.891082e-01 8.318126e-01 9.186069e-01 1.110823e+00 8.613694e-01 9.879620e-01 7.680569e-01 5.988938e-01 2.196671e-04
<GCONST> 1.093284e+02
<MIXTURE> 5 1.762972e-01
<MEAN> 39
 -5.677750e-01 -2.228230e+00 -4.787316e+00 -7.745814e+00 -8.413487e+00 -1.062860e+01 -1.421191e+01 -7.128091e+00 -6.902036e+00 3.990906e+00 -2.487798e+00 -3.473602e+00 5.749348e-01 -1.390139e-01 -2.958385e-01 -1.636618e-01 -2.674844e-01 -1.403765e-01 -5.160801e-01 2.819335e-01 2.449103e-01 5.318099e-01 1.506132e-01 -3.906238e-01 -2.266845e-01 1.445082e-02 -1.789538e-01 1.096628e-01 2.457527e-01 2.102791e-01 1.701067e-02 2.425729e-02 1.664761e-02 -1.985413e-03 9.622966e-02 -2.791381e-01 -1.302092e-01 3.553962e-02 -7.544507e-03
<VARIANCE> 39
 1.966721e+01 2.204443e+01 3.067412e+01 5.452659e+01 4.231666e+01 9.302431e+01 5.781557e+01 5.773546e+01 7.332343e+01 5.605871e+01 1.008702e+02 4.529123e+01 1.737434e-02 2.416828e-01 3.848144e-01 7.097784e-01 8.499250e-01 8.775851e-01 1.166570e+00 1.491536e+00 1.568255e+00 1.364171e+00 1.276320e+00 1.070975e+00 9.401583e-01 2.166685e-04 7.451282e-02 9.575060e-02 1.404001e-01 1.716208e-01 2.185890e-01 2.927813e-01 2.673306e-01 3.134872e-01 2.663884e-01 2.352002e-01 2.459470e-01 2.225094e-01 3.777343e-05
<GCONST> 7.461880e+01
<TRANSP> 5
 0.000000e+00 1.000000e+00 0.000000e+00 0.000000e+00 0.000000e+00
 0.000000e+00 3.184978e-01 6.815022e-01 0.000000e+00 0.000000e+00
 0.000000e+00 0.000000e+00 3.014880e-01 6.985120e-01 0.000000e+00
 0.000000e+00 0.000000e+00 0.000000e+00 5.210260e-01 4.789741e-01
 0.000000e+00 0.000000e+00 0.000000e+00 0.000000e+00 0.000000e+00
<ENDHMM>
~h "P2:"
<BEGINHMM>
<NUMSTATES> 6
<STATE> 2
<NUMMIXES> 5
<MIXTURE> 1 2.594769e-01
<MEAN> 39
 -1.638962e+01 -1.479650e+00 9.719429e-01 1.163121e+00 -4.044390e+00 -1.176481e+01 -6.838097e+00 -9.436324e-01 1.570590e+00 -5.200932e+00 -6.344398e-01 -2.876971e+00 4.408832e-01 6.399552e+00 -5.077106e-01 1.031576e-01 -6.151387e-01 -1.610918e+00 -9.708411e-01 -4.639060e+00 -1.332111e-01 -1.443949e+00 -1.588405e+00 1.363961e+00 -8.245624e-01 -2.612264e-02 -1.431635e-01 -5.193262e-01 1.973643e-01 -3.509737e-01 -4.389426e-01 2.488292e-01 -6.817660e-01 1.852075e-01 -8.534367e-02 -1.095668e-01 4.416758e-01 9.758861e-02 3.016501e-02
<VARIANCE> 39
 7.631321e+01 2.037561e+01 1.949111e+01 2.594433e+01 3.922746e+01 3.232262e+01 4.355305e+01 5.452156e+01 3.825318e+01 2.821618e+01 1.460521e+01 2.092945e+01 3.613246e-02 4.255423e+00 3.749354e+00 1.741047e+00 2.549662e+00 7.342555e+00 9.040596e+00 5.763664e+00 3.519833e+00 1.559373e+00 4.315655e+00 5.030380e+00 2.195585e+00 4.675651e-03 8.979917e-01 3.341760e-01 2.362676e-01 2.812276e-01 3.741333e-01 7.017628e-01 7.848663e-01 6.017556e-01 3.192237e-01 4.825017e-01 4.330756e-01 3.648513e-01 4.114138e-04
<GCONST> 1.024507e+02
<MIXTURE> 2 1.444827e-01
<MEAN> 39
 -2.966310e-01 -1.060072e+01 4.864785e+00 -1.357690e+00 -1.765492e+01 -3.585423e+00 -2.194293e+01 -1.110606e+00 -2.181494e+00 -5.693136e+00 3.520614e+00 -3.305605e+00 6.085312e-01 4.182475e+00 -2.372709e+00 9.446137e-01 -1.282588e+00 -3.523458e+00 2.113282e+00 -5.106426e+00 1.884710e+00 -1.390505e+00 -1.970165e-01 2.164686e+00 8.385573e-02 4.727717e-02 -2.205548e+00 2.749398e-01 -2.078891e-01 1.463993e-01 1.106674e+00 -1.317310e-01 1.440348e+00 1.748883e-01 5.732893e-01 3.271246e-01 -2.607566e-01 1.562987e-02 1.223351e-02
<VARIANCE> 39
 1.220752e+01 2.472210e+01 1.512511e+01 2.135981e+01 3.756617e+01 4.457197e+01 3.164942e+01 4.615676e+01 3.098178e+01 2.865052e+01 2.149093e+01 1.424753e+01 2.740384e-02 4.000592e+00 2.065716e+00 9.025825e-01 3.071510e+00 3.691122e+00 3.513403e+00 4.559611e+00 2.759834e+00 2.367956e+00 2.874241e+00 2.101644e+00 2.956200e+00 7.988027e-04 1.461450e-01 3.444725e-01 2.489804e-01 3.405063e-01 7.363278e-01 5.932435e-01 4.177304e-01 8.219422e-01 3.592882e-01 4.577394e-01 2.688038e-01 2.491795e-01 2.689949e-04
<GCONST> 9.154601e+01
<MIXTURE> 3 6.853051e-02
<MEAN> 39
 -3.760369e+00 -4.328564e+00 6.760414e+00 -7.418121e+00 -4.153829e+00 -3.425843e+00 -5.867589e+00 -6.342803e-01 -1.336338e+01 5.661409e+00 -7.521947e+00 4.227699e+00 6.032976e-01 1.441602e+00 -6.920980e-01 -6.734485e-02 2.940178e-01 -4.986505e-01 -6.964855e-01 -2.839151e+00 4.803222e-01 -1.126565e+00 3.651950e-01 7.748498e-01 3.871132e-01 1.858103e-02 -1.783201e-01 6.908007e-02 4.039323e-02 4.081364e-01 2.647178e-02 -1.232842e-01 -5.963193e-01 -3.061397e-02 3.623038e-01 -1.041792e-01 4.055806e-01 -2.076125e-01 -1.253524e-03
<VARIANCE> 39
 5.251420e+01 4.184330e+01 4.222861e+00 9.896730e+01 5.371188e+01 6.148237e+01 7.933638e+01 6.689886e+01 9.639664e+01 2.090604e+01 4.055186e+01 3.590054e+01 3.262817e-02 4.150282e+00 2.148525e+00 6.556303e-01 3.728089e+00 4.691296e+00 2.324402e+00 4.891346e+00 5.153420e+00 5.394878e+00 2.293376e+00 3.183026e+00 1.593452e+00 6.530408e-04 9.806070e-01 2.059117e-01 1.296744e-01 4.807181e-01 3.709204e-01 2.818194e-01 9.146096e-01 2.819100e-01 1.004054e+00 2.894638e-01 8.874293e-01 3.119611e-01 5.141252e-04
<GCONST> 1.009776e+02
<MIXTURE> 4 1.916154e-01
<MEAN> 39
 -5.155803e+00 -9.656877e+00 5.563142e+00 -1.173069e+01 -1.537419e+01 -2.038210e+01 -1.411463e+01 -3.132429e+00 -8.716408e+00 -9.037117e+00 -6.559835e+00 1.861613e+00 6.020296e-01 2.462146e+00 -2.337035e+00 3.476111e-01 -1.521290e+00 -1.057457e+00 -1.624975e+00 -1.144472e+00 -4.779682e-01 -1.503648e+00 2.679709e-01 -7.676828e-01 -1.063762e-01 2.984365e-02 -1.750430e+00 4.801050e-01 -1.034763e-01 5.758742e-01 6.465887e-01 1.367306e+00 1.115493e+00 6.541526e-01 3.748562e-01 2.909832e-01 6.017451e-01 -1.280525e-01 9.370379e-03
<VARIANCE> 39
 2.383002e+01 2.381318e+01 3.725915e+01 9.891710e+01 5.128142e+01 2.524349e+01 5.940788e+01 2.117546e+01 2.593713e+01 4.390463e+01 1.451810e+01 2.827963e+01 1.375889e-02 6.838755e+00 3.836200e+00 1.965229e+00 3.950397e+00 5.232326e+00 4.895459e+00 5.431913e+00 3.190106e+00 2.565184e+00 4.953400e+00 4.783424e+00 2.428442e+00 1.484344e-03 3.332074e-01 5.543973e-01 1.856536e-01 5.737187e-01 5.173751e-01 4.544161e-01 6.479427e-01 3.104664e-01 5.391917e-01 9.088101e-01 6.654707e-01 3.359799e-01 3.576545e-04
<GCONST> 1.020697e+02
<MIXTURE> 5 3.358944e-01
<MEAN> 39
 -4.081362e+00 -3.623700e+00 -6.487516e-01 -4.249773e+00 -1.384236e+01 -1.300018e+01 -1.484228e+01 -4.694246e+00 -8.020506e+00 -9.125706e+00 -4.818492e+00 -6.009058e+00 5.167614e-01 2.066750e-01 -1.843158e+00 -5.890447e-01 -1.425705e+00 -9.325836e-01 2.977041e-01 -1.536352e+00 1.781407e+00 1.662173e+00 -5.208836e-01 3.218384e-01 8.802115e-01 3.832158e-02 -1.245856e-01 3.739665e-02 1.708627e-01 1.849074e-01 -9.715800e-02 1.108727e-01 1.785284e-01 -2.527728e-02 -2.100773e-01 2.973507e-01 -1.282517e-01 -2.117947e-01 2.843354e-04
<VARIANCE> 39
 1.444153e+01 2.911391e+01 2.591809e+01 5.641282e+01 3.536223e+01 6.756510e+01 3.983747e+01 7.392245e+01 5.653170e+01 5.497144e+01 5.879403e+01 8.962408e+01 1.700135e-02 5.965213e-01 1.881892e+00 1.173908e+00 1.849215e+00 1.729838e+00 5.853006e+00 4.431619e+00 3.540136e+00 2.883051e+00 4.448812e+00 2.898083e+00 3.673399e+00 3.526996e-04 6.924592e-02 3.366925e-01 1.706137e-01 4.533657e-01 3.842782e-01 5.349492e-01 4.616557e-01 7.431530e-01 6.224093e-01 4.166675e-01 4.078062e-01 5.629901e-01 1.133055e-04
<GCONST> 9.535860e+01
<STATE> 3
<NUMMIXES> 5
<MIXTURE> 1 1.237096e-01
<MEAN> 39
 -3.623857e+00 5.966716e-01 6.761997e+00 5.503758e-01 6.099652e-01 -1.216943e+01 -5.387381e+00 6.282988e-01 -6.339663e+00 3.243987e-01 -3.865155e+00 3.258533e+00 5.334462e-01 5.935434e-01 -6.105292e-01 3.015608e-01 6.939655e-02 -5.450432e-01 6.336438e-02 -1.083270e+00 -6.935064e-01 1.544559e-01 7.616494e-02 1.075388e+00 -7.083179e-01 1.353926e-02 -2.190577e-01 -1.705870e-01 -5.534223e-02 -1.645945e-01 -1.034849e-01 3.883933e-01 1.937504e-01 -1.516598e-01 4.605863e-02 1.351354e-01 1.270125e-01 -1.857311e-01 -5.695569e-03
<VARIANCE> 39
 1.661741e+01 1.256204e+01 2.564593e+01 1.180203e+01 1.642064e+01 3.167189e+01 4.279663e+01 2.211897e+01 3.057183e+01 1.758182e+01 2.541816e+01 5.804229e+01 1.333153e-02 1.768684e+00 1.285050e+00 4.229151e-01 2.960043e+00 1.866255e+00 4.058596e+00 1.617380e+00 3.220734e+00 2.969229e+00 1.624751e+00 1.132619e+00 1.964533e+00 1.766659e-03 3.245733e-01 3.810976e-01 1.485953e-01 2.908917e-01 3.652500e-01 4.221401e-01 3.846926e-01 4.691530e-01 4.333118e-01 1.752015e-01 2.278894e-01 4.559344e-01 1.439544e-04
<GCONST> 8.335799e+01
<MIXTURE> 2 3.133125e-01
<MEAN> 39
 -1.486362e+00 -9.839941e+00 4.532016e+00 -2.553863e+00 -1.559793e+01 -4.023503e+00 -2.293493e+01 1.361012e+00 -5.568432e+00 -2.971663e+00 2.807192e+00 -3.116031e+00 6.527624e-01 6.939339e-02 -5.095016e-01 -1.264523e-01 6.654888e-02 -4.114775e-01 5.152200e-01 -7.316324e-01 5.775996e-01 2.501123e-01 6.379869e-02 4.100808e-01 -5.993176e-01 1.074325e-02 -6.796276e-01 6.350439e-01 -1.741624e-01 2.423921e-01 7.298005e-01 -2.254740e-01 1.167901e+00 -3.102867e-01 1.336840e-01 2.930546e-02 -3.051033e-01 -6.501257e-02 -1.406137e-02
<VARIANCE> 39
 1.716929e+01 2.431888e+01 2.703702e+01 6.008414e+01 5.002206e+01 5.832837e+01 2.887928e+01 5.507164e+01 6.140070e+01 6.031140e+01 3.797434e+01 2.850099e+01 1.799419e-02 4.452658e-01 1.306873e+00 9.616718e-01 1.713338e+00 2.348691e+00 2.073415e+00 2.494010e+00 2.267700e+00 3.010221e+00 2.315658e+00 1.955119e+00 1.734358e+00 5.455451e-04 4.071842e-01 2.797510e-01 2.086764e-01 4.369271e-01 4.888304e-01 5.416985e-01 6.885843e-01 5.538897e-01 6.322652e-01 4.696167e-01 5.177210e-01 3.518222e-01 1.399346e-04
<GCONST> 9.191206e+01
<MIXTURE> 3 2.201734e-01
<MEAN> 39
 -7.142418e+00 -9.558647e+00 8.215213e-01 -1.304088e+01 -1.599957e+01 -1.656274e+01 -1.186778e+01 -4.083562e+00 -7.662932e+00 -1.242096e+01 -8.476375e+00 -2.847677e+00 6.275042e-01 -3.815124e-01 -4.592303e-01 -3.103574e-01 -5.886450e-01 4.666209e-01 4.642365e-01 -2.603181e-01 8.421838e-02 -9.290824e-02 5.149813e-01 -6.752204e-02 4.355736e-02 1.606787e-02 -1.012959e-01 4.054788e-01 4.547640e-02 4.609408e-01 1.939675e-01 -1.290097e-02 -1.492780e-01 -3.544055e-01 -1.410761e-01 2.037755e-01 -3.434639e-02 1.402816e-01 -7.133409e-03
<VARIANCE> 39
 1.450106e+01 1.569786e+01 5.773775e+01 3.466855e+01 3.114455e+01 4.399725e+01 5.985749e+01 1.714203e+01 4.022858e+01 3.539310e+01 4.054329e+01 5.628027e+01 9.363148e-03 2.712742e-01 1.010735e+00 4.291743e-01 1.048301e+00 1.301721e+00 1.064232e+00 1.467456e+00 1.730343e+00 1.291470e+00 1.520103e+00 1.188015e+00 1.136847e+00 1.587831e-04 9.732136e-02 2.241760e-01 1.400135e-01 1.568418e-01 2.129115e-01 2.996617e-01 3.123125e-01 3.210115e-01 3.036405e-01 2.129761e-01 2.814058e-01 2.214042e-01 2.894212e-05
<GCONST> 7.191804e+01
<MIXTURE> 4 1.746215e-01
<MEAN> 39
 -9.780334e-01 -5.558313e+00 2.081740e+00 -4.780145e+00 -1.440580e+01 -2.062338e+01 -1.804003e+01 1.894887e+00 -9.515877e+00 -2.295435e+00 -5.846404e+00 -1.749560e+00 5.808143e-01 -1.253669e-01 1.173706e-02 3.509507e-01 1.174979e-01 -9.043340e-02 -4.275074e-01 5.067481e-01 8.470315e-02 -2.099415e-01 5.320355e-01 -2.206864e-01 6.088247e-01 3.306174e-04 -1.205331e-01 3.216466e-01 5.382609e-02 1.502233e-01 1.207026e-01 1.722021e-01 1.830857e-01 -4.673713e-01 -3.260439e-01 2.169788e-01 -2.391879e-01 -2.178427e-01 -1.058553e-02
<VARIANCE> 39
 2.949723e+00 9.228003e+00 9.451201e+00 3.885468e+01 1.855316e+01 1.739315e+01 1.842233e+01 3.467853e+01 2.602922e+01 3.858160e+01 2.451918e+01 2.368834e+01 1.755302e-02 3.810400e-01 6.814211e-01 4.751801e-01 1.018063e+00 1.052844e+00 1.301971e+00 1.481553e+00 1.820595e+00 8.508641e-01 3.448653e+00 7.978894e-01 1.966079e+00 2.598672e-04 8.549099e-02 1.160941e-01 1.059736e-01 1.697874e-01 2.015810e-01 2.711048e-01 3.113157e-01 3.296919e-01 3.329740e-01 8.079887e-01 2.768002e-01 3.462951e-01 4.817800e-05
<GCONST> 6.744963e+01
<MIXTURE> 5 1.681830e-01
<MEAN> 39
 -4.590338e+00 -1.932516e+00 -1.332905e+00 1.523686e+00 -3.761167e+00 -1.663588e+01 -2.215483e+01 3.359453e+00 -6.785144e-01 -1.203045e+01 7.843667e+00 -3.759238e+00 4.800461e-01 2.915285e+00 -5.867275e-01 -2.823776e-01 -8.085555e-01 -3.035167e-01 -1.145549e+00 -4.730870e+00 6.004094e-01 -4.567440e-01 -1.581525e+00 2.570210e+00 -3.664852e-01 5.131186e-02 -1.421308e+00 -2.730779e-01 1.175073e-01 8.636999e-02 -2.683913e-01 2.963794e-01 1.250320e+00 -1.024687e-01 3.354282e-01 6.397021e-01 -5.327540e-01 2.769841e-01 5.082553e-03
<VARIANCE> 39
 5.872585e+00 1.046353e+01 2.356553e+01 8.782156e+00 1.442607e+01 1.787284e+01 3.820681e+01 2.487305e+01 1.286433e+01 2.040107e+01 1.616742e+01 1.487129e+01 1.549152e-02 4.264643e+00 9.307147e-01 9.702548e-01 1.313145e+00 7.199376e-01 2.357784e+00 3.994797e+00 1.292008e+00 1.354001e+00 2.498871e+00 2.141522e+00 1.441879e+00 2.203900e-03 2.545409e-01 2.255016e-01 2.705751e-01 2.162226e-01 1.414224e-01 3.540835e-01 6.708199e-01 1.963263e-01 1.350233e-01 3.185259e-01 4.811154e-01 2.268275e-01 5.962229e-04
<GCONST> 7.693767e+01
<STATE> 4
<NUMMIXES> 5
<MIXTURE> 1 2.673666e-01
<MEAN> 39
 -3.294803e+00 -3.023842e+00 -3.881990e+00 5.364067e-01 -3.653290e+00 -1.836210e+01 -2.562517e+01 3.066953e+00 -2.798146e-02 -1.145024e+01 9.982592e+00 -3.821136e+00 5.848130e-01 2.481350e-01 -2.474140e-01 2.337625e-01 -6.665986e-02 -3.531967e-01 -1.113204e-01 7.332005e-01 -7.888345e-02 2.045644e-01 4.456296e-01 -2.076134e-01 -5.053914e-02 -3.222691e-03 -1.403985e-01 -2.033894e-02 2.327646e-01 7.927751e-02 -6.721745e-02 3.016090e-01 6.117718e-01 -1.727206e-01 1.741467e-02 1.746218e-01 -3.942322e-01 -1.206027e-01 -8.074381e-03
<VARIANCE> 39
 9.024878e+00 5.567025e+00 2.652760e+01 1.249366e+01 1.124018e+01 2.528513e+01 4.237271e+01 2.151943e+01 1.543284e+01 2.189595e+01 1.131238e+01 8.276526e+00 2.073995e-02 4.061746e-01 5.543566e-01 1.573269e+00 1.225815e+00 7.572887e-01 1.295577e+00 1.867299e+00 1.752386e+00 7.186760e-01 8.962362e-01 9.391550e-01 9.197690e-01 3.739643e-04 1.587688e-01 1.306717e-01 2.283633e-01 2.655000e-01 1.359967e-01 3.495802e-01 5.893044e-01 4.264455e-01 1.831883e-01 2.173969e-01 2.888731e-01 2.418481e-01 9.515211e-05
<GCONST> 6.595358e+01
<MIXTURE> 2 2.242804e-01
<MEAN> 39
 -3.316065e+00 -6.086977e+00 3.876162e+00 -7.205667e-01 -9.271896e+00 -1.174286e+01 -1.779248e+01 3.007708e+00 -4.665305e+00 -3.881965e+00 2.688698e+00 -3.068597e+00 5.339919e-01 1.503374e-01 7.769264e-02 5.947108e-01 -1.545015e-01 -3.340533e-01 2.257427e-01 1.022194e+00 -4.096578e-01 -5.679974e-01 3.476777e-01 -1.710401e-01 -6.823691e-03 -2.232393e-02 -3.342820e-01 4.049355e-01 -4.010610e-02 2.237707e-01 1.937843e-01 3.871880e-01 9.586959e-01 -5.297887e-01 -1.995702e-01 2.853016e-01 -3.741479e-01 -1.221148e-01 -1.423502e-02
<VARIANCE> 39
 2.523367e+01 2.678135e+01 3.590749e+01 2.063001e+01 3.790688e+01 1.045297e+02 9.064526e+01 3.722362e+01 6.218831e+01 6.237004e+01 5.134045e+01 3.657580e+01 2.265059e-02 1.561664e+00 2.283771e+00 3.769093e+00 2.318135e+00 2.719262e+00 3.535217e+00 4.036895e+00 2.939050e+00 5.221136e+00 2.081872e+00 4.429623e+00 1.795896e+00 8.936697e-04 4.551319e-01 4.200597e-01 4.840104e-01 4.719218e-01 7.106876e-01 9.761766e-01 1.317091e+00 6.770649e-01 1.148472e+00 7.119590e-01 7.123879e-01 3.417403e-01 2.393128e-04
<GCONST> 1.052752e+02
<MIXTURE> 3 7.999167e-02
<MEAN> 39
 -5.179564e+00 -6.959109e+00 -4.581704e+00 -9.769280e+00 -1.366240e+01 -1.056499e+01 -2.169768e+01 -1.065532e+01 -3.893627e+00 -9.362599e-01 -7.742062e+00 -4.070733e+00 5.463192e-01 -1.559415e-01 9.407435e-01 -2.276555e-02 8.112288e-01 7.183670e-01 -1.122333e+00 -1.034692e+00 -3.916718e-01 -9.087595e-02 9.786156e-01 -1.208113e+00 -4.428995e-01 -1.172830e-02 -1.001794e-01 4.257917e-01 4.560936e-01 2.670921e-01 3.014053e-01 5.705294e-02 3.277479e-01 -4.728946e-02 -5.094751e-01 -4.462792e-01 1.741830e-01 3.148333e-02 -1.697107e-02
<VARIANCE> 39
 2.222104e+01 1.581957e+01 8.948695e+00 4.509326e+00 1.576154e+01 4.187678e+01 1.094479e+01 3.571779e+01 6.053864e+01 4.194427e+01 8.904111e+01 4.421994e+01 2.928117e-02 3.037823e-01 9.971864e-01 6.465353e-01 9.720719e-01 1.402857e+00 5.747028e+00 3.497061e+00 2.869232e+00 2.686833e+00 3.206789e+00 1.619643e+00 2.166207e+00 9.709366e-04 1.509029e-01 9.064201e-02 2.300305e-01 4.048448e-01 2.024666e-01 4.760508e-01 5.683678e-01 3.319735e-01 5.220018e-01 5.369496e-01 4.716156e-01 5.722847e-01 1.717927e-04
<GCONST> 8.356734e+01
<MIXTURE> 4 3.301198e-01
<MEAN> 39
 -3.258406e+00 -1.045891e+01 1.284597e+00 -2.326680e+00 -1.997006e+01 -5.385240e+00 -2.079720e+01 2.166811e+00 -3.050862e+00 -6.136892e+00 2.223347e+00 -6.750560e+00 6.556322e-01 -7.848074e-02 -1.870298e-01 9.211164e-02 -1.793012e-01 1.267684e-01 3.277166e-01 1.812295e-01 3.485598e-01 -4.770029e-02 3.263059e-01 -1.271254e-01 -2.717128e-01 2.982562e-07 -8.619008e-03 1.143373e-01 1.075308e-01 -5.190488e-02 1.012592e-01 -1.680589e-01 2.501708e-01 -1.658436e-01 -6.654809e-03 2.427965e-02 -2.586286e-01 1.202921e-01 -3.593420e-03
<VARIANCE> 39
 2.166894e+01 2.983245e+01 2.070670e+01 3.159989e+01 2.865127e+01 4.659981e+01 1.858517e+01 4.078648e+01 2.828258e+01 6.274808e+01 3.648946e+01 4.106882e+01 1.340247e-02 1.385555e-01 5.141519e-01 7.379867e-01 6.500482e-01 7.947455e-01 1.218197e+00 1.033484e+00 1.262254e+00 1.222747e+00 1.327710e+00 1.097468e+00 9.785733e-01 1.579635e-04 3.070867e-02 1.214456e-01 1.290143e-01 1.336451e-01 2.783731e-01 2.377865e-01 2.041859e-01 2.094667e-01 1.990391e-01 3.327317e-01 1.566551e-01 2.091208e-01 3.736626e-05
<GCONST> 6.575417e+01
<MIXTURE> 5 9.824146e-02
<MEAN> 39
 -6.907871e+00 -1.092227e+01 3.753101e+00 -1.812251e+01 -1.372977e+01 -1.974483e+01 -9.546305e+00 -8.370680e-01 -1.146761e+01 -1.016576e+01 -8.398772e+00 1.924571e+00 6.227127e-01 -4.190797e-01 5.747806e-01 3.087906e-01 2.083937e-01 -4.724398e-01 6.227382e-01 5.344648e-01 -2.880974e-01 -4.466937e-01 -1.563301e-01 6.313012e-02 1.133091e+00 -1.169237e-02 -2.397043e-02 8.406525e-01 -1.520765e-01 6.194808e-01 -9.029306e-03 6.207651e-02 1.667881e-01 -6.347155e-01 2.502631e-01 2.775230e-01 -1.805037e-01 2.640335e-01 -1.321633e-02
<VARIANCE> 39
 1.711147e+01 2.220319e+01 5.765809e+01 2.449884e+01 3.260045e+01 4.121880e+01 4.652465e+01 2.417910e+01 8.093498e+01 2.565858e+01 2.045502e+01 3.801923e+01 6.946168e-03 1.064519e+00 1.825536e+00 1.493283e+00 1.126311e+00 2.478453e+00 1.734100e+00 2.125211e+00 2.701915e+00 1.998043e+00 2.982808e+00 3.288435e+00 3.979452e+00 5.025883e-04 1.795125e-01 2.231108e-01 3.360851e-01 2.756445e-01 5.443700e-01 6.621513e-01 3.308338e-01 7.808779e-01 5.884968e-01 5.984459e-01 3.513815e-01 6.836267e-01 1.061531e-04
<GCONST> 8.998449e+01
<STATE> 5
<NUMMIXES> 5
<MIXTURE> 1 2.986934e-01
<MEAN> 39
 -2.286417e-01 -1.161977e+01 6.869434e+00 4.862455e-01 -1.456378e+01 -7.769427e+00 -1.839640e+01 1.924383e+00 9.909414e-01 -5.368484e+00 1.413252e+00 -3.040773e+00 5.488143e-01 1.962602e-01 1.189542e+00 3.859309e-01 1.496949e+00 -4.201646e-01 3.823314e-01 3.507509e+00 -2.087936e+00 -1.194570e+00 1.825363e+00 -1.971790e+00 -8.220342e-01 -5.447239e-02 -1.911131e-01 1.185864e+00 -5.100661e-01 1.505238e-01 3.904558e-01 3.929312e-02 7.337533e-01 -6.500981e-01 -1.070346e+00 4.177827e-01 -2.422530e-02 -3.477287e-01 -1.751485e-02
<VARIANCE> 39
 1.110968e+01 3.472721e+01 2.243095e+01 2.385750e+01 4.986451e+01 7.401425e+01 3.557951e+01 3.107459e+01 2.022387e+01 3.763124e+01 3.392223e+01 2.135397e+01 2.994778e-02 5.290402e-01 2.664116e+00 2.678719e+00 3.647356e+00 3.879931e+00 6.193350e+00 3.012412e+00 2.419288e+00 4.172815e+00 2.035901e+00 4.447670e+00 2.778980e+00 1.068920e-03 1.256113e-01 3.944003e-01 4.087071e-01 4.182741e-01 3.552941e-01 4.638808e-01 5.703748e-01 7.077699e-01 4.625819e-01 5.086413e-01 4.110914e-01 4.119979e-01 1.512619e-04
<GCONST> 9.494897e+01
<MIXTURE> 2 2.062434e-01
<MEAN> 39
 -6.065798e+00 1.394589e+00 5.463962e+00 7.682169e-01 -6.458783e+00 -9.891856e+00 -1.022855e+01 -3.740296e+00 -8.111216e+00 -1.818201e+00 -7.117621e-01 -1.599069e+00 3.657283e-01 -3.488153e+00 2.193501e+00 -1.410351e+00 8.659739e-01 2.479435e+00 1.743572e+00 3.257977e+00 -3.307236e-01 6.404116e-01 4.129945e-01 1.606261e-01 -4.296632e-01 -3.788717e-02 -6.000334e-01 -6.681450e-01 -4.361371e-01 -3.617600e-01 -9.013721e-02 5.718322e-02 1.421050e-01 4.259276e-01 5.774316e-01 4.689938e-02 -1.515590e-01 2.923763e-01 1.739631e-02
<VARIANCE> 39
 5.247260e+01 3.511689e+01 3.956228e+01 4.567415e+01 6.974133e+01 5.518274e+01 5.105762e+01 4.631704e+01 5.615192e+01 1.044953e+02 6.473036e+01 4.313987e+01 5.411999e-02 5.636142e+00 6.045781e+00 2.371469e+00 5.059541e+00 3.830657e+00 7.215590e+00 4.070178e+00 5.059497e+00 9.662292e+00 5.706346e+00 4.044347e+00 4.805175e+00 7.346136e-03 5.814285e-01 8.327594e-01 6.451226e-01 7.084345e-01 9.290478e-01 8.425730e-01 1.128033e+00 9.916733e-01 1.520004e+00 1.164414e+00 8.246937e-01 5.071685e-01 6.636529e-04
<GCONST> 1.215761e+02
<MIXTURE> 3 1.506212e-01
<MEAN> 39
 -5.512758e+00 -5.098150e+00 8.144037e+00 -1.228985e+01 -1.612572e+01 -1.961121e+01 -7.906031e+00 -6.364184e+00 -1.183718e+01 -7.251804e+00 -1.045923e+01 6.738333e+00 5.289782e-01 -4.520591e-01 2.582128e+00 -1.016714e+00 1.902545e+00 8.486984e-01 7.640982e-01 8.118467e-01 -2.775249e+00 -4.955446e-01 1.464910e+00 -1.227010e+00 1.643514e-01 -3.747056e-02 -4.333053e-01 1.980299e-01 -4.915416e-01 1.551466e-01 5.795094e-01 4.980633e-01 7.390312e-05 -5.381421e-02 3.146312e-02 4.223427e-01 3.816851e-01 -7.347757e-01 6.800744e-03
<VARIANCE> 39
 1.969320e+01 2.817666e+01 2.371601e+01 5.992337e+01 2.662885e+01 1.865014e+01 3.265480e+01 5.571880e+01 3.757162e+01 5.083362e+01 5.123754e+01 7.183731e+01 1.488665e-02 2.772446e+00 1.304779e+00 2.733014e+00 2.173125e+00 3.884509e+00 2.960666e+00 3.154004e+00 7.811074e+00 5.923452e+00 4.130166e+00 4.464378e+00 4.202210e+00 9.060978e-04 5.041568e-01 3.173104e-01 5.299900e-01 5.752647e-01 5.662657e-01 4.407130e-01 8.284586e-01 1.186873e+00 9.149578e-01 6.642167e-01 5.455697e-01 8.722996e-01 1.922488e-04
<GCONST> 1.041416e+02
<MIXTURE> 4 1.093061e-01
<MEAN> 39
 -3.570766e+00 -6.146978e-01 -1.080571e+00 -5.514904e+00 -9.482721e+00 -1.936769e+01 -1.993062e+01 -7.786053e+00 -1.413438e+01 4.926261e+00 -1.363149e+01 -6.207278e+00 3.950894e-01 -1.071023e+00 2.222250e+00 5.035638e-01 1.851490e+00 2.304133e+00 2.147068e-01 3.994942e-01 -2.322065e+00 1.024927e+00 -3.528877e-01 2.505528e-01 7.936595e-01 -7.161671e-02 -1.028138e+00 -1.586494e-01 1.402016e-01 6.824039e-01 2.884149e-01 5.185115e-01 1.049052e+00 1.356044e-01 1.221456e+00 -7.334865e-01 1.178854e+00 5.083404e-01 -6.775657e-03
<VARIANCE> 39
 1.673655e+01 1.616292e+01 8.648211e+00 2.206466e+01 2.645595e+01 1.074739e+02 3.819976e+01 5.356219e+01 2.466017e+01 5.334079e+01 8.467363e+01 4.805719e+01 1.624972e-02 5.505340e+00 2.358363e+00 2.463425e+00 5.200181e+00 5.569197e+00 5.439394e+00 6.501517e+00 3.303229e+00 6.071662e+00 7.282707e+00 4.933558e+00 3.352106e+00 3.255849e-03 5.670651e-01 8.639653e-01 2.155029e-01 9.492432e-01 6.069418e-01 1.536415e+00 9.735042e-01 6.946531e-01 6.416226e-01 9.151050e-01 6.380415e-01 6.822903e-01 8.163827e-04
<GCONST> 1.107017e+02
<MIXTURE> 5 2.351359e-01
<MEAN> 39
 -6.346344e+00 -7.508338e+00 -3.615951e+00 -6.939279e+00 -1.535419e+01 -9.741968e+00 -1.922981e+01 -7.094334e-01 -6.493235e+00 -7.285654e+00 1.812629e+00 -8.270958e+00 6.736138e-01 1.360674e-01 6.371238e-01 3.692643e-01 -5.302196e-01 8.075871e-01 -5.125763e-01 9.680357e-01 -8.582899e-01 -8.453943e-01 1.428012e+00 -8.718342e-01 4.021936e-01 -3.062530e-02 -2.492190e-02 6.203844e-01 3.304218e-01 3.918233e-01 2.468865e-01 -6.163763e-02 4.638939e-01 -4.315532e-01 1.585864e-01 2.179706e-01 -4.619081e-01 5.040959e-01 -2.210431e-02
<VARIANCE> 39
 3.146239e+01 3.147885e+01 2.777310e+01 3.008054e+01 6.406740e+01 6.181004e+01 6.052122e+01 3.411208e+01 4.707806e+01 7.251167e+01 7.613811e+01 4.917694e+01 1.715036e-02 5.279580e-01 2.324166e+00 1.468424e+00 1.748625e+00 4.197879e+00 3.081215e+00 2.852459e+00 2.587576e+00 3.281818e+00 4.563217e+00 1.875372e+00 3.898642e+00 2.127645e-03 1.674432e-01 3.633262e-01 4.135007e-01 3.020034e-01 5.948027e-01 5.614765e-01 6.532089e-01 7.085049e-01 4.724611e-01 6.026880e-01 5.072019e-01 6.654987e-01 3.290392e-04
<GCONST> 1.006586e+02
<TRANSP> 6
 0.000000e+00 1.000000e+00 0.000000e+00 0.000000e+00 0.000000e+00 0.000000e+00
 0.000000e+00 5.055559e-01 4.944441e-01 0.000000e+00 0.000000e+00 0.000000e+00
 0.000000e+00 0.000000e+00 5.940917e-01 4.059083e-01 0.000000e+00 0.000000e+00
 0.000000e+00 0.000000e+00 0.000000e+00 6.865258e-01 3.134742e-01 0.000000e+00
 0.000000e+00 0.000000e+00 0.000000e+00 0.000000e+00 5.637703e-01 4.362297e-01
 0.000000e+00 0.000000e+00 0.000000e+00 0.000000e+00 0.000000e+00 0.000000e+00
<ENDHMM>
~h "@"
<BEGINHMM>
<NUMSTATES> 5
<STATE> 2
<NUMMIXES> 5
<MIXTURE> 1 1.985976e-01
<MEAN> 39
 -2.578553e+00 -6.510546e+00 7.105884e+00 -3.926361e+00 -1.358962e+01 -5.756976e+00 -1.733425e+01 5.344158e-02 -3.287391e+00 -7.569289e-01 -8.235662e-01 -3.303207e+00 5.729966e-01 2.128559e+00 -1.747285e+00 5.235673e-01 -5.992871e-01 -1.989815e+00 6.627262e-01 -2.635914e+00 1.185551e+00 2.008021e-01 1.228479e-01 5.809895e-01 -5.822300e-01 3.557031e-02 -6.774667e-01 7.479462e-01 -4.057548e-01 4.021873e-01 8.153875e-01 8.489229e-02 1.118087e+00 -3.950541e-01 -1.613221e-01 8.519530e-02 -6.699182e-02 6.424845e-02 -1.875823e-02
<VARIANCE> 39
 1.864501e+01 2.967696e+01 4.457166e+01 3.553754e+01 5.043795e+01 5.002910e+01 3.831609e+01 5.014747e+01 4.477685e+01 4.843997e+01 3.033351e+01 2.671347e+01 1.911875e-02 4.261122e+00 3.381408e+00 3.852760e+00 3.469163e+00 4.354326e+00 4.876504e+00 4.767897e+00 5.371535e+00 5.028687e+00 4.343915e+00 3.267704e+00 2.991657e+00 2.261142e-03 9.749898e-01 4.683825e-01 5.289117e-01 5.958062e-01 7.631083e-01 8.204051e-01 8.291590e-01 7.730514e-01 8.474998e-01 6.249802e-01 5.348105e-01 4.641515e-01 4.972392e-04
<GCONST> 1.095215e+02
<MIXTURE> 2 1.630787e-01
<MEAN> 39
 -1.763727e+01 3.044856e+00 1.692336e+00 -3.299832e+00 -5.346690e+00 -8.514425e+00 -4.257133e+00 -3.842083e+00 -3.909078e+00 -2.061740e+00 -2.836529e+00 2.353780e-01 5.340284e-01 2.710194e+00 -9.223621e-01 5.872263e-01 -8.887469e-01 -2.782738e+00 -2.088742e+00 -2.443963e+00 -3.654453e-01 -6.106675e-01 -6.879698e-01 -2.080693e-02 -5.315661e-01 3.624970e-02 1.023837e+00 -2.063009e-01 7.404201e-02 5.632440e-02 -4.640410e-01 1.297058e-01 -5.353499e-01 -2.096885e-02 -2.528528e-01 -1.020511e-01 1.337425e-01 -3.901575e-01 -1.612782e-02
<VARIANCE> 39
 3.739711e+01 3.637495e+01 5.435500e+01 3.868831e+01 5.569674e+01 7.149985e+01 5.325589e+01 4.729085e+01 4.465622e+01 3.598560e+01 2.808297e+01 2.487322e+01 3.308001e-02 6.475165e+00 5.359447e+00 4.546581e+00 5.379886e+00 6.944607e+00 6.276013e+00 5.662623e+00 5.913084e+00 5.272891e+00 5.399804e+00 5.228520e+00 4.936569e+00 7.600854e-03 6.290724e-01 8.885115e-01 6.330941e-01 8.269955e-01 1.226821e+00 1.153416e+00 1.016426e+00 8.658815e-01 9.315465e-01 7.637082e-01 9.834083e-01 7.379320e-01 1.171446e-03
<GCONST> 1.205169e+02
<MIXTURE> 3 2.725449e-01
<MEAN> 39
 -5.831477e+00 -1.511916e+00 2.508562e+00 -4.907281e+00 -1.049553e+01 -9.279326e+00 -1.006137e+01 -5.332168e+00 -8.363142e+00 -3.212401e+00 -2.783389e+00 -4.220592e+00 4.884009e-01 -1.187642e-01 -1.237610e+00 -3.545320e-01 -1.294754e+00 -4.000923e-01 -4.378529e-02 -8.009108e-01 1.389581e+00 8.350577e-01 -3.118212e-01 3.381072e-01 1.079767e-01 4.270270e-02 7.846447e-02 -1.192961e-01 -1.413744e-01 -9.649202e-03 -6.431199e-02 9.477262e-02 2.045738e-02 1.124105e-01 1.331141e-01 1.748924e-02 -3.744282e-02 -1.670025e-02 3.504876e-03
<VARIANCE> 39
 2.810460e+01 3.201014e+01 6.374702e+01 6.279908e+01 7.162741e+01 7.922295e+01 6.102398e+01 7.753786e+01 6.609629e+01 7.397736e+01 6.948569e+01 4.837896e+01 2.798565e-02 1.779932e+00 2.296352e+00 2.934255e+00 3.493119e+00 3.806411e+00 4.598668e+00 4.291339e+00 5.254534e+00 4.642209e+00 4.309398e+00 3.528961e+00 3.037746e+00 1.588779e-03 2.444415e-01 3.957597e-01 4.839028e-01 5.863073e-01 5.869488e-01 6.238946e-01 6.338702e-01 7.485954e-01 6.382326e-01 6.544511e-01 6.413209e-01 4.709140e-01 3.379587e-04
<GCONST> 1.101469e+02
<MIXTURE> 4 1.734111e-01
<MEAN> 39
 -7.413459e+00 -6.819028e+00 9.307640e-01 -1.529565e+01 -1.285766e+01 -1.817774e+01 -9.001644e+00 -2.798743e+00 -8.610162e+00 -4.917934e+00 -1.140210e+01 3.074974e+00 5.957519e-01 9.744033e-01 -2.161402e+00 -7.949795e-02 -2.099475e+00 -3.393982e-01 -4.215431e-01 2.849522e-01 1.202019e+00 1.161336e-01 2.615159e-01 -1.064146e+00 7.553784e-01 3.540405e-02 -3.124856e-01 5.708454e-01 -1.504964e-01 8.372506e-01 4.259291e-01 7.247909e-01 1.210334e-01 -4.795586e-01 6.585055e-02 -4.799178e-02 2.738801e-01 -5.283068e-01 -1.416956e-02
<VARIANCE> 39
 1.930677e+01 2.855388e+01 4.676985e+01 4.723874e+01 6.779137e+01 4.680249e+01 7.923907e+01 5.645680e+01 6.626890e+01 8.150558e+01 5.484943e+01 4.560685e+01 1.285483e-02 2.779250e+00 2.968290e+00 3.159251e+00 3.692971e+00 5.415570e+00 5.719632e+00 5.882105e+00 5.188795e+00 5.729333e+00 5.294218e+00 5.884566e+00 3.707744e+00 1.590605e-03 6.977860e-01 6.171131e-01 4.246254e-01 6.639918e-01 7.866386e-01 7.967802e-01 8.741591e-01 9.171951e-01 9.201549e-01 9.069463e-01 9.755141e-01 6.336719e-01 4.702590e-04
<GCONST> 1.145723e+02
<MIXTURE> 5 1.923678e-01
<MEAN> 39
 -7.743956e+00 1.358666e+00 -3.324531e+00 -7.709040e+00 -9.444282e+00 -1.082743e+01 -1.192860e+01 -8.853120e+00 -5.734299e+00 -4.355268e+00 -6.265233e+00 -2.073527e+00 4.902749e-01 3.689898e+00 -1.126192e+00 1.826330e-01 -1.023743e+00 -2.771915e+00 -1.711970e+00 -1.871960e+00 -8.203918e-01 -8.847154e-01 -2.910121e-01 -1.170946e+00 -4.781606e-01 2.223091e-03 -9.280177e-01 -1.581869e-01 1.089002e-01 3.029326e-01 6.123596e-01 7.185758e-01 6.951845e-01 5.782975e-01 1.767844e-01 2.531617e-01 3.611531e-01 8.194501e-02 5.020180e-04
<VARIANCE> 39
 3.477890e+01 3.144109e+01 6.773052e+01 5.547837e+01 8.244015e+01 8.309727e+01 6.399837e+01 4.366024e+01 4.118705e+01 7.280373e+01 4.461786e+01 4.327303e+01 1.766159e-02 3.333689e+00 5.561799e+00 4.111242e+00 6.421815e+00 6.268083e+00 6.082515e+00 6.598288e+00 5.330523e+00 5.659260e+00 6.286684e+00 6.391533e+00 5.012214e+00 2.928192e-03 5.514145e-01 4.983416e-01 6.460599e-01 6.057187e-01 9.214985e-01 8.941327e-01 8.732783e-01 6.756144e-01 6.651166e-01 8.043417e-01 6.779339e-01 5.305994e-01 5.528415e-04
<GCONST> 1.177086e+02
<STATE> 3
<NUMMIXES> 5
<MIXTURE> 1 1.753593e-01
<MEAN> 39
 -2.115807e+00 -8.036749e+00 5.605255e+00 -6.113204e+00 -1.533127e+01 -3.390928e+00 -1.856529e+01 1.727840e+00 -3.181862e+00 -8.622316e-01 -4.323503e-01 -5.126923e+00 6.259596e-01 1.303068e-01 -4.753555e-02 -3.108873e-01 -1.798187e-01 1.388944e-01 2.700967e-01 -7.247102e-02 2.158826e-01 1.541864e-01 2.252094e-01 -1.669502e-01 -1.116319e-01 -4.115465e-03 -2.610242e-01 6.496366e-01 -7.997636e-02 2.972684e-01 6.143542e-01 -2.024051e-01 6.737110e-01 -4.873918e-01 -1.370287e-01 -1.465697e-02 -2.055032e-01 1.289573e-01 -1.681697e-02
<VARIANCE> 39
 2.198643e+01 3.520956e+01 5.796863e+01 4.496580e+01 5.459954e+01 6.710969e+01 3.969534e+01 4.953091e+01 6.032257e+01 6.061927e+01 4.134252e+01 3.974004e+01 1.823292e-02 5.226095e-01 1.204640e+00 1.572871e+00 1.491531e+00 1.877443e+00 2.107189e+00 1.917728e+00 2.171195e+00 1.946200e+00 1.855047e+00 1.543146e+00 1.317432e+00 8.404210e-04 2.326259e-01 2.417518e-01 2.703972e-01 2.998624e-01 4.158373e-01 4.750501e-01 4.061365e-01 4.652682e-01 4.296645e-01 3.752628e-01 3.076307e-01 2.908944e-01 1.433614e-04
<GCONST> 8.992519e+01
<MIXTURE> 2 1.634588e-01
<MEAN> 39
 -4.909925e+00 1.071872e+00 7.768637e-01 -2.921211e+00 -8.090030e+00 -1.083116e+01 -1.146261e+01 -6.167688e+00 -4.288895e+00 9.748783e-02 -3.800913e+00 -2.795365e+00 4.637605e-01 4.806656e-01 8.573536e-01 1.658525e-01 8.622505e-01 1.568284e-01 -2.175553e-01 2.145443e-01 -5.760112e-01 -3.045850e-01 -1.133074e-01 2.171237e-01 -2.373135e-01 -1.326755e-02 -1.412174e+00 3.035838e-01 3.165852e-03 3.320952e-01 7.025698e-01 6.702186e-01 9.184040e-01 2.649085e-01 5.636415e-03 -1.814928e-01 1.514464e-01 1.429745e-01 -9.035144e-04
<VARIANCE> 39
 3.091405e+01 3.018744e+01 4.680476e+01 4.246652e+01 5.239147e+01 7.737423e+01 5.497868e+01 5.854932e+01 4.362924e+01 4.844553e+01 4.836030e+01 3.717728e+01 2.219655e-02 6.425073e+00 3.278003e+00 3.389892e+00 3.625174e+00 4.443748e+00 5.091072e+00 5.297633e+00 4.313722e+00 4.270351e+00 3.477902e+00 3.397972e+00 2.701040e+00 2.543692e-03 9.176188e-01 5.785639e-01 6.260071e-01 6.735700e-01 7.878134e-01 1.065504e+00 9.656037e-01 9.130227e-01 8.827366e-01 7.307887e-01 7.438235e-01 6.776905e-01 4.989327e-04
<GCONST> 1.140583e+02
<MIXTURE> 3 2.203984e-01
<MEAN> 39
 -6.951364e+00 -8.057978e+00 -3.334284e+00 -1.389112e+01 -1.009690e+01 -1.339783e+01 -6.884243e+00 -3.275141e+00 -6.888437e+00 -6.784312e+00 -9.742706e+00 -2.622515e-01 6.183810e-01 -4.992271e-02 -2.054731e-01 -2.100882e-01 1.809990e-02 3.185236e-01 1.287633e-01 2.701188e-02 1.638541e-01 2.259437e-01 -8.545496e-02 -2.698223e-02 -8.089624e-02 -2.234511e-03 -4.904585e-02 3.853378e-01 1.247236e-01 3.616493e-01 6.752060e-02 8.753858e-02 -2.024630e-01 -2.122273e-01 -7.014813e-02 7.396585e-02 1.754788e-01 -7.482797e-02 -1.083967e-02
<VARIANCE> 39
 2.044922e+01 3.754665e+01 5.297036e+01 5.524524e+01 6.946880e+01 5.945704e+01 8.691958e+01 7.909569e+01 6.656364e+01 1.024453e+02 6.866953e+01 4.998359e+01 1.496687e-02 4.751269e-01 9.524990e-01 1.233675e+00 1.345431e+00 2.092149e+00 2.061706e+00 2.564550e+00 2.171200e+00 2.500844e+00 2.432414e+00 1.809376e+00 2.103171e+00 5.481197e-04 1.500382e-01 2.221469e-01 2.129349e-01 3.092335e-01 3.552099e-01 3.976528e-01 4.072642e-01 4.631797e-01 4.311486e-01 4.402582e-01 4.090869e-01 3.614368e-01 1.070644e-04
<GCONST> 9.229403e+01
<MIXTURE> 4 1.996687e-01
<MEAN> 39
 -3.114345e+00 -7.140716e+00 5.650442e-01 -1.000145e+01 -1.365659e+01 -9.144822e+00 -1.447375e+01 -2.612651e-01 -3.700881e+00 4.186603e-01 -6.514906e+00 -2.641814e+00 6.252344e-01 6.576707e-02 -1.443094e-02 -2.091178e-01 5.986557e-02 1.148749e-01 1.091851e-01 6.060111e-02 7.974535e-02 1.378220e-01 -9.858795e-03 -1.873356e-02 -1.346384e-01 -5.337976e-03 5.144005e-03 7.764718e-02 1.618778e-02 2.551964e-02 6.286559e-02 -6.391495e-05 1.557705e-04 -7.776166e-02 -4.008121e-02 -4.674039e-02 6.510533e-03 9.913227e-03 -2.850535e-03
<VARIANCE> 39
 2.633994e+01 3.608612e+01 5.440545e+01 4.787283e+01 5.471001e+01 9.204665e+01 5.896516e+01 6.504552e+01 5.373058e+01 7.225990e+01 1.056064e+02 3.785903e+01 1.439705e-02 1.121838e-01 2.845298e-01 3.748493e-01 4.567398e-01 5.480475e-01 6.352323e-01 6.407817e-01 7.344928e-01 7.842811e-01 7.413774e-01 6.790066e-01 5.024467e-01 1.425497e-04 2.211233e-02 4.412048e-02 5.819783e-02 8.106878e-02 9.573273e-02 9.862922e-02 1.093609e-01 1.127567e-01 1.146026e-01 1.052551e-01 1.178846e-01 9.900695e-02 2.021282e-05
<GCONST> 5.697656e+01
<MIXTURE> 5 2.411148e-01
<MEAN> 39
 -5.068204e+00 -7.088851e+00 1.293703e+00 -1.020404e+01 -1.381253e+01 -8.953311e+00 -1.442326e+01 -1.355363e+00 -6.576749e+00 -3.969717e+00 -4.906161e+00 -2.988782e+00 6.198772e-01 6.605324e-01 -5.171927e-01 -9.642003e-02 -9.671949e-02 -2.979281e-01 2.103819e-01 -4.408745e-01 2.959268e-01 1.180296e-01 -3.004722e-03 -1.076031e-01 -4.021653e-01 1.850183e-03 -5.481340e-01 1.220369e+00 5.204819e-03 9.756592e-01 9.396261e-01 8.101705e-02 8.589558e-01 -7.417008e-01 -8.444178e-02 1.744456e-01 4.186049e-02 -4.996322e-02 -3.135810e-02
<VARIANCE> 39
 3.033101e+01 3.360846e+01 7.843837e+01 7.418130e+01 8.551604e+01 9.430103e+01 7.544984e+01 7.156897e+01 6.715113e+01 9.216859e+01 8.583189e+01 6.433792e+01 1.756411e-02 1.996945e+00 2.904356e+00 3.691325e+00 3.664601e+00 4.720687e+00 4.720950e+00 4.849401e+00 4.619990e+00 4.993635e+00 4.805813e+00 4.371921e+00 3.720125e+00 1.656776e-03 7.868487e-01 5.417783e-01 8.753568e-01 8.145686e-01 1.238973e+00 1.329750e+00 1.404981e+00 1.257499e+00 1.332731e+00 1.335417e+00 1.158479e+00 9.685777e-01 5.200620e-04
<GCONST> 1.213150e+02
<STATE> 4
<NUMMIXES> 5
<MIXTURE> 1 1.475768e-01
<MEAN> 39
 -1.016263e+01 5.390315e+00 3.742399e+00 2.526920e+00 -7.183449e-01 -5.137015e+00 -7.069010e+00 -3.055870e+00 -2.857815e+00 -2.138925e+00 -3.908865e+00 -1.503796e+00 3.428572e-01 -4.037266e+00 6.613698e-01 -2.934441e-01 1.259559e+00 2.099025e+00 1.387543e+00 2.444390e+00 6.531871e-01 9.702478e-01 -3.914335e-01 2.624643e-01 4.791082e-01 -6.917575e-03 -3.394608e-01 -9.291567e-01 -4.634628e-01 -6.551831e-01 -5.878728e-01 4.262193e-02 -8.896373e-02 3.010117e-01 1.411386e-01 2.873802e-01 1.930027e-01 7.549184e-02 1.688013e-02
<VARIANCE> 39
 4.412783e+01 3.368810e+01 3.045302e+01 3.063063e+01 3.881751e+01 6.517780e+01 4.783020e+01 4.649066e+01 4.429660e+01 3.985513e+01 3.709313e+01 2.812691e+01 5.090290e-02 5.404039e+00 4.171290e+00 3.308149e+00 3.835756e+00 4.314069e+00 5.508122e+00 5.009687e+00 4.692337e+00 4.095040e+00 3.504807e+00 4.039195e+00 2.952098e+00 6.008412e-03 7.462938e-01 5.464115e-01 4.125281e-01 4.993053e-01 5.669490e-01 8.748914e-01 7.669560e-01 7.327176e-01 6.879236e-01 6.667690e-01 4.970861e-01 4.579869e-01 4.284501e-04
<GCONST> 1.110513e+02
<MIXTURE> 2 1.530029e-01
<MEAN> 39
 -1.248010e+00 -6.680192e+00 5.116445e+00 -3.213651e+00 -1.326559e+01 -3.887979e+00 -1.818360e+01 3.403654e-01 -2.984806e+00 -1.477333e+00 3.909540e-02 -4.965116e+00 5.446010e-01 -2.377393e-01 2.724370e+00 -3.741801e-01 1.477045e+00 2.051551e+00 -3.920032e-01 1.829273e+00 -1.825894e+00 -5.804623e-01 6.314798e-02 -1.960107e-01 1.871564e-01 -7.120741e-02 -7.791421e-01 1.047047e+00 -9.812205e-02 3.732589e-01 8.883354e-01 -2.736832e-01 1.196365e+00 -5.181621e-01 -3.339420e-01 5.291235e-02 -2.410175e-01 2.725294e-01 -2.020547e-02
<VARIANCE> 39
 1.738174e+01 3.248282e+01 4.916262e+01 4.343221e+01 5.092479e+01 6.252280e+01 3.872590e+01 5.256787e+01 4.687178e+01 5.454531e+01 4.040379e+01 3.758712e+01 1.902430e-02 2.739124e+00 3.037354e+00 3.190823e+00 3.773448e+00 4.320427e+00 5.022421e+00 4.020946e+00 4.501402e+00 5.140957e+00 3.987113e+00 3.710126e+00 2.543974e+00 2.287023e-03 5.218430e-01 5.662601e-01 5.224155e-01 5.496823e-01 8.324772e-01 7.808672e-01 6.941966e-01 7.764403e-01 8.947181e-01 7.599279e-01 5.502204e-01 4.660491e-01 4.698396e-04
<GCONST> 1.094135e+02
<MIXTURE> 3 2.456187e-01
<MEAN> 39
 -2.412524e+00 -1.520204e+00 -3.682609e-01 -5.212134e+00 -5.707037e+00 -5.679651e+00 -8.844627e+00 -2.369282e+00 -3.879747e+00 1.924737e+00 -4.307942e+00 -3.955784e+00 4.335206e-01 -2.739713e-01 7.249872e-01 -2.188582e-02 7.701502e-01 7.159187e-01 3.929943e-01 7.978086e-01 -3.969191e-01 -2.977014e-01 -3.772752e-01 -4.852007e-02 1.892623e-01 -3.174803e-02 -1.976866e-01 2.642450e-02 1.773660e-01 1.468865e-01 8.736606e-02 6.663995e-02 2.337392e-02 4.408655e-03 -5.007311e-02 -1.395361e-01 2.581375e-02 6.956330e-02 -3.646068e-03
<VARIANCE> 39
 1.981133e+01 4.074457e+01 4.647202e+01 6.073206e+01 5.685065e+01 8.687790e+01 6.692419e+01 6.904762e+01 6.216706e+01 6.405080e+01 5.288543e+01 4.606360e+01 2.843304e-02 7.166646e-01 1.386805e+00 1.673539e+00 2.039420e+00 2.127902e+00 2.876449e+00 2.543902e+00 2.494718e+00 2.734257e+00 2.372369e+00 2.220573e+00 2.058852e+00 7.490796e-04 1.394887e-01 2.042698e-01 2.532223e-01 2.840075e-01 3.409474e-01 4.524653e-01 4.005523e-01 3.913306e-01 4.216766e-01 3.468176e-01 3.118149e-01 3.165164e-01 1.132286e-04
<GCONST> 9.362404e+01
<MIXTURE> 4 2.375686e-01
<MEAN> 39
 -4.746235e+00 2.613273e+00 -4.197044e-01 -2.522928e+00 -8.467251e+00 -1.136801e+01 -1.087778e+01 -8.554942e+00 -7.326795e+00 -3.250818e+00 -6.209109e+00 -2.712283e+00 3.786706e-01 -1.688721e+00 2.560904e+00 6.088470e-01 2.210758e+00 1.555754e+00 3.145656e-01 1.432665e+00 -1.039544e+00 -6.430362e-01 -2.233160e-01 3.976747e-01 -2.879468e-01 -4.523116e-02 -8.747663e-01 -3.183973e-01 1.372507e-01 -1.063454e-01 2.845015e-01 4.373057e-01 3.402581e-01 6.107352e-01 2.276643e-01 1.858807e-01 1.759621e-01 1.262208e-01 1.040780e-02
<VARIANCE> 39
 3.240284e+01 3.245718e+01 4.711779e+01 6.452567e+01 5.489862e+01 7.201872e+01 6.352303e+01 5.394682e+01 6.768477e+01 8.145679e+01 7.950561e+01 4.916845e+01 2.990931e-02 4.988900e+00 4.392964e+00 4.050531e+00 4.968525e+00 5.167741e+00 7.164654e+00 5.799689e+00 6.221606e+00 6.641457e+00 6.034970e+00 5.893837e+00 4.322308e+00 4.358849e-03 5.464175e-01 5.118350e-01 5.137696e-01 6.354162e-01 7.197819e-01 7.874150e-01 9.004589e-01 7.469209e-01 9.165666e-01 9.316800e-01 8.312606e-01 6.540700e-01 3.320499e-04
<GCONST> 1.190975e+02
<MIXTURE> 5 2.162329e-01
<MEAN> 39
 -7.538852e+00 -6.963005e+00 -2.764487e-01 -1.358886e+01 -1.193591e+01 -1.424739e+01 -1.033520e+01 -3.613390e+00 -8.369560e+00 -6.075713e+00 -8.148748e+00 -3.710264e-01 5.793698e-01 3.588203e-01 1.401103e+00 3.040562e-01 1.294470e+00 3.659363e-01 2.688831e-02 -1.875954e-01 -1.044941e+00 9.793214e-03 4.527799e-01 6.141562e-02 -5.677266e-01 -5.124309e-02 -2.251513e-01 8.120775e-01 1.307194e-01 7.416901e-01 2.141915e-01 2.694674e-01 2.061947e-01 -4.151791e-01 -2.493582e-02 1.292046e-01 9.803385e-02 -2.052435e-01 -1.882400e-02
<VARIANCE> 39
 2.517298e+01 3.757574e+01 8.041705e+01 6.094220e+01 8.945835e+01 6.302088e+01 8.436713e+01 7.330020e+01 7.829060e+01 1.006974e+02 9.365443e+01 7.972314e+01 1.969649e-02 1.819905e+00 2.999904e+00 3.828033e+00 3.493295e+00 4.306561e+00 4.116543e+00 5.365318e+00 5.437030e+00 4.778297e+00 5.384971e+00 5.213034e+00 4.983604e+00 2.099172e-03 4.112397e-01 4.796272e-01 6.011820e-01 6.522839e-01 9.159340e-01 8.695422e-01 9.134248e-01 1.075636e+00 9.607109e-01 1.087610e+00 1.059242e+00 7.981104e-01 4.180091e-04
<GCONST> 1.185258e+02
<TRANSP> 5
 0.000000e+00 1.000000e+00 0.000000e+00 0.000000e+00 0.000000e+00
 0.000000e+00 4.829603e-01 5.170398e-01 0.000000e+00 0.000000e+00
 0.000000e+00 0.000000e+00 5.750144e-01 4.249856e-01 0.000000e+00
 0.000000e+00 0.000000e+00 0.000000e+00 5.853489e-01 4.146511e-01
 0.000000e+00 0.000000e+00 0.000000e+00 0.000000e+00 0.000000e+00
<ENDHMM>
~h "C"
<BEGINHMM>
<NUMSTATES> 5
<STATE> 2
<NUMMIXES> 5
<MIXTURE> 1 2.034537e-01
<MEAN> 39
 -2.409305e+01 3.852556e+00 1.264708e+01 -4.554906e+00 -2.341357e+00 2.008433e+00 -6.569817e-02 -2.789067e+00 -4.802839e-01 -8.360012e-02 -2.536340e+00 2.091714e+00 6.303524e-01 -4.050639e+00 -1.778641e+00 -2.442305e+00 -1.609877e+00 9.704117e-01 1.405053e+00 7.790263e-01 3.003204e-01 1.883810e+00 9.633074e-01 -1.659472e-01 -7.765411e-02 6.167857e-02 9.230650e-01 -4.999567e-01 -3.498635e-01 -9.279323e-02 -1.058826e+00 -9.213490e-01 -6.846226e-01 2.531239e-01 -6.900985e-01 -2.008458e-01 1.644863e-01 -1.018076e-01 -5.030899e-03
<VARIANCE> 39
 1.697045e+01 2.273888e+01 2.327827e+01 2.273893e+01 2.346041e+01 2.177636e+01 2.869785e+01 2.180123e+01 2.676703e+01 2.293351e+01 1.990702e+01 2.131971e+01 1.487669e-02 1.920110e+00 1.784679e+00 2.156575e+00 2.183203e+00 4.134554e+00 3.282756e+00 3.188634e+00 3.108927e+00 3.700125e+00 2.569706e+00 2.250310e+00 2.405940e+00 7.541486e-04 3.698349e-01 4.294400e-01 4.690644e-01 4.739656e-01 6.099434e-01 5.168520e-01 5.335674e-01 5.159504e-01 6.193920e-01 4.808862e-01 5.072370e-01 4.474503e-01 2.466182e-04
<GCONST> 9.248622e+01
<MIXTURE> 2 2.445229e-01
<MEAN> 39
 -1.522782e+01 5.778811e+00 1.535161e+01 -1.273275e+00 -7.348312e+00 -5.579117e+00 -2.119862e+00 -3.032261e+00 -5.580095e+00 -2.297900e+00 -1.184847e+00 2.086244e+00 4.823545e-01 -4.553088e+00 3.404429e-01 -5.480856e-01 -5.812408e-01 2.827801e+00 2.499140e+00 2.191681e+00 -6.645029e-01 1.968186e+00 1.221279e+00 -3.065082e-01 2.462927e-01 3.096535e-02 -2.477060e-01 -1.051383e+00 -1.047415e+00 -5.413582e-01 -2.672327e-01 3.175002e-02 -4.914693e-01 3.892113e-01 2.783485e-01 1.866445e-01 -4.935889e-02 -2.032018e-01 1.742379e-02
<VARIANCE> 39
 1.812744e+01 3.456602e+01 2.340910e+01 2.824507e+01 3.094883e+01 3.510854e+01 3.989481e+01 4.396976e+01 3.374319e+01 3.309919e+01 2.552770e+01 2.519249e+01 1.874254e-02 2.180467e+00 2.870570e+00 4.322378e+00 2.806242e+00 5.207665e+00 4.127261e+00 4.416696e+00 3.930568e+00 4.792728e+00 3.691106e+00 3.171189e+00 3.134889e+00 1.473600e-03 4.798173e-01 4.812991e-01 3.825284e-01 3.893855e-01 7.788382e-01 7.330611e-01 7.541786e-01 7.127254e-01 5.718865e-01 5.831422e-01 5.111982e-01 4.682119e-01 3.438937e-04
<GCONST> 1.024268e+02
<MIXTURE> 3 1.896430e-01
<MEAN> 39
 -2.382968e+01 8.298360e+00 8.481134e+00 -8.746573e+00 -3.828057e+00 -6.116191e+00 -8.596251e+00 -1.003954e+01 -7.756083e+00 -9.212934e+00 -6.136954e+00 -3.509501e+00 6.513904e-01 -4.188876e+00 -9.612152e-01 -1.685871e+00 1.359095e+00 3.698124e+00 2.587648e+00 2.459652e+00 3.198272e+00 3.282218e+00 1.434319e+00 1.912454e+00 1.711195e+00 5.810941e-02 6.436744e-01 -8.754701e-01 -3.298352e-01 -4.830606e-01 -9.144164e-01 -1.290502e-01 3.953879e-01 6.371442e-01 4.283547e-02 9.607729e-01 3.106846e-01 2.662802e-01 -3.788211e-03
<VARIANCE> 39
 1.573497e+01 1.923573e+01 2.579116e+01 1.838044e+01 2.407532e+01 3.014634e+01 3.082912e+01 2.872772e+01 3.359443e+01 2.491190e+01 2.765756e+01 2.019932e+01 1.565578e-02 1.221925e+00 2.099289e+00 1.863882e+00 4.431124e+00 3.986356e+00 3.139916e+00 2.981729e+00 2.998536e+00 3.302195e+00 3.329156e+00 3.047461e+00 2.491643e+00 6.906317e-04 2.725049e-01 4.225396e-01 4.625129e-01 5.522439e-01 5.910317e-01 6.208699e-01 6.127317e-01 6.928995e-01 6.201533e-01 6.922558e-01 6.003761e-01 4.321851e-01 2.508871e-04
<GCONST> 9.486997e+01
<MIXTURE> 4 1.959251e-01
<MEAN> 39
 -1.124742e+01 1.301404e+00 8.373361e+00 -7.574111e+00 -1.689431e+01 -1.001034e+01 -7.083759e+00 -3.801487e+00 -1.040000e+01 -6.066452e+00 -2.181111e+00 -1.390414e+00 5.486633e-01 -2.096993e+00 2.926254e+00 1.459224e+00 6.444794e-01 2.030097e+00 8.707920e-01 8.796152e-01 -1.571624e+00 3.425346e-01 1.937773e-01 -7.540698e-02 5.987438e-01 -2.847301e-02 -9.217401e-01 -2.856199e-01 -4.585930e-01 9.285894e-02 1.208376e+00 6.798254e-01 3.944844e-01 2.521876e-01 7.668359e-01 4.804522e-01 -1.595722e-01 3.329262e-02 1.210698e-02
<VARIANCE> 39
 2.766323e+01 3.849848e+01 5.837947e+01 8.553027e+01 5.647012e+01 4.828848e+01 5.464548e+01 7.203915e+01 6.590336e+01 5.539293e+01 4.903564e+01 5.772002e+01 2.409670e-02 2.804484e+00 3.495380e+00 4.119009e+00 3.111177e+00 5.432414e+00 4.791271e+00 7.442081e+00 4.525807e+00 4.223990e+00 4.054039e+00 3.761095e+00 3.520400e+00 2.360524e-03 4.936741e-01 5.977453e-01 6.516119e-01 9.657019e-01 8.199477e-01 8.652161e-01 8.385566e-01 1.027261e+00 9.488335e-01 9.018337e-01 6.746384e-01 8.427730e-01 4.666674e-04
<GCONST> 1.161956e+02
<MIXTURE> 5 1.664552e-01
<MEAN> 39
 -1.656343e+01 8.814276e+00 9.207858e+00 -1.292851e+01 -1.413315e+01 -1.082731e+01 -1.132447e+01 -1.454064e+01 -1.231574e+01 -9.203670e+00 -7.228619e+00 -5.480019e+00 5.442885e-01 -3.701348e+00 1.513797e+00 -1.581420e-01 2.142283e+00 4.510779e+00 1.834949e+00 8.412717e-01 9.145190e-01 2.196776e+00 -1.739305e-01 6.191455e-01 9.572163e-01 3.010898e-02 -5.397747e-01 -1.055349e+00 -6.850936e-01 2.114984e-01 5.349862e-01 6.041763e-01 9.988801e-01 1.483716e+00 7.669864e-01 8.940026e-01 5.916430e-01 5.735856e-01 1.798658e-02
<VARIANCE> 39
 1.554158e+01 2.086084e+01 2.257930e+01 4.038760e+01 3.478026e+01 3.454249e+01 3.534575e+01 2.882581e+01 4.113708e+01 2.604079e+01 3.057100e+01 2.903892e+01 1.327555e-02 1.814173e+00 2.919005e+00 3.182215e+00 5.790123e+00 3.576984e+00 4.964903e+00 4.705450e+00 5.044952e+00 4.714845e+00 4.818736e+00 4.642636e+00 3.415182e+00 1.288180e-03 2.738674e-01 3.838150e-01 4.565993e-01 6.084003e-01 7.258007e-01 6.084628e-01 6.380754e-01 5.713983e-01 6.358486e-01 5.999522e-01 5.500997e-01 4.596237e-01 1.864332e-04
<GCONST> 1.013061e+02
<STATE> 3
<NUMMIXES> 5
<MIXTURE> 1 2.427016e-01
<MEAN> 39
 -2.872179e+01 9.348217e-02 6.948390e+00 -1.055096e+01 -4.850448e+00 5.029120e-01 -2.764447e+00 -2.854120e+00 7.074137e-01 -1.453718e-01 -1.955079e+00 2.645627e+00 7.093799e-01 -5.761896e-01 -8.013746e-01 -9.058967e-01 -5.209639e-02 -6.901282e-01 -3.778209e-01 1.638476e-01 -1.769891e-01 -1.313148e-01 2.795949e-01 -9.729578e-02 -1.121681e-01 5.739538e-03 1.230153e+00 4.464729e-01 4.045157e-01 8.671120e-01 -5.299684e-02 -4.579659e-01 9.435769e-02 5.394057e-02 -5.912544e-01 -1.622348e-01 1.732711e-02 -1.775765e-01 -2.949646e-02
<VARIANCE> 39
 1.251856e+01 1.702374e+01 1.477044e+01 1.559115e+01 2.453992e+01 1.816363e+01 2.130421e+01 2.200419e+01 2.013300e+01 1.979499e+01 1.824017e+01 1.796027e+01 1.501376e-02 1.586631e+00 1.430146e+00 1.640573e+00 2.656145e+00 2.179618e+00 1.870194e+00 2.319256e+00 1.960957e+00 2.163299e+00 2.000396e+00 1.787524e+00 1.662533e+00 1.067569e-03 3.766256e-01 2.388275e-01 3.172911e-01 3.404670e-01 5.741837e-01 5.248955e-01 4.876242e-01 5.754160e-01 5.412250e-01 4.495577e-01 4.440880e-01 3.899938e-01 3.066841e-04
<GCONST> 8.487138e+01
<MIXTURE> 2 2.995058e-01
<MEAN> 39
 -2.938935e+01 1.670146e+00 4.971642e+00 -9.693789e+00 -2.560963e+00 -7.784318e-01 -2.771672e+00 -1.955225e+00 1.534465e-01 -7.876600e-01 -7.292001e-01 1.152734e+00 7.109098e-01 5.220978e-02 -1.424694e-01 -4.546455e-03 1.059765e-01 -1.168900e-01 3.137025e-02 7.113624e-02 -4.499092e-02 6.713363e-02 1.706628e-02 -6.751674e-02 8.056968e-03 -3.893648e-03 2.140953e-01 3.336634e-02 1.491727e-01 1.361940e-01 -9.577460e-02 -3.022428e-02 -8.789789e-04 -1.124703e-01 -8.490833e-02 -6.095985e-02 -7.098637e-02 -3.993612e-02 -6.398758e-03
<VARIANCE> 39
 1.267528e+01 2.783259e+01 2.533306e+01 2.138258e+01 3.053146e+01 2.675433e+01 2.635833e+01 2.518281e+01 1.977505e+01 2.581603e+01 2.214107e+01 1.777563e+01 1.201903e-02 3.316641e-01 5.121670e-01 7.610878e-01 9.557443e-01 1.204241e+00 1.242705e+00 1.373732e+00 1.521636e+00 1.456181e+00 1.410864e+00 1.452136e+00 1.219030e+00 2.495510e-04 9.085882e-02 1.236237e-01 1.665659e-01 2.102597e-01 2.714552e-01 2.662532e-01 3.130460e-01 3.479977e-01 3.235510e-01 3.210400e-01 3.308790e-01 2.472752e-01 5.876495e-05
<GCONST> 6.968050e+01
<MIXTURE> 3 1.373232e-01
<MEAN> 39
 -2.305542e+01 -1.923950e+00 9.567972e+00 -2.546349e+00 -7.151540e+00 -2.081713e+00 2.181166e+00 -9.188821e-01 -3.043342e+00 1.648524e+00 -1.393186e+00 -4.382041e-01 6.063668e-01 -2.807036e+00 -6.273983e-01 -1.345239e+00 -9.142299e-01 4.435817e-01 8.883449e-01 8.833621e-02 -2.499201e-02 9.934102e-01 6.555602e-01 2.694825e-01 6.868823e-03 4.353569e-02 1.064122e+00 3.358180e-01 -2.759852e-01 1.970477e-01 -2.173867e-02 -5.012754e-01 -7.928748e-01 3.120215e-01 -1.933950e-01 -3.932950e-01 1.068127e-01 2.162566e-01 -2.012691e-02
<VARIANCE> 39
 2.257551e+01 2.340022e+01 2.517844e+01 3.470511e+01 2.472367e+01 2.937004e+01 2.992841e+01 3.453913e+01 2.700575e+01 2.081170e+01 2.180007e+01 1.991264e+01 2.292247e-02 3.074956e+00 2.535689e+00 4.601496e+00 2.765767e+00 3.947649e+00 4.315987e+00 3.784647e+00 4.758857e+00 3.662612e+00 2.974599e+00 2.900819e+00 2.545485e+00 2.383440e-03 5.704676e-01 4.186929e-01 5.469913e-01 5.788332e-01 6.473728e-01 7.216288e-01 8.572602e-01 7.548388e-01 7.118161e-01 4.970486e-01 5.486271e-01 4.617747e-01 7.337604e-04
<GCONST> 1.021421e+02
<MIXTURE> 4 2.265584e-01
<MEAN> 39
 -2.941020e+01 5.272938e+00 3.698732e+00 -9.589432e+00 -2.409923e-02 -1.995913e+00 -2.495947e+00 -1.588828e+00 -3.600156e-01 -2.318403e+00 1.613010e-01 1.127533e+00 7.342017e-01 -1.690210e+00 -1.136652e+00 -1.283064e+00 1.742772e-01 9.910771e-01 1.366392e+00 1.621981e+00 2.107471e+00 1.932571e+00 1.691108e+00 1.389418e+00 1.181434e+00 2.236415e-02 1.347241e+00 2.446884e-02 4.274621e-01 -1.241542e-01 -1.292363e+00 -7.250882e-01 -5.385484e-01 -7.613307e-01 -8.587390e-01 -2.701344e-01 -4.897423e-01 -3.232708e-01 -2.418786e-02
<VARIANCE> 39
 1.279705e+01 1.802992e+01 2.104502e+01 1.942536e+01 2.179804e+01 2.480869e+01 2.758081e+01 2.469230e+01 2.513906e+01 2.322491e+01 2.076744e+01 1.671914e+01 1.408850e-02 1.462606e+00 1.736448e+00 2.185240e+00 2.729286e+00 3.373289e+00 2.653175e+00 2.801853e+00 2.744701e+00 2.488425e+00 2.549527e+00 2.408238e+00 2.034169e+00 8.137443e-04 3.696510e-01 3.916307e-01 3.977163e-01 6.797674e-01 6.825913e-01 5.254129e-01 5.260992e-01 5.424922e-01 5.437262e-01 5.826450e-01 4.887430e-01 4.328801e-01 2.948300e-04
<GCONST> 9.082589e+01
<MIXTURE> 5 9.391093e-02
<MEAN> 39
 -2.097490e+01 6.073831e+00 9.952325e+00 -6.032253e+00 -7.237068e+00 -5.826943e+00 -6.284699e+00 -7.990660e+00 -7.005653e+00 -5.882282e+00 -4.269589e+00 -4.952247e-01 6.096452e-01 -2.682820e+00 3.602529e-01 -6.833082e-01 1.254158e+00 2.862165e+00 1.816467e+00 1.873857e+00 1.417697e+00 1.866567e+00 1.348691e+00 6.408582e-01 4.806644e-01 8.375155e-03 8.140409e-01 -5.782146e-01 -6.949954e-01 2.071564e-02 -3.790505e-01 -7.607281e-02 1.858268e-01 6.978577e-01 1.090460e-01 5.262147e-01 3.983923e-01 4.039985e-02 -1.752339e-02
<VARIANCE> 39
 4.080087e+01 2.867527e+01 3.913514e+01 4.965159e+01 5.782376e+01 3.928629e+01 4.267609e+01 4.759269e+01 4.427624e+01 4.053804e+01 4.052635e+01 3.705757e+01 2.007798e-02 4.135358e+00 4.688463e+00 4.265849e+00 5.271031e+00 5.657499e+00 4.904263e+00 4.285991e+00 6.150974e+00 5.236107e+00 4.826616e+00 4.574123e+00 3.907452e+00 3.508131e-03 8.768297e-01 6.471337e-01 6.414418e-01 8.922770e-01 1.464911e+00 8.948959e-01 9.640749e-01 8.602203e-01 8.928866e-01 7.543287e-01 7.159887e-01 6.869055e-01 9.460230e-04
<GCONST> 1.165813e+02
<STATE> 4
<NUMMIXES> 5
<MIXTURE> 1 2.527860e-01
<MEAN> 39
 -2.505711e+01 -2.903124e+00 5.784664e+00 -3.702470e+00 -7.868877e+00 -3.197940e+00 6.307920e-01 -2.242505e+00 -2.370170e+00 8.736826e-01 -1.551056e+00 1.633011e-01 5.981632e-01 1.001534e+00 -9.239140e-02 -1.020732e+00 1.298029e+00 4.086454e-01 -6.451606e-01 9.135922e-02 1.022555e+00 -1.548379e-01 -2.222690e-01 3.269298e-01 -1.288643e-03 -4.379458e-02 5.051110e-01 4.336300e-01 -5.409888e-03 1.061781e-01 4.111251e-01 5.819058e-02 -3.179666e-01 1.261034e-01 2.668243e-03 -1.282477e-01 -2.217785e-02 7.038715e-02 -1.512448e-02
<VARIANCE> 39
 2.065433e+01 1.764187e+01 2.726370e+01 2.806511e+01 2.203376e+01 2.526351e+01 2.836366e+01 2.936578e+01 2.291572e+01 2.506996e+01 2.251032e+01 2.015752e+01 2.714724e-02 3.174328e+00 1.509130e+00 2.181663e+00 2.860013e+00 2.628773e+00 3.129391e+00 2.930362e+00 2.945419e+00 2.935119e+00 2.309814e+00 2.072584e+00 2.009800e+00 2.921971e-03 3.412066e-01 2.905640e-01 3.508341e-01 4.391236e-01 4.798026e-01 5.124501e-01 6.098469e-01 6.670761e-01 4.969760e-01 5.058951e-01 4.459844e-01 3.727684e-01 2.962296e-04
<GCONST> 9.350924e+01
<MIXTURE> 2 2.666576e-01
<MEAN> 39
 -2.902739e+01 2.879057e+00 6.284928e+00 -6.075620e+00 -3.137237e+00 -3.042074e-01 4.465825e-02 -2.073267e+00 -2.684526e-01 -4.687512e-02 -9.254452e-01 1.224178e+00 7.218968e-01 9.022709e-01 1.117733e+00 -4.617888e-01 1.958707e+00 1.614400e+00 7.516741e-01 9.956596e-01 1.142912e+00 5.269611e-01 1.174957e+00 8.457285e-01 4.442417e-01 -1.015201e-01 1.427600e+00 1.673989e-01 -1.024919e-01 5.265331e-01 9.694654e-02 -1.527056e-01 -1.592672e-01 1.423734e-01 -1.832610e-01 2.330820e-02 2.036569e-01 8.945590e-02 -6.127388e-02
<VARIANCE> 39
 1.493277e+01 2.724627e+01 2.653967e+01 2.723195e+01 2.950331e+01 2.498804e+01 2.882330e+01 2.888281e+01 2.752651e+01 2.298858e+01 2.240706e+01 1.922788e+01 1.488069e-02 3.924626e+00 2.767803e+00 2.932225e+00 3.711018e+00 3.568229e+00 3.191025e+00 3.398920e+00 3.361797e+00 3.401421e+00 3.049996e+00 2.640600e+00 2.273673e+00 6.497399e-03 4.825664e-01 4.966219e-01 4.742695e-01 6.343549e-01 7.807266e-01 6.570007e-01 6.602235e-01 6.681611e-01 6.758289e-01 4.882123e-01 5.446947e-01 4.643281e-01 4.739768e-04
<GCONST> 1.003868e+02
<MIXTURE> 3 1.683180e-01
<MEAN> 39
 -2.170083e+01 4.743385e+00 5.855453e+00 -3.883133e-02 1.218532e+00 -9.710583e-02 8.179784e-01 1.846168e+00 -7.301425e-02 2.118706e+00 1.656565e+00 2.377608e+00 3.407139e-01 2.222965e+00 7.588142e-01 -1.122989e+00 1.914146e+00 1.533025e+00 7.232918e-01 3.821752e-01 1.090879e+00 6.052088e-01 9.505676e-01 8.957284e-01 7.080511e-01 -1.579973e-01 2.034300e-01 -4.943891e-01 -2.447215e-01 -5.812702e-01 -7.150617e-01 -3.404521e-01 -4.332236e-01 -5.104954e-01 -3.212982e-01 -3.832560e-01 -3.559760e-01 -2.166070e-01 1.230756e-02
<VARIANCE> 39
 2.807512e+01 4.119587e+01 2.800481e+01 3.420146e+01 2.778867e+01 3.231364e+01 3.424785e+01 3.245510e+01 2.918185e+01 2.430805e+01 2.311819e+01 1.967195e+01 6.160064e-02 4.656883e+00 2.825089e+00 2.753535e+00 3.762496e+00 3.514578e+00 4.009271e+00 3.818297e+00 3.689538e+00 3.690551e+00 2.845555e+00 3.203212e+00 2.456595e+00 8.046707e-03 6.429150e-01 6.507347e-01 5.283465e-01 6.949711e-01 6.452540e-01 7.080726e-01 7.313640e-01 6.518744e-01 5.958511e-01 5.713440e-01 4.801441e-01 4.443330e-01 1.066686e-03
<GCONST> 1.062405e+02
<MIXTURE> 4 1.561872e-01
<MEAN> 39
 -2.868338e+01 3.921132e+00 4.509038e+00 -9.319611e+00 -1.432594e+00 -1.365843e+00 -1.856460e+00 -1.941500e+00 1.824151e-01 -1.418094e+00 -5.623127e-01 2.230761e+00 6.813760e-01 2.714129e+00 -7.369543e-01 4.607238e-01 1.610373e-01 -2.389752e+00 -1.481797e+00 -8.023903e-01 -9.061158e-01 -1.314785e+00 -4.901213e-01 -5.232744e-01 -3.098494e-01 -5.781849e-02 1.484891e+00 -1.574640e-01 8.172416e-02 2.114455e-01 -9.251620e-01 -8.325406e-01 -6.138013e-01 -2.011065e-01 -8.351644e-01 -2.602338e-01 -2.994194e-01 -3.865730e-01 -1.892360e-02
<VARIANCE> 39
 1.610933e+01 2.466585e+01 2.852414e+01 2.723580e+01 2.865641e+01 2.874487e+01 3.363721e+01 3.317394e+01 2.741064e+01 2.460870e+01 2.337818e+01 1.765914e+01 1.802608e-02 4.321658e+00 2.625617e+00 3.005718e+00 4.009385e+00 5.345275e+00 4.242145e+00 3.969659e+00 3.208777e+00 3.732399e+00 3.177161e+00 2.705660e+00 2.213176e+00 1.964706e-03 5.279619e-01 4.704080e-01 6.241126e-01 8.239753e-01 1.069216e+00 7.313504e-01 8.215005e-01 9.722920e-01 7.886595e-01 7.065033e-01 6.945415e-01 5.765748e-01 3.865274e-04
<GCONST> 1.032972e+02
<MIXTURE> 5 1.560512e-01
<MEAN> 39
 -1.540664e+01 1.879610e+00 7.389583e+00 -5.912248e+00 -9.590584e+00 -8.585916e+00 -7.153635e+00 -5.562494e+00 -7.513250e+00 -3.927109e+00 -3.109338e+00 -4.420029e-01 4.551464e-01 3.501408e+00 -5.337211e-01 -1.041953e+00 6.622745e-01 -1.022085e+00 -1.492544e+00 -1.085098e+00 5.589292e-01 -7.790273e-01 4.589915e-01 -9.416264e-02 -2.837699e-01 -5.256234e-02 -1.615468e-01 -2.553791e-01 -5.029545e-01 -8.472353e-02 3.755400e-01 5.300924e-01 2.483051e-01 3.466774e-01 4.480296e-01 4.232966e-01 9.615509e-02 -4.974449e-02 9.063207e-03
<VARIANCE> 39
 5.393070e+01 4.259865e+01 4.069976e+01 6.449221e+01 5.875783e+01 5.668392e+01 5.629548e+01 6.361245e+01 4.812909e+01 3.911835e+01 3.633183e+01 3.089185e+01 3.483153e-02 9.027617e+00 5.167541e+00 6.082944e+00 5.833593e+00 1.053182e+01 7.828215e+00 8.136627e+00 6.385388e+00 8.242508e+00 5.663380e+00 5.409943e+00 4.346550e+00 4.695844e-03 1.078240e+00 7.068018e-01 7.854057e-01 9.821583e-01 1.382061e+00 1.204158e+00 1.097160e+00 1.229765e+00 8.878426e-01 8.407588e-01 7.875624e-01 6.830336e-01 6.523987e-04
<GCONST> 1.242348e+02
<TRANSP> 5
 0.000000e+00 1.000000e+00 0.000000e+00 0.000000e+00 0.000000e+00
 0.000000e+00 5.825670e-01 4.174330e-01 0.000000e+00 0.000000e+00
 0.000000e+00 0.000000e+00 6.479377e-01 3.520623e-01 0.000000e+00
 0.000000e+00 0.000000e+00 0.000000e+00 6.199526e-01 3.800474e-01
 0.000000e+00 0.000000e+00 0.000000e+00 0.000000e+00 0.000000e+00
<ENDHMM>
~h "E"
<BEGINHMM>
<NUMSTATES> 5
<STATE> 2
<NUMMIXES> 5
<MIXTURE> 1 2.182008e-01
<MEAN> 39
 -1.588567e+01 1.095763e+00 6.161425e-01 -3.636077e+00 -6.104712e+00 -8.874027e+00 -2.824012e+00 -1.469175e+00 -2.284354e+00 -1.595281e+00 -3.313548e+00 -1.182357e-01 5.239048e-01 3.590442e+00 -2.048856e+00 5.767865e-01 -1.550398e+00 -3.474412e+00 -1.971486e+00 -1.891001e+00 2.802423e-01 -6.103831e-01 -6.479186e-01 -8.074167e-01 -1.017214e+00 5.390745e-02 3.191366e-01 -4.465114e-01 -5.738039e-03 -1.047211e-01 -3.069779e-01 2.446610e-01 -2.080297e-01 2.846111e-01 -9.261324e-02 -9.236571e-02 6.731554e-02 -2.364328e-01 1.257238e-03
<VARIANCE> 39
 4.288887e+01 3.657167e+01 3.392000e+01 3.328614e+01 6.112032e+01 6.181989e+01 5.468226e+01 4.355640e+01 4.404278e+01 4.484518e+01 3.029769e+01 3.015941e+01 3.878073e-02 5.004661e+00 5.380875e+00 4.859063e+00 5.299565e+00 6.941957e+00 7.310143e+00 7.409513e+00 6.178271e+00 5.226007e+00 6.631685e+00 4.313973e+00 4.121156e+00 8.818370e-03 9.066685e-01 6.342524e-01 7.075625e-01 6.836560e-01 9.391479e-01 1.113885e+00 9.985220e-01 8.132285e-01 7.385897e-01 6.690852e-01 6.835369e-01 5.062700e-01 1.256859e-03
<GCONST> 1.193301e+02
<MIXTURE> 2 1.303555e-01
<MEAN> 39
 -7.665070e+00 -4.466011e+00 -4.046349e+00 -1.050823e+01 -1.435108e+01 -1.307565e+01 -6.479546e+00 -4.545184e+00 -5.764832e+00 -9.036784e+00 -9.987449e+00 -1.063259e+00 5.690194e-01 3.352000e+00 -2.443317e+00 -8.107709e-01 -2.679853e+00 -3.135962e+00 -1.712146e+00 -3.577942e-01 -4.766971e-01 -1.083363e+00 -1.298762e+00 -1.971654e+00 -7.101942e-01 4.148999e-02 -1.184606e+00 -2.920375e-02 6.468721e-02 5.575523e-01 1.070273e+00 9.686555e-01 5.467547e-01 6.456724e-01 2.487760e-01 6.642699e-01 7.256437e-01 6.470565e-02 4.933853e-03
<VARIANCE> 39
 1.642822e+01 3.107479e+01 3.348909e+01 3.906802e+01 5.484825e+01 3.851737e+01 5.766701e+01 3.872823e+01 4.893537e+01 5.538390e+01 5.102895e+01 3.403457e+01 1.515379e-02 2.474944e+00 3.399194e+00 3.057256e+00 4.183246e+00 7.100449e+00 5.996717e+00 5.889690e+00 5.896395e+00 4.253109e+00 5.572454e+00 4.085264e+00 4.086802e+00 1.987450e-03 2.651093e-01 3.586091e-01 3.847082e-01 4.919313e-01 6.513906e-01 5.849930e-01 6.273082e-01 6.759611e-01 6.697289e-01 6.076037e-01 5.729024e-01 4.874359e-01 3.573111e-04
<GCONST> 1.074159e+02
<MIXTURE> 3 2.201763e-01
<MEAN> 39
 -2.757335e+00 -9.641823e+00 4.200980e+00 -5.491611e+00 -1.483961e+01 -6.328233e+00 -1.510433e+01 3.253741e+00 -1.375821e+00 2.854095e+00 -2.662930e+00 -3.480204e+00 6.547881e-01 2.655442e+00 -3.071629e+00 8.154848e-01 -8.010194e-01 -2.825246e+00 2.892772e-01 -1.878864e+00 2.117217e+00 7.839976e-02 4.865794e-01 -1.653125e-01 -5.769497e-01 5.909424e-02 -1.117400e+00 8.120604e-01 -2.270171e-01 3.904707e-01 9.720068e-01 2.966084e-01 1.027007e+00 -2.690464e-01 -1.799278e-01 -3.494745e-01 2.111982e-02 2.113521e-01 -1.655286e-02
<VARIANCE> 39
 1.658515e+01 3.046300e+01 3.564339e+01 2.989224e+01 4.029719e+01 4.929964e+01 3.263365e+01 4.052891e+01 3.062512e+01 3.924245e+01 3.322564e+01 2.567203e+01 2.166927e-02 3.716342e+00 3.120799e+00 3.166714e+00 2.912671e+00 4.168274e+00 5.739723e+00 4.688302e+00 4.098678e+00 3.025365e+00 2.978109e+00 2.830398e+00 2.384445e+00 2.239908e-03 6.317816e-01 5.980839e-01 5.625349e-01 4.783981e-01 6.662887e-01 8.323562e-01 6.551811e-01 6.808302e-01 6.801637e-01 5.330184e-01 5.697678e-01 4.239692e-01 5.009391e-04
<GCONST> 1.047561e+02
<MIXTURE> 4 2.525988e-01
<MEAN> 39
 -6.911639e+00 -3.841557e+00 1.455122e+00 -6.345125e+00 -1.106283e+01 -1.061190e+01 -7.546245e+00 -2.020009e-01 -6.207032e+00 -3.646557e+00 -4.141259e+00 -4.511864e+00 5.113906e-01 1.875276e-01 -1.826173e+00 -7.721085e-01 -1.327231e+00 -7.594235e-01 -2.562829e-02 5.314148e-01 1.925958e+00 9.614269e-01 -2.828431e-01 -1.348797e-01 1.447028e-01 4.853600e-02 -8.521354e-02 -1.417084e-02 8.325168e-02 1.145245e-01 -7.189329e-02 2.108304e-01 2.192078e-01 -1.414249e-01 -1.814953e-01 3.891201e-02 -1.180093e-01 6.405395e-02 3.060750e-03
<VARIANCE> 39
 2.416767e+01 3.316785e+01 5.013601e+01 5.104506e+01 6.554680e+01 6.291699e+01 7.747547e+01 8.525658e+01 6.676207e+01 6.936440e+01 5.535984e+01 4.731463e+01 2.827607e-02 2.517431e+00 3.466680e+00 2.723852e+00 3.744393e+00 4.211043e+00 5.973361e+00 6.910206e+00 5.834079e+00 4.771267e+00 4.537089e+00 4.429887e+00 4.202575e+00 2.526437e-03 3.608226e-01 4.143946e-01 4.290945e-01 4.899434e-01 6.599703e-01 7.031265e-01 8.543949e-01 9.802002e-01 7.959194e-01 6.222200e-01 7.024727e-01 5.939658e-01 3.172849e-04
<GCONST> 1.134679e+02
<MIXTURE> 5 1.786686e-01
<MEAN> 39
 -7.331835e+00 -1.259966e+01 2.857767e-01 -1.735976e+01 -1.215701e+01 -1.492529e+01 -3.747991e+00 1.968516e+00 -6.944980e+00 -4.160307e+00 -1.205621e+01 7.342286e-01 6.973245e-01 5.666552e-01 -2.410830e+00 2.988390e-01 -2.056790e+00 -6.139151e-01 2.266562e-01 1.681332e+00 1.128466e+00 -1.159798e+00 -1.615729e-01 -9.075405e-01 1.298752e-01 5.896098e-02 -6.339403e-01 1.161726e+00 -2.761881e-02 1.197552e+00 4.401253e-01 7.279605e-01 -1.834790e-01 -6.892343e-01 -8.881176e-02 -9.391315e-02 5.993593e-01 -3.207978e-01 -2.403549e-02
<VARIANCE> 39
 2.144201e+01 2.108515e+01 4.245835e+01 3.747366e+01 4.126190e+01 3.958101e+01 6.849834e+01 4.136622e+01 4.831478e+01 5.388324e+01 4.758047e+01 3.739899e+01 1.492975e-02 1.944988e+00 2.887636e+00 2.362123e+00 3.354503e+00 3.640600e+00 3.759610e+00 4.941998e+00 4.265378e+00 3.416633e+00 3.735908e+00 3.240261e+00 3.167979e+00 2.534141e-03 5.516450e-01 4.059108e-01 4.368014e-01 4.676493e-01 6.300492e-01 7.667195e-01 8.867798e-01 8.590841e-01 8.452888e-01 8.386385e-01 7.719988e-01 5.886782e-01 3.517567e-04
<GCONST> 1.068432e+02
<STATE> 3
<NUMMIXES> 5
<MIXTURE> 1 1.913360e-01
<MEAN> 39
 -2.000721e+00 -1.360413e+01 4.761875e+00 -6.067892e+00 -1.696649e+01 -3.058854e+00 -1.551029e+01 7.030237e+00 -1.318713e+00 2.529566e+00 -4.533225e+00 -3.662795e+00 7.243081e-01 1.925732e-01 1.616369e-01 1.896189e-01 2.090275e-01 2.108857e-02 5.137452e-02 5.089547e-01 2.582127e-01 -4.528313e-01 -4.009101e-01 -7.194652e-02 -2.229168e-02 -6.399168e-03 -7.689823e-01 1.557299e+00 -1.339802e-01 6.029154e-01 1.115145e+00 -4.120072e-01 1.024736e+00 -1.028011e+00 -2.730186e-01 -2.526699e-01 2.522303e-01 1.741044e-01 -3.298793e-02
<VARIANCE> 39
 1.458709e+01 2.988799e+01 3.135047e+01 2.984765e+01 3.982456e+01 4.560834e+01 3.572682e+01 3.392916e+01 3.081112e+01 3.954831e+01 2.997077e+01 2.569871e+01 2.082646e-02 8.103993e-01 2.565962e+00 1.990635e+00 1.590022e+00 2.644673e+00 3.145059e+00 2.638929e+00 4.076073e+00 3.018334e+00 2.173005e+00 3.023532e+00 1.753608e+00 1.627269e-03 5.716203e-01 5.215149e-01 4.648554e-01 4.856123e-01 7.824610e-01 9.426228e-01 8.590280e-01 6.177138e-01 5.882296e-01 5.188469e-01 5.042174e-01 3.881214e-01 3.295374e-04
<GCONST> 9.811515e+01
<MIXTURE> 2 2.123734e-01
<MEAN> 39
 -6.229957e+00 -4.003571e+00 -1.058328e+00 -6.407071e+00 -9.175634e+00 -1.674920e+01 -3.573332e+00 -1.910026e-01 -1.103714e+00 -5.267493e-01 -4.980107e+00 -2.906022e+00 6.504959e-01 6.023833e-01 -1.768124e-01 6.123337e-02 6.481034e-02 -5.179335e-01 -1.826366e-01 2.505017e-01 4.837515e-01 -3.022972e-01 -3.333423e-01 1.332978e-01 -3.613796e-01 5.256358e-03 -7.731149e-01 6.499423e-01 2.886174e-01 4.989274e-01 4.941853e-01 1.113022e+00 8.937357e-02 -2.110835e-01 -3.823977e-01 -3.429615e-02 3.188604e-01 5.904233e-02 -2.109814e-02
<VARIANCE> 39
 2.445992e+01 2.970644e+01 4.876460e+01 4.189817e+01 3.823976e+01 5.504610e+01 4.811564e+01 5.083953e+01 4.662406e+01 5.028193e+01 4.522018e+01 4.280651e+01 2.526433e-02 2.557147e+00 2.765528e+00 2.996810e+00 2.391820e+00 3.260713e+00 4.124026e+00 4.797019e+00 3.449187e+00 3.849493e+00 3.005864e+00 2.892076e+00 2.551846e+00 1.803813e-03 5.923571e-01 6.513556e-01 7.130184e-01 6.749930e-01 5.901546e-01 9.073147e-01 9.297516e-01 9.348370e-01 1.046624e+00 8.130332e-01 6.771116e-01 5.727237e-01 5.992752e-04
<GCONST> 1.094749e+02
<MIXTURE> 3 1.665384e-01
<MEAN> 39
 -1.166249e+01 -1.360023e+01 -7.473555e-01 -1.903894e+01 -1.307286e+01 -1.097869e+01 7.575384e+00 -5.832970e+00 -9.717875e+00 -8.885969e+00 -7.613846e+00 2.512617e-01 7.319899e-01 -7.634041e-02 2.130617e-01 8.740275e-02 -1.451668e-01 -4.010837e-01 1.478646e-01 -9.939898e-02 -7.069654e-01 -5.270903e-01 2.246618e-01 5.650660e-02 -1.175457e-02 -8.165119e-04 4.730087e-02 8.342363e-01 7.721698e-02 5.591660e-01 -4.598323e-02 -2.407889e-01 -9.215912e-01 -9.815441e-03 9.062883e-02 2.417610e-02 4.581660e-02 3.001989e-02 -2.004436e-02
<VARIANCE> 39
 1.526656e+01 2.298231e+01 1.930918e+01 2.481462e+01 3.747014e+01 3.061007e+01 5.617754e+01 4.835220e+01 3.549993e+01 3.365524e+01 3.262317e+01 2.832986e+01 1.733977e-02 7.813199e-01 2.428029e+00 1.489960e+00 1.816188e+00 2.320704e+00 2.769023e+00 4.351688e+00 2.720527e+00 2.495420e+00 2.267290e+00 1.840404e+00 1.956372e+00 1.148276e-03 2.424381e-01 4.002628e-01 2.362658e-01 5.474267e-01 4.246768e-01 5.212082e-01 5.998157e-01 5.090661e-01 4.678130e-01 3.949476e-01 4.052981e-01 3.844491e-01 2.509897e-04
<GCONST> 9.182341e+01
<MIXTURE> 4 2.875249e-01
<MEAN> 39
 -5.617971e+00 -9.739382e+00 1.823035e+00 -1.040893e+01 -1.296308e+01 -9.937755e+00 -5.755932e+00 5.546889e+00 -6.585721e+00 -1.946543e+00 -7.898879e+00 -2.232219e+00 6.719789e-01 6.687595e-02 2.228291e-02 4.227833e-02 7.379595e-02 -5.167792e-03 1.122376e-01 5.253789e-02 -2.037068e-01 -2.689324e-01 -1.481339e-01 -4.054316e-02 -4.268036e-03 2.014892e-03 1.938668e-02 4.044672e-01 8.686182e-02 2.826075e-01 1.484643e-01 -9.895797e-02 -1.792356e-01 -5.082732e-01 -3.743227e-02 4.330179e-02 9.334063e-02 -5.016167e-02 -1.128041e-02
<VARIANCE> 39
 1.400914e+01 3.582295e+01 4.796582e+01 6.037260e+01 6.086887e+01 5.571644e+01 4.927761e+01 4.191549e+01 6.293379e+01 5.566829e+01 5.283456e+01 3.993102e+01 2.403762e-02 3.857965e-01 9.098794e-01 1.044119e+00 1.012266e+00 1.480072e+00 1.749490e+00 1.849712e+00 1.626224e+00 1.774148e+00 1.431663e+00 1.349692e+00 1.306976e+00 6.505976e-04 9.544444e-02 2.050782e-01 1.830933e-01 2.554917e-01 2.427434e-01 3.411429e-01 3.150721e-01 4.135473e-01 3.337476e-01 3.485411e-01 3.278390e-01 2.433653e-01 1.478091e-04
<GCONST> 8.391521e+01
<MIXTURE> 5 1.422273e-01
<MEAN> 39
 -1.112770e+01 -8.948813e+00 -4.917231e+00 -1.023474e+01 -2.196649e+01 -6.186049e+00 -7.263127e+00 3.039059e-01 -8.004698e+00 -1.473241e+01 -5.502086e+00 -6.324049e+00 7.165369e-01 4.816331e-02 -2.361312e-01 -3.730530e-01 1.624668e-01 -6.342560e-01 2.863454e-01 6.402783e-02 -4.160335e-01 -7.300457e-01 -5.444102e-01 -1.378746e-01 2.597626e-02 7.617286e-03 -9.936062e-02 9.739568e-01 4.450499e-01 6.288828e-01 8.876528e-01 -4.384512e-01 -1.950763e-01 -6.857151e-01 -3.869371e-02 7.926863e-01 -1.051290e-02 4.117573e-01 -2.554858e-02
<VARIANCE> 39
 1.212394e+01 1.899222e+01 3.299925e+01 3.172332e+01 4.750079e+01 2.922639e+01 3.373127e+01 2.708830e+01 6.628709e+01 3.786345e+01 4.699935e+01 4.269053e+01 1.438859e-02 8.374149e-01 2.807560e+00 1.929794e+00 1.778211e+00 2.973274e+00 3.289791e+00 3.091699e+00 4.187463e+00 3.147774e+00 3.606697e+00 2.488415e+00 3.623942e+00 1.717076e-03 3.378716e-01 4.125400e-01 3.567048e-01 4.239668e-01 8.552088e-01 5.754614e-01 6.046264e-01 7.515007e-01 6.138496e-01 6.958827e-01 5.931198e-01 6.223871e-01 3.310718e-04
<GCONST> 9.928725e+01
<STATE> 4
<NUMMIXES> 5
<MIXTURE> 1 1.701106e-01
<MEAN> 39
 -2.353481e+00 -7.828621e+00 4.727457e+00 -4.582371e+00 -1.349260e+01 -8.685409e+00 -1.123835e+01 4.909637e+00 -2.974897e+00 2.250343e+00 -3.971039e+00 -1.895829e+00 5.964284e-01 -1.259396e+00 3.656446e+00 3.262242e-01 1.781692e+00 2.112903e+00 -2.410398e-01 2.070441e+00 -1.200693e+00 -2.342044e-01 -8.781625e-01 4.879498e-01 3.589643e-01 -8.070447e-02 -1.293921e+00 7.568428e-01 -1.349982e-01 2.932184e-01 8.389151e-01 5.220854e-01 7.464447e-01 -5.182465e-01 1.999273e-01 -1.166392e-01 1.159469e-01 1.190374e-01 -1.056830e-02
<VARIANCE> 39
 1.226105e+01 3.364402e+01 4.256347e+01 2.780194e+01 4.772694e+01 5.034698e+01 4.454763e+01 4.637223e+01 3.412823e+01 4.612860e+01 3.560960e+01 3.089400e+01 2.222242e-02 3.750563e+00 4.641842e+00 3.106903e+00 2.705220e+00 5.105387e+00 5.522293e+00 6.183515e+00 4.970948e+00 4.180574e+00 3.276523e+00 3.126825e+00 2.587537e+00 3.783576e-03 4.854446e-01 7.070554e-01 4.933365e-01 4.479514e-01 6.958414e-01 7.929545e-01 6.442208e-01 8.911304e-01 7.678896e-01 7.098163e-01 5.622053e-01 4.751609e-01 7.982075e-04
<GCONST> 1.088441e+02
<MIXTURE> 2 2.083938e-01
<MEAN> 39
 -1.041049e+01 3.390436e+00 4.785116e+00 -1.131109e+00 -6.218120e+00 -8.173734e+00 -2.751826e+00 -1.007328e+00 -4.323346e+00 -2.635184e+00 -3.905986e+00 -1.610604e+00 4.403634e-01 -4.142999e+00 1.995753e+00 1.020418e-01 1.554083e+00 2.395545e+00 2.443220e+00 1.541325e+00 -2.254486e-01 7.835844e-01 -4.575342e-02 1.218227e+00 4.664179e-01 -1.827533e-02 -5.577402e-01 -9.411387e-01 -5.426271e-01 -6.103740e-01 -1.826394e-01 2.064118e-01 -1.418369e-01 2.537843e-01 3.182110e-01 4.433772e-01 4.312711e-02 1.520619e-01 2.260081e-02
<VARIANCE> 39
 3.560789e+01 3.146818e+01 4.495269e+01 3.765784e+01 4.963422e+01 5.457746e+01 4.980473e+01 5.977500e+01 4.743481e+01 4.370816e+01 3.293535e+01 3.675446e+01 2.986043e-02 5.220938e+00 4.429840e+00 4.817753e+00 5.180775e+00 5.052093e+00 5.524454e+00 5.641428e+00 5.804994e+00 4.689054e+00 4.698879e+00 4.859889e+00 3.090827e+00 6.496669e-03 6.830800e-01 4.659869e-01 4.759567e-01 4.669422e-01 7.563353e-01 9.733177e-01 1.019142e+00 9.676767e-01 7.908117e-01 6.399422e-01 5.621367e-01 5.261683e-01 4.193402e-04
<GCONST> 1.145571e+02
<MIXTURE> 3 2.869540e-01
<MEAN> 39
 -8.460826e+00 -9.546946e+00 1.313961e+00 -1.208998e+01 -1.546545e+01 -1.059654e+01 -4.285086e+00 1.105563e+00 -1.027473e+01 -6.025837e+00 -6.139189e+00 -3.369273e+00 7.085314e-01 8.132389e-01 1.652707e+00 1.520453e-01 1.392316e+00 1.269364e-01 -3.089222e-01 -6.446469e-01 -1.568500e+00 -1.089967e+00 5.697318e-01 2.009179e-01 -2.777007e-01 -5.524490e-02 1.159515e-02 9.082210e-01 6.224807e-03 7.885324e-01 4.145463e-01 -3.316730e-02 -1.439333e-01 -7.604831e-01 2.033945e-01 3.076050e-01 4.842835e-02 1.897183e-02 -2.488627e-02
<VARIANCE> 39
 2.397285e+01 3.602615e+01 5.891603e+01 5.741069e+01 6.635374e+01 6.391755e+01 7.801289e+01 7.279678e+01 7.756742e+01 6.345784e+01 6.965879e+01 5.686610e+01 1.977233e-02 1.052508e+00 3.282804e+00 2.519264e+00 3.176884e+00 3.251962e+00 4.423166e+00 4.412166e+00 5.694062e+00 6.052399e+00 4.160351e+00 4.124675e+00 3.419266e+00 2.427449e-03 3.050829e-01 4.499429e-01 6.930061e-01 5.022918e-01 8.217047e-01 9.172847e-01 8.558182e-01 1.109631e+00 1.107973e+00 8.623819e-01 7.084619e-01 5.760872e-01 3.998999e-04
<GCONST> 1.133440e+02
<MIXTURE> 4 1.517979e-01
<MEAN> 39
 -8.165517e+00 -2.574787e+00 -1.900143e+00 -1.193171e+01 -1.714705e+01 -1.331167e+01 -5.832886e+00 -7.296681e+00 -8.168935e+00 -7.530826e+00 -1.072694e+01 -1.621303e+00 5.558019e-01 -1.741045e+00 3.814183e+00 1.168532e+00 2.382519e+00 1.710489e+00 1.213361e+00 -7.919161e-01 -1.447020e+00 1.119793e-01 -2.802708e-01 1.051318e+00 -2.569308e-01 -5.353738e-02 -1.173469e+00 -5.221532e-04 1.788807e-01 5.478170e-01 1.205492e+00 9.349347e-01 5.016899e-01 8.879655e-01 5.151327e-01 5.050210e-01 7.336488e-01 1.250380e-01 9.298804e-03
<VARIANCE> 39
 1.849992e+01 3.777749e+01 5.005368e+01 5.679981e+01 6.252371e+01 3.946186e+01 5.634102e+01 4.280765e+01 4.982056e+01 6.780653e+01 4.584697e+01 4.218192e+01 1.491244e-02 2.813328e+00 2.560405e+00 2.950379e+00 4.580729e+00 4.606920e+00 4.580881e+00 5.317765e+00 5.666910e+00 4.062326e+00 4.598022e+00 4.147295e+00 2.975400e+00 3.090418e-03 3.253909e-01 6.701026e-01 5.520393e-01 6.370836e-01 6.187307e-01 6.456863e-01 8.077606e-01 7.897169e-01 7.875026e-01 9.742225e-01 6.318548e-01 7.506458e-01 4.038468e-04
<GCONST> 1.111988e+02
<MIXTURE> 5 1.827437e-01
<MEAN> 39
 -1.700501e+00 -4.230933e+00 1.571324e+00 -3.972107e+00 -9.497893e+00 -9.676952e+00 -9.386033e+00 -2.317407e+00 -8.278260e+00 -2.011339e+00 -5.180940e+00 -4.255683e+00 4.897317e-01 3.202126e-01 2.383329e+00 7.101088e-01 2.361804e+00 1.408424e-01 -1.169385e+00 7.154840e-01 -3.560548e+00 -1.884016e+00 1.513973e+00 3.884783e-01 -1.837685e-01 -5.226782e-02 -2.133455e-01 1.203185e-01 1.467775e-01 3.103106e-02 -1.752388e-01 -1.264635e-01 3.239918e-01 -2.092886e-01 -1.277529e-01 2.408864e-01 -1.847927e-01 1.482495e-01 3.338143e-03
<VARIANCE> 39
 1.239054e+01 4.042197e+01 3.650947e+01 7.360253e+01 4.535466e+01 8.700781e+01 6.487318e+01 6.822955e+01 8.398790e+01 6.420865e+01 8.625081e+01 5.454379e+01 2.127208e-02 9.724898e-01 2.208551e+00 4.986066e+00 2.716950e+00 3.504928e+00 5.452189e+00 5.801686e+00 4.707010e+00 5.230201e+00 5.430760e+00 4.917021e+00 3.631512e+00 7.913702e-04 1.303221e-01 3.433256e-01 3.612446e-01 4.334224e-01 3.910505e-01 6.623917e-01 6.464499e-01 9.162009e-01 6.814988e-01 6.668067e-01 5.764852e-01 4.683366e-01 1.314333e-04
<GCONST> 1.065086e+02
<TRANSP> 5
 0.000000e+00 1.000000e+00 0.000000e+00 0.000000e+00 0.000000e+00
 0.000000e+00 5.621431e-01 4.378569e-01 0.000000e+00 0.000000e+00
 0.000000e+00 0.000000e+00 6.423202e-01 3.576798e-01 0.000000e+00
 0.000000e+00 0.000000e+00 0.000000e+00 5.748532e-01 4.251468e-01
 0.000000e+00 0.000000e+00 0.000000e+00 0.000000e+00 0.000000e+00
<ENDHMM>
~h "E:"
<BEGINHMM>
<NUMSTATES> 6
<STATE> 2
<NUMMIXES> 5
<MIXTURE> 1 2.583849e-01
<MEAN> 39
 -5.012477e+00 -6.594040e+00 2.419963e-01 -1.034251e+01 -3.328867e+00 -9.117328e+00 -8.477565e+00 2.960318e+00 -2.835994e+00 8.678065e+00 -9.193033e+00 -3.746424e+00 5.282763e-01 4.856382e-01 -1.079553e-01 1.279331e-01 -1.684885e-01 4.216089e-01 5.024559e-01 1.807648e-01 2.097914e-01 -1.732593e-01 7.257424e-02 -9.696818e-02 -2.190325e-01 3.324659e-02 -1.929982e-01 6.417183e-02 -9.099764e-02 1.301452e-01 -9.277426e-02 1.404768e-01 2.168226e-04 -1.425004e-01 6.812102e-02 -1.678416e-01 2.406466e-01 2.407883e-02 -1.063698e-02
<VARIANCE> 39
 1.696330e+01 3.570094e+01 3.311478e+01 4.289179e+01 3.957840e+01 4.929375e+01 4.415137e+01 6.706409e+01 4.450790e+01 4.774949e+01 4.092807e+01 3.412356e+01 3.500707e-02 1.093600e+00 1.469643e+00 1.212436e+00 1.892922e+00 1.180174e+00 1.351904e+00 1.414526e+00 1.518217e+00 1.630332e+00 1.647519e+00 1.250459e+00 1.141695e+00 1.656074e-03 2.232870e-01 2.507363e-01 1.886520e-01 2.973285e-01 2.010590e-01 2.468155e-01 2.686229e-01 2.597530e-01 2.901403e-01 3.554836e-01 2.188213e-01 2.003580e-01 2.849787e-04
<GCONST> 8.494914e+01
<MIXTURE> 2 1.437009e-01
<MEAN> 39
 -8.199716e+00 -1.119429e+01 -1.820873e+00 -1.645453e+01 -8.569987e+00 -1.403297e+01 -8.527802e+00 4.117928e+00 -4.582304e+00 -5.954960e-02 -1.294099e+01 -1.278932e+00 6.108512e-01 1.470552e+00 -1.523738e+00 -3.389457e-01 -1.966176e+00 -1.001792e+00 -1.136759e+00 -9.655104e-01 2.910844e-01 -1.199987e+00 -9.963066e-01 -2.481860e+00 -1.061868e+00 1.229099e-01 -3.958924e-01 1.014152e+00 -1.164119e-01 1.209366e+00 3.636646e-01 1.014166e+00 4.173840e-01 -3.631672e-01 1.940525e-01 -1.371146e-01 7.173008e-01 5.287423e-02 -4.164364e-02
<VARIANCE> 39
 2.445345e+01 1.709757e+01 3.473063e+01 3.693908e+01 6.143547e+01 6.130799e+01 7.633599e+01 5.493508e+01 5.768748e+01 7.976443e+01 4.961918e+01 5.341827e+01 2.675924e-02 2.185067e+00 3.455751e+00 1.971910e+00 5.054863e+00 3.582875e+00 4.864148e+00 5.337717e+00 4.222385e+00 4.096981e+00 4.392353e+00 3.569971e+00 2.918812e+00 6.011929e-03 3.951520e-01 3.037642e-01 4.170103e-01 5.396386e-01 6.480960e-01 6.959067e-01 7.624814e-01 8.119563e-01 6.981900e-01 8.023254e-01 5.195926e-01 5.763021e-01 6.743674e-04
<GCONST> 1.105806e+02
<MIXTURE> 3 1.982285e-01
<MEAN> 39
 -2.224381e+00 -7.791107e+00 3.224940e+00 -8.268112e+00 -1.166298e+01 -9.788241e-01 -1.841880e+01 1.514558e+00 1.061572e+00 5.667601e+00 2.844526e-01 -7.506196e+00 5.109626e-01 3.215446e-01 -8.623108e-01 2.651506e-01 -1.557513e-01 -1.953061e-01 4.967287e-01 -1.698912e-02 4.487960e-01 5.078782e-01 2.506697e-01 9.030554e-02 2.242143e-01 4.177044e-02 -2.281739e-01 2.754210e-01 -9.290175e-02 1.313882e-01 2.009595e-01 -1.576450e-01 3.047763e-01 -1.440376e-01 -1.981204e-01 -5.296952e-02 -1.845539e-01 1.132703e-01 -8.013246e-03
<VARIANCE> 39
 1.168773e+01 3.907987e+01 2.648410e+01 4.008596e+01 3.010163e+01 6.311575e+01 3.574345e+01 5.366676e+01 3.254422e+01 2.777834e+01 4.045372e+01 2.293217e+01 3.304586e-02 1.044235e+00 1.567102e+00 1.264706e+00 1.729805e+00 1.626574e+00 1.636529e+00 2.095437e+00 2.037575e+00 1.799527e+00 1.850222e+00 1.509889e+00 1.238677e+00 1.655872e-03 2.658696e-01 2.784837e-01 1.996713e-01 2.800185e-01 3.331231e-01 2.462996e-01 4.046502e-01 3.080679e-01 3.107579e-01 3.195768e-01 2.102140e-01 2.314777e-01 3.051417e-04
<GCONST> 8.574187e+01
<MIXTURE> 4 1.669605e-01
<MEAN> 39
 -1.364524e+01 -1.055815e+00 -2.698372e+00 -5.113707e+00 -4.718756e+00 -7.524280e+00 -6.285882e+00 -9.971554e-01 -1.023652e+00 4.625576e+00 -2.008980e+00 -1.811871e+00 2.314789e-01 1.772984e+00 -1.090825e+00 1.382711e-01 -9.979814e-01 -6.917263e-01 -1.084433e+00 -7.209584e-01 2.505123e-01 -7.019328e-01 -1.521536e-01 -1.128510e+00 -9.331279e-01 6.564242e-02 4.580760e-01 -2.069576e-01 1.053171e-01 -2.439157e-01 -2.288942e-01 2.928498e-02 -2.325676e-01 5.802621e-02 -2.717770e-01 -1.998323e-01 -1.505999e-01 -1.710412e-01 1.363724e-02
<VARIANCE> 39
 3.967808e+01 4.334223e+01 4.282917e+01 5.805064e+01 5.734669e+01 8.226688e+01 6.746989e+01 6.641797e+01 6.869507e+01 8.712994e+01 6.207016e+01 5.648306e+01 6.188300e-02 6.004934e+00 4.482005e+00 3.311763e+00 5.553544e+00 6.105796e+00 7.535687e+00 6.467960e+00 4.985630e+00 6.629584e+00 6.728427e+00 5.694401e+00 4.749811e+00 9.135509e-03 4.779712e-01 5.833361e-01 4.398611e-01 5.957675e-01 6.964417e-01 9.071184e-01 6.929929e-01 7.843558e-01 8.716600e-01 1.138058e+00 8.675085e-01 6.176561e-01 6.839416e-04
<GCONST> 1.221910e+02
<MIXTURE> 5 2.327251e-01
<MEAN> 39
 -5.647705e+00 -2.353853e+00 2.305804e+00 -6.398262e+00 -1.188699e+01 -1.055324e+01 -1.275719e+01 -2.853047e+00 -6.784775e+00 8.592699e-01 -3.042744e+00 -4.779524e+00 3.888234e-01 2.344136e+00 -1.984805e+00 7.304198e-01 -1.367744e+00 -1.938150e+00 -4.886155e-01 -1.664015e+00 9.128268e-01 -6.035753e-02 8.603445e-01 2.474539e-01 -4.958204e-01 5.899423e-02 -9.365550e-01 -6.112446e-02 -1.827301e-01 8.073886e-02 5.306718e-01 6.684008e-01 6.391217e-01 3.996995e-01 5.151394e-01 9.754077e-02 1.303047e-01 2.758010e-01 5.019681e-03
<VARIANCE> 39
 2.346174e+01 3.938675e+01 5.716645e+01 5.938580e+01 5.864535e+01 6.189816e+01 6.519420e+01 5.966173e+01 4.963636e+01 6.000278e+01 4.904162e+01 4.214433e+01 3.944947e-02 4.996891e+00 3.689236e+00 3.120835e+00 4.934353e+00 5.413202e+00 4.907963e+00 6.685270e+00 4.812533e+00 4.945297e+00 4.844265e+00 4.040599e+00 3.285683e+00 5.200858e-03 5.553974e-01 5.346454e-01 4.790759e-01 6.390393e-01 6.208922e-01 5.882025e-01 8.702815e-01 5.593057e-01 4.889371e-01 6.995468e-01 5.869474e-01 4.838279e-01 4.663067e-04
<GCONST> 1.142743e+02
<STATE> 3
<NUMMIXES> 5
<MIXTURE> 1 2.212000e-01
<MEAN> 39
 -6.741917e+00 -8.227617e+00 4.699672e+00 -9.452861e+00 -1.672895e+01 -1.012064e+01 -1.180892e+01 2.799397e+00 -8.325670e+00 -2.529404e+00 -4.984229e+00 -2.387704e+00 6.819835e-01 1.817344e-01 -7.640163e-01 -2.872418e-01 -7.431341e-01 -7.256061e-01 3.923095e-01 1.034414e-01 5.306947e-01 1.404925e-01 -5.266157e-02 -3.653945e-01 -1.513498e-01 4.047193e-02 -4.296276e-01 5.727333e-01 -3.777478e-01 4.451882e-01 6.688391e-01 2.598908e-01 4.465256e-01 -3.405372e-01 3.328308e-01 3.255768e-02 -2.815819e-02 4.364552e-02 -2.292101e-02
<VARIANCE> 39
 2.058152e+01 3.088655e+01 8.712270e+01 8.242305e+01 7.871764e+01 5.828022e+01 7.579969e+01 5.530379e+01 6.640581e+01 5.799368e+01 8.921562e+01 4.561467e+01 2.157714e-02 8.102793e-01 1.677857e+00 1.570680e+00 2.146455e+00 2.250732e+00 2.315135e+00 2.922745e+00 2.652863e+00 2.650339e+00 2.560955e+00 1.874521e+00 1.549081e+00 1.381518e-03 3.202316e-01 2.708016e-01 3.872687e-01 5.107821e-01 5.667919e-01 5.440069e-01 6.238775e-01 5.015346e-01 6.763092e-01 5.871957e-01 5.634568e-01 3.718686e-01 3.238373e-04
<GCONST> 1.012067e+02
<MIXTURE> 2 7.788001e-01
<MEAN> 39
 -1.238257e+00 -4.746530e+00 -3.079508e+00 -8.819016e+00 -6.766340e+00 -7.765800e+00 -1.034858e+01 -1.611064e+00 -1.553026e+00 3.450541e+00 -4.264444e+00 -5.789927e+00 6.080537e-01 1.131923e-01 5.976240e-02 -1.366090e-01 8.739706e-02 6.085129e-02 4.764682e-02 6.521534e-02 -1.262723e-01 -5.342766e-02 -8.034929e-02 4.276428e-02 9.562022e-03 -1.547172e-03 -2.025683e-02 -3.667769e-03 3.059207e-02 -6.953666e-03 -9.430491e-04 -1.792873e-02 -3.550854e-02 2.468637e-02 -3.214119e-02 -3.752555e-03 4.968908e-03 1.813520e-02 -1.371425e-03
<VARIANCE> 39
 1.788685e+01 2.776896e+01 5.387787e+01 4.145677e+01 6.698843e+01 7.581439e+01 5.749646e+01 5.990009e+01 3.248670e+01 7.137650e+01 9.686382e+01 2.417016e+01 2.229246e-02 1.344916e-01 2.618295e-01 3.609040e-01 4.425783e-01 5.581452e-01 6.298988e-01 7.186713e-01 6.674229e-01 6.227770e-01 6.770052e-01 6.137533e-01 5.144762e-01 1.259704e-04 2.423751e-02 4.788104e-02 5.917791e-02 8.359782e-02 9.989899e-02 1.035136e-01 1.222368e-01 1.157755e-01 1.109731e-01 1.217621e-01 1.006410e-01 8.337904e-02 2.172899e-05
<GCONST> 5.530204e+01
<STATE> 4
<NUMMIXES> 5
<MIXTURE> 1 3.253976e-01
<MEAN> 39
 -4.348166e+00 -1.356275e+01 2.019150e+00 -1.288784e+01 -1.054049e+01 -4.886207e+00 -1.510842e+01 4.339271e+00 -2.306167e+00 5.584163e+00 -9.595132e+00 -5.275432e+00 7.558242e-01 5.054599e-02 -6.267482e-04 -1.194184e-01 8.572981e-03 3.554345e-02 4.976618e-02 8.442691e-02 -1.423512e-01 -3.856302e-02 4.987489e-02 1.887280e-02 1.120592e-02 2.047065e-04 1.700350e-02 5.215522e-02 -4.215376e-05 2.844962e-02 4.486183e-03 -3.668520e-02 -3.167396e-02 -1.467529e-02 -5.633799e-02 1.968766e-02 3.882350e-02 2.092859e-02 -2.579014e-03
<VARIANCE> 39
