~o
<STREAMINFO> 1 39
<VECSIZE> 39<NULLD><MFCC_E_D_A><DIAGC>
~h "<"
<BEGINHMM>
<NUMSTATES> 5
<STATE> 2
<NUMMIXES> 5
<MIXTURE> 4 5.346610e-01
<MEAN> 39
 -6.356354e+00 1.610031e+00 -7.674310e-01 1.790596e+00 1.058213e+00 2.924240e+00 3.265395e+00 2.161709e+00 7.360949e-01 2.510292e-01 2.946092e-01 -1.948617e-01 1.500502e-01 -2.443044e-03 -5.191508e-03 -2.993364e-03 -4.501096e-03 -7.946162e-03 -3.853031e-03 1.890069e-03 6.626045e-03 3.774868e-03 1.562158e-03 9.414130e-04 -1.100449e-03 6.942882e-04 -1.273330e-02 -3.379178e-02 -6.998783e-02 -1.242947e-01 -1.793136e-01 -2.072588e-01 -1.765327e-01 -1.096638e-01 -4.716758e-02 -3.980731e-03 2.324210e-02 2.436854e-02 -3.220389e-03
<VARIANCE> 39
 1.675429e+00 3.973390e+00 5.145783e+00 7.203075e+00 7.839482e+00 9.328324e+00 1.191661e+01 1.401762e+01 1.516721e+01 1.485743e+01 1.363151e+01 1.218765e+01 1.764794e-02 1.237967e-01 2.769960e-01 4.589654e-01 6.907235e-01 9.162741e-01 1.119699e+00 1.290521e+00 1.438039e+00 1.496463e+00 1.487775e+00 1.376561e+00 1.243165e+00 4.357073e-04 2.275731e-02 5.027417e-02 8.161198e-02 1.173345e-01 1.454888e-01 1.733161e-01 2.208897e-01 2.724266e-01 2.939430e-01 2.950051e-01 2.679072e-01 2.413302e-01 1.000000e-04
<GCONST> 5.050414e+01
<MIXTURE> 5 4.653338e-01
<MEAN> 39
 -6.372295e+00 8.535472e-01 -2.250075e+00 -7.129846e-01 -2.070407e+00 -7.465184e-01 2.474869e-02 3.549177e-01 2.081434e-01 2.715524e-01 7.706609e-01 9.669004e-02 1.102390e-01 -1.801720e-03 -2.025273e-03 3.386312e-04 -1.165768e-03 -7.230246e-04 -8.027632e-03 -1.023368e-02 -1.228769e-02 -1.223910e-02 -8.325059e-03 -5.429524e-03 -2.254868e-03 -1.226021e-03 1.103840e-02 3.590203e-02 7.955714e-02 1.403512e-01 2.030484e-01 2.342312e-01 1.995381e-01 1.229192e-01 5.089062e-02 -8.412015e-04 -3.051521e-02 -3.094733e-02 3.601442e-03
<VARIANCE> 39
 2.739155e+00 5.054291e+00 6.365444e+00 8.569445e+00 8.514451e+00 9.951087e+00 1.273787e+01 1.462257e+01 1.625334e+01 1.570868e+01 1.488770e+01 1.312145e+01 1.710550e-02 1.443352e-01 2.976110e-01 4.783824e-01 7.132277e-01 9.483855e-01 1.143717e+00 1.325671e+00 1.462215e+00 1.528080e+00 1.522808e+00 1.407299e+00 1.262412e+00 4.182259e-04 2.911920e-02 5.978180e-02 9.145430e-02 1.245251e-01 1.504779e-01 1.760385e-01 2.251943e-01 2.747575e-01 2.994824e-01 3.006493e-01 2.796141e-01 2.527844e-01 1.000000e-04
<GCONST> 5.337015e+01
<STATE> 3
<NUMMIXES> 5
<MIXTURE> 5 1.000000e+00
<MEAN> 39
 -8.514794e+00 1.361014e+00 -2.951278e+00 -2.377884e+00 -3.220600e+00 -1.269119e+00 -6.961806e-01 -3.590596e-01 -1.339418e+00 -1.730224e+00 -1.932652e+00 -2.412498e+00 -2.226329e-02 -3.682462e-03 -7.115780e-03 1.583802e-03 1.809014e-03 -2.612205e-03 -4.941516e-03 1.932386e-04 2.081862e-03 -1.225514e-03 -1.874573e-03 4.048573e-03 3.707886e-03 6.808765e-05 -2.688318e-03 -2.011190e-03 3.773109e-03 5.835366e-03 4.756512e-03 1.998341e-03 5.443064e-03 6.957090e-03 7.132685e-03 6.849058e-03 9.664711e-03 8.221867e-03 2.972378e-04
<VARIANCE> 39
 2.332960e+00 4.118889e+00 5.357697e+00 7.357583e+00 9.729774e+00 1.137370e+01 1.349369e+01 1.527890e+01 1.614806e+01 1.661920e+01 1.504624e+01 1.265157e+01 6.449522e-03 1.341197e-01 2.848111e-01 4.655652e-01 6.784211e-01 9.104697e-01 1.107303e+00 1.297807e+00 1.485185e+00 1.590361e+00 1.594385e+00 1.450975e+00 1.222269e+00 1.588366e-04 2.770633e-02 5.800446e-02 9.439693e-02 1.368079e-01 1.833942e-01 2.235923e-01 2.615410e-01 3.003966e-01 3.226252e-01 3.226076e-01 2.939281e-01 2.461867e-01 1.000000e-04
<GCONST> 5.182995e+01
<STATE> 4
<NUMMIXES> 5
<MIXTURE> 2 6.828015e-01
<MEAN> 39
 -8.033404e+00 5.428548e-01 -1.305169e+00 -5.094656e-02 -1.075365e+00 1.444265e-01 1.595510e+00 1.204685e+00 1.654409e-01 1.173213e-01 2.507934e-01 -1.797457e-01 7.544470e-02 -4.073579e-02 -7.757665e-02 3.500580e-02 1.409508e-02 -9.697419e-03 -3.524847e-02 4.294102e-03 3.011897e-02 -2.116515e-03 -1.976814e-02 3.612035e-02 4.969084e-02 1.091517e-03 -8.485429e-02 -2.434258e-02 -1.330313e-03 -3.206083e-02 -2.503052e-02 -5.401379e-02 -2.129265e-02 -4.765631e-03 4.368254e-03 -7.132181e-03 1.098892e-02 9.506566e-03 9.352377e-04
<VARIANCE> 39
 4.913875e+00 6.995032e+00 7.697191e+00 1.112069e+01 1.274980e+01 1.556867e+01 1.662804e+01 1.731709e+01 1.753858e+01 1.788230e+01 1.564996e+01 1.358916e+01 1.490063e-02 4.245773e-01 6.059097e-01 7.099603e-01 9.436128e-01 1.175335e+00 1.450026e+00 1.554059e+00 1.678172e+00 1.699324e+00 1.666554e+00 1.541796e+00 1.362478e+00 3.868744e-04 8.245871e-02 1.034389e-01 1.308632e-01 1.773279e-01 2.212608e-01 2.714322e-01 2.974246e-01 3.191069e-01 3.267238e-01 3.228501e-01 2.992999e-01 2.652437e-01 1.000000e-04
<GCONST> 6.349075e+01
<MIXTURE> 5 3.171872e-01
<MEAN> 39
 -1.196649e+01 -4.586649e-02 -1.270364e+00 -9.471231e-01 -1.640853e+00 -1.983010e+00 8.924286e-01 8.508189e-01 4.844215e-01 4.470208e-01 8.746498e-01 -6.010907e-03 1.508948e-01 -2.039955e-01 -2.810182e-01 1.265124e-01 -4.422989e-02 -9.359466e-02 -3.219316e-01 1.756962e-02 1.948500e-01 4.739881e-02 -4.523697e-02 1.922695e-01 1.128131e-01 7.312200e-03 2.245037e-01 -3.169885e-02 2.542794e-02 4.707471e-02 1.975990e-02 9.768180e-02 3.472966e-02 3.448753e-02 -3.387243e-02 -4.901617e-02 -3.203360e-02 -6.919037e-03 -3.053314e-03
<VARIANCE> 39
 2.615795e+01 2.539696e+01 2.570222e+01 2.721031e+01 3.123714e+01 3.574803e+01 3.357087e+01 3.038790e+01 2.847051e+01 2.687615e+01 2.323396e+01 1.987012e+01 2.116936e-02 2.879374e+00 2.170368e+00 2.137744e+00 2.287361e+00 2.425872e+00 3.018827e+00 2.858757e+00 2.727016e+00 2.593640e+00 2.403282e+00 2.155792e+00 1.868598e+00 1.200347e-03 5.162058e-01 4.434771e-01 4.460534e-01 4.891147e-01 5.180168e-01 6.456295e-01 6.086662e-01 5.778159e-01 5.475040e-01 4.988672e-01 4.510235e-01 3.899024e-01 2.363988e-04
<GCONST> 9.503110e+01
<TRANSP> 5
 0.000000e+00 1.000000e+00 0.000000e+00 0.000000e+00 0.000000e+00
 0.000000e+00 9.831893e-01 1.681075e-02 0.000000e+00 0.000000e+00
 0.000000e+00 0.000000e+00 9.620925e-01 3.790743e-02 0.000000e+00
 0.000000e+00 0.000000e+00 0.000000e+00 9.466268e-01 5.337318e-02
 0.000000e+00 0.000000e+00 0.000000e+00 0.000000e+00 0.000000e+00
<ENDHMM>
~h ">"
<BEGINHMM>
<NUMSTATES> 5
<STATE> 2
<NUMMIXES> 5
<MIXTURE> 4 5.251251e-01
<MEAN> 39
 -1.166768e+01 4.331200e+00 -6.877028e+00 1.582465e+00 -3.879381e+00 5.390380e-01 8.868553e-01 2.176009e-01 8.651664e-01 -1.332156e+00 1.463507e+00 -1.039328e+00 1.383860e-01 7.239703e-01 -3.767332e-01 3.706755e-01 -2.142062e-01 1.676154e-01 -1.400606e-01 -3.466285e-01 3.388027e-02 1.162795e-01 1.334018e-01 -1.142094e-01 -8.864655e-02 -6.794130e-03 3.239043e-02 -9.477322e-02 7.850096e-02 -1.304484e-01 6.060026e-02 -1.116588e-02 2.633505e-02 -1.449556e-02 -2.303031e-03 -1.483982e-02 -5.230818e-02 -2.443389e-02 1.352720e-03
<VARIANCE> 39
 8.011629e+00 8.458702e+00 1.027538e+01 1.146151e+01 1.304943e+01 1.650055e+01 1.934962e+01 1.893498e+01 2.067055e+01 2.075640e+01 2.068787e+01 1.503818e+01 1.750525e-02 2.460457e-01 3.622262e-01 5.252535e-01 7.927662e-01 9.779497e-01 1.234746e+00 1.395543e+00 1.544957e+00 1.651415e+00 1.620528e+00 1.498371e+00 1.333697e+00 2.822817e-04 1.597796e-01 1.089567e-01 1.378709e-01 1.686183e-01 2.048870e-01 2.576739e-01 3.086231e-01 3.242552e-01 3.437184e-01 3.453132e-01 3.170242e-01 2.748999e-01 1.000000e-04
<GCONST> 6.402419e+01
<MIXTURE> 5 4.747896e-01
<MEAN> 39
 -1.166167e+01 2.780848e+00 -5.471810e+00 -3.789670e-01 -2.943940e+00 1.211143e-01 1.251565e+00 -1.616205e-02 -3.055680e-01 -1.651243e+00 1.041292e-01 -1.129721e+00 1.243907e-01 -9.937763e-01 7.680610e-01 -6.574316e-01 3.171428e-01 -2.704355e-01 4.033643e-02 5.445721e-01 -2.591226e-01 -1.270904e-01 -2.078670e-01 2.554170e-01 -1.801573e-02 -5.335075e-04 1.520269e-01 -6.261703e-02 8.549233e-02 7.148042e-02 5.836835e-03 -3.119974e-02 -1.046142e-01 5.676021e-02 3.535496e-02 5.646850e-02 -6.314994e-03 2.896626e-02 -3.089122e-04
<VARIANCE> 39
 2.167636e+01 1.446780e+01 1.900216e+01 1.624504e+01 1.953445e+01 2.278788e+01 2.545217e+01 2.336181e+01 2.269597e+01 2.472528e+01 2.200330e+01 1.735157e+01 1.675789e-02 1.796717e+00 9.836665e-01 1.251878e+00 1.405017e+00 1.567423e+00 2.056353e+00 2.242563e+00 2.125266e+00 2.133924e+00 2.258652e+00 1.927818e+00 1.595671e+00 4.934443e-04 4.778887e-01 2.386824e-01 2.876442e-01 2.462795e-01 2.881552e-01 3.767907e-01 4.681427e-01 4.028897e-01 4.130100e-01 4.298042e-01 3.662332e-01 3.104214e-01 1.000000e-04
<GCONST> 8.095831e+01
<STATE> 3
<NUMMIXES> 5
<MIXTURE> 5 1.000000e+00
<MEAN> 39
 -1.024706e+01 8.598294e-01 -4.179359e+00 -2.266935e+00 -3.190845e+00 -1.862940e+00 -3.400189e-01 -1.558265e-01 -7.325701e-01 -9.277940e-01 -1.633088e+00 -1.744262e+00 4.801689e-03 1.287364e-01 -9.217566e-02 1.235918e-01 -3.352229e-02 3.426058e-02 4.932170e-02 -1.264852e-02 4.215213e-02 1.232443e-02 4.180801e-02 -1.175312e-02 8.269716e-03 -1.401674e-03 -1.790728e-02 2.057530e-02 1.170286e-02 4.096908e-02 3.753128e-02 3.874515e-02 3.974628e-02 3.277650e-02 2.090164e-02 1.441646e-02 3.419013e-02 2.319144e-02 1.673399e-03
<VARIANCE> 39
 6.648980e+00 6.624415e+00 8.878346e+00 9.441250e+00 1.278717e+01 1.352602e+01 1.666479e+01 1.652463e+01 1.911811e+01 1.853283e+01 1.753064e+01 1.451295e+01 1.082359e-02 3.408669e-01 4.310443e-01 6.012865e-01 7.936459e-01 1.024782e+00 1.235745e+00 1.472060e+00 1.576828e+00 1.755961e+00 1.682734e+00 1.558575e+00 1.344595e+00 1.747060e-04 5.700382e-02 7.638982e-02 1.143002e-01 1.552537e-01 2.028912e-01 2.436493e-01 2.869154e-01 3.114540e-01 3.477530e-01 3.317754e-01 3.088000e-01 2.681869e-01 1.000000e-04
<GCONST> 6.038564e+01
<STATE> 4
<NUMMIXES> 5
<MIXTURE> 2 7.452882e-01
<MEAN> 39
 -6.869550e+00 1.574572e+00 -1.194924e+00 1.046262e+00 -3.242911e-02 1.280319e+00 2.362853e+00 1.276897e+00 5.146738e-01 1.862622e-01 3.941787e-01 -1.557038e-01 1.235650e-01 9.663042e-02 -4.487900e-02 7.936296e-02 3.144810e-02 -2.106413e-02 8.699542e-02 -9.878778e-02 6.418600e-02 2.363650e-02 6.084214e-02 -8.991470e-03 -2.627028e-02 4.576709e-04 -7.852519e-02 1.471707e-02 -3.887282e-02 -2.189133e-02 1.172280e-02 -4.061241e-02 4.838804e-02 -2.047930e-02 -2.503752e-02 -2.954391e-02 1.751023e-02 1.374878e-02 -1.902622e-04
<VARIANCE> 39
 1.835730e+00 3.898074e+00 5.228946e+00 7.880451e+00 9.979624e+00 1.180341e+01 1.408666e+01 1.409967e+01 1.496447e+01 1.489546e+01 1.378172e+01 1.241477e+01 1.480975e-02 1.918401e-01 2.903664e-01 4.744038e-01 6.969901e-01 9.408392e-01 1.151889e+00 1.393177e+00 1.433229e+00 1.520534e+00 1.535321e+00 1.417887e+00 1.295654e+00 4.316725e-04 3.726687e-02 5.128300e-02 8.506345e-02 1.269809e-01 1.725559e-01 2.123311e-01 2.573207e-01 2.663865e-01 2.822587e-01 2.837116e-01 2.651806e-01 2.413786e-01 1.000000e-04
<GCONST> 5.298744e+01
<MIXTURE> 5 2.546461e-01
<MEAN> 39
 -9.737122e+00 2.058567e+00 -2.353025e+00 4.919159e-01 8.700497e-01 -1.669623e-01 4.803579e+00 5.580214e-01 -3.197265e-01 -7.735898e-01 1.012430e+00 4.900340e-01 1.150567e-01 -1.881705e-01 1.159410e-01 -1.240529e-01 -4.627921e-02 7.961751e-02 -1.647042e-01 2.953892e-01 -1.224587e-01 -7.203441e-03 -9.787274e-02 5.639402e-02 9.363130e-02 2.463154e-04 2.144399e-01 -5.381375e-02 8.300743e-02 3.870915e-02 -7.840974e-02 8.610148e-02 -1.876650e-01 3.322367e-02 6.267583e-02 6.442393e-02 -6.872962e-02 -5.283375e-02 8.523767e-05
<VARIANCE> 39
 9.283051e+00 9.123162e+00 9.755035e+00 1.267898e+01 1.671072e+01 1.948434e+01 2.612402e+01 2.063692e+01 2.103748e+01 2.039702e+01 1.939993e+01 1.740703e+01 1.690467e-02 1.397728e+00 6.215895e-01 8.119135e-01 1.002590e+00 1.382151e+00 1.749519e+00 2.494448e+00 1.866067e+00 1.924007e+00 1.902263e+00 1.825423e+00 1.597257e+00 4.649107e-04 2.232325e-01 1.232650e-01 1.585885e-01 2.013610e-01 2.709976e-01 3.495399e-01 4.887639e-01 3.839042e-01 3.833954e-01 3.844851e-01 3.596486e-01 3.207732e-01 1.000000e-04
<GCONST> 7.322997e+01
<TRANSP> 5
 0.000000e+00 1.000000e+00 0.000000e+00 0.000000e+00 0.000000e+00
 0.000000e+00 8.638308e-01 1.361692e-01 0.000000e+00 0.000000e+00
 0.000000e+00 0.000000e+00 8.373904e-01 1.626096e-01 0.000000e+00
 0.000000e+00 0.000000e+00 0.000000e+00 9.506854e-01 4.931461e-02
 0.000000e+00 0.000000e+00 0.000000e+00 0.000000e+00 0.000000e+00
<ENDHMM>
~h "?"
<BEGINHMM>
<NUMSTATES> 5
<STATE> 2
<NUMMIXES> 5
<MIXTURE> 1 2.595053e-01
<MEAN> 39
 -1.710919e+01 1.484635e+00 -1.676317e+00 4.629375e-01 -2.118301e-01 6.868877e-01 -7.059090e-01 -3.069512e-01 -5.304485e-01 3.754929e-01 4.840362e-01 1.227267e+00 -1.465198e-01 -1.278251e-01 -4.185805e-02 -1.852559e-02 3.153479e-02 1.071757e-01 1.161417e-01 4.754810e-02 -3.658276e-02 -5.555749e-02 1.287077e-02 -9.511800e-03 -1.954816e-02 -1.183459e-04 1.568915e-01 -9.714721e-02 -3.471134e-02 -2.018911e-01 -1.597708e-01 -2.052678e-01 -1.469621e-01 5.056677e-03 -3.966910e-02 -1.746988e-02 -8.100913e-02 -6.111361e-02 5.885332e-03
<VARIANCE> 39
 7.311352e+00 8.610831e+00 8.724474e+00 1.021097e+01 1.472943e+01 2.267775e+01 2.109957e+01 2.038218e+01 1.789145e+01 1.779245e+01 1.461400e+01 1.424227e+01 3.488065e-04 4.936021e-01 6.429541e-01 7.712586e-01 1.156855e+00 1.494939e+00 1.723018e+00 1.925324e+00 2.084728e+00 1.954941e+00 1.963063e+00 1.738740e+00 1.659016e+00 1.655174e-05 1.631345e-01 2.104751e-01 2.319286e-01 3.318176e-01 3.782206e-01 4.266897e-01 4.321062e-01 4.722232e-01 4.419539e-01 4.541743e-01 3.904889e-01 3.440902e-01 1.026124e-04
<GCONST> 6.564709e+01
<MIXTURE> 2 1.993698e-01
<MEAN> 39
 -8.818235e+00 -2.196897e-01 -4.123563e-01 -9.249497e+00 -1.368854e+01 -1.395592e+01 -1.147655e+01 -3.834905e+00 -1.693017e+00 3.885334e+00 -2.180528e-01 -2.072281e-01 2.984345e-01 5.402383e-01 1.599694e-01 -4.127414e-01 -3.200209e-01 -3.427345e-01 -3.364401e-01 3.298944e-01 1.510411e+00 2.119250e+00 1.839916e+00 1.019506e+00 1.769515e-01 -8.181047e-02 -8.930791e-01 4.334217e-02 -1.150846e-01 5.438968e-01 1.089855e+00 1.305083e+00 1.060192e+00 3.382012e-01 -9.202921e-02 -5.285942e-01 -2.285596e-01 -1.419879e-01 -4.221946e-03
<VARIANCE> 39
 3.643612e+01 4.341803e+01 8.138976e+01 7.485948e+01 7.152213e+01 7.685683e+01 9.270035e+01 8.120559e+01 1.122076e+02 9.549058e+01 9.036362e+01 8.223959e+01 4.807938e-02 6.913018e+00 4.638766e+00 5.048165e+00 6.482073e+00 8.691103e+00 7.000649e+00 7.190594e+00 9.058513e+00 7.782914e+00 7.727583e+00 7.260970e+00 6.004232e+00 5.700689e-03 8.819214e-01 7.050453e-01 9.746343e-01 1.227243e+00 1.170521e+00 1.177808e+00 1.446117e+00 1.528131e+00 1.711648e+00 1.572671e+00 1.471208e+00 1.291048e+00 9.787756e-04
<GCONST> 1.339205e+02
<MIXTURE> 3 2.253641e-01
<MEAN> 39
 -9.338481e+00 4.627247e+00 1.494356e+00 -1.297489e+00 -7.544057e+00 -7.867696e+00 -7.819544e+00 -6.931579e+00 -6.141383e+00 2.113473e-01 -2.402128e+00 -1.508506e+00 4.089638e-02 -9.420448e-01 5.665939e-01 -9.288239e-02 2.365203e-01 6.915332e-01 8.667310e-01 3.947827e-01 5.237330e-01 8.035147e-01 1.326708e-01 7.100987e-01 5.004542e-01 -5.523377e-02 -3.196636e-01 -5.837509e-01 -2.100984e-01 -2.133591e-01 1.941621e-01 3.736311e-01 3.402169e-01 4.626983e-01 1.528942e-01 -5.243289e-02 3.029454e-02 3.452772e-03 1.813842e-02
<VARIANCE> 39
 3.046520e+01 2.498884e+01 4.276044e+01 4.891879e+01 5.544995e+01 5.561820e+01 6.746111e+01 6.339685e+01 6.179729e+01 5.282967e+01 5.068004e+01 4.594232e+01 3.468568e-02 4.624485e+00 3.870107e+00 4.171315e+00 4.538906e+00 5.383309e+00 5.774383e+00 6.109025e+00 6.204638e+00 6.183611e+00 4.997819e+00 5.064263e+00 4.037836e+00 3.468398e-03 6.324137e-01 4.624732e-01 4.436305e-01 5.984446e-01 6.727556e-01 7.586537e-01 9.068550e-01 9.211147e-01 8.764534e-01 8.339614e-01 7.177547e-01 6.132333e-01 5.723465e-04
<GCONST> 1.165096e+02
<MIXTURE> 4 1.941694e-01
<MEAN> 39
 -1.541870e+01 -2.687855e+00 -3.014470e+00 -5.054026e+00 -3.066997e+00 -1.914881e+00 -3.864905e+00 -2.522128e+00 -3.082101e+00 -2.319414e+00 -1.338964e+00 2.451799e-01 2.461070e-01 1.378173e+00 1.777704e-01 -3.191924e-01 -5.834824e-01 -1.076437e+00 -6.534532e-01 -4.509503e-01 1.015884e-02 2.166425e-01 4.696607e-01 2.197435e-02 -5.304474e-02 -3.373578e-02 2.554245e-01 3.272983e-01 1.207265e-01 1.327841e-01 -1.454429e-01 -1.316634e-01 7.908245e-02 1.482043e-01 1.877438e-01 2.697423e-01 3.145117e-03 -6.997878e-02 -9.813541e-03
<VARIANCE> 39
 6.093557e+01 6.496423e+01 5.155115e+01 6.451992e+01 6.893552e+01 7.049316e+01 6.183175e+01 4.982927e+01 4.778207e+01 5.606775e+01 4.022572e+01 3.960606e+01 8.630894e-02 5.750540e+00 5.538910e+00 3.569234e+00 5.915542e+00 7.654083e+00 7.858071e+00 6.696949e+00 5.418986e+00 5.889803e+00 5.144407e+00 4.353226e+00 4.257566e+00 6.418687e-03 7.767825e-01 8.309697e-01 6.480147e-01 9.282666e-01 9.907713e-01 9.130988e-01 9.682285e-01 8.493462e-01 9.111686e-01 7.623989e-01 7.613631e-01 7.083901e-01 1.046612e-03
<GCONST> 1.238049e+02
<MIXTURE> 5 1.215914e-01
<MEAN> 39
 -8.452210e+00 -8.258639e+00 -8.080345e+00 -1.315088e+01 -6.179400e+00 -5.046187e+00 -2.306489e+00 5.004057e+00 4.085867e+00 -1.673876e+00 -8.226413e+00 -5.268080e+00 3.112358e-01 -1.022883e+00 1.460281e+00 -5.030795e-01 7.335993e-01 9.360737e-01 1.893981e+00 1.759253e+00 1.353722e+00 1.161150e+00 4.345560e-01 6.186785e-01 -5.090241e-02 -9.244574e-02 -3.547316e-01 5.069313e-01 6.315275e-01 7.874851e-01 1.273001e-01 1.326397e-02 -3.526529e-01 -9.373212e-01 -9.700482e-01 -8.546352e-02 4.962977e-01 4.930504e-01 -3.199514e-03
<VARIANCE> 39
 2.827028e+01 4.731133e+01 4.964442e+01 5.614445e+01 7.041225e+01 1.032726e+02 1.093326e+02 9.065550e+01 8.266621e+01 1.275756e+02 8.172957e+01 8.900990e+01 6.895947e-02 2.929818e+00 5.638942e+00 5.086228e+00 5.207058e+00 5.226025e+00 6.425142e+00 5.937850e+00 7.082271e+00 6.144334e+00 7.100918e+00 6.669778e+00 5.408303e+00 5.119383e-03 5.129846e-01 8.262910e-01 7.887220e-01 8.288996e-01 1.094226e+00 1.266710e+00 1.376068e+00 1.477774e+00 1.359259e+00 1.709707e+00 1.213851e+00 1.131720e+00 9.986854e-04
<GCONST> 1.298084e+02
<STATE> 3
<NUMMIXES> 5
<MIXTURE> 3 3.300139e-01
<MEAN> 39
 -1.246125e+01 2.374252e+00 -3.821943e+00 -7.660689e+00 -9.968545e+00 -7.937692e+00 -2.323514e+00 4.600280e+00 7.719921e+00 7.685951e+00 1.981115e+00 -1.243884e-01 -1.048837e-02 -1.064933e+00 -1.003083e-01 -8.425318e-03 9.037567e-01 1.703328e+00 1.938120e+00 1.180143e+00 4.062728e-02 -6.888210e-01 -7.996466e-01 4.126484e-03 -2.099519e-01 -3.785481e-02 1.268124e-01 -8.606824e-01 1.709854e-01 -2.514598e-01 4.170277e-01 1.897575e-01 -4.638855e-01 -1.025070e+00 -1.596496e+00 -1.200972e+00 -7.598196e-01 -2.841893e-01 5.792454e-02
<VARIANCE> 39
 2.728733e+01 2.776260e+01 4.415985e+01 4.626860e+01 6.472596e+01 8.022782e+01 9.213420e+01 9.084225e+01 8.869081e+01 9.401357e+01 9.350957e+01 6.798295e+01 2.813565e-02 4.406971e+00 6.101721e+00 5.277445e+00 7.509346e+00 6.504303e+00 7.482342e+00 8.972947e+00 9.276587e+00 9.213471e+00 8.220557e+00 7.737183e+00 6.296881e+00 7.153673e-03 8.885304e-01 9.133646e-01 9.186863e-01 1.273951e+00 1.508231e+00 1.622494e+00 1.780687e+00 1.603539e+00 1.502540e+00 1.699012e+00 1.763045e+00 1.274160e+00 1.110590e-03
<GCONST> 1.331198e+02
<MIXTURE> 5 6.699861e-01
<MEAN> 39
 -1.533973e+01 4.523120e-01 -1.790079e+00 -2.049117e+00 -2.029078e+00 -6.152359e-01 -2.703801e+00 -1.194280e+00 -1.834432e+00 2.362480e-01 -6.821848e-01 -1.908946e-01 3.909789e-03 6.905912e-02 -2.013342e-01 -9.362883e-02 -1.577780e-01 5.666434e-02 4.046376e-01 3.424690e-01 2.583834e-01 -1.019857e-01 -1.003162e-01 -1.085278e-01 -1.212265e-01 6.041792e-03 6.651943e-01 -3.933366e-01 7.462707e-03 -5.193184e-01 -4.595612e-01 -4.727077e-01 -3.286001e-01 -1.855959e-01 -2.918429e-01 -1.061191e-01 -2.973733e-01 -1.918380e-01 3.288331e-02
<VARIANCE> 39
 3.106004e+01 3.475919e+01 4.010941e+01 4.539011e+01 4.345040e+01 6.288672e+01 5.122319e+01 4.368140e+01 4.182230e+01 4.627219e+01 4.007640e+01 3.710508e+01 3.241811e-02 3.286662e+00 3.567719e+00 3.076385e+00 4.004995e+00 4.260828e+00 4.520692e+00 4.134027e+00 4.573689e+00 3.940206e+00 4.052273e+00 3.815145e+00 2.974241e+00 2.977614e-03 7.202263e-01 7.899159e-01 6.862725e-01 9.377943e-01 8.689239e-01 9.380007e-01 9.500707e-01 8.724617e-01 8.720561e-01 8.360155e-01 7.707959e-01 6.646893e-01 7.117782e-04
<GCONST> 1.138623e+02
<STATE> 4
<NUMMIXES> 5
<MIXTURE> 2 2.167949e-01
<MEAN> 39
 -8.196180e+00 -1.137659e+01 -6.758795e+00 -1.464982e+01 -2.865893e-01 -1.832080e+00 -5.046622e+00 -1.458314e+00 -1.939764e+00 -1.284459e+00 -4.257235e+00 -3.619858e+00 4.073116e-01 2.420948e+00 -2.978691e+00 -6.877364e-01 -2.523281e+00 4.086546e-01 1.118720e-01 -5.721545e-01 -6.523739e-01 -1.487037e+00 -1.164201e+00 -1.474811e+00 -9.639575e-01 1.545242e-01 1.785192e-02 7.354059e-01 4.194674e-01 6.429408e-01 -4.055153e-01 -1.434112e-01 1.385108e-02 -3.140859e-02 -1.145630e-03 1.658836e-01 6.356412e-02 6.451675e-02 -3.866897e-03
<VARIANCE> 39
 4.920139e+01 4.942419e+01 4.223624e+01 6.581889e+01 6.793415e+01 7.853481e+01 6.602766e+01 5.294780e+01 4.125216e+01 6.354839e+01 5.451190e+01 6.025872e+01 5.168184e-02 3.656959e+00 6.795683e+00 4.161862e+00 8.015034e+00 5.697773e+00 6.133800e+00 6.308393e+00 4.993860e+00 5.694802e+00 6.236168e+00 5.385726e+00 5.689500e+00 6.334502e-03 8.369081e-01 7.685623e-01 5.432714e-01 1.083150e+00 7.701573e-01 7.649882e-01 8.339962e-01 8.774105e-01 8.668319e-01 8.620718e-01 7.805987e-01 7.540153e-01 1.168817e-03
<GCONST> 1.234198e+02
<MIXTURE> 3 3.304006e-01
<MEAN> 39
 -1.000116e+01 4.955328e-01 -8.247325e-01 -6.255929e+00 -8.375305e+00 -5.750583e+00 -5.284754e+00 -2.175573e+00 -4.924116e+00 5.640029e-02 -2.218003e+00 -2.509818e+00 1.778185e-01 1.906641e+00 -7.534332e-01 2.243257e-01 -1.051287e+00 -9.908513e-01 -3.837059e-01 -4.123082e-01 -3.152293e-01 -9.465644e-01 -4.996462e-01 -7.555061e-01 -7.128292e-01 9.021804e-02 1.529167e-01 -2.413220e-01 1.620377e-01 -4.477749e-02 1.055806e-01 6.953295e-02 -1.687174e-01 -5.221914e-02 -9.816233e-03 -1.143360e-02 1.101563e-02 4.958906e-02 2.183782e-02
<VARIANCE> 39
 5.331879e+01 4.918393e+01 8.515300e+01 7.722686e+01 7.772183e+01 9.235150e+01 9.168819e+01 8.325825e+01 7.740298e+01 7.051597e+01 5.766285e+01 4.547029e+01 4.153236e-02 4.070381e+00 4.495197e+00 4.292689e+00 5.854246e+00 6.037120e+00 6.748457e+00 6.174468e+00 5.910873e+00 5.802722e+00 5.694710e+00 4.468557e+00 3.948816e+00 4.114188e-03 7.105308e-01 6.414675e-01 5.904753e-01 6.792824e-01 8.916445e-01 8.763435e-01 9.740598e-01 9.333051e-01 1.073857e+00 8.940818e-01 7.357652e-01 6.307420e-01 7.740657e-04
<GCONST> 1.237514e+02
<MIXTURE> 4 3.641216e-01
<MEAN> 39
 -1.593213e+01 2.482773e+00 -1.265986e+00 -1.591436e-01 -1.252084e+00 -5.577593e-01 -1.351357e+00 -4.059173e-01 -2.588646e-01 7.561244e-01 6.540973e-01 1.592458e+00 -1.441764e-01 1.385855e+00 -1.994568e+00 -2.745260e-01 -2.483615e+00 -6.714745e-01 -1.053961e+00 -8.982086e-01 -6.055441e-01 -1.363179e+00 -5.683900e-01 -1.090909e+00 -7.349528e-01 1.003242e-01 8.157502e-01 -8.681868e-01 -2.533166e-01 -1.347451e+00 -6.337422e-01 -7.186399e-01 -5.168185e-01 -2.401568e-01 -4.780861e-01 -2.109729e-01 -6.670147e-01 -4.205223e-01 6.114654e-02
<VARIANCE> 39
 1.206152e+01 1.397861e+01 1.487875e+01 1.723646e+01 2.205869e+01 2.673847e+01 2.840115e+01 2.627632e+01 2.241498e+01 2.106956e+01 2.089052e+01 1.945382e+01 4.571611e-04 4.195078e+00 6.740725e+00 6.010750e+00 1.010808e+01 7.035176e+00 8.162468e+00 6.769645e+00 5.637653e+00 5.788391e+00 6.770554e+00 5.100955e+00 4.806856e+00 7.156412e-03 5.351989e-01 9.686294e-01 9.213629e-01 1.150102e+00 1.045877e+00 1.288607e+00 1.115767e+00 1.008386e+00 9.087787e-01 1.151674e+00 8.499885e-01 8.762603e-01 5.580065e-04
<GCONST> 1.089676e+02
<MIXTURE> 5 8.868290e-02
<MEAN> 39
 -8.084128e+00 -4.574124e+00 3.145013e+00 -2.037376e+01 -9.655873e+00 -1.497283e+01 -5.272842e+00 -6.761584e-01 -7.529236e+00 4.986513e+00 -8.916365e+00 2.365511e+00 4.448621e-01 2.560636e+00 -1.669247e+00 9.402998e-01 -4.769068e+00 -2.016384e+00 -3.283528e+00 -1.892028e+00 -5.186331e-01 -2.940642e+00 4.732781e-01 -3.232481e+00 -1.833709e-01 1.938887e-01 -4.146625e-01 4.863217e-01 -4.116136e-01 1.461115e+00 3.579222e-01 9.187464e-01 -5.236600e-02 -1.292221e-01 2.796788e-01 -5.816479e-01 3.094524e-01 -3.409789e-01 -2.150984e-02
<VARIANCE> 39
 3.484667e+01 6.749123e+01 8.807877e+01 6.309424e+01 4.905243e+01 4.380043e+01 7.079700e+01 7.713045e+01 5.578827e+01 5.714610e+01 4.357216e+01 4.111095e+01 5.415783e-02 3.501239e+00 4.951695e+00 5.835732e+00 7.515448e+00 5.062448e+00 4.954519e+00 6.485894e+00 7.184272e+00 5.618582e+00 6.543273e+00 4.874736e+00 3.498113e+00 3.327536e-03 5.061045e-01 8.758806e-01 9.706764e-01 1.092206e+00 7.745812e-01 8.807694e-01 1.045913e+00 9.236758e-01 1.023171e+00 8.557900e-01 7.998089e-01 6.649498e-01 1.037051e-03
<GCONST> 1.226080e+02
<TRANSP> 5
 0.000000e+00 1.000000e+00 0.000000e+00 0.000000e+00 0.000000e+00
 0.000000e+00 7.214309e-01 2.785691e-01 0.000000e+00 0.000000e+00
 0.000000e+00 0.000000e+00 4.154615e-01 5.845385e-01 0.000000e+00
 0.000000e+00 0.000000e+00 0.000000e+00 5.995563e-01 4.004437e-01
 0.000000e+00 0.000000e+00 0.000000e+00 0.000000e+00 0.000000e+00
<ENDHMM>
~h "@"
<BEGINHMM>
<NUMSTATES> 5
<STATE> 2
<NUMMIXES> 5
<MIXTURE> 1 1.517521e-01
<MEAN> 39
 2.431356e+00 -2.244412e+00 -1.617147e+00 -5.821404e+00 -7.929739e+00 -7.273434e+00 -1.247760e+01 -3.804825e+00 3.584889e+00 1.724305e+00 -3.746301e+00 -5.063913e+00 7.543369e-01 2.916349e+00 -1.161908e+00 -1.228678e-01 -1.360520e+00 -1.247980e+00 -4.056144e-01 -2.207233e+00 -3.364610e-01 8.927844e-01 1.026706e+00 6.128307e-02 -7.065725e-01 7.398929e-02 -1.084615e+00 3.070338e-01 1.486157e-01 4.035986e-01 4.381508e-01 3.608113e-01 9.275935e-01 3.422853e-01 -3.053025e-01 -1.639319e-01 3.315159e-01 4.369878e-01 -3.029209e-02
<VARIANCE> 39
 1.091497e+01 3.503850e+01 4.339028e+01 4.502655e+01 3.302015e+01 4.780661e+01 5.364551e+01 5.290386e+01 5.164814e+01 4.433294e+01 4.796880e+01 2.312791e+01 9.672038e-03 2.931219e+00 3.368769e+00 3.636580e+00 4.027584e+00 3.293967e+00 4.408859e+00 4.776691e+00 5.254893e+00 4.228458e+00 3.874791e+00 3.909665e+00 2.810605e+00 2.010137e-03 5.389525e-01 4.867640e-01 4.600096e-01 6.048086e-01 4.891255e-01 6.195990e-01 7.678935e-01 7.145473e-01 7.815325e-01 6.389756e-01 6.519457e-01 4.180253e-01 3.023075e-04
<GCONST> 1.059722e+02
<MIXTURE> 2 2.096902e-01
<MEAN> 39
 -9.273705e+00 -2.186622e+00 -5.801243e-01 -2.356593e+00 -4.059373e+00 -3.304872e+00 -9.288544e-01 1.523869e+00 7.239724e-01 -1.049475e+00 -2.257721e+00 -3.822399e-01 3.652131e-01 2.053261e+00 -1.612059e-01 5.541433e-01 -5.680213e-01 -6.790947e-01 -4.957841e-01 -8.548752e-01 -7.622837e-01 -9.253259e-01 -8.611490e-01 -1.008327e+00 -4.653458e-01 7.169916e-02 5.310802e-01 1.093325e-01 1.826846e-02 -3.651380e-01 -3.329180e-01 -2.159993e-01 -3.129764e-01 -2.397700e-01 -2.389814e-01 -1.030979e-02 3.049032e-03 -5.950820e-02 2.030095e-02
<VARIANCE> 39
 3.392192e+01 3.501715e+01 3.589735e+01 3.655295e+01 4.960725e+01 4.093610e+01 4.787987e+01 4.288564e+01 4.672163e+01 4.283010e+01 3.606232e+01 2.890531e+01 3.418007e-02 5.954816e+00 5.255162e+00 3.519806e+00 5.722251e+00 4.889664e+00 4.744328e+00 5.156206e+00 5.016060e+00 4.924162e+00 4.587691e+00 4.307208e+00 3.328962e+00 5.024634e-03 5.154209e-01 7.462676e-01 4.915714e-01 6.994345e-01 7.137418e-01 7.155952e-01 6.922666e-01 7.374839e-01 7.627390e-01 7.499111e-01 7.078052e-01 5.497424e-01 5.963539e-04
<GCONST> 1.133903e+02
<MIXTURE> 3 2.607646e-01
<MEAN> 39
 1.822076e+00 -5.672794e+00 9.318186e-02 -7.653551e+00 -1.093447e+01 -9.307099e+00 -9.917435e+00 2.288895e-01 -1.651680e+00 -2.678707e+00 -4.811626e+00 -2.781000e+00 7.871600e-01 -3.472504e-02 -6.964790e-01 3.146070e-01 -5.333950e-01 -3.809368e-01 -6.856840e-02 1.253323e-01 8.704843e-01 2.619844e-01 -1.890631e-01 -3.174091e-01 4.063161e-01 5.805017e-03 -9.771336e-02 6.063754e-01 1.236813e-01 3.705536e-01 2.364795e-01 9.331678e-02 2.189476e-01 -4.384452e-01 -2.432629e-01 7.544857e-02 1.027379e-01 1.050876e-02 -8.092056e-03
<VARIANCE> 39
 1.635195e+01 4.842818e+01 6.502675e+01 6.556010e+01 6.957930e+01 7.756881e+01 7.552508e+01 6.492161e+01 8.411689e+01 7.589918e+01 6.794931e+01 4.033679e+01 1.002431e-02 1.004821e+00 2.369081e+00 2.995718e+00 3.340592e+00 3.462263e+00 3.810638e+00 3.603197e+00 4.252905e+00 3.675847e+00 3.827179e+00 3.024413e+00 2.859383e+00 6.225314e-04 1.999399e-01 3.059177e-01 4.061618e-01 4.919476e-01 5.823837e-01 5.930850e-01 6.375500e-01 7.002376e-01 7.535802e-01 7.105860e-01 5.745279e-01 4.260418e-01 1.000000e-04
<GCONST> 1.042585e+02
<MIXTURE> 4 1.984106e-01
<MEAN> 39
 -1.167749e+00 -3.740047e+00 1.625327e+00 -9.156682e+00 -1.534670e+01 -1.694205e+01 -8.405753e+00 -1.049473e+00 -4.082753e+00 -3.779905e+00 -7.135116e+00 1.781944e+00 7.974268e-01 2.792093e+00 -1.522503e+00 6.955169e-01 -1.784390e+00 -1.890631e+00 -2.293271e+00 -1.502784e+00 4.673745e-01 -4.025931e-01 2.386008e-01 -1.510931e+00 5.042652e-01 8.308545e-02 -8.968565e-01 5.897242e-01 -1.741195e-01 7.406243e-01 1.064019e+00 1.235942e+00 6.221340e-01 7.307247e-02 2.903893e-01 2.890122e-01 5.246242e-01 -3.354086e-01 -3.931621e-02
<VARIANCE> 39
 1.106646e+01 3.238816e+01 4.612370e+01 3.677182e+01 4.820396e+01 3.826481e+01 5.719299e+01 4.183030e+01 4.916237e+01 4.165157e+01 3.847465e+01 2.680414e+01 8.237048e-03 2.387528e+00 3.494165e+00 3.690745e+00 3.633195e+00 4.316363e+00 4.332457e+00 5.277352e+00 4.648011e+00 4.800601e+00 4.803289e+00 4.396035e+00 3.398337e+00 1.838067e-03 5.472667e-01 5.170611e-01 4.982826e-01 5.300864e-01 6.785262e-01 6.492373e-01 7.598642e-01 7.439161e-01 7.430086e-01 7.114994e-01 6.792987e-01 5.236592e-01 3.423527e-04
<GCONST> 1.068130e+02
<MIXTURE> 5 1.793762e-01
<MEAN> 39
 -4.868512e+00 3.754239e+00 3.445270e+00 -3.774527e+00 -1.039137e+01 -1.203701e+01 -6.222834e+00 -4.296325e+00 -5.553793e+00 -5.861310e+00 -5.083921e+00 -1.910512e+00 6.645523e-01 4.525904e+00 4.262090e-01 8.690133e-01 -5.493279e-01 -2.551667e+00 -2.464147e+00 -2.593429e+00 -1.245115e+00 -9.257333e-01 -8.061849e-01 -1.446246e+00 -3.611120e-01 9.391092e-02 -5.414212e-01 -2.193718e-01 -4.392422e-01 -1.682869e-03 4.617725e-01 6.098428e-01 3.458656e-01 4.230144e-01 5.481755e-01 6.240951e-01 4.676327e-01 1.705274e-01 -1.658409e-02
<VARIANCE> 39
 3.058357e+01 2.528719e+01 3.525199e+01 3.227877e+01 4.936447e+01 3.893672e+01 3.977523e+01 3.624621e+01 3.678176e+01 3.110582e+01 2.510323e+01 2.043806e+01 1.074437e-02 2.485415e+00 3.913047e+00 3.808383e+00 4.453461e+00 4.254920e+00 4.016382e+00 4.339027e+00 4.195277e+00 4.463227e+00 4.098307e+00 3.859495e+00 3.184891e+00 1.480505e-03 7.048494e-01 4.112052e-01 3.502892e-01 4.096046e-01 5.950198e-01 5.600097e-01 5.678112e-01 5.524566e-01 5.125819e-01 5.041557e-01 4.766227e-01 4.007915e-01 2.382806e-04
<GCONST> 1.019059e+02
<STATE> 3
<NUMMIXES> 5
<MIXTURE> 1 2.016378e-01
<MEAN> 39
 3.720147e+00 -5.099733e+00 5.494047e-01 -6.083765e+00 -1.075661e+01 -5.985256e+00 -1.485296e+01 -2.000149e+00 3.783138e+00 1.342653e+00 -1.604223e+00 -5.422049e+00 7.996492e-01 1.966348e-01 4.646698e-01 2.606129e-01 3.034149e-01 4.565727e-01 2.031441e-01 1.606496e-01 -1.834277e-01 -5.948259e-02 2.426057e-01 1.642222e-01 5.734616e-02 -5.681355e-03 -1.000125e+00 9.600223e-01 6.335714e-02 6.169631e-01 7.833084e-01 7.290757e-02 1.170401e+00 -1.122746e-01 -5.491254e-01 -2.470105e-01 1.979374e-02 4.186954e-01 -2.902524e-02
<VARIANCE> 39
 9.561979e+00 3.644431e+01 6.223771e+01 5.419832e+01 5.500560e+01 5.413884e+01 5.835251e+01 6.540612e+01 5.820539e+01 5.688060e+01 5.751569e+01 2.907002e+01 7.881962e-03 1.810072e+00 2.634465e+00 2.719559e+00 3.118834e+00 3.031778e+00 3.847113e+00 3.584717e+00 3.726227e+00 3.408809e+00 3.234598e+00 2.929420e+00 2.404720e+00 8.340050e-04 5.632361e-01 4.665785e-01 6.720813e-01 6.869588e-01 7.298518e-01 7.021289e-01 9.035482e-01 1.016016e+00 8.901548e-01 8.284391e-01 7.720212e-01 4.968072e-01 2.898933e-04
<GCONST> 1.063236e+02
<MIXTURE> 2 1.399064e-01
<MEAN> 39
 -2.318749e+00 2.890503e+00 1.547746e+00 -5.097335e+00 -7.711846e+00 -6.250420e+00 -5.661157e+00 -4.556477e+00 -3.780165e+00 -2.456948e+00 -2.686366e+00 -2.137423e+00 6.377330e-01 2.354728e+00 1.093106e+00 1.625854e-01 -7.251467e-01 -7.773362e-01 -7.609156e-02 -8.938165e-01 -1.250156e+00 -8.461757e-01 -2.849882e-02 3.309187e-02 -1.038421e-01 4.930307e-02 -6.835318e-01 -2.322996e-01 -3.080256e-01 6.768114e-02 3.204420e-01 2.580464e-01 3.608940e-01 3.670977e-01 2.921278e-01 2.926101e-01 2.879879e-01 2.294549e-01 -1.709826e-02
<VARIANCE> 39
 5.511972e+01 3.610189e+01 5.963877e+01 7.283951e+01 6.657184e+01 5.374626e+01 5.954733e+01 5.519945e+01 5.598591e+01 5.079053e+01 3.992224e+01 2.776149e+01 2.436885e-02 4.500904e+00 3.091006e+00 3.412702e+00 7.397143e+00 4.516776e+00 4.259235e+00 4.373935e+00 4.983165e+00 4.454630e+00 4.151068e+00 3.659326e+00 3.217339e+00 3.105261e-03 7.694795e-01 4.936476e-01 6.315400e-01 7.482125e-01 7.903988e-01 7.702102e-01 8.050801e-01 8.047365e-01 7.815700e-01 7.686893e-01 6.483408e-01 5.022875e-01 3.768199e-04
<GCONST> 1.145241e+02
<MIXTURE> 3 2.119254e-01
<MEAN> 39
 -8.668541e-01 -9.126842e+00 1.581844e+00 -1.318413e+01 -1.165854e+01 -1.394996e+01 -7.108248e+00 3.045804e+00 -6.628577e+00 -4.744322e+00 -1.007866e+01 9.489753e-01 8.180901e-01 1.870831e-01 1.446212e-01 5.102788e-01 7.588092e-03 -1.287193e-01 -5.157040e-02 8.868425e-02 2.067504e-02 -2.845567e-01 1.198895e-01 1.403579e-02 2.467410e-01 6.445031e-04 -1.579444e-01 1.089764e+00 -1.076460e-01 9.483291e-01 2.788730e-01 3.564821e-01 -4.620837e-02 -7.951929e-01 2.009161e-01 1.249400e-01 4.692190e-01 -3.592597e-01 -1.974751e-02
<VARIANCE> 39
 1.236046e+01 3.590000e+01 4.913741e+01 4.075708e+01 6.205372e+01 5.780332e+01 7.773705e+01 4.967645e+01 6.834917e+01 7.032455e+01 4.330712e+01 3.442181e+01 8.801140e-03 9.291837e-01 2.213848e+00 2.492522e+00 2.489636e+00 3.123842e+00 2.860901e+00 3.752052e+00 3.593338e+00 3.601839e+00 3.646428e+00 2.611969e+00 2.595116e+00 8.134359e-04 3.083327e-01 3.196888e-01 4.076864e-01 4.896363e-01 5.990642e-01 6.799104e-01 7.177247e-01 7.917785e-01 7.144223e-01 8.777514e-01 6.233743e-01 4.952038e-01 1.966413e-04
<GCONST> 1.020156e+02
<MIXTURE> 4 2.247531e-01
<MEAN> 39
 1.832808e+00 -6.304801e+00 -1.129302e+00 -6.748590e+00 -9.978827e+00 -7.295048e+00 -6.012134e+00 1.508492e+00 -1.844620e-01 -2.512100e+00 -5.879788e+00 -2.203665e+00 7.553787e-01 -1.085286e-02 2.554671e-01 8.333337e-02 2.521085e-01 1.362036e-01 4.426208e-02 -4.228107e-02 -5.975101e-02 -6.547646e-03 -1.297292e-01 2.972275e-02 1.379580e-01 -6.681052e-03 -6.017033e-02 3.252551e-01 1.087236e-01 1.984205e-01 1.441421e-01 -4.225292e-02 -6.516880e-02 -1.752424e-01 -8.563967e-02 3.225251e-02 9.282325e-02 4.656816e-03 -5.334526e-03
<VARIANCE> 39
 1.407052e+01 4.419506e+01 5.543938e+01 5.809505e+01 6.875089e+01 7.384882e+01 6.945541e+01 5.424697e+01 7.001737e+01 6.822268e+01 5.622541e+01 3.917354e+01 1.180514e-02 3.405044e-01 8.966106e-01 9.238724e-01 1.063822e+00 1.316978e+00 1.367061e+00 1.557304e+00 1.384896e+00 1.473250e+00 1.487462e+00 1.330136e+00 1.141778e+00 3.175637e-04 8.977143e-02 1.801213e-01 1.612428e-01 1.952512e-01 2.530587e-01 2.558499e-01 2.874415e-01 3.024035e-01 2.983926e-01 2.942047e-01 2.528990e-01 2.144347e-01 1.000000e-04
<GCONST> 8.066342e+01
<MIXTURE> 5 2.217491e-01
<MEAN> 39
 -8.178664e-01 -1.222880e+00 2.874879e+00 -6.789902e+00 -1.567016e+01 -1.758640e+01 -8.303948e+00 -2.897372e+00 -3.159810e+00 -3.010804e+00 -5.842318e+00 1.545413e+00 8.024489e-01 9.117083e-01 3.850710e-01 4.235784e-01 2.334276e-01 3.026176e-02 -2.660889e-01 -3.563833e-01 1.714426e-01 2.689124e-01 3.505779e-01 -1.696597e-01 -2.417750e-03 6.823583e-03 -1.360932e+00 6.342396e-01 -3.451552e-01 7.029158e-01 1.340081e+00 1.493154e+00 8.574055e-01 2.629136e-01 2.606022e-01 1.279137e-01 6.121531e-01 -3.526070e-01 -4.643690e-02
<VARIANCE> 39
 1.110298e+01 3.262561e+01 4.523345e+01 4.590639e+01 5.196758e+01 3.576707e+01 6.018439e+01 4.339055e+01 5.791918e+01 4.260538e+01 4.181428e+01 2.965902e+01 8.604326e-03 2.103024e+00 2.535589e+00 2.286746e+00 2.171605e+00 3.152438e+00 2.860514e+00 3.122790e+00 2.909218e+00 3.042607e+00 3.086273e+00 2.702051e+00 2.588702e+00 1.023726e-03 6.231289e-01 6.551691e-01 6.427706e-01 7.965644e-01 7.745162e-01 7.090183e-01 9.802654e-01 8.680261e-01 9.701450e-01 8.424270e-01 8.524286e-01 6.218455e-01 3.293552e-04
<GCONST> 1.045835e+02
<STATE> 4
<NUMMIXES> 5
<MIXTURE> 1 1.467226e-01
<MEAN> 39
 -4.376647e+00 -1.670850e+00 -2.721179e+00 -2.296845e+00 -2.071469e+00 -1.929082e+00 -2.677298e+00 4.254940e-01 2.201246e+00 -1.969804e+00 -3.772445e+00 -2.775353e+00 4.429092e-01 -7.647054e-01 2.078405e-01 -9.347319e-02 4.151377e-01 4.163736e-01 3.930493e-01 5.172821e-01 3.811477e-01 6.636681e-02 2.281463e-01 5.791620e-01 3.003887e-01 -4.582997e-02 3.340456e-02 -1.415884e-01 -5.915792e-02 -2.425049e-01 -2.214715e-01 -1.738708e-01 -1.288308e-01 -8.688629e-02 -1.170682e-01 6.713592e-02 8.704758e-02 7.555187e-02 4.077932e-03
<VARIANCE> 39
 3.917736e+01 3.887260e+01 4.488105e+01 4.700923e+01 6.479798e+01 5.984499e+01 5.883765e+01 4.863662e+01 5.634444e+01 6.505921e+01 4.518288e+01 3.629581e+01 2.753411e-02 2.426665e+00 2.106351e+00 2.239281e+00 2.603797e+00 2.658929e+00 3.001811e+00 3.374128e+00 3.134589e+00 3.032135e+00 3.217196e+00 2.803115e+00 2.116372e+00 2.712486e-03 3.881075e-01 3.775568e-01 4.039668e-01 4.686178e-01 4.657967e-01 4.836219e-01 5.590770e-01 5.898419e-01 6.062662e-01 5.732757e-01 4.834127e-01 4.170350e-01 3.531547e-04
<GCONST> 1.040861e+02
<MIXTURE> 2 1.405743e-01
<MEAN> 39
 4.088459e+00 1.553396e+00 -2.632780e+00 -9.645758e+00 -6.428813e+00 -3.493103e+00 -1.036403e+01 -9.279699e+00 -1.980939e+00 2.295394e+00 -4.604238e-01 -2.954382e+00 7.575374e-01 2.867484e-01 1.299556e+00 1.887143e-01 -5.829534e-02 2.188980e-01 4.245741e-01 5.297299e-01 -3.653280e-01 -8.879715e-01 -1.924452e-01 3.330182e-01 5.704547e-01 -5.500067e-03 -1.066113e+00 -2.779065e-02 2.183055e-01 6.320170e-01 2.332413e-01 -1.289375e-01 5.873221e-01 7.719820e-01 1.392370e-01 -3.295012e-01 -1.065814e-01 1.594750e-01 -2.412315e-02
<VARIANCE> 39
 1.172291e+01 3.154361e+01 4.622065e+01 8.694668e+01 4.232965e+01 5.435879e+01 6.947472e+01 4.432380e+01 7.921152e+01 5.631322e+01 5.622332e+01 3.504748e+01 8.712807e-03 4.802587e+00 3.035267e+00 2.813950e+00 8.424247e+00 4.895292e+00 4.568599e+00 5.554488e+00 5.483030e+00 4.615468e+00 4.205474e+00 3.731469e+00 2.906674e+00 2.878365e-03 4.261177e-01 5.172095e-01 4.549411e-01 9.044500e-01 6.068484e-01 6.426450e-01 8.194140e-01 6.907027e-01 9.337706e-01 8.132752e-01 7.022409e-01 5.527229e-01 2.143193e-04
<GCONST> 1.111957e+02
<MIXTURE> 3 2.907276e-01
<MEAN> 39
 2.365561e+00 -4.062543e+00 -3.579200e-01 -5.040752e+00 -1.063987e+01 -9.469231e+00 -9.531287e+00 2.400048e-01 -6.548183e-01 -3.472739e+00 -4.566067e+00 -2.693322e+00 7.667976e-01 1.831655e-01 1.480237e+00 3.827857e-01 1.008014e+00 7.408802e-01 7.512578e-02 -2.441117e-02 -1.005841e+00 -5.207129e-01 1.822594e-01 2.584720e-01 -7.026792e-02 -1.684197e-02 -2.461788e-01 4.891271e-01 1.324336e-01 2.151175e-01 2.812122e-01 1.121783e-01 2.598360e-01 -3.340436e-01 -2.101822e-01 1.322504e-01 2.584262e-02 -2.136545e-02 -8.704113e-03
<VARIANCE> 39
 1.392267e+01 4.114220e+01 4.887830e+01 5.372255e+01 6.212165e+01 6.836752e+01 6.760691e+01 5.401679e+01 7.276136e+01 7.250112e+01 5.637585e+01 3.891234e+01 9.040941e-03 7.755415e-01 1.745695e+00 2.251205e+00 2.266896e+00 2.949384e+00 2.870773e+00 3.461700e+00 3.363116e+00 3.595779e+00 3.152143e+00 2.774733e+00 2.388669e+00 6.155372e-04 1.897178e-01 2.628407e-01 3.212272e-01 3.656964e-01 4.654262e-01 5.063833e-01 5.192635e-01 6.080196e-01 5.700068e-01 5.989591e-01 4.557984e-01 4.107896e-01 1.000000e-04
<GCONST> 9.776731e+01
<MIXTURE> 4 2.402243e-01
<MEAN> 39
 -1.183671e+00 3.725727e+00 3.662450e+00 -2.284329e+00 -1.113367e+01 -1.332486e+01 -8.307314e+00 -3.060561e+00 -1.183014e+00 -3.392529e+00 -4.555543e+00 -7.391477e-01 7.014253e-01 -1.361863e+00 1.796443e+00 1.235555e-01 1.241296e+00 2.037340e+00 1.557574e+00 1.282910e+00 3.743677e-01 2.635227e-01 2.872444e-01 5.238264e-01 -3.759584e-01 -5.819121e-02 -1.188893e+00 -2.430533e-01 -5.216685e-01 -2.167866e-02 6.150444e-01 8.256577e-01 6.962053e-01 3.452068e-01 9.787434e-02 2.531275e-01 4.554518e-01 4.487135e-02 -3.034144e-02
<VARIANCE> 39
 1.929584e+01 2.948138e+01 3.837838e+01 3.384389e+01 5.758809e+01 4.037473e+01 4.571777e+01 3.835210e+01 4.960722e+01 4.287468e+01 3.700436e+01 3.164190e+01 1.042672e-02 3.488388e+00 2.474612e+00 2.377062e+00 2.673023e+00 3.136388e+00 3.560198e+00 3.628352e+00 3.147822e+00 3.380918e+00 2.955517e+00 2.934431e+00 2.643984e+00 1.529429e-03 6.122891e-01 5.171800e-01 4.980714e-01 4.645493e-01 7.180419e-01 6.474206e-01 6.742398e-01 6.048529e-01 6.832982e-01 6.333863e-01 6.141679e-01 5.437170e-01 2.577151e-04
<GCONST> 1.028217e+02
<MIXTURE> 5 1.817314e-01
<MEAN> 39
 -5.375941e-01 -5.866903e+00 6.024574e+00 -1.093599e+01 -1.420978e+01 -1.641134e+01 -1.022922e+01 -3.356781e-01 -6.903054e+00 -8.750152e-01 -7.671703e+00 1.438034e+00 8.040360e-01 -3.202535e-01 2.562661e+00 -6.941304e-02 2.121402e+00 9.325635e-01 8.249818e-01 6.407848e-01 -1.028664e+00 5.868098e-01 -5.921443e-01 4.937085e-01 -6.708513e-01 -4.458462e-02 -5.917787e-01 9.329599e-01 -6.252739e-01 8.752065e-01 6.420364e-01 7.747000e-01 5.276390e-01 -2.441658e-01 4.506782e-01 -2.478474e-01 4.321935e-01 -4.043841e-01 -2.808027e-02
<VARIANCE> 39
 1.227683e+01 3.328620e+01 5.495153e+01 3.998096e+01 6.283326e+01 5.440859e+01 7.738795e+01 5.667650e+01 6.714803e+01 6.168179e+01 5.766706e+01 4.003685e+01 7.996378e-03 2.098110e+00 2.246926e+00 2.667102e+00 2.567546e+00 3.299267e+00 3.843374e+00 4.333030e+00 4.246279e+00 4.021046e+00 4.048584e+00 3.381448e+00 3.189601e+00 1.076097e-03 5.391015e-01 4.306365e-01 5.575023e-01 5.103021e-01 8.032354e-01 7.929500e-01 9.045299e-01 9.602962e-01 8.380873e-01 9.007282e-01 9.015235e-01 6.168123e-01 2.563653e-04
<GCONST> 1.079670e+02
<TRANSP> 5
 0.000000e+00 1.000000e+00 0.000000e+00 0.000000e+00 0.000000e+00
 0.000000e+00 3.675561e-01 6.324439e-01 0.000000e+00 0.000000e+00
 0.000000e+00 0.000000e+00 3.560087e-01 6.439912e-01 0.000000e+00
 0.000000e+00 0.000000e+00 0.000000e+00 3.380974e-01 6.619026e-01
 0.000000e+00 0.000000e+00 0.000000e+00 0.000000e+00 0.000000e+00
<ENDHMM>
~h "C"
<BEGINHMM>
<NUMSTATES> 5
<STATE> 2
<NUMMIXES> 5
<MIXTURE> 1 2.034537e-01
<MEAN> 39
 -2.409305e+01 3.852556e+00 1.264708e+01 -4.554906e+00 -2.341357e+00 2.008433e+00 -6.569817e-02 -2.789067e+00 -4.802839e-01 -8.360012e-02 -2.536340e+00 2.091714e+00 6.303524e-01 -4.050639e+00 -1.778641e+00 -2.442305e+00 -1.609877e+00 9.704117e-01 1.405053e+00 7.790263e-01 3.003204e-01 1.883810e+00 9.633074e-01 -1.659472e-01 -7.765411e-02 6.167857e-02 9.230650e-01 -4.999567e-01 -3.498635e-01 -9.279323e-02 -1.058826e+00 -9.213490e-01 -6.846226e-01 2.531239e-01 -6.900985e-01 -2.008458e-01 1.644863e-01 -1.018076e-01 -5.030899e-03
<VARIANCE> 39
 1.697045e+01 2.273888e+01 2.327827e+01 2.273893e+01 2.346041e+01 2.177636e+01 2.869785e+01 2.180123e+01 2.676703e+01 2.293351e+01 1.990702e+01 2.131971e+01 1.487669e-02 1.920110e+00 1.784679e+00 2.156575e+00 2.183203e+00 4.134554e+00 3.282756e+00 3.188634e+00 3.108927e+00 3.700125e+00 2.569706e+00 2.250310e+00 2.405940e+00 7.541486e-04 3.698349e-01 4.294400e-01 4.690644e-01 4.739656e-01 6.099434e-01 5.168520e-01 5.335674e-01 5.159504e-01 6.193920e-01 4.808862e-01 5.072370e-01 4.474503e-01 2.466182e-04
<GCONST> 9.248622e+01
<MIXTURE> 2 2.445229e-01
<MEAN> 39
 -1.522782e+01 5.778811e+00 1.535161e+01 -1.273275e+00 -7.348312e+00 -5.579117e+00 -2.119862e+00 -3.032261e+00 -5.580095e+00 -2.297900e+00 -1.184847e+00 2.086244e+00 4.823545e-01 -4.553088e+00 3.404429e-01 -5.480856e-01 -5.812408e-01 2.827801e+00 2.499140e+00 2.191681e+00 -6.645029e-01 1.968186e+00 1.221279e+00 -3.065082e-01 2.462927e-01 3.096535e-02 -2.477060e-01 -1.051383e+00 -1.047415e+00 -5.413582e-01 -2.672327e-01 3.175002e-02 -4.914693e-01 3.892113e-01 2.783485e-01 1.866445e-01 -4.935889e-02 -2.032018e-01 1.742379e-02
<VARIANCE> 39
 1.812744e+01 3.456602e+01 2.340910e+01 2.824507e+01 3.094883e+01 3.510854e+01 3.989481e+01 4.396976e+01 3.374319e+01 3.309919e+01 2.552770e+01 2.519249e+01 1.874254e-02 2.180467e+00 2.870570e+00 4.322378e+00 2.806242e+00 5.207665e+00 4.127261e+00 4.416696e+00 3.930568e+00 4.792728e+00 3.691106e+00 3.171189e+00 3.134889e+00 1.473600e-03 4.798173e-01 4.812991e-01 3.825284e-01 3.893855e-01 7.788382e-01 7.330611e-01 7.541786e-01 7.127254e-01 5.718865e-01 5.831422e-01 5.111982e-01 4.682119e-01 3.438937e-04
<GCONST> 1.024268e+02
<MIXTURE> 3 1.896430e-01
<MEAN> 39
 -2.382968e+01 8.298360e+00 8.481134e+00 -8.746573e+00 -3.828057e+00 -6.116191e+00 -8.596251e+00 -1.003954e+01 -7.756083e+00 -9.212934e+00 -6.136954e+00 -3.509501e+00 6.513904e-01 -4.188876e+00 -9.612152e-01 -1.685871e+00 1.359095e+00 3.698124e+00 2.587648e+00 2.459652e+00 3.198272e+00 3.282218e+00 1.434319e+00 1.912454e+00 1.711195e+00 5.810941e-02 6.436744e-01 -8.754701e-01 -3.298352e-01 -4.830606e-01 -9.144164e-01 -1.290502e-01 3.953879e-01 6.371442e-01 4.283547e-02 9.607729e-01 3.106846e-01 2.662802e-01 -3.788211e-03
<VARIANCE> 39
 1.573497e+01 1.923573e+01 2.579116e+01 1.838044e+01 2.407532e+01 3.014634e+01 3.082912e+01 2.872772e+01 3.359443e+01 2.491190e+01 2.765756e+01 2.019932e+01 1.565578e-02 1.221925e+00 2.099289e+00 1.863882e+00 4.431124e+00 3.986356e+00 3.139916e+00 2.981729e+00 2.998536e+00 3.302195e+00 3.329156e+00 3.047461e+00 2.491643e+00 6.906317e-04 2.725049e-01 4.225396e-01 4.625129e-01 5.522439e-01 5.910317e-01 6.208699e-01 6.127317e-01 6.928995e-01 6.201533e-01 6.922558e-01 6.003761e-01 4.321851e-01 2.508871e-04
<GCONST> 9.486997e+01
<MIXTURE> 4 1.959251e-01
<MEAN> 39
 -1.124742e+01 1.301404e+00 8.373361e+00 -7.574111e+00 -1.689431e+01 -1.001034e+01 -7.083759e+00 -3.801487e+00 -1.040000e+01 -6.066452e+00 -2.181111e+00 -1.390414e+00 5.486633e-01 -2.096993e+00 2.926254e+00 1.459224e+00 6.444794e-01 2.030097e+00 8.707920e-01 8.796152e-01 -1.571624e+00 3.425346e-01 1.937773e-01 -7.540698e-02 5.987438e-01 -2.847301e-02 -9.217401e-01 -2.856199e-01 -4.585930e-01 9.285894e-02 1.208376e+00 6.798254e-01 3.944844e-01 2.521876e-01 7.668359e-01 4.804522e-01 -1.595722e-01 3.329262e-02 1.210698e-02
<VARIANCE> 39
 2.766323e+01 3.849848e+01 5.837947e+01 8.553027e+01 5.647012e+01 4.828848e+01 5.464548e+01 7.203915e+01 6.590336e+01 5.539293e+01 4.903564e+01 5.772002e+01 2.409670e-02 2.804484e+00 3.495380e+00 4.119009e+00 3.111177e+00 5.432414e+00 4.791271e+00 7.442081e+00 4.525807e+00 4.223990e+00 4.054039e+00 3.761095e+00 3.520400e+00 2.360524e-03 4.936741e-01 5.977453e-01 6.516119e-01 9.657019e-01 8.199477e-01 8.652161e-01 8.385566e-01 1.027261e+00 9.488335e-01 9.018337e-01 6.746384e-01 8.427730e-01 4.666674e-04
<GCONST> 1.161956e+02
<MIXTURE> 5 1.664552e-01
<MEAN> 39
 -1.656343e+01 8.814276e+00 9.207858e+00 -1.292851e+01 -1.413315e+01 -1.082731e+01 -1.132447e+01 -1.454064e+01 -1.231574e+01 -9.203670e+00 -7.228619e+00 -5.480019e+00 5.442885e-01 -3.701348e+00 1.513797e+00 -1.581420e-01 2.142283e+00 4.510779e+00 1.834949e+00 8.412717e-01 9.145190e-01 2.196776e+00 -1.739305e-01 6.191455e-01 9.572163e-01 3.010898e-02 -5.397747e-01 -1.055349e+00 -6.850936e-01 2.114984e-01 5.349862e-01 6.041763e-01 9.988801e-01 1.483716e+00 7.669864e-01 8.940026e-01 5.916430e-01 5.735856e-01 1.798658e-02
<VARIANCE> 39
 1.554158e+01 2.086084e+01 2.257930e+01 4.038760e+01 3.478026e+01 3.454249e+01 3.534575e+01 2.882581e+01 4.113708e+01 2.604079e+01 3.057100e+01 2.903892e+01 1.327555e-02 1.814173e+00 2.919005e+00 3.182215e+00 5.790123e+00 3.576984e+00 4.964903e+00 4.705450e+00 5.044952e+00 4.714845e+00 4.818736e+00 4.642636e+00 3.415182e+00 1.288180e-03 2.738674e-01 3.838150e-01 4.565993e-01 6.084003e-01 7.258007e-01 6.084628e-01 6.380754e-01 5.713983e-01 6.358486e-01 5.999522e-01 5.500997e-01 4.596237e-01 1.864332e-04
<GCONST> 1.013061e+02
<STATE> 3
<NUMMIXES> 5
<MIXTURE> 1 2.427016e-01
<MEAN> 39
 -2.872179e+01 9.348217e-02 6.948390e+00 -1.055096e+01 -4.850448e+00 5.029120e-01 -2.764447e+00 -2.854120e+00 7.074137e-01 -1.453718e-01 -1.955079e+00 2.645627e+00 7.093799e-01 -5.761896e-01 -8.013746e-01 -9.058967e-01 -5.209639e-02 -6.901282e-01 -3.778209e-01 1.638476e-01 -1.769891e-01 -1.313148e-01 2.795949e-01 -9.729578e-02 -1.121681e-01 5.739538e-03 1.230153e+00 4.464729e-01 4.045157e-01 8.671120e-01 -5.299684e-02 -4.579659e-01 9.435769e-02 5.394057e-02 -5.912544e-01 -1.622348e-01 1.732711e-02 -1.775765e-01 -2.949646e-02
<VARIANCE> 39
 1.251856e+01 1.702374e+01 1.477044e+01 1.559115e+01 2.453992e+01 1.816363e+01 2.130421e+01 2.200419e+01 2.013300e+01 1.979499e+01 1.824017e+01 1.796027e+01 1.501376e-02 1.586631e+00 1.430146e+00 1.640573e+00 2.656145e+00 2.179618e+00 1.870194e+00 2.319256e+00 1.960957e+00 2.163299e+00 2.000396e+00 1.787524e+00 1.662533e+00 1.067569e-03 3.766256e-01 2.388275e-01 3.172911e-01 3.404670e-01 5.741837e-01 5.248955e-01 4.876242e-01 5.754160e-01 5.412250e-01 4.495577e-01 4.440880e-01 3.899938e-01 3.066841e-04
<GCONST> 8.487139e+01
<MIXTURE> 2 2.995058e-01
<MEAN> 39
 -2.938935e+01 1.670146e+00 4.971642e+00 -9.693789e+00 -2.560963e+00 -7.784318e-01 -2.771672e+00 -1.955225e+00 1.534465e-01 -7.876600e-01 -7.292001e-01 1.152734e+00 7.109098e-01 5.220978e-02 -1.424694e-01 -4.546455e-03 1.059765e-01 -1.168900e-01 3.137025e-02 7.113624e-02 -4.499092e-02 6.713363e-02 1.706628e-02 -6.751674e-02 8.056968e-03 -3.893648e-03 2.140953e-01 3.336634e-02 1.491727e-01 1.361940e-01 -9.577460e-02 -3.022428e-02 -8.789789e-04 -1.124703e-01 -8.490833e-02 -6.095985e-02 -7.098637e-02 -3.993612e-02 -6.398758e-03
<VARIANCE> 39
 1.267528e+01 2.783259e+01 2.533306e+01 2.138258e+01 3.053146e+01 2.675433e+01 2.635833e+01 2.518281e+01 1.977505e+01 2.581603e+01 2.214107e+01 1.777563e+01 1.201903e-02 3.316641e-01 5.121670e-01 7.610878e-01 9.557443e-01 1.204241e+00 1.242705e+00 1.373732e+00 1.521636e+00 1.456181e+00 1.410864e+00 1.452136e+00 1.219030e+00 2.495510e-04 9.085882e-02 1.236237e-01 1.665659e-01 2.102597e-01 2.714552e-01 2.662532e-01 3.130460e-01 3.479977e-01 3.235510e-01 3.210400e-01 3.308790e-01 2.472752e-01 5.876495e-05
<GCONST> 6.968050e+01
<MIXTURE> 3 1.373232e-01
<MEAN> 39
 -2.305542e+01 -1.923950e+00 9.567972e+00 -2.546349e+00 -7.151540e+00 -2.081713e+00 2.181166e+00 -9.188821e-01 -3.043342e+00 1.648524e+00 -1.393186e+00 -4.382041e-01 6.063668e-01 -2.807036e+00 -6.273983e-01 -1.345239e+00 -9.142299e-01 4.435817e-01 8.883449e-01 8.833621e-02 -2.499201e-02 9.934102e-01 6.555602e-01 2.694825e-01 6.868823e-03 4.353569e-02 1.064122e+00 3.358180e-01 -2.759852e-01 1.970477e-01 -2.173867e-02 -5.012754e-01 -7.928748e-01 3.120215e-01 -1.933950e-01 -3.932950e-01 1.068127e-01 2.162566e-01 -2.012691e-02
<VARIANCE> 39
 2.257551e+01 2.340022e+01 2.517844e+01 3.470511e+01 2.472367e+01 2.937004e+01 2.992841e+01 3.453913e+01 2.700575e+01 2.081170e+01 2.180007e+01 1.991264e+01 2.292247e-02 3.074956e+00 2.535689e+00 4.601496e+00 2.765767e+00 3.947649e+00 4.315987e+00 3.784647e+00 4.758857e+00 3.662612e+00 2.974599e+00 2.900819e+00 2.545485e+00 2.383440e-03 5.704676e-01 4.186929e-01 5.469913e-01 5.788332e-01 6.473728e-01 7.216288e-01 8.572603e-01 7.548389e-01 7.118161e-01 4.970486e-01 5.486271e-01 4.617747e-01 7.337604e-04
<GCONST> 1.021421e+02
<MIXTURE> 4 2.265584e-01
<MEAN> 39
 -2.941020e+01 5.272938e+00 3.698732e+00 -9.589432e+00 -2.409923e-02 -1.995913e+00 -2.495947e+00 -1.588828e+00 -3.600156e-01 -2.318403e+00 1.613010e-01 1.127533e+00 7.342017e-01 -1.690210e+00 -1.136652e+00 -1.283064e+00 1.742772e-01 9.910771e-01 1.366392e+00 1.621981e+00 2.107471e+00 1.932571e+00 1.691108e+00 1.389418e+00 1.181434e+00 2.236415e-02 1.347241e+00 2.446884e-02 4.274621e-01 -1.241542e-01 -1.292363e+00 -7.250882e-01 -5.385484e-01 -7.613307e-01 -8.587390e-01 -2.701344e-01 -4.897423e-01 -3.232708e-01 -2.418786e-02
<VARIANCE> 39
 1.279705e+01 1.802992e+01 2.104502e+01 1.942536e+01 2.179804e+01 2.480869e+01 2.758081e+01 2.469230e+01 2.513906e+01 2.322491e+01 2.076744e+01 1.671914e+01 1.408850e-02 1.462606e+00 1.736448e+00 2.185240e+00 2.729286e+00 3.373289e+00 2.653175e+00 2.801853e+00 2.744701e+00 2.488425e+00 2.549527e+00 2.408238e+00 2.034169e+00 8.137443e-04 3.696510e-01 3.916307e-01 3.977163e-01 6.797674e-01 6.825913e-01 5.254129e-01 5.260992e-01 5.424922e-01 5.437262e-01 5.826450e-01 4.887430e-01 4.328801e-01 2.948300e-04
<GCONST> 9.082589e+01
<MIXTURE> 5 9.391094e-02
<MEAN> 39
 -2.097490e+01 6.073831e+00 9.952325e+00 -6.032253e+00 -7.237068e+00 -5.826943e+00 -6.284699e+00 -7.990660e+00 -7.005653e+00 -5.882282e+00 -4.269589e+00 -4.952247e-01 6.096452e-01 -2.682820e+00 3.602529e-01 -6.833082e-01 1.254158e+00 2.862165e+00 1.816467e+00 1.873857e+00 1.417697e+00 1.866567e+00 1.348691e+00 6.408582e-01 4.806644e-01 8.375155e-03 8.140409e-01 -5.782146e-01 -6.949954e-01 2.071564e-02 -3.790505e-01 -7.607281e-02 1.858268e-01 6.978577e-01 1.090460e-01 5.262147e-01 3.983923e-01 4.039985e-02 -1.752339e-02
<VARIANCE> 39
 4.080087e+01 2.867527e+01 3.913514e+01 4.965159e+01 5.782376e+01 3.928629e+01 4.267609e+01 4.759269e+01 4.427624e+01 4.053804e+01 4.052635e+01 3.705757e+01 2.007798e-02 4.135358e+00 4.688463e+00 4.265849e+00 5.271031e+00 5.657499e+00 4.904263e+00 4.285991e+00 6.150974e+00 5.236107e+00 4.826616e+00 4.574123e+00 3.907452e+00 3.508131e-03 8.768297e-01 6.471337e-01 6.414418e-01 8.922769e-01 1.464911e+00 8.948959e-01 9.640751e-01 8.602203e-01 8.928866e-01 7.543288e-01 7.159887e-01 6.869055e-01 9.460230e-04
<GCONST> 1.165813e+02
<STATE> 4
<NUMMIXES> 5
<MIXTURE> 1 2.527860e-01
<MEAN> 39
 -2.505711e+01 -2.903124e+00 5.784664e+00 -3.702470e+00 -7.868877e+00 -3.197940e+00 6.307920e-01 -2.242505e+00 -2.370170e+00 8.736826e-01 -1.551056e+00 1.633011e-01 5.981632e-01 1.001534e+00 -9.239140e-02 -1.020732e+00 1.298029e+00 4.086454e-01 -6.451606e-01 9.135922e-02 1.022555e+00 -1.548379e-01 -2.222690e-01 3.269298e-01 -1.288643e-03 -4.379458e-02 5.051110e-01 4.336300e-01 -5.409888e-03 1.061781e-01 4.111251e-01 5.819058e-02 -3.179666e-01 1.261034e-01 2.668243e-03 -1.282477e-01 -2.217785e-02 7.038715e-02 -1.512448e-02
<VARIANCE> 39
 2.065433e+01 1.764187e+01 2.726370e+01 2.806511e+01 2.203376e+01 2.526351e+01 2.836366e+01 2.936578e+01 2.291572e+01 2.506996e+01 2.251032e+01 2.015752e+01 2.714724e-02 3.174328e+00 1.509130e+00 2.181663e+00 2.860013e+00 2.628773e+00 3.129391e+00 2.930362e+00 2.945419e+00 2.935119e+00 2.309814e+00 2.072584e+00 2.009800e+00 2.921971e-03 3.412066e-01 2.905640e-01 3.508341e-01 4.391236e-01 4.798026e-01 5.124501e-01 6.098469e-01 6.670761e-01 4.969760e-01 5.058951e-01 4.459844e-01 3.727684e-01 2.962296e-04
<GCONST> 9.350924e+01
<MIXTURE> 2 2.666576e-01
<MEAN> 39
 -2.902739e+01 2.879057e+00 6.284928e+00 -6.075620e+00 -3.137237e+00 -3.042074e-01 4.465825e-02 -2.073267e+00 -2.684526e-01 -4.687512e-02 -9.254452e-01 1.224178e+00 7.218968e-01 9.022709e-01 1.117733e+00 -4.617888e-01 1.958707e+00 1.614400e+00 7.516741e-01 9.956596e-01 1.142912e+00 5.269611e-01 1.174957e+00 8.457285e-01 4.442417e-01 -1.015201e-01 1.427600e+00 1.673989e-01 -1.024919e-01 5.265331e-01 9.694654e-02 -1.527056e-01 -1.592672e-01 1.423734e-01 -1.832610e-01 2.330820e-02 2.036569e-01 8.945590e-02 -6.127388e-02
<VARIANCE> 39
 1.493277e+01 2.724627e+01 2.653967e+01 2.723195e+01 2.950331e+01 2.498804e+01 2.882330e+01 2.888281e+01 2.752651e+01 2.298858e+01 2.240706e+01 1.922788e+01 1.488069e-02 3.924626e+00 2.767803e+00 2.932225e+00 3.711018e+00 3.568229e+00 3.191025e+00 3.398920e+00 3.361797e+00 3.401421e+00 3.049996e+00 2.640600e+00 2.273673e+00 6.497399e-03 4.825664e-01 4.966219e-01 4.742695e-01 6.343549e-01 7.807267e-01 6.570007e-01 6.602235e-01 6.681611e-01 6.758289e-01 4.882123e-01 5.446947e-01 4.643281e-01 4.739768e-04
<GCONST> 1.003868e+02
<MIXTURE> 3 1.683180e-01
<MEAN> 39
 -2.170083e+01 4.743385e+00 5.855453e+00 -3.883133e-02 1.218532e+00 -9.710583e-02 8.179784e-01 1.846168e+00 -7.301425e-02 2.118706e+00 1.656565e+00 2.377608e+00 3.407139e-01 2.222965e+00 7.588142e-01 -1.122989e+00 1.914146e+00 1.533025e+00 7.232918e-01 3.821752e-01 1.090879e+00 6.052088e-01 9.505676e-01 8.957284e-01 7.080511e-01 -1.579973e-01 2.034300e-01 -4.943891e-01 -2.447215e-01 -5.812702e-01 -7.150617e-01 -3.404521e-01 -4.332236e-01 -5.104954e-01 -3.212982e-01 -3.832560e-01 -3.559760e-01 -2.166070e-01 1.230756e-02
<VARIANCE> 39
 2.807512e+01 4.119587e+01 2.800481e+01 3.420146e+01 2.778867e+01 3.231364e+01 3.424785e+01 3.245510e+01 2.918185e+01 2.430805e+01 2.311819e+01 1.967195e+01 6.160064e-02 4.656883e+00 2.825089e+00 2.753535e+00 3.762496e+00 3.514578e+00 4.009271e+00 3.818297e+00 3.689538e+00 3.690551e+00 2.845555e+00 3.203212e+00 2.456595e+00 8.046707e-03 6.429150e-01 6.507347e-01 5.283465e-01 6.949711e-01 6.452540e-01 7.080726e-01 7.313640e-01 6.518744e-01 5.958511e-01 5.713440e-01 4.801441e-01 4.443330e-01 1.066686e-03
<GCONST> 1.062405e+02
<MIXTURE> 4 1.561872e-01
<MEAN> 39
 -2.868338e+01 3.921132e+00 4.509038e+00 -9.319611e+00 -1.432594e+00 -1.365843e+00 -1.856460e+00 -1.941500e+00 1.824151e-01 -1.418094e+00 -5.623127e-01 2.230761e+00 6.813760e-01 2.714129e+00 -7.369543e-01 4.607238e-01 1.610373e-01 -2.389752e+00 -1.481797e+00 -8.023903e-01 -9.061158e-01 -1.314785e+00 -4.901213e-01 -5.232744e-01 -3.098494e-01 -5.781849e-02 1.484891e+00 -1.574640e-01 8.172416e-02 2.114455e-01 -9.251620e-01 -8.325406e-01 -6.138013e-01 -2.011065e-01 -8.351644e-01 -2.602338e-01 -2.994194e-01 -3.865730e-01 -1.892360e-02
<VARIANCE> 39
 1.610933e+01 2.466585e+01 2.852414e+01 2.723580e+01 2.865641e+01 2.874487e+01 3.363721e+01 3.317394e+01 2.741064e+01 2.460870e+01 2.337818e+01 1.765914e+01 1.802608e-02 4.321658e+00 2.625617e+00 3.005718e+00 4.009385e+00 5.345275e+00 4.242145e+00 3.969659e+00 3.208777e+00 3.732399e+00 3.177161e+00 2.705660e+00 2.213176e+00 1.964706e-03 5.279619e-01 4.704080e-01 6.241126e-01 8.239754e-01 1.069216e+00 7.313504e-01 8.215004e-01 9.722920e-01 7.886596e-01 7.065033e-01 6.945415e-01 5.765748e-01 3.865274e-04
<GCONST> 1.032972e+02
<MIXTURE> 5 1.560512e-01
<MEAN> 39
 -1.540664e+01 1.879610e+00 7.389583e+00 -5.912248e+00 -9.590584e+00 -8.585916e+00 -7.153635e+00 -5.562494e+00 -7.513250e+00 -3.927109e+00 -3.109338e+00 -4.420029e-01 4.551464e-01 3.501408e+00 -5.337211e-01 -1.041953e+00 6.622745e-01 -1.022085e+00 -1.492544e+00 -1.085098e+00 5.589292e-01 -7.790273e-01 4.589915e-01 -9.416264e-02 -2.837699e-01 -5.256234e-02 -1.615468e-01 -2.553791e-01 -5.029545e-01 -8.472353e-02 3.755400e-01 5.300924e-01 2.483051e-01 3.466774e-01 4.480296e-01 4.232966e-01 9.615509e-02 -4.974449e-02 9.063207e-03
<VARIANCE> 39
 5.393069e+01 4.259865e+01 4.069976e+01 6.449221e+01 5.875783e+01 5.668392e+01 5.629548e+01 6.361245e+01 4.812909e+01 3.911835e+01 3.633183e+01 3.089185e+01 3.483153e-02 9.027617e+00 5.167541e+00 6.082944e+00 5.833593e+00 1.053182e+01 7.828217e+00 8.136627e+00 6.385388e+00 8.242508e+00 5.663380e+00 5.409943e+00 4.346550e+00 4.695844e-03 1.078240e+00 7.068018e-01 7.854057e-01 9.821583e-01 1.382061e+00 1.204158e+00 1.097160e+00 1.229765e+00 8.878427e-01 8.407588e-01 7.875624e-01 6.830336e-01 6.523987e-04
<GCONST> 1.242348e+02
<TRANSP> 5
 0.000000e+00 1.000000e+00 0.000000e+00 0.000000e+00 0.000000e+00
 0.000000e+00 5.825670e-01 4.174330e-01 0.000000e+00 0.000000e+00
 0.000000e+00 0.000000e+00 6.479377e-01 3.520623e-01 0.000000e+00
 0.000000e+00 0.000000e+00 0.000000e+00 6.199526e-01 3.800474e-01
 0.000000e+00 0.000000e+00 0.000000e+00 0.000000e+00 0.000000e+00
<ENDHMM>
~h "D"
<BEGINHMM>
<NUMSTATES> 5
<STATE> 2
<NUMMIXES> 5
<MIXTURE> 1 2.445319e-01
<MEAN> 39
 -8.005589e+00 1.511882e+00 -1.880738e+00 -5.001604e-01 -1.657305e+00 2.163799e-01 8.176606e-01 1.108928e+00 3.817724e-01 1.827796e-01 -1.107591e-01 -7.786241e-01 1.258130e-01 -9.033672e-01 -5.751672e-01 -4.696040e-01 -3.013040e-01 -7.501520e-01 -5.607162e-01 -2.794118e-01 -3.442677e-01 -8.676380e-02 -2.991852e-01 1.900442e-01 1.919554e-01 2.632543e-02 7.711956e-02 -5.505220e-04 8.949804e-02 -1.553379e-01 -7.473694e-01 -7.479084e-01 -3.912160e-01 -2.854484e-01 -1.510754e-01 -2.617425e-01 -1.247485e-01 5.438483e-02 3.571987e-02
<VARIANCE> 39
 6.355808e+00 5.528957e+00 6.870965e+00 1.055501e+01 1.171827e+01 1.278346e+01 1.460600e+01 1.518002e+01 1.617182e+01 1.540934e+01 1.403368e+01 1.299731e+01 1.309880e-02 1.250009e+00 1.339047e+00 1.123080e+00 1.329356e+00 2.043453e+00 1.905482e+00 1.859192e+00 1.899755e+00 1.898918e+00 1.748850e+00 1.733553e+00 1.535696e+00 1.685545e-03 3.058034e-01 2.047074e-01 2.399960e-01 2.567371e-01 4.049924e-01 3.633118e-01 4.053048e-01 3.889814e-01 4.482313e-01 3.912607e-01 3.560478e-01 3.099784e-01 2.974597e-04
<GCONST> 7.426471e+01
<MIXTURE> 2 2.552282e-01
<MEAN> 39
 -1.274714e+01 2.429853e+00 -3.200686e+00 -7.549707e-01 -4.092250e+00 -2.268444e+00 -4.245637e-01 7.542191e-01 1.230228e+00 5.521592e-01 9.250243e-01 1.689719e-01 2.437377e-01 -6.460845e-01 -7.631279e-01 -3.992675e-01 -6.059767e-02 -4.818659e-01 -2.528485e-01 4.092821e-02 -1.442740e-01 -3.049020e-02 -3.882559e-01 1.190583e-01 1.756847e-01 2.062837e-02 9.452199e-01 2.550251e-02 3.854202e-01 -2.395909e-01 -6.009614e-01 -8.459465e-01 -6.492707e-01 -3.953023e-01 -2.163007e-01 -3.533172e-01 -5.737749e-01 -1.438257e-01 4.344305e-02
<VARIANCE> 39
 3.098852e+01 2.213466e+01 1.974673e+01 2.417962e+01 2.806667e+01 2.873329e+01 2.582239e+01 2.484097e+01 2.471532e+01 2.261603e+01 2.208084e+01 1.909734e+01 1.910516e-02 4.160271e+00 2.418566e+00 2.191852e+00 2.135874e+00 2.780051e+00 2.808445e+00 2.717815e+00 2.872841e+00 2.818306e+00 2.795548e+00 2.967520e+00 2.311211e+00 2.711683e-03 5.566127e-01 5.322749e-01 4.870342e-01 5.491551e-01 6.453683e-01 7.075490e-01 6.568528e-01 5.958446e-01 6.716699e-01 6.042423e-01 5.831926e-01 4.573508e-01 4.191175e-04
<GCONST> 9.772956e+01
<MIXTURE> 3 2.004807e-01
<MEAN> 39
 -2.524564e+00 8.056962e+00 3.002138e+00 2.221254e+00 -4.241675e+00 -5.568817e+00 -5.412958e+00 -4.286756e+00 -3.489520e+00 -4.142848e+00 -5.075029e+00 -4.644506e+00 5.067789e-01 -1.816271e+00 -5.639361e-01 -6.444168e-01 1.861003e-01 4.486740e-01 6.720962e-01 7.316130e-01 2.328489e-01 7.244448e-02 -1.368878e-01 7.025151e-01 1.681151e-01 -2.934219e-02 -1.559066e-02 -8.681492e-01 -3.088126e-01 -7.748426e-01 -8.924154e-01 -6.482200e-01 -2.846340e-01 5.056962e-02 2.946095e-01 3.038271e-01 1.755102e-01 4.881167e-01 1.975511e-02
<VARIANCE> 39
 2.032577e+01 1.753316e+01 2.159092e+01 2.412313e+01 3.287302e+01 3.147550e+01 2.652459e+01 2.841977e+01 3.226203e+01 3.144632e+01 2.857314e+01 2.191974e+01 1.697894e-02 2.684580e+00 2.962204e+00 2.294873e+00 2.315548e+00 3.330455e+00 3.514311e+00 3.196068e+00 3.140651e+00 3.128927e+00 2.819506e+00 2.915725e+00 2.344326e+00 2.715122e-03 4.971023e-01 4.156585e-01 4.385616e-01 5.435394e-01 7.067178e-01 6.722878e-01 6.735131e-01 6.950797e-01 7.111771e-01 5.558537e-01 5.220358e-01 4.693820e-01 4.378937e-04
<GCONST> 9.878054e+01
<MIXTURE> 4 1.370769e-01
<MEAN> 39
 3.286609e+00 5.341071e+00 3.060322e+00 -7.372762e-02 -9.298704e+00 -9.998544e+00 -7.894330e+00 -7.967978e+00 -5.471672e+00 -5.548712e-01 -5.455181e+00 -2.922430e+00 7.446492e-01 -7.341439e-01 -1.267562e-01 -9.501110e-01 -3.470631e-01 1.903434e-01 -2.455092e-01 -2.792852e-01 1.147721e+00 8.718746e-01 -7.299256e-01 3.721305e-01 -1.332540e-01 -1.195442e-03 -2.107763e-01 -5.904424e-01 -2.608605e-01 -5.975461e-01 -1.064797e-01 1.767530e-01 6.440617e-03 6.183183e-01 3.509030e-01 -2.881588e-01 8.350078e-02 2.455726e-02 3.601310e-03
<VARIANCE> 39
 7.398277e+00 2.997729e+01 2.974331e+01 4.665346e+01 5.463005e+01 5.723659e+01 5.801900e+01 5.127452e+01 5.474950e+01 6.121828e+01 6.769920e+01 3.787149e+01 5.999407e-03 6.624306e-01 1.176866e+00 2.054159e+00 1.889935e+00 2.135617e+00 2.427230e+00 2.699206e+00 3.637655e+00 3.237819e+00 3.182030e+00 2.686354e+00 1.967122e+00 1.000000e-04 1.170576e-01 2.206562e-01 3.510812e-01 3.209825e-01 4.934710e-01 4.907222e-01 4.899172e-01 5.834150e-01 6.356215e-01 5.916631e-01 5.239807e-01 4.107086e-01 1.000000e-04
<GCONST> 9.080006e+01
<MIXTURE> 5 1.626669e-01
<MEAN> 39
 1.533682e+00 5.573123e+00 1.025577e+00 -2.504580e-01 -6.549080e+00 -9.375285e+00 -9.678360e+00 -4.614287e+00 2.136642e-01 -2.211502e+00 -6.244910e+00 -3.876078e+00 6.245824e-01 -5.632337e-01 1.403547e+00 4.880913e-01 1.382809e+00 1.111058e+00 1.046212e+00 7.283654e-01 -6.110382e-02 -5.133080e-01 -4.110147e-01 1.392623e-02 -6.019595e-01 -3.659802e-02 -4.648796e-01 -6.681468e-01 -1.828561e-01 -5.601279e-01 -3.328697e-01 1.634504e-02 2.674825e-01 1.753224e-01 -9.030360e-02 8.805120e-03 2.056201e-01 2.250366e-01 5.741340e-03
<VARIANCE> 39
 8.120722e+00 2.366909e+01 2.762747e+01 2.793397e+01 3.469378e+01 3.540991e+01 3.839817e+01 3.733368e+01 3.661517e+01 3.957926e+01 3.561245e+01 2.915086e+01 1.054520e-02 1.407423e+00 1.730967e+00 1.574204e+00 2.235888e+00 2.753472e+00 2.852455e+00 2.996092e+00 2.518548e+00 2.540804e+00 2.533072e+00 2.454516e+00 2.323979e+00 1.580953e-03 2.259848e-01 2.749065e-01 2.478871e-01 3.991596e-01 4.264592e-01 4.448476e-01 4.619759e-01 4.885104e-01 4.627461e-01 4.500731e-01 3.978062e-01 3.915919e-01 2.616439e-04
<GCONST> 9.110256e+01
<STATE> 3
<NUMMIXES> 5
<MIXTURE> 1 2.920620e-01
<MEAN> 39
 -1.297767e+01 1.530340e+00 -2.730928e+00 -8.757763e-02 -3.039280e+00 -1.120256e+00 5.884266e-01 1.241624e+00 9.725569e-01 -4.070297e-01 4.260745e-01 -7.152537e-02 2.207010e-01 1.776886e+00 -1.336279e-01 6.463707e-01 -6.317397e-01 -2.400878e+00 -2.707792e+00 -1.877325e+00 -1.423046e+00 -8.689453e-01 -1.245721e+00 -1.237495e+00 -2.531054e-01 1.243492e-01 1.086334e+00 -1.845128e-01 4.615433e-01 -5.811711e-01 -9.289736e-01 -1.073369e+00 -7.693697e-01 -2.664042e-01 -2.136497e-01 7.362808e-03 -4.829333e-01 1.308859e-02 4.427761e-02
<VARIANCE> 39
 2.049831e+01 1.251900e+01 1.265706e+01 1.553451e+01 1.918533e+01 1.912132e+01 1.853714e+01 1.972545e+01 2.076016e+01 1.916875e+01 1.925209e+01 1.632311e+01 1.774970e-02 4.099073e+00 2.383749e+00 2.394050e+00 2.636517e+00 3.721402e+00 3.115849e+00 3.300042e+00 2.992845e+00 3.221256e+00 2.764022e+00 2.737840e+00 2.173672e+00 2.027491e-03 3.448335e-01 3.656306e-01 5.003834e-01 4.889056e-01 5.537071e-01 5.918044e-01 6.104070e-01 6.159894e-01 6.430599e-01 6.113690e-01 6.809433e-01 4.405711e-01 2.426646e-04
<GCONST> 9.261554e+01
<MIXTURE> 2 2.237625e-01
<MEAN> 39
 -1.334899e+01 -3.621861e+00 -5.853881e+00 -3.493687e+00 -7.348144e+00 -4.593518e+00 -1.495381e+00 -1.323295e+00 -6.744759e-02 -1.137692e+00 1.682201e+00 1.197180e+00 3.525142e-01 6.041208e-01 -2.001540e-01 1.969288e-01 -4.501043e-01 -2.007568e+00 -2.080873e+00 -9.742133e-01 -5.962803e-01 -5.219910e-02 -8.730180e-01 -5.275778e-01 1.832330e-01 1.088572e-01 1.404241e+00 6.896076e-01 8.774220e-01 3.489228e-02 -2.813990e-01 -5.406046e-01 -5.482717e-01 -9.743333e-02 -6.442449e-02 8.544017e-04 -6.884555e-01 -2.861317e-01 2.887523e-02
<VARIANCE> 39
 1.263939e+01 1.286791e+01 1.372517e+01 1.461609e+01 2.027075e+01 1.888401e+01 1.912371e+01 1.669602e+01 1.765774e+01 1.582821e+01 1.674744e+01 1.218476e+01 1.230828e-02 2.997144e+00 2.056450e+00 2.479381e+00 2.166101e+00 3.519157e+00 2.877276e+00 3.264503e+00 3.271780e+00 3.463876e+00 2.875807e+00 2.679056e+00 2.253881e+00 2.406423e-03 3.977779e-01 3.994302e-01 5.300614e-01 5.237032e-01 6.290992e-01 7.553576e-01 7.430363e-01 6.603389e-01 6.818759e-01 6.185637e-01 7.273489e-01 4.498948e-01 2.543843e-04
<GCONST> 9.175370e+01
<MIXTURE> 3 1.446774e-01
<MEAN> 39
 -9.741470e-01 6.208804e+00 9.717165e-01 9.036822e-01 -5.813855e+00 -8.417611e+00 -1.060374e+01 -6.391932e+00 -1.473856e-01 -1.384002e+00 -4.282134e+00 -4.221799e+00 6.290553e-01 -3.684529e-01 -1.106125e+00 -2.001987e-01 -8.073655e-01 -1.069474e+00 -1.079167e+00 -4.252267e-01 3.690089e-01 5.615047e-01 3.258487e-02 7.865020e-02 5.816942e-01 2.612023e-02 2.605844e-01 -9.455987e-01 7.295051e-02 -9.209154e-01 -6.685909e-01 -3.760576e-01 2.293020e-02 3.624212e-01 9.116114e-02 1.388972e-01 2.411759e-02 2.740546e-01 1.899291e-02
<VARIANCE> 39
 1.087692e+01 2.497323e+01 2.583044e+01 2.862964e+01 3.590296e+01 4.141356e+01 3.578638e+01 3.237280e+01 3.322213e+01 4.378583e+01 3.834940e+01 2.591009e+01 7.584833e-03 9.834329e-01 1.684661e+00 1.711802e+00 2.243985e+00 2.208040e+00 2.595962e+00 2.776640e+00 2.530677e+00 2.700778e+00 2.574465e+00 2.044735e+00 2.237863e+00 6.017690e-04 2.105590e-01 3.928366e-01 4.090878e-01 5.167173e-01 5.295641e-01 5.184701e-01 6.500149e-01 6.030234e-01 6.200398e-01 6.520131e-01 5.531024e-01 4.744760e-01 1.207890e-04
<GCONST> 9.159956e+01
<MIXTURE> 4 1.601484e-01
<MEAN> 39
 -8.540090e+00 5.090093e+00 7.096997e-01 2.409609e+00 -4.374464e+00 -4.746378e+00 -3.885388e+00 -4.315709e+00 -4.025345e+00 -5.659580e+00 -3.872190e+00 -3.887159e+00 4.920434e-01 -4.544094e-01 -1.701792e+00 -7.139350e-01 -1.358865e+00 -1.868815e+00 -1.648846e+00 -5.745683e-01 6.706504e-02 6.909715e-01 2.498352e-01 5.111411e-01 1.042959e+00 4.663704e-02 1.060100e+00 -4.701081e-01 1.758643e-01 -8.819613e-01 -8.405150e-01 -8.054996e-01 -5.929265e-01 1.216937e-01 3.223657e-01 5.673435e-01 -2.175317e-01 3.459134e-01 2.822739e-02
<VARIANCE> 39
 1.738176e+01 2.697449e+01 2.198825e+01 2.179291e+01 2.986976e+01 2.958329e+01 2.685439e+01 2.619228e+01 2.753350e+01 2.451912e+01 2.232156e+01 1.999759e+01 1.893517e-02 3.223229e+00 2.213808e+00 2.711102e+00 2.415436e+00 3.858609e+00 3.618314e+00 3.931927e+00 3.772095e+00 3.838176e+00 3.160780e+00 3.029530e+00 2.543146e+00 2.263635e-03 4.374723e-01 8.083630e-01 5.895308e-01 6.918674e-01 7.811566e-01 8.392242e-01 8.479757e-01 7.911063e-01 7.884747e-01 6.706662e-01 7.502154e-01 5.938522e-01 2.525571e-04
<GCONST> 1.011258e+02
<MIXTURE> 5 1.793452e-01
<MEAN> 39
 1.834053e+00 4.973577e+00 1.275300e+00 -1.071792e+00 -9.252889e+00 -1.102261e+01 -8.517108e+00 -5.796931e+00 -4.628219e+00 -2.719300e+00 -4.964379e+00 -3.246285e+00 7.480057e-01 -9.101803e-01 -1.206202e+00 -1.190974e+00 -1.444602e+00 -1.458997e-01 2.197269e-01 -8.442825e-02 2.101362e+00 1.223047e+00 -1.136860e+00 4.218903e-01 1.428654e-02 5.518408e-03 -3.770633e-03 -5.436698e-01 1.582574e-01 -4.982314e-01 -2.080372e-01 3.769647e-01 1.793096e-01 2.017294e-01 9.348329e-02 2.202034e-02 -8.825880e-02 8.972798e-02 2.572579e-03
<VARIANCE> 39
 1.010687e+01 3.060490e+01 2.766839e+01 3.846379e+01 4.739619e+01 4.627620e+01 5.226685e+01 4.549709e+01 5.150524e+01 5.042513e+01 5.144558e+01 3.250540e+01 5.526331e-03 8.673623e-01 1.681474e+00 3.184575e+00 2.584594e+00 3.778986e+00 3.932568e+00 3.855722e+00 5.517072e+00 5.682841e+00 4.646314e+00 4.097641e+00 2.884966e+00 1.573656e-04 1.660488e-01 2.378675e-01 3.372458e-01 3.332985e-01 4.702741e-01 4.091669e-01 4.822659e-01 4.714510e-01 4.764216e-01 4.673730e-01 4.127909e-01 3.371947e-01 1.000000e-04
<GCONST> 9.393176e+01
<STATE> 4
<NUMMIXES> 5
<MIXTURE> 1 2.241615e-01
<MEAN> 39
 -1.215123e+01 -1.204197e+00 -4.252996e+00 -3.160092e+00 -9.314235e+00 -5.720876e+00 -5.002179e-01 -1.029507e+00 -9.236510e-01 -2.856455e+00 1.662569e+00 9.298421e-01 4.328395e-01 2.764953e+00 -1.778982e-01 1.427853e+00 -1.471455e+00 -3.390051e+00 -3.774564e+00 -2.169257e+00 -9.627151e-01 -8.517884e-01 -7.428508e-01 -1.865700e+00 1.926445e-01 1.612780e-01 9.638850e-01 2.509888e-01 7.074833e-01 -1.963988e-01 7.753382e-02 -2.165902e-01 -4.337833e-01 3.204637e-02 -8.861072e-02 3.532799e-01 -6.739385e-01 -1.692349e-01 7.388477e-03
<VARIANCE> 39
 1.100022e+01 1.323569e+01 1.640227e+01 1.742854e+01 2.134072e+01 2.248481e+01 2.391880e+01 2.370358e+01 2.242141e+01 2.022005e+01 1.904445e+01 1.856289e+01 1.400612e-02 2.091296e+00 3.482666e+00 3.942634e+00 3.800675e+00 5.113780e+00 4.225178e+00 4.499136e+00 4.461843e+00 4.803568e+00 3.683209e+00 3.559440e+00 2.605706e+00 1.756161e-03 2.986933e-01 4.562375e-01 4.552462e-01 5.294493e-01 5.751579e-01 6.159049e-01 6.910467e-01 6.726246e-01 6.118605e-01 6.068175e-01 6.352015e-01 4.922414e-01 2.914302e-04
<GCONST> 9.655067e+01
<MIXTURE> 2 1.793938e-01
<MEAN> 39
 -8.652961e+00 3.835394e+00 -1.764898e-01 1.474768e+00 -3.667870e+00 -4.875865e+00 -3.607568e+00 -1.975066e+00 1.660986e+00 -1.175475e+00 -2.849371e+00 -1.982036e+00 4.878537e-01 2.653098e+00 -2.429323e-01 1.051691e+00 -5.800950e-01 -1.769502e+00 -1.794971e+00 -2.206795e+00 -8.337274e-01 7.356805e-01 3.648384e-01 -4.225112e-01 -5.242875e-01 1.130484e-01 4.409812e-01 -2.524782e-01 1.827081e-01 -2.779706e-01 -2.897120e-01 1.745626e-02 -1.374645e-01 1.299594e-01 -8.060046e-02 2.172794e-01 3.253941e-01 6.194298e-02 3.108885e-03
<VARIANCE> 39
 2.583047e+01 1.859580e+01 2.078569e+01 2.344829e+01 2.634310e+01 2.740388e+01 2.848075e+01 3.267659e+01 3.472248e+01 3.265084e+01 2.050870e+01 2.052872e+01 2.470010e-02 6.470550e+00 3.445073e+00 4.699229e+00 3.939690e+00 4.503123e+00 5.168130e+00 6.055257e+00 4.750465e+00 5.307924e+00 4.320533e+00 4.056869e+00 3.602528e+00 4.793626e-03 4.695012e-01 5.095594e-01 4.095035e-01 5.055768e-01 5.680348e-01 6.046314e-01 5.834038e-01 5.754909e-01 6.400195e-01 5.956475e-01 4.858676e-01 4.535628e-01 3.403648e-04
<GCONST> 1.042093e+02
<MIXTURE> 3 1.735123e-01
<MEAN> 39
 -2.886988e+00 3.109242e+00 8.496102e-01 -1.093593e+00 -1.157043e+01 -1.315218e+01 -8.940503e+00 -4.824924e+00 -1.478007e+00 -4.387982e+00 -4.152482e+00 -1.009916e+00 7.090204e-01 7.423783e-01 -2.385884e+00 2.934645e-01 -2.395291e+00 -2.703920e+00 -2.121339e+00 -5.925345e-01 6.150587e-01 4.053682e-01 8.767325e-01 1.199779e-01 1.249216e+00 6.752092e-02 4.129876e-01 -7.530653e-02 3.238286e-01 -3.473898e-01 8.279695e-02 3.039016e-01 9.425572e-02 1.202666e-01 -1.504220e-01 2.981747e-01 -1.971657e-01 -1.743968e-01 6.785822e-04
<VARIANCE> 39
 1.071784e+01 2.082681e+01 2.466113e+01 2.520709e+01 3.909949e+01 2.983309e+01 3.879673e+01 2.786959e+01 3.729071e+01 2.972482e+01 2.397330e+01 2.233403e+01 6.662898e-03 2.090457e+00 2.477937e+00 3.762965e+00 3.236724e+00 4.637270e+00 4.028996e+00 5.096904e+00 4.536667e+00 4.866712e+00 4.055987e+00 3.681149e+00 3.095793e+00 7.646041e-04 2.748689e-01 3.696185e-01 2.724164e-01 4.554695e-01 4.618673e-01 4.839637e-01 5.178754e-01 4.980423e-01 5.208406e-01 5.438893e-01 4.871632e-01 3.765137e-01 1.049394e-04
<GCONST> 9.495435e+01
<MIXTURE> 4 2.215508e-01
<MEAN> 39
 5.502133e-01 1.866441e+00 -1.196241e+00 -4.293044e+00 -9.033869e+00 -1.013080e+01 -9.526709e+00 -2.089798e+00 -6.501026e-01 -4.263112e+00 -4.258557e+00 -3.192336e+00 7.593213e-01 -4.841760e-01 -1.905299e+00 -5.887551e-01 -1.890107e+00 -5.749859e-01 5.578974e-01 1.457229e-01 1.905107e+00 1.142318e+00 -7.220356e-01 4.667789e-02 2.059316e-01 1.340038e-02 1.626664e-01 -3.422389e-02 5.262492e-01 9.649158e-02 -1.137114e-01 2.728563e-01 2.839667e-01 -3.645554e-01 -3.510346e-01 3.413633e-01 -1.131541e-01 5.896185e-02 -1.907949e-03
<VARIANCE> 39
 9.616197e+00 3.043699e+01 3.475766e+01 4.081539e+01 5.305659e+01 4.892008e+01 5.858623e+01 5.071215e+01 6.713647e+01 6.715322e+01 4.994860e+01 3.440429e+01 5.739878e-03 1.126546e+00 2.089390e+00 3.039113e+00 2.791033e+00 4.042686e+00 4.346950e+00 4.111072e+00 4.884614e+00 5.341138e+00 4.262147e+00 3.779484e+00 3.063922e+00 3.444672e-04 1.781422e-01 2.108659e-01 3.767018e-01 4.212816e-01 4.268451e-01 4.496762e-01 5.375374e-01 6.587602e-01 6.529477e-01 6.599988e-01 5.226135e-01 3.713458e-01 1.000000e-04
<GCONST> 9.813287e+01
<MIXTURE> 5 2.013707e-01
<MEAN> 39
 -4.476879e+00 3.701337e+00 -7.411638e-01 -2.356672e+00 -1.262908e+01 -1.252313e+01 -6.992397e+00 -4.637755e+00 -3.175119e+00 -6.825744e+00 -4.485765e+00 -1.183002e+00 6.830644e-01 3.503025e+00 -7.145635e-01 1.360896e+00 -1.948573e+00 -3.346642e+00 -4.180598e+00 -2.422169e+00 -6.180264e-01 -6.553497e-01 -4.574122e-01 -2.259965e+00 3.114527e-01 1.609794e-01 -7.566911e-02 -1.853120e-01 2.142891e-01 -1.376426e-01 5.706548e-01 5.875449e-01 3.449840e-01 4.528234e-01 1.592690e-01 6.567307e-01 3.807553e-02 -3.490470e-02 -2.335807e-02
<VARIANCE> 39
 1.541896e+01 1.439897e+01 1.673657e+01 1.930556e+01 2.824804e+01 2.566418e+01 2.844543e+01 2.238690e+01 2.733939e+01 1.746559e+01 1.821751e+01 1.608980e+01 8.321922e-03 1.836143e+00 3.237922e+00 4.154105e+00 3.879349e+00 5.094336e+00 4.064039e+00 5.460470e+00 4.787199e+00 5.498642e+00 4.458858e+00 4.504127e+00 3.061337e+00 1.397307e-03 3.890243e-01 3.787517e-01 2.822599e-01 3.502195e-01 4.751488e-01 4.468459e-01 4.994357e-01 4.818983e-01 4.179412e-01 4.327284e-01 4.923224e-01 3.924794e-01 2.395231e-04
<GCONST> 9.417309e+01
<TRANSP> 5
 0.000000e+00 1.000000e+00 0.000000e+00 0.000000e+00 0.000000e+00
 0.000000e+00 4.845454e-01 5.154546e-01 0.000000e+00 0.000000e+00
 0.000000e+00 0.000000e+00 2.028558e-01 7.971442e-01 0.000000e+00
 0.000000e+00 0.000000e+00 0.000000e+00 2.022755e-01 7.977245e-01
 0.000000e+00 0.000000e+00 0.000000e+00 0.000000e+00 0.000000e+00
<ENDHMM>
~h "E"
<BEGINHMM>
<NUMSTATES> 5
<STATE> 2
<NUMMIXES> 5
<MIXTURE> 1 2.182008e-01
<MEAN> 39
 -1.588567e+01 1.095763e+00 6.161425e-01 -3.636077e+00 -6.104712e+00 -8.874027e+00 -2.824012e+00 -1.469175e+00 -2.284354e+00 -1.595281e+00 -3.313548e+00 -1.182357e-01 5.239048e-01 3.590442e+00 -2.048856e+00 5.767865e-01 -1.550398e+00 -3.474412e+00 -1.971486e+00 -1.891001e+00 2.802423e-01 -6.103831e-01 -6.479186e-01 -8.074167e-01 -1.017214e+00 5.390745e-02 3.191366e-01 -4.465114e-01 -5.738039e-03 -1.047211e-01 -3.069779e-01 2.446610e-01 -2.080297e-01 2.846111e-01 -9.261324e-02 -9.236571e-02 6.731554e-02 -2.364328e-01 1.257238e-03
<VARIANCE> 39
 4.288887e+01 3.657167e+01 3.392000e+01 3.328614e+01 6.112032e+01 6.181989e+01 5.468226e+01 4.355640e+01 4.404278e+01 4.484518e+01 3.029769e+01 3.015941e+01 3.878073e-02 5.004661e+00 5.380875e+00 4.859063e+00 5.299565e+00 6.941957e+00 7.310143e+00 7.409513e+00 6.178271e+00 5.226007e+00 6.631685e+00 4.313973e+00 4.121156e+00 8.818370e-03 9.066684e-01 6.342524e-01 7.075625e-01 6.836560e-01 9.391479e-01 1.113885e+00 9.985220e-01 8.132285e-01 7.385897e-01 6.690852e-01 6.835369e-01 5.062700e-01 1.256859e-03
<GCONST> 1.193301e+02
<MIXTURE> 2 1.303555e-01
<MEAN> 39
 -7.665070e+00 -4.466011e+00 -4.046349e+00 -1.050823e+01 -1.435108e+01 -1.307565e+01 -6.479546e+00 -4.545184e+00 -5.764832e+00 -9.036784e+00 -9.987449e+00 -1.063259e+00 5.690194e-01 3.352000e+00 -2.443317e+00 -8.107709e-01 -2.679853e+00 -3.135962e+00 -1.712146e+00 -3.577942e-01 -4.766971e-01 -1.083363e+00 -1.298762e+00 -1.971654e+00 -7.101942e-01 4.148999e-02 -1.184606e+00 -2.920375e-02 6.468721e-02 5.575523e-01 1.070273e+00 9.686555e-01 5.467547e-01 6.456724e-01 2.487760e-01 6.642699e-01 7.256437e-01 6.470565e-02 4.933853e-03
<VARIANCE> 39
 1.642822e+01 3.107479e+01 3.348909e+01 3.906802e+01 5.484825e+01 3.851737e+01 5.766701e+01 3.872823e+01 4.893538e+01 5.538390e+01 5.102895e+01 3.403457e+01 1.515379e-02 2.474944e+00 3.399194e+00 3.057256e+00 4.183246e+00 7.100449e+00 5.996717e+00 5.889690e+00 5.896395e+00 4.253109e+00 5.572454e+00 4.085264e+00 4.086802e+00 1.987450e-03 2.651093e-01 3.586091e-01 3.847082e-01 4.919313e-01 6.513906e-01 5.849930e-01 6.273082e-01 6.759611e-01 6.697289e-01 6.076037e-01 5.729024e-01 4.874359e-01 3.573111e-04
<GCONST> 1.074159e+02
<MIXTURE> 3 2.201763e-01
<MEAN> 39
 -2.757335e+00 -9.641823e+00 4.200980e+00 -5.491611e+00 -1.483961e+01 -6.328233e+00 -1.510433e+01 3.253741e+00 -1.375821e+00 2.854095e+00 -2.662930e+00 -3.480204e+00 6.547881e-01 2.655442e+00 -3.071629e+00 8.154848e-01 -8.010194e-01 -2.825246e+00 2.892772e-01 -1.878864e+00 2.117217e+00 7.839976e-02 4.865794e-01 -1.653125e-01 -5.769497e-01 5.909424e-02 -1.117400e+00 8.120604e-01 -2.270171e-01 3.904707e-01 9.720068e-01 2.966084e-01 1.027007e+00 -2.690464e-01 -1.799278e-01 -3.494745e-01 2.111982e-02 2.113521e-01 -1.655286e-02
<VARIANCE> 39
 1.658515e+01 3.046300e+01 3.564339e+01 2.989224e+01 4.029719e+01 4.929964e+01 3.263365e+01 4.052891e+01 3.062512e+01 3.924245e+01 3.322564e+01 2.567203e+01 2.166927e-02 3.716342e+00 3.120799e+00 3.166714e+00 2.912671e+00 4.168274e+00 5.739723e+00 4.688302e+00 4.098678e+00 3.025365e+00 2.978109e+00 2.830398e+00 2.384445e+00 2.239908e-03 6.317816e-01 5.980839e-01 5.625349e-01 4.783981e-01 6.662887e-01 8.323562e-01 6.551811e-01 6.808302e-01 6.801637e-01 5.330184e-01 5.697678e-01 4.239692e-01 5.009391e-04
<GCONST> 1.047561e+02
<MIXTURE> 4 2.525988e-01
<MEAN> 39
 -6.911639e+00 -3.841557e+00 1.455122e+00 -6.345125e+00 -1.106283e+01 -1.061190e+01 -7.546245e+00 -2.020009e-01 -6.207032e+00 -3.646557e+00 -4.141259e+00 -4.511864e+00 5.113906e-01 1.875276e-01 -1.826173e+00 -7.721085e-01 -1.327231e+00 -7.594235e-01 -2.562829e-02 5.314148e-01 1.925958e+00 9.614269e-01 -2.828431e-01 -1.348797e-01 1.447028e-01 4.853600e-02 -8.521354e-02 -1.417084e-02 8.325168e-02 1.145245e-01 -7.189329e-02 2.108304e-01 2.192078e-01 -1.414249e-01 -1.814953e-01 3.891201e-02 -1.180093e-01 6.405395e-02 3.060750e-03
<VARIANCE> 39
 2.416767e+01 3.316785e+01 5.013601e+01 5.104506e+01 6.554680e+01 6.291699e+01 7.747547e+01 8.525658e+01 6.676207e+01 6.936440e+01 5.535984e+01 4.731463e+01 2.827607e-02 2.517431e+00 3.466680e+00 2.723852e+00 3.744393e+00 4.211043e+00 5.973361e+00 6.910206e+00 5.834079e+00 4.771267e+00 4.537089e+00 4.429887e+00 4.202575e+00 2.526437e-03 3.608226e-01 4.143946e-01 4.290945e-01 4.899434e-01 6.599703e-01 7.031265e-01 8.543949e-01 9.802002e-01 7.959194e-01 6.222200e-01 7.024727e-01 5.939658e-01 3.172849e-04
<GCONST> 1.134679e+02
<MIXTURE> 5 1.786686e-01
<MEAN> 39
 -7.331835e+00 -1.259966e+01 2.857767e-01 -1.735976e+01 -1.215701e+01 -1.492529e+01 -3.747991e+00 1.968516e+00 -6.944980e+00 -4.160307e+00 -1.205621e+01 7.342286e-01 6.973245e-01 5.666552e-01 -2.410830e+00 2.988390e-01 -2.056790e+00 -6.139151e-01 2.266562e-01 1.681332e+00 1.128466e+00 -1.159798e+00 -1.615729e-01 -9.075405e-01 1.298752e-01 5.896098e-02 -6.339403e-01 1.161726e+00 -2.761881e-02 1.197552e+00 4.401253e-01 7.279605e-01 -1.834790e-01 -6.892343e-01 -8.881176e-02 -9.391315e-02 5.993593e-01 -3.207978e-01 -2.403549e-02
<VARIANCE> 39
 2.144201e+01 2.108515e+01 4.245835e+01 3.747366e+01 4.126190e+01 3.958101e+01 6.849834e+01 4.136622e+01 4.831478e+01 5.388324e+01 4.758047e+01 3.739899e+01 1.492975e-02 1.944988e+00 2.887636e+00 2.362123e+00 3.354503e+00 3.640600e+00 3.759610e+00 4.941998e+00 4.265378e+00 3.416633e+00 3.735908e+00 3.240261e+00 3.167979e+00 2.534141e-03 5.516450e-01 4.059108e-01 4.368014e-01 4.676493e-01 6.300492e-01 7.667195e-01 8.867798e-01 8.590841e-01 8.452888e-01 8.386385e-01 7.719988e-01 5.886782e-01 3.517567e-04
<GCONST> 1.068432e+02
<STATE> 3
<NUMMIXES> 5
<MIXTURE> 1 1.913360e-01
<MEAN> 39
 -2.000721e+00 -1.360413e+01 4.761875e+00 -6.067892e+00 -1.696649e+01 -3.058854e+00 -1.551029e+01 7.030237e+00 -1.318713e+00 2.529566e+00 -4.533225e+00 -3.662795e+00 7.243081e-01 1.925732e-01 1.616369e-01 1.896189e-01 2.090275e-01 2.108857e-02 5.137452e-02 5.089547e-01 2.582127e-01 -4.528313e-01 -4.009101e-01 -7.194652e-02 -2.229168e-02 -6.399168e-03 -7.689823e-01 1.557299e+00 -1.339802e-01 6.029154e-01 1.115145e+00 -4.120072e-01 1.024736e+00 -1.028011e+00 -2.730186e-01 -2.526699e-01 2.522303e-01 1.741044e-01 -3.298793e-02
<VARIANCE> 39
 1.458709e+01 2.988799e+01 3.135047e+01 2.984765e+01 3.982456e+01 4.560834e+01 3.572682e+01 3.392916e+01 3.081112e+01 3.954831e+01 2.997077e+01 2.569871e+01 2.082646e-02 8.103994e-01 2.565962e+00 1.990635e+00 1.590022e+00 2.644673e+00 3.145059e+00 2.638929e+00 4.076073e+00 3.018334e+00 2.173005e+00 3.023532e+00 1.753608e+00 1.627269e-03 5.716203e-01 5.215149e-01 4.648554e-01 4.856123e-01 7.824610e-01 9.426227e-01 8.590279e-01 6.177138e-01 5.882296e-01 5.188469e-01 5.042174e-01 3.881214e-01 3.295374e-04
<GCONST> 9.811516e+01
<MIXTURE> 2 2.123734e-01
<MEAN> 39
 -6.229957e+00 -4.003571e+00 -1.058328e+00 -6.407071e+00 -9.175634e+00 -1.674920e+01 -3.573332e+00 -1.910026e-01 -1.103714e+00 -5.267493e-01 -4.980107e+00 -2.906022e+00 6.504959e-01 6.023833e-01 -1.768124e-01 6.123337e-02 6.481034e-02 -5.179335e-01 -1.826366e-01 2.505017e-01 4.837515e-01 -3.022972e-01 -3.333423e-01 1.332978e-01 -3.613796e-01 5.256358e-03 -7.731149e-01 6.499423e-01 2.886174e-01 4.989274e-01 4.941853e-01 1.113022e+00 8.937357e-02 -2.110835e-01 -3.823977e-01 -3.429615e-02 3.188604e-01 5.904233e-02 -2.109814e-02
<VARIANCE> 39
 2.445992e+01 2.970644e+01 4.876460e+01 4.189817e+01 3.823976e+01 5.504610e+01 4.811564e+01 5.083953e+01 4.662406e+01 5.028193e+01 4.522018e+01 4.280651e+01 2.526433e-02 2.557147e+00 2.765528e+00 2.996810e+00 2.391820e+00 3.260713e+00 4.124026e+00 4.797019e+00 3.449187e+00 3.849493e+00 3.005864e+00 2.892076e+00 2.551846e+00 1.803813e-03 5.923571e-01 6.513556e-01 7.130184e-01 6.749930e-01 5.901546e-01 9.073147e-01 9.297515e-01 9.348370e-01 1.046624e+00 8.130333e-01 6.771116e-01 5.727237e-01 5.992752e-04
<GCONST> 1.094749e+02
<MIXTURE> 3 1.665384e-01
<MEAN> 39
 -1.166249e+01 -1.360023e+01 -7.473555e-01 -1.903894e+01 -1.307286e+01 -1.097869e+01 7.575384e+00 -5.832970e+00 -9.717875e+00 -8.885969e+00 -7.613846e+00 2.512617e-01 7.319899e-01 -7.634041e-02 2.130617e-01 8.740275e-02 -1.451668e-01 -4.010837e-01 1.478646e-01 -9.939898e-02 -7.069654e-01 -5.270903e-01 2.246618e-01 5.650660e-02 -1.175457e-02 -8.165119e-04 4.730087e-02 8.342363e-01 7.721698e-02 5.591660e-01 -4.598323e-02 -2.407889e-01 -9.215912e-01 -9.815441e-03 9.062883e-02 2.417610e-02 4.581660e-02 3.001989e-02 -2.004436e-02
<VARIANCE> 39
 1.526656e+01 2.298231e+01 1.930918e+01 2.481462e+01 3.747014e+01 3.061007e+01 5.617754e+01 4.835220e+01 3.549993e+01 3.365524e+01 3.262317e+01 2.832986e+01 1.733977e-02 7.813199e-01 2.428029e+00 1.489960e+00 1.816188e+00 2.320704e+00 2.769023e+00 4.351688e+00 2.720527e+00 2.495420e+00 2.267290e+00 1.840404e+00 1.956372e+00 1.148276e-03 2.424381e-01 4.002628e-01 2.362658e-01 5.474267e-01 4.246768e-01 5.212082e-01 5.998157e-01 5.090661e-01 4.678130e-01 3.949476e-01 4.052981e-01 3.844491e-01 2.509897e-04
<GCONST> 9.182341e+01
<MIXTURE> 4 2.875249e-01
<MEAN> 39
 -5.617971e+00 -9.739382e+00 1.823035e+00 -1.040893e+01 -1.296308e+01 -9.937755e+00 -5.755932e+00 5.546889e+00 -6.585721e+00 -1.946543e+00 -7.898879e+00 -2.232219e+00 6.719789e-01 6.687595e-02 2.228291e-02 4.227833e-02 7.379595e-02 -5.167792e-03 1.122376e-01 5.253789e-02 -2.037068e-01 -2.689324e-01 -1.481339e-01 -4.054316e-02 -4.268036e-03 2.014892e-03 1.938668e-02 4.044672e-01 8.686182e-02 2.826075e-01 1.484643e-01 -9.895797e-02 -1.792356e-01 -5.082732e-01 -3.743227e-02 4.330179e-02 9.334063e-02 -5.016167e-02 -1.128041e-02
<VARIANCE> 39
 1.400914e+01 3.582295e+01 4.796582e+01 6.037260e+01 6.086887e+01 5.571644e+01 4.927761e+01 4.191549e+01 6.293379e+01 5.566829e+01 5.283456e+01 3.993102e+01 2.403762e-02 3.857965e-01 9.098793e-01 1.044119e+00 1.012266e+00 1.480072e+00 1.749490e+00 1.849712e+00 1.626224e+00 1.774148e+00 1.431663e+00 1.349692e+00 1.306976e+00 6.505976e-04 9.544444e-02 2.050782e-01 1.830933e-01 2.554917e-01 2.427434e-01 3.411429e-01 3.150721e-01 4.135473e-01 3.337476e-01 3.485411e-01 3.278390e-01 2.433653e-01 1.478091e-04
<GCONST> 8.391521e+01
<MIXTURE> 5 1.422273e-01
<MEAN> 39
 -1.112770e+01 -8.948813e+00 -4.917231e+00 -1.023474e+01 -2.196649e+01 -6.186049e+00 -7.263127e+00 3.039059e-01 -8.004698e+00 -1.473241e+01 -5.502086e+00 -6.324049e+00 7.165369e-01 4.816331e-02 -2.361312e-01 -3.730530e-01 1.624668e-01 -6.342560e-01 2.863454e-01 6.402783e-02 -4.160335e-01 -7.300457e-01 -5.444102e-01 -1.378746e-01 2.597626e-02 7.617286e-03 -9.936062e-02 9.739568e-01 4.450499e-01 6.288828e-01 8.876528e-01 -4.384512e-01 -1.950763e-01 -6.857151e-01 -3.869371e-02 7.926863e-01 -1.051290e-02 4.117573e-01 -2.554858e-02
<VARIANCE> 39
 1.212394e+01 1.899222e+01 3.299925e+01 3.172332e+01 4.750079e+01 2.922639e+01 3.373127e+01 2.708830e+01 6.628709e+01 3.786345e+01 4.699935e+01 4.269053e+01 1.438859e-02 8.374149e-01 2.807560e+00 1.929794e+00 1.778211e+00 2.973274e+00 3.289791e+00 3.091699e+00 4.187463e+00 3.147774e+00 3.606697e+00 2.488415e+00 3.623942e+00 1.717076e-03 3.378716e-01 4.125400e-01 3.567048e-01 4.239668e-01 8.552088e-01 5.754614e-01 6.046264e-01 7.515007e-01 6.138496e-01 6.958827e-01 5.931198e-01 6.223871e-01 3.310718e-04
<GCONST> 9.928726e+01
<STATE> 4
<NUMMIXES> 5
<MIXTURE> 1 1.701106e-01
<MEAN> 39
 -2.353481e+00 -7.828621e+00 4.727457e+00 -4.582371e+00 -1.349260e+01 -8.685409e+00 -1.123835e+01 4.909637e+00 -2.974897e+00 2.250343e+00 -3.971039e+00 -1.895829e+00 5.964284e-01 -1.259396e+00 3.656446e+00 3.262242e-01 1.781692e+00 2.112903e+00 -2.410398e-01 2.070441e+00 -1.200693e+00 -2.342044e-01 -8.781625e-01 4.879498e-01 3.589643e-01 -8.070447e-02 -1.293921e+00 7.568428e-01 -1.349982e-01 2.932184e-01 8.389151e-01 5.220854e-01 7.464447e-01 -5.182465e-01 1.999273e-01 -1.166392e-01 1.159469e-01 1.190374e-01 -1.056830e-02
<VARIANCE> 39
 1.226105e+01 3.364402e+01 4.256347e+01 2.780194e+01 4.772694e+01 5.034698e+01 4.454763e+01 4.637223e+01 3.412823e+01 4.612860e+01 3.560960e+01 3.089400e+01 2.222242e-02 3.750563e+00 4.641842e+00 3.106903e+00 2.705220e+00 5.105387e+00 5.522293e+00 6.183515e+00 4.970948e+00 4.180574e+00 3.276523e+00 3.126825e+00 2.587537e+00 3.783576e-03 4.854446e-01 7.070554e-01 4.933365e-01 4.479514e-01 6.958414e-01 7.929545e-01 6.442208e-01 8.911304e-01 7.678896e-01 7.098163e-01 5.622053e-01 4.751609e-01 7.982075e-04
<GCONST> 1.088441e+02
<MIXTURE> 2 2.083938e-01
<MEAN> 39
 -1.041049e+01 3.390436e+00 4.785116e+00 -1.131109e+00 -6.218120e+00 -8.173734e+00 -2.751826e+00 -1.007328e+00 -4.323346e+00 -2.635184e+00 -3.905986e+00 -1.610604e+00 4.403634e-01 -4.142999e+00 1.995753e+00 1.020418e-01 1.554083e+00 2.395545e+00 2.443220e+00 1.541325e+00 -2.254486e-01 7.835844e-01 -4.575342e-02 1.218227e+00 4.664179e-01 -1.827533e-02 -5.577402e-01 -9.411387e-01 -5.426271e-01 -6.103740e-01 -1.826394e-01 2.064118e-01 -1.418369e-01 2.537843e-01 3.182110e-01 4.433772e-01 4.312711e-02 1.520619e-01 2.260081e-02
<VARIANCE> 39
 3.560789e+01 3.146818e+01 4.495269e+01 3.765784e+01 4.963422e+01 5.457746e+01 4.980473e+01 5.977500e+01 4.743481e+01 4.370816e+01 3.293535e+01 3.675446e+01 2.986043e-02 5.220938e+00 4.429840e+00 4.817753e+00 5.180775e+00 5.052093e+00 5.524454e+00 5.641428e+00 5.804994e+00 4.689054e+00 4.698879e+00 4.859889e+00 3.090827e+00 6.496669e-03 6.830800e-01 4.659869e-01 4.759567e-01 4.669422e-01 7.563353e-01 9.733177e-01 1.019142e+00 9.676765e-01 7.908117e-01 6.399422e-01 5.621367e-01 5.261683e-01 4.193402e-04
<GCONST> 1.145571e+02
<MIXTURE> 3 2.869540e-01
<MEAN> 39
 -8.460826e+00 -9.546946e+00 1.313961e+00 -1.208998e+01 -1.546545e+01 -1.059654e+01 -4.285086e+00 1.105563e+00 -1.027473e+01 -6.025837e+00 -6.139189e+00 -3.369273e+00 7.085314e-01 8.132389e-01 1.652707e+00 1.520453e-01 1.392316e+00 1.269364e-01 -3.089222e-01 -6.446469e-01 -1.568500e+00 -1.089967e+00 5.697318e-01 2.009179e-01 -2.777007e-01 -5.524490e-02 1.159515e-02 9.082210e-01 6.224807e-03 7.885324e-01 4.145463e-01 -3.316730e-02 -1.439333e-01 -7.604831e-01 2.033945e-01 3.076050e-01 4.842835e-02 1.897183e-02 -2.488627e-02
<VARIANCE> 39
 2.397285e+01 3.602615e+01 5.891603e+01 5.741069e+01 6.635374e+01 6.391755e+01 7.801289e+01 7.279678e+01 7.756742e+01 6.345784e+01 6.965879e+01 5.686610e+01 1.977233e-02 1.052508e+00 3.282804e+00 2.519264e+00 3.176884e+00 3.251962e+00 4.423166e+00 4.412166e+00 5.694062e+00 6.052399e+00 4.160351e+00 4.124675e+00 3.419266e+00 2.427449e-03 3.050829e-01 4.499429e-01 6.930061e-01 5.022918e-01 8.217047e-01 9.172847e-01 8.558182e-01 1.109631e+00 1.107973e+00 8.623818e-01 7.084619e-01 5.760872e-01 3.998999e-04
<GCONST> 1.133440e+02
<MIXTURE> 4 1.517979e-01
<MEAN> 39
 -8.165517e+00 -2.574787e+00 -1.900143e+00 -1.193171e+01 -1.714705e+01 -1.331167e+01 -5.832886e+00 -7.296681e+00 -8.168935e+00 -7.530826e+00 -1.072694e+01 -1.621303e+00 5.558019e-01 -1.741045e+00 3.814183e+00 1.168532e+00 2.382519e+00 1.710489e+00 1.213361e+00 -7.919161e-01 -1.447020e+00 1.119793e-01 -2.802708e-01 1.051318e+00 -2.569308e-01 -5.353738e-02 -1.173469e+00 -5.221532e-04 1.788807e-01 5.478170e-01 1.205492e+00 9.349347e-01 5.016899e-01 8.879655e-01 5.151327e-01 5.050210e-01 7.336488e-01 1.250380e-01 9.298804e-03
<VARIANCE> 39
 1.849992e+01 3.777749e+01 5.005368e+01 5.679980e+01 6.252371e+01 3.946186e+01 5.634102e+01 4.280765e+01 4.982056e+01 6.780653e+01 4.584697e+01 4.218192e+01 1.491244e-02 2.813328e+00 2.560405e+00 2.950379e+00 4.580729e+00 4.606920e+00 4.580881e+00 5.317765e+00 5.666910e+00 4.062326e+00 4.598022e+00 4.147295e+00 2.975400e+00 3.090418e-03 3.253909e-01 6.701026e-01 5.520393e-01 6.370836e-01 6.187307e-01 6.456863e-01 8.077605e-01 7.897169e-01 7.875026e-01 9.742225e-01 6.318548e-01 7.506458e-01 4.038468e-04
<GCONST> 1.111988e+02
<MIXTURE> 5 1.827437e-01
<MEAN> 39
 -1.700501e+00 -4.230933e+00 1.571324e+00 -3.972107e+00 -9.497893e+00 -9.676952e+00 -9.386033e+00 -2.317407e+00 -8.278260e+00 -2.011339e+00 -5.180940e+00 -4.255683e+00 4.897317e-01 3.202126e-01 2.383329e+00 7.101088e-01 2.361804e+00 1.408424e-01 -1.169385e+00 7.154840e-01 -3.560548e+00 -1.884016e+00 1.513973e+00 3.884783e-01 -1.837685e-01 -5.226782e-02 -2.133455e-01 1.203185e-01 1.467775e-01 3.103106e-02 -1.752388e-01 -1.264635e-01 3.239918e-01 -2.092886e-01 -1.277529e-01 2.408864e-01 -1.847927e-01 1.482495e-01 3.338143e-03
<VARIANCE> 39
 1.239054e+01 4.042197e+01 3.650947e+01 7.360253e+01 4.535466e+01 8.700781e+01 6.487318e+01 6.822955e+01 8.398790e+01 6.420865e+01 8.625081e+01 5.454379e+01 2.127208e-02 9.724897e-01 2.208551e+00 4.986066e+00 2.716950e+00 3.504928e+00 5.452189e+00 5.801686e+00 4.707010e+00 5.230201e+00 5.430760e+00 4.917021e+00 3.631512e+00 7.913702e-04 1.303221e-01 3.433256e-01 3.612446e-01 4.334224e-01 3.910505e-01 6.623917e-01 6.464499e-01 9.162009e-01 6.814988e-01 6.668067e-01 5.764852e-01 4.683366e-01 1.314333e-04
<GCONST> 1.065086e+02
<TRANSP> 5
 0.000000e+00 1.000000e+00 0.000000e+00 0.000000e+00 0.000000e+00
 0.000000e+00 5.621431e-01 4.378569e-01 0.000000e+00 0.000000e+00
 0.000000e+00 0.000000e+00 6.423202e-01 3.576798e-01 0.000000e+00
 0.000000e+00 0.000000e+00 0.000000e+00 5.748532e-01 4.251468e-01
 0.000000e+00 0.000000e+00 0.000000e+00 0.000000e+00 0.000000e+00
<ENDHMM>
~h "I"
<BEGINHMM>
<NUMSTATES> 5
<STATE> 2
<NUMMIXES> 5
<MIXTURE> 1 2.152987e-01
<MEAN> 39
 -2.455526e-01 -2.432924e+00 9.336414e+00 -3.368267e+00 -1.839673e+01 -1.374992e+01 -8.890384e+00 -2.190155e+00 -6.865919e+00 -1.996813e+00 -3.869140e-01 -1.124306e+00 7.982047e-01 2.466965e+00 -1.160717e+00 1.862105e+00 -1.292666e+00 -3.515281e+00 -1.679700e+00 -1.671022e+00 -1.382294e-01 -1.422729e+00 4.194726e-01 3.831429e-01 -2.727675e-02 8.614171e-02 -1.102318e+00 1.872443e-01 -6.614957e-01 1.865451e-02 1.061100e+00 9.517514e-01 6.754008e-01 1.232389e-01 5.598767e-01 3.344189e-01 7.154658e-02 6.075316e-02 -3.461448e-02
<VARIANCE> 39
 1.206252e+01 2.997269e+01 5.412809e+01 4.997414e+01 4.906605e+01 4.562615e+01 4.884161e+01 4.019722e+01 5.637062e+01 3.678506e+01 4.025538e+01 2.596281e+01 9.158227e-03 2.834071e+00 2.824452e+00 4.571356e+00 4.501315e+00 4.577883e+00 4.691406e+00 5.238049e+00 4.641729e+00 5.732340e+00 5.227152e+00 4.555783e+00 3.152980e+00 2.098666e-03 4.107021e-01 5.070319e-01 6.478016e-01 5.282205e-01 7.365360e-01 6.740486e-01 6.973674e-01 6.203845e-01 8.236974e-01 6.015395e-01 6.204722e-01 4.597236e-01 2.713567e-04
<GCONST> 1.075746e+02
<MIXTURE> 2 1.729021e-01
<MEAN> 39
 -9.160398e+00 1.156969e+00 2.280370e+00 -2.845217e+00 -6.682424e+00 -1.193738e+00 1.312179e-01 -1.268691e+00 -3.929447e-01 1.910454e+00 -4.559623e-01 2.400286e-01 2.185259e-01 6.478080e-01 2.658216e-01 2.378465e+00 -1.238506e+00 -2.289778e+00 -7.628404e-01 -1.097951e+00 -1.420820e+00 -1.125802e+00 6.975054e-02 -8.723122e-01 -1.526867e-01 7.920791e-02 4.040614e-01 4.555682e-02 6.477233e-01 -5.880743e-01 -9.419807e-01 -6.045101e-01 -5.104343e-01 -5.005862e-01 -4.855460e-01 -4.882405e-02 -2.389348e-01 -4.848434e-02 3.816944e-02
<VARIANCE> 39
 1.394472e+01 1.504643e+01 3.496506e+01 3.756544e+01 4.699862e+01 3.700197e+01 3.370115e+01 3.654090e+01 3.109431e+01 3.251628e+01 2.896764e+01 2.253179e+01 2.678148e-02 2.701536e+00 2.113790e+00 4.638943e+00 6.395232e+00 7.883444e+00 5.658389e+00 4.705043e+00 4.949219e+00 4.318009e+00 4.124485e+00 3.975259e+00 2.617972e+00 5.387843e-03 3.220661e-01 3.390808e-01 7.376663e-01 7.892064e-01 1.016290e+00 7.079601e-01 6.374741e-01 7.689773e-01 6.375115e-01 6.809292e-01 6.645939e-01 4.674602e-01 4.245003e-04
<GCONST> 1.070718e+02
<MIXTURE> 3 1.500898e-01
<MEAN> 39
 1.680474e+00 -5.738233e+00 4.009104e+00 -5.035323e+00 -1.284619e+01 -1.651764e+01 -1.384999e+01 1.280799e+00 -2.703140e+00 -1.485913e+00 -5.794916e+00 -1.325184e-01 8.423113e-01 -1.126118e+00 -6.674855e-01 2.773948e+00 9.923322e-02 -3.203010e+00 -1.325352e+00 2.340440e+00 1.599007e+00 -1.435123e+00 -9.620947e-01 4.208918e-01 1.146455e+00 6.416245e-03 -1.725927e-01 8.432331e-01 -3.569287e-02 -2.331961e-01 2.286263e-01 1.201223e+00 6.941343e-01 -1.096920e+00 -5.360060e-01 2.170031e-01 5.262714e-01 -3.089342e-01 -1.232743e-02
<VARIANCE> 39
 1.283611e+01 3.331802e+01 4.237867e+01 6.295204e+01 4.614157e+01 5.897338e+01 6.449725e+01 5.453501e+01 7.639135e+01 6.003271e+01 7.214350e+01 3.660488e+01 8.076548e-03 8.867888e-01 1.855499e+00 3.618157e+00 3.408442e+00 3.404805e+00 4.290045e+00 4.788964e+00 4.348465e+00 5.170047e+00 4.211321e+00 3.620527e+00 2.764102e+00 4.487674e-04 3.033750e-01 3.324657e-01 4.486918e-01 6.456926e-01 7.873181e-01 7.802410e-01 1.057726e+00 8.332300e-01 9.227332e-01 1.046043e+00 7.214950e-01 6.107281e-01 1.845955e-04
<GCONST> 1.059938e+02
<MIXTURE> 4 1.853107e-01
<MEAN> 39
 -8.912894e-01 -4.353839e+00 9.436311e+00 -8.621056e+00 -2.021830e+01 -1.216826e+01 -4.605020e+00 -1.894289e+00 -1.102582e+01 -7.930569e-01 -2.095348e+00 -2.628639e+00 8.085917e-01 -8.426723e-01 2.118597e-01 2.051607e+00 -1.768162e+00 -1.826036e+00 1.595799e+00 9.347292e-01 -1.333212e+00 -8.892489e-01 1.413977e+00 1.122803e-01 -4.587190e-01 1.287175e-03 1.692309e-01 4.862889e-01 -5.238480e-01 2.394058e-01 8.031490e-01 2.655997e-01 -5.570095e-01 -4.594564e-01 5.711743e-01 5.616996e-03 -4.000722e-01 -4.971977e-02 -5.066952e-03
<VARIANCE> 39
 1.309698e+01 4.297966e+01 3.874661e+01 6.339466e+01 4.206648e+01 7.796745e+01 5.209930e+01 6.396684e+01 5.981684e+01 4.915947e+01 5.650329e+01 3.625243e+01 9.453449e-03 8.102214e-01 2.085629e+00 2.337480e+00 2.917551e+00 3.043057e+00 3.593457e+00 3.697038e+00 4.006014e+00 3.826404e+00 3.225048e+00 3.037689e+00 2.343424e+00 3.538514e-04 1.464140e-01 2.585505e-01 3.712471e-01 4.305437e-01 5.178873e-01 6.120794e-01 5.878782e-01 7.132313e-01 5.517076e-01 5.720835e-01 4.502528e-01 4.250695e-01 1.000000e-04
<GCONST> 9.789165e+01
<MIXTURE> 5 2.763798e-01
<MEAN> 39
 -5.539646e+00 4.303560e+00 1.103265e+01 -9.431039e+00 -1.747627e+01 -8.568086e+00 -5.274467e+00 -1.070902e+01 -6.919598e+00 2.037245e-01 -5.781344e+00 -1.999075e+00 6.858032e-01 2.552373e+00 2.591945e-01 2.209809e+00 -2.055211e+00 -3.603688e+00 -1.689157e+00 -1.721379e+00 -1.999350e+00 -1.811710e+00 4.331524e-01 -1.369130e+00 -3.290349e-01 1.080827e-01 -3.933687e-01 -3.336003e-01 -7.508168e-01 3.381634e-01 6.772167e-01 3.376133e-01 3.327310e-01 7.194394e-01 4.101124e-01 1.303511e-01 3.993047e-01 1.705354e-01 -1.773013e-02
<VARIANCE> 39
 1.489928e+01 2.305537e+01 3.406484e+01 7.188528e+01 4.641725e+01 5.192070e+01 4.342432e+01 3.885114e+01 4.280049e+01 4.608736e+01 3.817605e+01 2.992960e+01 1.830094e-02 3.595222e+00 2.906581e+00 4.043014e+00 5.496687e+00 4.903965e+00 5.546039e+00 4.312451e+00 4.862705e+00 4.558203e+00 4.371163e+00 4.693161e+00 3.260663e+00 2.964525e-03 4.890573e-01 3.801408e-01 4.738382e-01 7.367058e-01 7.377710e-01 7.171942e-01 6.306311e-01 6.109539e-01 6.161130e-01 7.123674e-01 5.872912e-01 4.965250e-01 3.424388e-04
<GCONST> 1.084976e+02
<STATE> 3
<NUMMIXES> 5
<MIXTURE> 1 1.488378e-01
<MEAN> 39
 2.928338e-01 -6.399126e+00 1.582554e+01 -4.830561e+00 -2.101857e+01 -9.616736e+00 -1.277014e+01 1.951284e+00 -9.085514e+00 -3.214710e+00 4.497430e+00 -2.873341e+00 8.304191e-01 -2.987669e-01 7.951965e-01 3.031972e-01 4.241297e-02 9.813295e-02 2.449625e-01 5.794839e-01 -3.472879e-01 -3.243677e-01 2.212764e-01 1.915486e-01 -2.195133e-01 -7.702598e-03 -5.833395e-01 9.581032e-01 -1.175054e+00 5.605335e-01 1.495521e+00 1.533452e-01 7.645058e-01 -5.519540e-01 7.354837e-01 1.894234e-01 -5.801600e-01 1.195021e-01 -2.539253e-02
<VARIANCE> 39
 9.076158e+00 3.211566e+01 4.818385e+01 3.225565e+01 5.070717e+01 4.602468e+01 5.182765e+01 4.511137e+01 5.517467e+01 3.763122e+01 3.604480e+01 2.960432e+01 8.159534e-03 1.317184e+00 2.797588e+00 2.859473e+00 2.759356e+00 3.355462e+00 3.220978e+00 3.888686e+00 3.711186e+00 4.079594e+00 2.993062e+00 2.693673e+00 2.414083e+00 9.736412e-04 5.456758e-01 3.924759e-01 5.173755e-01 4.038287e-01 7.202076e-01 6.624867e-01 8.324232e-01 7.100384e-01 7.555005e-01 6.944318e-01 5.253391e-01 4.591328e-01 2.799794e-04
<GCONST> 1.012547e+02
<MIXTURE> 2 1.850654e-01
<MEAN> 39
